{"learner":{"attributes":{},"feature_types":["float","float","float","float","float","float","float"],"gradient_booster":{"model":{"gbtree_model_param":{"num_trees":"1","size_leaf_vector":"0"},"tree_info":[0],"trees":[{"base_weights":[0.0,0.0,0.0,0.0,0.0,0.0,0.0,0.0,0.0,0.0,0.0,0.0,0.0,0.0,0.0,0.0,0.0,0.0,0.0,0.0,0.0,0.0,0.0,0.0,0.0,0.0,0.0,0.0,0.0,0.0,0.0,0.0,0.0,0.0,0.0,0.0,0.0,0.0,0.0,0.0,0.0,0.0,0.0,0.0,0.0,0.0,0.0,0.0,0.0,0.0,0.0,0.0,0.0,0.0,0.0,0.0,0.0,0.0,0.0,0.0,0.0,0.0,0.0,0.0,0.0,0.0,0.0,0.0,0.0,0.0,0.0,0.0,0.0,0.0,0.0,0.0,0.0,0.0,0.0,0.0,0.0,0.0,0.0,0.0,0.0,0.0,0.0,0.0,0.0],"categories":[],"categories_nodes":[],"categories_segments":[],"categories_sizes":[],"default_left":[false,false,false,false,false,false,false,false,false,false,false,false,false,false,false,false,false,false,false,false,false,false,false,false,false,false,false,false,false,false,false,false,false,false,false,false,false,false,false,false,false,false,false,false,false,false,false,false,false,false,false,false,false,false,false,false,false,false,false,false,false,false,false,false,false,false,false,false,false,false,false,false,false,false,false,false,false,false,false,false,false,false,false,false,false,false,false,false,false],"id":0,"left_children":[1,3,5,7,-1,9,11,13,-1,15,17,19,21,23,25,27,29,-1,31,-1,-1,33,-1,-1,35,37,39,-1,-1,41,-1,-1,-1,43,-1,45,-1,47,-1,49,-1,51,53,55,57,59,-1,61,-1,-1,63,65,67,69,-1,-1,71,73,-1,75,77,-1,-1,-1,-1,-1,79,-1,-1,81,-1,-1,-1,-1,83,-1,-1,-1,-1,-1,85,-1,87,-1,-1,-1,-1,-1,-1],"loss_changes":[0.0,0.0,0.0,0.0,0.0,0.0,0.0,0.0,0.0,0.0,0.0,0.0,0.0,0.0,0.0,0.0,0.0,0.0,0.0,0.0,0.0,0.0,0.0,0.0,0.0,0.0,0.0,0.0,0.0,0.0,0.0,0.0,0.0,0.0,0.0,0.0,0.0,0.0,0.0,0.0,0.0,0.0,0.0,0.0,0.0,0.0,0.0,0.0,0.0,0.0,0.0,0.0,0.0,0.0,0.0,0.0,0.0,0.0,0.0,0.0,0.0,0.0,0.0,0.0,0.0,0.0,0.0,0.0,0.0,0.0,0.0,0.0,0.0,0.0,0.0,0.0,0.0,0.0,0.0,0.0,0.0,0.0,0.0,0.0,0.0,0.0,0.0,0.0,0.0],"parents":[2147483647,0,0,1,1,2,2,3,3,5,5,6,6,7,7,9,9,10,10,11,11,12,12,13,13,14,14,15,15,16,16,18,18,21,21,24,24,25,25,26,26,29,29,33,33,35,35,37,37,39,39,41,41,42,42,43,43,44,44,45,45,47,47,50,50,51,51,52,52,53,53,56,56,57,57,59,59,60,60,66,66,69,69,74,74,80,80,82,82],"right_children":[2,4,6,8,-1,10,12,14,-1,16,18,20,22,24,26,28,30,-1,32,-1,-1,34,-1,-1,36,38,40,-1,-1,42,-1,-1,-1,44,-1,46,-1,48,-1,50,-1,52,54,56,58,60,-1,62,-1,-1,64,66,68,70,-1,-1,72,74,-1,76,78,-1,-1,-1,-1,-1,80,-1,-1,82,-1,-1,-1,-1,84,-1,-1,-1,-1,-1,86,-1,88,-1,-1,-1,-1,-1,-1],"split_conditions":[-6.392847670148014,-8.99722757538202,9.581587770511021,5.893492456240253,7.896996039699637,-3.5810964100923695,7.480970504338977,1.5017322391744656,-7.961822400658357,6.3203647130153975,0.7614330385344807,-9.660514646552569,6.800489150744426,-4.3686928648097485,-5.76869065818899,-4.767702219782911,-1.6827651875331178,5.035924255755342,-2.380473582210964,-2.2516779889633396,-4.119320105704709,5.632594234231661,-2.3666927252035563,-7.803252225945407,0.9477319919438756,-6.7089203537043804,-5.498400680439327,-8.408286739064003,2.4622438833127447,-4.830432651460375,-6.679539347387643,3.8943291774738302,-5.228418460934391,8.616736928485743,2.1610929762767483,-3.0652681559026727,2.492708573414852,-4.858588647077334,-0.2604938068776459,-8.552927902232781,1.9910255940358574,0.7749426202255947,2.6642879548886462,3.9811464745091882,2.3781190654352997,-6.144459063169993,8.619446996185602,8.725640099288682,-8.769189450852894,-3.1198990034040506,9.322903885570359,-0.8000674776472962,0.7701324353861612,7.770990255165042,5.21021734482356,-6.010514574156627,1.3376234447536834,-0.5181416986063407,8.382732614779293,0.5902260298186377,-8.707142050699973,2.778808421778077,-2.1614175544119663,-9.158742278534547,0.19380538086491939,2.2325908621442814,5.937458517372555,4.747524970632373,4.610440776427572,0.7553889934728897,-7.108728818708504,7.196673092201738,-2.6635981450144763,-7.99744988305604,-3.536528129704241,5.751388652230027,0.8411337259148706,-2.7562343531612443,6.573860908546102,9.362777072540158,-1.9372338799562812,0.5410329129068199,-4.452462046245942,-6.441227187490826,3.497455185544222,9.88296484855692,5.809938968220155,-2.65176097651742,5.442315407314718],"split_indices":[0,0,2,1,0,4,1,6,0,2,4,1,0,3,6,2,3,0,1,0,0,0,0,0,6,0,5,0,0,0,0,0,0,4,0,5,0,5,0,4,0,2,1,2,1,2,0,6,0,0,4,1,4,6,0,0,5,1,0,4,6,0,0,0,0,0,1,0,0,3,0,0,0,0,0,0,0,0,0,0,2,0,4,0,0,0,0,0,0],"sum_hessian":[0.0,0.0,0.0,0.0,0.0,0.0,0.0,0.0,0.0,0.0,0.0,0.0,0.0,0.0,0.0,0.0,0.0,0.0,0.0,0.0,0.0,0.0,0.0,0.0,0.0,0.0,0.0,0.0,0.0,0.0,0.0,0.0,0.0,0.0,0.0,0.0,0.0,0.0,0.0,0.0,0.0,0.0,0.0,0.0,0.0,0.0,0.0,0.0,0.0,0.0,0.0,0.0,0.0,0.0,0.0,0.0,0.0,0.0,0.0,0.0,0.0,0.0,0.0,0.0,0.0,0.0,0.0,0.0,0.0,0.0,0.0,0.0,0.0,0.0,0.0,0.0,0.0,0.0,0.0,0.0,0.0,0.0,0.0,0.0,0.0,0.0,0.0,0.0,0.0],"tree_param":{"num_deleted":"0","num_feature":"7","num_nodes":"89","size_leaf_vector":"0"}}]},"name":"gbtree"},"learner_model_param":{"base_score":"5E-1","num_class":"0","num_feature":"7"},"objective":{"name":"reg:squarederror","reg_loss_param":{"scale_pos_weight":"1"}}},"version":[1,4,0]}