{"learner":{"attributes":{},"feature_types":["float","float","float","float","float","float","float","float","float","float","float","float","float","float","float","float","float"],"gradient_booster":{"model":{"gbtree_model_param":{"num_trees":"1","size_leaf_vector":"0"},"tree_info":[0],"trees":[{"base_weights":[0.0,0.0,0.0,0.0,0.0,0.0,0.0,0.0,0.0,0.0,0.0,0.0,0.0,0.0,0.0,0.0,0.0,0.0,0.0,0.0,0.0,0.0,0.0,0.0,0.0,0.0,0.0,0.0,0.0,0.0,0.0,0.0,0.0,0.0,0.0,0.0,0.0,0.0,0.0,0.0,0.0,0.0,0.0,0.0,0.0,0.0,0.0,0.0,0.0,0.0,0.0,0.0,0.0,0.0,0.0,0.0,0.0,0.0,0.0,0.0,0.0,0.0,0.0,0.0,0.0,0.0,0.0,0.0,0.0,0.0,0.0,0.0,0.0,0.0,0.0,0.0,0.0,0.0,0.0,0.0,0.0,0.0,0.0,0.0,0.0],"categories":[],"categories_nodes":[],"categories_segments":[],"categories_sizes":[],"default_left":[false,false,false,false,false,false,false,false,false,false,false,false,false,false,false,false,false,false,false,false,false,false,false,false,false,false,false,false,false,false,false,false,false,false,false,false,false,false,false,false,false,false,false,false,false,false,false,false,false,false,false,false,false,false,false,false,false,false,false,false,false,false,false,false,false,false,false,false,false,false,false,false,false,false,false,false,false,false,false,false,false,false,false,false,false],"id":0,"left_children":[1,3,5,7,9,11,13,15,-1,17,19,21,-1,23,25,27,-1,29,-1,-1,31,33,-1,35,37,39,-1,-1,-1,41,-1,-1,43,45,47,49,-1,-1,-1,51,53,55,-1,57,-1,59,-1,-1,61,63,65,67,-1,-1,-1,-1,69,71,-1,-1,-1,-1,-1,73,-1,-1,-1,75,-1,-1,-1,77,-1,-1,79,-1,81,-1,-1,-1,83,-1,-1,-1,-1],"loss_changes":[0.0,0.0,0.0,0.0,0.0,0.0,0.0,0.0,0.0,0.0,0.0,0.0,0.0,0.0,0.0,0.0,0.0,0.0,0.0,0.0,0.0,0.0,0.0,0.0,0.0,0.0,0.0,0.0,0.0,0.0,0.0,0.0,0.0,0.0,0.0,0.0,0.0,0.0,0.0,0.0,0.0,0.0,0.0,0.0,0.0,0.0,0.0,0.0,0.0,0.0,0.0,0.0,0.0,0.0,0.0,0.0,0.0,0.0,0.0,0.0,0.0,0.0,0.0,0.0,0.0,0.0,0.0,0.0,0.0,0.0,0.0,0.0,0.0,0.0,0.0,0.0,0.0,0.0,0.0,0.0,0.0,0.0,0.0,0.0,0.0],"parents":[2147483647,0,0,1,1,2,2,3,3,4,4,5,5,6,6,7,7,9,9,10,10,11,11,13,13,14,14,15,15,17,17,20,20,21,21,23,23,24,24,25,25,29,29,32,32,33,33,34,34,35,35,39,39,40,40,41,41,43,43,45,45,48,48,49,49,50,50,51,51,56,56,57,57,63,63,67,67,71,71,74,74,76,76,80,80],"right_children":[2,4,6,8,10,12,14,16,-1,18,20,22,-1,24,26,28,-1,30,-1,-1,32,34,-1,36,38,40,-1,-1,-1,42,-1,-1,44,46,48,50,-1,-1,-1,52,54,56,-1,58,-1,60,-1,-1,62,64,66,68,-1,-1,-1,-1,70,72,-1,-1,-1,-1,-1,74,-1,-1,-1,76,-1,-1,-1,78,-1,-1,80,-1,82,-1,-1,-1,84,-1,-1,-1,-1],"split_conditions":[6.629094685033682,6.294590545162148,7.065811879581357,2.165670761073164,2.0446746490243495,5.826262031298315,7.72315806847643,4.941182776174946,-4.918494833201493,-2.5294591810738787,-8.785444979851752,-5.562296312789813,-2.096459157222082,4.125680848178355,-6.777791857075817,-2.7805934482509267,-6.841552411160324,-5.136001498418427,3.846896452680518,6.726860352514791,6.323337844332929,-7.872016816318731,9.163858184225877,3.8165753526880604,-6.346840183220764,2.931643326728457,3.1122900709386574,3.891482462986712,-3.351189761455492,-1.2280698659880542,3.578061010243978,-4.3697881438298225,1.6628777160074861,8.133164882986716,-3.633441058765909,6.533697792595735,-4.715002644058562,7.7584188102689495,9.262896012004752,4.1100648467324845,5.176679270765266,-2.6964708909492616,0.42690731230295853,6.107054025886679,-4.131900032906541,9.600546320923115,-5.890811338054752,-8.893721494202419,2.8668724279307245,-2.9489201133342497,-5.3637754508859015,5.038947621616948,-3.1063868955102256,2.6472265025548847,8.069607345823833,9.055885525884943,-2.907672559006853,9.374993823688481,-2.419869156249179,-1.5519913049234653,-3.7157406034340017,-3.281134116518018,8.622627693501311,-1.0132996713239848,-0.7449636995355267,5.465874447332892,2.2228406326466867,-4.9622769831240765,-4.318613663044256,-8.030104835846476,-3.1492158420133354,-4.123466781457554,8.024115410048395,-0.5593804274842249,-1.3026447155646341,9.137149231227294,-8.505786983049797,-5.581731989141455,-9.212649429594267,3.812168469199385,9.563017021698201,-2.1464795371592906,3.962868774061157,3.6321435588549527,-6.6589068695210365],"split_indices":[1,3,0,8,8,6,6,16,0,11,1,12,0,5,10,7,0,7,0,0,2,8,0,9,16,15,0,0,0,13,0,0,1,15,16,11,0,0,0,13,11,3,0,13,0,7,0,0,11,7,15,2,0,0,0,0,0,15,0,0,0,0,0,9,0,0,0,12,0,0,0,1,0,0,15,0,11,0,0,0,10,0,0,0,0],"sum_hessian":[0.0,0.0,0.0,0.0,0.0,0.0,0.0,0.0,0.0,0.0,0.0,0.0,0.0,0.0,0.0,0.0,0.0,0.0,0.0,0.0,0.0,0.0,0.0,0.0,0.0,0.0,0.0,0.0,0.0,0.0,0.0,0.0,0.0,0.0,0.0,0.0,0.0,0.0,0.0,0.0,0.0,0.0,0.0,0.0,0.0,0.0,0.0,0.0,0.0,0.0,0.0,0.0,0.0,0.0,0.0,0.0,0.0,0.0,0.0,0.0,0.0,0.0,0.0,0.0,0.0,0.0,0.0,0.0,0.0,0.0,0.0,0.0,0.0,0.0,0.0,0.0,0.0,0.0,0.0,0.0,0.0,0.0,0.0,0.0,0.0],"tree_param":{"num_deleted":"0","num_feature":"17","num_nodes":"85","size_leaf_vector":"0"}}]},"name":"gbtree"},"learner_model_param":{"base_score":"5E-1","num_class":"0","num_feature":"17"},"objective":{"name":"reg:squarederror","reg_loss_param":{"scale_pos_weight":"1"}}},"version":[1,4,0]}