{"learner":{"attributes":{},"feature_types":["float","float"],"gradient_booster":{"model":{"gbtree_model_param":{"num_trees":"1","size_leaf_vector":"0"},"tree_info":[0],"trees":[{"base_weights":[0.0,0.0,0.0,0.0,0.0,0.0,0.0,0.0,0.0,0.0,0.0,0.0,0.0,0.0,0.0,0.0,0.0,0.0,0.0,0.0,0.0,0.0,0.0,0.0,0.0,0.0,0.0,0.0,0.0,0.0,0.0,0.0,0.0,0.0,0.0,0.0,0.0,0.0,0.0,0.0,0.0,0.0,0.0,0.0,0.0,0.0,0.0,0.0,0.0,0.0,0.0,0.0,0.0,0.0,0.0,0.0,0.0,0.0,0.0,0.0,0.0,0.0,0.0,0.0,0.0,0.0,0.0,0.0,0.0,0.0,0.0,0.0,0.0,0.0,0.0,0.0,0.0,0.0,0.0,0.0,0.0,0.0,0.0,0.0,0.0,0.0,0.0],"categories":[],"categories_nodes":[],"categories_segments":[],"categories_sizes":[],"default_left":[false,false,false,false,false,false,false,false,false,false,false,false,false,false,false,false,false,false,false,false,false,false,false,false,false,false,false,false,false,false,false,false,false,false,false,false,false,false,false,false,false,false,false,false,false,false,false,false,false,false,false,false,false,false,false,false,false,false,false,false,false,false,false,false,false,false,false,false,false,false,false,false,false,false,false,false,false,false,false,false,false,false,false,false,false,false,false],"id":0,"left_children":[1,3,5,7,9,11,-1,13,15,17,-1,-1,-1,19,-1,-1,21,23,25,27,-1,-1,29,-1,31,33,35,37,39,41,-1,43,45,47,49,-1,51,-1,53,-1,-1,55,-1,-1,-1,57,59,61,63,-1,65,-1,67,-1,-1,-1,69,71,73,-1,-1,75,77,79,-1,-1,-1,-1,-1,-1,-1,81,-1,83,-1,-1,-1,-1,-1,-1,85,-1,-1,-1,-1,-1,-1],"loss_changes":[0.0,0.0,0.0,0.0,0.0,0.0,0.0,0.0,0.0,0.0,0.0,0.0,0.0,0.0,0.0,0.0,0.0,0.0,0.0,0.0,0.0,0.0,0.0,0.0,0.0,0.0,0.0,0.0,0.0,0.0,0.0,0.0,0.0,0.0,0.0,0.0,0.0,0.0,0.0,0.0,0.0,0.0,0.0,0.0,0.0,0.0,0.0,0.0,0.0,0.0,0.0,0.0,0.0,0.0,0.0,0.0,0.0,0.0,0.0,0.0,0.0,0.0,0.0,0.0,0.0,0.0,0.0,0.0,0.0,0.0,0.0,0.0,0.0,0.0,0.0,0.0,0.0,0.0,0.0,0.0,0.0,0.0,0.0,0.0,0.0,0.0,0.0],"parents":[2147483647,0,0,1,1,2,2,3,3,4,4,5,5,7,7,8,8,9,9,13,13,16,16,17,17,18,18,19,19,22,22,24,24,25,25,26,26,27,27,28,28,29,29,31,31,32,32,33,33,34,34,36,36,38,38,41,41,45,45,46,46,47,47,48,48,50,50,52,52,56,56,57,57,58,58,61,61,62,62,63,63,71,71,73,73,80,80],"right_children":[2,4,6,8,10,12,-1,14,16,18,-1,-1,-1,20,-1,-1,22,24,26,28,-1,-1,30,-1,32,34,36,38,40,42,-1,44,46,48,50,-1,52,-1,54,-1,-1,56,-1,-1,-1,58,60,62,64,-1,66,-1,68,-1,-1,-1,70,72,74,-1,-1,76,78,80,-1,-1,-1,-1,-1,-1,-1,82,-1,84,-1,-1,-1,-1,-1,-1,86,-1,-1,-1,-1,-1,-1],"split_conditions":[4.794620769810283,8.909168013713412,-1.1212433832489292,9.585469385838032,8.18453304359565,8.303730872096601,-4.275595044510041,9.695998965976152,3.5420426128256963,-6.0196915594701945,-1.754596658719871,-9.672791915132535,3.9509878330320873,-1.0004474497845273,-8.536113228693445,-4.932109811981732,-4.939674402467929,1.309924962443315,0.8468528237314583,-2.572378109221569,-3.9735811109932744,-6.632582552605594,-4.267532460040257,8.10853852513753,2.5452055439112975,-4.757037825818826,-1.8741760984048916,-3.671282875199987,4.4417266150614445,-8.013357067320213,7.239421795653584,-2.967325298530211,5.417343111833704,4.400992873753459,-1.0075256251373705,-1.7821505441304435,3.808705504677455,7.30959255709524,8.40796418382158,-6.242859869611192,-6.92922722099466,3.375794994282053,8.347290073256435,6.024263003917827,-0.48762925131410206,2.517039729157137,-0.9032174517278442,4.598983451217233,-3.7007602582363877,-6.693029139503122,-9.060285699359266,-9.23313719375799,1.1808026012475121,-0.6048187284415132,9.00530654113561,-4.07499199782494,7.101185459359776,3.8771458440764057,5.410008866497494,-0.7504321552178776,1.408739129563612,6.418504588620554,-5.606878002240137,1.939342683676868,8.313552187949295,7.1691441291666465,-5.376016813696175,6.931188983671017,6.8896208234886025,-6.788452276574685,1.9216977738861356,4.109239174003152,-3.1998587590656467,0.6449436432794187,9.276867698699128,-4.387900283940662,-0.4297741549981833,-6.003039905244224,9.975043479534808,-1.9758501794837198,6.038495882066755,-9.908082986410347,-1.0301225337353905,-2.01636438925798,8.323505886353107,-5.351661766678487,0.3778940374425801],"split_indices":[1,0,0,1,0,1,0,1,0,0,0,0,0,1,0,0,1,0,0,1,0,0,1,0,1,1,0,0,0,0,0,1,0,1,0,0,1,0,1,0,0,0,0,0,0,0,1,0,0,0,0,0,1,0,0,0,0,0,0,0,0,1,0,1,0,0,0,0,0,0,0,1,0,0,0,0,0,0,0,0,1,0,0,0,0,0,0],"sum_hessian":[0.0,0.0,0.0,0.0,0.0,0.0,0.0,0.0,0.0,0.0,0.0,0.0,0.0,0.0,0.0,0.0,0.0,0.0,0.0,0.0,0.0,0.0,0.0,0.0,0.0,0.0,0.0,0.0,0.0,0.0,0.0,0.0,0.0,0.0,0.0,0.0,0.0,0.0,0.0,0.0,0.0,0.0,0.0,0.0,0.0,0.0,0.0,0.0,0.0,0.0,0.0,0.0,0.0,0.0,0.0,0.0,0.0,0.0,0.0,0.0,0.0,0.0,0.0,0.0,0.0,0.0,0.0,0.0,0.0,0.0,0.0,0.0,0.0,0.0,0.0,0.0,0.0,0.0,0.0,0.0,0.0,0.0,0.0,0.0,0.0,0.0,0.0],"tree_param":{"num_deleted":"0","num_feature":"2","num_nodes":"87","size_leaf_vector":"0"}}]},"name":"gbtree"},"learner_model_param":{"base_score":"5E-1","num_class":"0","num_feature":"2"},"objective":{"name":"reg:squarederror","reg_loss_param":{"scale_pos_weight":"1"}}},"version":[1,4,0]}