{"learner":{"attributes":{},"feature_types":["float","float","float","float","float"],"gradient_booster":{"model":{"gbtree_model_param":{"num_trees":"1","size_leaf_vector":"0"},"tree_info":[0],"trees":[{"base_weights":[0.0,0.0,0.0,0.0,0.0,0.0,0.0,0.0,0.0,0.0,0.0,0.0,0.0,0.0,0.0,0.0,0.0,0.0,0.0,0.0,0.0,0.0,0.0,0.0,0.0,0.0,0.0,0.0,0.0,0.0,0.0,0.0,0.0,0.0,0.0,0.0,0.0,0.0,0.0,0.0,0.0,0.0,0.0,0.0,0.0,0.0,0.0,0.0,0.0,0.0,0.0,0.0,0.0,0.0,0.0,0.0,0.0,0.0,0.0,0.0,0.0,0.0,0.0,0.0,0.0,0.0,0.0,0.0,0.0,0.0,0.0,0.0,0.0,0.0,0.0,0.0,0.0,0.0,0.0,0.0,0.0,0.0,0.0,0.0,0.0,0.0,0.0,0.0,0.0,0.0,0.0,0.0,0.0,0.0,0.0,0.0,0.0,0.0,0.0,0.0,0.0,0.0,0.0,0.0,0.0,0.0,0.0,0.0,0.0,0.0,0.0,0.0,0.0,0.0,0.0,0.0,0.0,0.0,0.0,0.0,0.0,0.0,0.0,0.0,0.0,0.0,0.0,0.0,0.0,0.0,0.0,0.0,0.0],"categories":[],"categories_nodes":[],"categories_segments":[],"categories_sizes":[],"default_left":[false,false,false,false,false,false,false,false,false,false,false,false,false,false,false,false,false,false,false,false,false,false,false,false,false,false,false,false,false,false,false,false,false,false,false,false,false,false,false,false,false,false,false,false,false,false,false,false,false,false,false,false,false,false,false,false,false,false,false,false,false,false,false,false,false,false,false,false,false,false,false,false,false,false,false,false,false,false,false,false,false,false,false,false,false,false,false,false,false,false,false,false,false,false,false,false,false,false,false,false,false,false,false,false,false,false,false,false,false,false,false,false,false,false,false,false,false,false,false,false,false,false,false,false,false,false,false,false,false,false,false,false,false],"id":0,"left_children":[1,3,5,7,9,11,13,15,17,19,21,23,25,27,29,31,33,35,37,-1,39,-1,-1,41,43,-1,45,47,49,51,-1,-1,-1,53,-1,55,57,59,-1,61,63,65,67,69,71,-1,-1,-1,-1,73,75,-1,77,79,81,-1,-1,-1,-1,83,85,87,-1,-1,89,91,93,-1,-1,-1,-1,95,97,99,-1,101,103,-1,-1,-1,105,-1,-1,-1,-1,107,-1,-1,109,-1,-1,111,-1,113,-1,-1,-1,115,-1,-1,-1,-1,-1,-1,-1,117,-1,-1,-1,-1,-1,119,121,-1,123,-1,125,-1,-1,127,-1,-1,129,-1,131,-1,-1,-1,-1,-1,-1,-1,-1],"loss_changes":[0.0,0.0,0.0,0.0,0.0,0.0,0.0,0.0,0.0,0.0,0.0,0.0,0.0,0.0,0.0,0.0,0.0,0.0,0.0,0.0,0.0,0.0,0.0,0.0,0.0,0.0,0.0,0.0,0.0,0.0,0.0,0.0,0.0,0.0,0.0,0.0,0.0,0.0,0.0,0.0,0.0,0.0,0.0,0.0,0.0,0.0,0.0,0.0,0.0,0.0,0.0,0.0,0.0,0.0,0.0,0.0,0.0,0.0,0.0,0.0,0.0,0.0,0.0,0.0,0.0,0.0,0.0,0.0,0.0,0.0,0.0,0.0,0.0,0.0,0.0,0.0,0.0,0.0,0.0,0.0,0.0,0.0,0.0,0.0,0.0,0.0,0.0,0.0,0.0,0.0,0.0,0.0,0.0,0.0,0.0,0.0,0.0,0.0,0.0,0.0,0.0,0.0,0.0,0.0,0.0,0.0,0.0,0.0,0.0,0.0,0.0,0.0,0.0,0.0,0.0,0.0,0.0,0.0,0.0,0.0,0.0,0.0,0.0,0.0,0.0,0.0,0.0,0.0,0.0,0.0,0.0,0.0,0.0],"parents":[2147483647,0,0,1,1,2,2,3,3,4,4,5,5,6,6,7,7,8,8,9,9,10,10,11,11,12,12,13,13,14,14,15,15,16,16,17,17,18,18,20,20,23,23,24,24,26,26,27,27,28,28,29,29,33,33,35,35,36,36,37,37,39,39,40,40,41,41,42,42,43,43,44,44,49,49,50,50,52,52,53,53,54,54,59,59,60,60,61,61,64,64,65,65,66,66,71,71,72,72,73,73,75,75,76,76,80,80,85,85,88,88,91,91,93,93,97,97,105,105,111,111,112,112,114,114,116,116,119,119,122,122,124,124],"right_children":[2,4,6,8,10,12,14,16,18,20,22,24,26,28,30,32,34,36,38,-1,40,-1,-1,42,44,-1,46,48,50,52,-1,-1,-1,54,-1,56,58,60,-1,62,64,66,68,70,72,-1,-1,-1,-1,74,76,-1,78,80,82,-1,-1,-1,-1,84,86,88,-1,-1,90,92,94,-1,-1,-1,-1,96,98,100,-1,102,104,-1,-1,-1,106,-1,-1,-1,-1,108,-1,-1,110,-1,-1,112,-1,114,-1,-1,-1,116,-1,-1,-1,-1,-1,-1,-1,118,-1,-1,-1,-1,-1,120,122,-1,124,-1,126,-1,-1,128,-1,-1,130,-1,132,-1,-1,-1,-1,-1,-1,-1,-1],"split_conditions":[9.401672679102639,-2.832020223842533,-5.316029029239387,0.23560779374550123,2.213982572798521,-9.87155735567581,-5.457492690034323,-4.73190892501291,-5.219445660240601,6.848882081038688,5.133062264326849,4.4729059253117605,3.0889383513326436,-3.37982584615924,9.228182002213071,0.8253533533602493,6.1209820426355925,1.078060550252884,-6.114142751424948,6.414967294267118,-6.867003042141711,-9.90429214279717,3.709797552708473,-0.017408292423507277,2.5311446172364036,3.537643848922123,-0.7501184576512561,4.218613024726736,1.677114287518675,7.904997369129948,4.772428230940886,2.200387740506624,-8.419371246621168,7.587878480143335,8.225898031452587,-5.000032642396116,1.312031672885741,8.74569812924966,-7.869681778537084,-9.403463414687923,2.059153418433917,-0.33881741472377236,-9.831299502648896,-2.911611235507305,3.0987222607381106,-6.1274184164577195,7.490237653355813,-1.5867856755074001,-7.796369025241495,-6.152880077509087,4.735821796904741,6.253201696522694,-1.4090062547108335,6.344715958727882,3.8440198096689038,9.414154764321474,3.8229229682364103,-8.520002141607161,8.80356949369271,8.809741944609513,0.10881523888080125,9.116483130727403,2.238218684170146,-1.4801153952387303,-9.15300336560014,-0.4072770864245516,-8.149276844716837,6.980918656102148,-1.9058397095932023,-7.33369879528531,2.172959596911392,-5.501100647707917,6.183667299851791,5.635826922441831,0.9792640546075333,-9.512801737011733,6.518886792591484,-8.029267050375356,1.5748576186749812,1.2638117809758782,9.847768064293565,-8.834195510520292,7.493380435998169,-9.041500382858997,-7.5949191541690695,-4.734628431325021,-8.753492300904949,0.6677071609977503,-6.538469460860985,-7.328166788613186,4.4506484825644055,9.147564362883,6.023521726162336,-7.936456124092721,-1.3435618113171905,4.419465233851838,-1.7300513461102653,-1.5613937558461881,8.075539384199303,0.23349771364917515,2.6825399980456677,4.7660622965568535,-0.8767202298796288,5.395445741258101,-8.826070538695728,9.421429312869254,-0.7233214006447071,8.906321338845697,4.976569905408869,3.0608341439914675,2.533145040676544,8.27150350145115,2.722362098390052,-5.514664816122669,7.962014834202183,-9.78371478491022,1.669532627172881,-3.5512703327209296,-7.347170942947301,5.311795215820897,-6.3967422590983425,2.428726024096461,-1.252758262413245,-4.421403738479627,5.5038498244203,-2.9672028242317685,4.123194945904258,8.000065608769638,7.5692588454866225,4.196097737845555,1.5128807331649874,8.460603521311217,-3.4407586875988008],"split_indices":[4,2,0,0,3,0,0,0,1,4,2,2,0,1,3,0,1,4,0,0,2,0,0,4,2,0,2,3,2,3,0,0,0,2,0,4,4,4,0,2,4,0,1,4,2,0,0,0,0,2,2,0,1,2,0,0,0,0,0,3,4,1,0,0,1,1,3,0,0,0,0,1,0,3,0,2,4,0,0,0,2,0,0,0,0,3,0,0,4,0,0,0,0,3,0,0,0,4,0,0,0,0,0,0,0,1,0,0,0,0,0,0,3,0,4,0,4,0,0,3,0,0,4,0,0,0,0,0,0,0,0,0,0],"sum_hessian":[0.0,0.0,0.0,0.0,0.0,0.0,0.0,0.0,0.0,0.0,0.0,0.0,0.0,0.0,0.0,0.0,0.0,0.0,0.0,0.0,0.0,0.0,0.0,0.0,0.0,0.0,0.0,0.0,0.0,0.0,0.0,0.0,0.0,0.0,0.0,0.0,0.0,0.0,0.0,0.0,0.0,0.0,0.0,0.0,0.0,0.0,0.0,0.0,0.0,0.0,0.0,0.0,0.0,0.0,0.0,0.0,0.0,0.0,0.0,0.0,0.0,0.0,0.0,0.0,0.0,0.0,0.0,0.0,0.0,0.0,0.0,0.0,0.0,0.0,0.0,0.0,0.0,0.0,0.0,0.0,0.0,0.0,0.0,0.0,0.0,0.0,0.0,0.0,0.0,0.0,0.0,0.0,0.0,0.0,0.0,0.0,0.0,0.0,0.0,0.0,0.0,0.0,0.0,0.0,0.0,0.0,0.0,0.0,0.0,0.0,0.0,0.0,0.0,0.0,0.0,0.0,0.0,0.0,0.0,0.0,0.0,0.0,0.0,0.0,0.0,0.0,0.0,0.0,0.0,0.0,0.0,0.0,0.0],"tree_param":{"num_deleted":"0","num_feature":"5","num_nodes":"133","size_leaf_vector":"0"}}]},"name":"gbtree"},"learner_model_param":{"base_score":"5E-1","num_class":"0","num_feature":"5"},"objective":{"name":"reg:squarederror","reg_loss_param":{"scale_pos_weight":"1"}}},"version":[1,4,0]}