{"learner":{"attributes":{},"feature_types":["float","float","float","float","float","float","float","float","float","float","float","float","float","float","float","float","float","float","float","float"],"gradient_booster":{"model":{"gbtree_model_param":{"num_trees":"1","size_leaf_vector":"0"},"tree_info":[0],"trees":[{"base_weights":[0.0,0.0,0.0,0.0,0.0,0.0,0.0,0.0,0.0,0.0,0.0,0.0,0.0,0.0,0.0,0.0,0.0,0.0,0.0,0.0,0.0,0.0,0.0,0.0,0.0,0.0,0.0,0.0,0.0,0.0,0.0,0.0,0.0,0.0,0.0,0.0,0.0,0.0,0.0,0.0,0.0,0.0,0.0,0.0,0.0,0.0,0.0,0.0,0.0,0.0,0.0,0.0,0.0,0.0,0.0,0.0,0.0,0.0,0.0,0.0,0.0,0.0,0.0,0.0,0.0,0.0,0.0,0.0,0.0],"categories":[],"categories_nodes":[],"categories_segments":[],"categories_sizes":[],"default_left":[false,false,false,false,false,false,false,false,false,false,false,false,false,false,false,false,false,false,false,false,false,false,false,false,false,false,false,false,false,false,false,false,false,false,false,false,false,false,false,false,false,false,false,false,false,false,false,false,false,false,false,false,false,false,false,false,false,false,false,false,false,false,false,false,false,false,false,false,false],"id":0,"left_children":[1,3,5,7,9,11,13,-1,15,17,19,21,-1,23,25,-1,27,29,-1,31,-1,33,-1,35,37,39,-1,-1,41,43,-1,-1,45,47,-1,49,51,53,55,-1,-1,57,-1,-1,-1,-1,-1,59,-1,-1,-1,61,-1,63,-1,-1,-1,-1,65,-1,-1,-1,-1,-1,-1,-1,67,-1,-1],"loss_changes":[0.0,0.0,0.0,0.0,0.0,0.0,0.0,0.0,0.0,0.0,0.0,0.0,0.0,0.0,0.0,0.0,0.0,0.0,0.0,0.0,0.0,0.0,0.0,0.0,0.0,0.0,0.0,0.0,0.0,0.0,0.0,0.0,0.0,0.0,0.0,0.0,0.0,0.0,0.0,0.0,0.0,0.0,0.0,0.0,0.0,0.0,0.0,0.0,0.0,0.0,0.0,0.0,0.0,0.0,0.0,0.0,0.0,0.0,0.0,0.0,0.0,0.0,0.0,0.0,0.0,0.0,0.0,0.0,0.0],"parents":[2147483647,0,0,1,1,2,2,3,3,4,4,5,5,6,6,8,8,9,9,10,10,11,11,13,13,14,14,16,16,17,17,19,19,21,21,23,23,24,24,25,25,28,28,29,29,32,32,33,33,35,35,36,36,37,37,38,38,41,41,47,47,51,51,53,53,58,58,66,66],"right_children":[2,4,6,8,10,12,14,-1,16,18,20,22,-1,24,26,-1,28,30,-1,32,-1,34,-1,36,38,40,-1,-1,42,44,-1,-1,46,48,-1,50,52,54,56,-1,-1,58,-1,-1,-1,-1,-1,60,-1,-1,-1,62,-1,64,-1,-1,-1,-1,66,-1,-1,-1,-1,-1,-1,-1,68,-1,-1],"split_conditions":[-7.289219929631374,0.7186686743948307,-2.960496908717971,1.7613854289418267,-3.714282705285722,-8.428146866583482,-1.0892705120888273,-2.0761405261626633,-6.7373389642584725,3.078281803123419,0.8612307786673732,2.1893658876378925,5.955705946149941,3.6311691350632085,8.144813182158256,8.12446070412243,4.755719888646466,1.4515837695434683,1.9808875567913944,4.445410845732493,2.9628387493525317,-1.480437632929391,-4.811499088641575,-0.5709422827159987,-5.390933487877132,6.676800830352882,1.9812120861702596,-7.7308333278670585,1.5279931650905851,-3.0034177272902536,5.910761035555183,4.1478319775446515,-0.672527012175161,4.35615262246686,3.6387381444662843,-9.291439709763328,3.4850044890411542,9.803045886004313,6.43303227358405,-4.099275945300789,5.246692197700488,0.7886378039924065,9.579981360844318,-2.804945546322463,8.14119905176543,6.433470660130556,7.307025233648513,3.4301538162696446,3.2755795350471946,9.076031872518783,-4.980685129169698,-0.8923527448428832,-0.644965741190461,6.3449157115403665,7.047079849460243,-7.333153231684847,4.655246076303275,-3.23565300663578,2.5524937779981265,-6.959485964361896,8.511586256390892,-6.149446870891717,8.273979908660344,-0.1607831846390635,-1.0294964705830054,-6.762589090992212,9.724408477520711,-4.333004209299211,-8.736957436354725],"split_indices":[5,14,10,1,7,16,12,0,3,9,15,17,0,7,4,0,12,18,0,10,0,5,0,9,13,18,0,0,13,9,0,0,14,10,0,8,9,12,9,0,0,6,0,0,0,0,0,13,0,0,0,4,0,13,0,0,0,0,18,0,0,0,0,0,0,0,1,0,0],"sum_hessian":[0.0,0.0,0.0,0.0,0.0,0.0,0.0,0.0,0.0,0.0,0.0,0.0,0.0,0.0,0.0,0.0,0.0,0.0,0.0,0.0,0.0,0.0,0.0,0.0,0.0,0.0,0.0,0.0,0.0,0.0,0.0,0.0,0.0,0.0,0.0,0.0,0.0,0.0,0.0,0.0,0.0,0.0,0.0,0.0,0.0,0.0,0.0,0.0,0.0,0.0,0.0,0.0,0.0,0.0,0.0,0.0,0.0,0.0,0.0,0.0,0.0,0.0,0.0,0.0,0.0,0.0,0.0,0.0,0.0],"tree_param":{"num_deleted":"0","num_feature":"20","num_nodes":"69","size_leaf_vector":"0"}}]},"name":"gbtree"},"learner_model_param":{"base_score":"5E-1","num_class":"0","num_feature":"20"},"objective":{"name":"reg:squarederror","reg_loss_param":{"scale_pos_weight":"1"}}},"version":[1,4,0]}