{"learner":{"attributes":{},"feature_types":["float","float","float","float","float","float","float","float","float","float","float","float","float","float","float","float","float","float","float"],"gradient_booster":{"model":{"gbtree_model_param":{"num_trees":"1","size_leaf_vector":"0"},"tree_info":[0],"trees":[{"base_weights":[0.0,0.0,0.0,0.0,0.0,0.0,0.0,0.0,0.0,0.0,0.0,0.0,0.0,0.0,0.0,0.0,0.0,0.0,0.0,0.0,0.0,0.0,0.0,0.0,0.0,0.0,0.0,0.0,0.0,0.0,0.0,0.0,0.0,0.0,0.0,0.0,0.0,0.0,0.0,0.0,0.0,0.0,0.0,0.0,0.0,0.0,0.0,0.0,0.0,0.0,0.0,0.0,0.0,0.0,0.0,0.0,0.0,0.0,0.0,0.0,0.0,0.0,0.0,0.0,0.0,0.0,0.0,0.0,0.0,0.0,0.0,0.0,0.0,0.0,0.0,0.0,0.0,0.0,0.0,0.0,0.0,0.0,0.0,0.0,0.0,0.0,0.0,0.0,0.0,0.0,0.0,0.0,0.0,0.0,0.0,0.0,0.0,0.0,0.0,0.0,0.0,0.0,0.0,0.0,0.0,0.0,0.0,0.0,0.0,0.0,0.0,0.0,0.0,0.0,0.0,0.0,0.0,0.0,0.0,0.0,0.0,0.0,0.0,0.0,0.0],"categories":[],"categories_nodes":[],"categories_segments":[],"categories_sizes":[],"default_left":[false,false,false,false,false,false,false,false,false,false,false,false,false,false,false,false,false,false,false,false,false,false,false,false,false,false,false,false,false,false,false,false,false,false,false,false,false,false,false,false,false,false,false,false,false,false,false,false,false,false,false,false,false,false,false,false,false,false,false,false,false,false,false,false,false,false,false,false,false,false,false,false,false,false,false,false,false,false,false,false,false,false,false,false,false,false,false,false,false,false,false,false,false,false,false,false,false,false,false,false,false,false,false,false,false,false,false,false,false,false,false,false,false,false,false,false,false,false,false,false,false,false,false,false,false],"id":0,"left_children":[1,3,5,7,9,11,13,15,17,19,21,23,25,27,29,31,-1,-1,-1,33,35,37,39,41,43,-1,45,47,49,-1,51,-1,53,55,57,-1,-1,59,-1,61,63,-1,-1,-1,-1,65,-1,-1,67,-1,69,71,-1,73,-1,-1,75,-1,-1,77,79,81,83,-1,-1,85,87,-1,-1,89,-1,91,-1,-1,93,-1,95,-1,-1,-1,97,-1,-1,99,-1,-1,-1,101,-1,103,-1,-1,105,-1,107,109,111,-1,-1,113,-1,-1,115,117,-1,119,-1,121,-1,-1,-1,-1,-1,-1,-1,-1,-1,-1,123,-1,-1,-1,-1,-1,-1],"loss_changes":[0.0,0.0,0.0,0.0,0.0,0.0,0.0,0.0,0.0,0.0,0.0,0.0,0.0,0.0,0.0,0.0,0.0,0.0,0.0,0.0,0.0,0.0,0.0,0.0,0.0,0.0,0.0,0.0,0.0,0.0,0.0,0.0,0.0,0.0,0.0,0.0,0.0,0.0,0.0,0.0,0.0,0.0,0.0,0.0,0.0,0.0,0.0,0.0,0.0,0.0,0.0,0.0,0.0,0.0,0.0,0.0,0.0,0.0,0.0,0.0,0.0,0.0,0.0,0.0,0.0,0.0,0.0,0.0,0.0,0.0,0.0,0.0,0.0,0.0,0.0,0.0,0.0,0.0,0.0,0.0,0.0,0.0,0.0,0.0,0.0,0.0,0.0,0.0,0.0,0.0,0.0,0.0,0.0,0.0,0.0,0.0,0.0,0.0,0.0,0.0,0.0,0.0,0.0,0.0,0.0,0.0,0.0,0.0,0.0,0.0,0.0,0.0,0.0,0.0,0.0,0.0,0.0,0.0,0.0,0.0,0.0,0.0,0.0,0.0,0.0],"parents":[2147483647,0,0,1,1,2,2,3,3,4,4,5,5,6,6,7,7,8,8,9,9,10,10,11,11,12,12,13,13,14,14,15,15,19,19,20,20,21,21,22,22,23,23,24,24,26,26,27,27,28,28,30,30,32,32,33,33,34,34,37,37,39,39,40,40,45,45,48,48,50,50,51,51,53,53,56,56,59,59,60,60,61,61,62,62,65,65,66,66,69,69,71,71,74,74,76,76,80,80,83,83,87,87,89,89,92,92,94,94,95,95,96,96,99,99,102,102,103,103,105,105,107,107,118,118],"right_children":[2,4,6,8,10,12,14,16,18,20,22,24,26,28,30,32,-1,-1,-1,34,36,38,40,42,44,-1,46,48,50,-1,52,-1,54,56,58,-1,-1,60,-1,62,64,-1,-1,-1,-1,66,-1,-1,68,-1,70,72,-1,74,-1,-1,76,-1,-1,78,80,82,84,-1,-1,86,88,-1,-1,90,-1,92,-1,-1,94,-1,96,-1,-1,-1,98,-1,-1,100,-1,-1,-1,102,-1,104,-1,-1,106,-1,108,110,112,-1,-1,114,-1,-1,116,118,-1,120,-1,122,-1,-1,-1,-1,-1,-1,-1,-1,-1,-1,124,-1,-1,-1,-1,-1,-1],"split_conditions":[-9.259575724454328,4.2086716656435215,-6.571223903714771,-9.581693217261218,4.058909055962312,-1.9312391942418845,5.382169534637599,0.8694050429755666,9.091451792319369,4.397067147540017,-2.3163866203058934,9.16491553959721,-6.2150129578928945,-0.1504572562774129,1.4795384380736003,-6.823074884051271,-1.1865915079906628,-0.37460589802657296,4.231956187127404,-7.85655997511119,5.591759462343742,-3.297440772639341,-3.3358890050985863,-4.935947914260769,1.4073135875569793,-8.538176732657314,5.94939516747953,-2.872723128787454,-5.727631946673829,-6.2208949319367814,-5.315285985294419,6.5808693694689495,5.029601945090576,5.104991073313981,-4.522342746375571,8.410077458281538,2.6702273364444107,7.970057708685278,-8.761963806870593,-0.8652404819139434,3.511325283749123,-3.275471790733154,-5.860758459645242,-1.4111986871584694,-6.426247657050535,-1.6412372187280297,-4.851138909391073,2.4209700071217277,2.3778261844406305,-0.7113398619269429,-8.368072979734787,-1.7388953651695704,-0.33098386170196825,2.855469845997643,0.16626629906417634,-7.880037226112104,-4.2475771183100575,-3.110612896284511,1.8930700176998343,-7.249411629365482,8.970926935779652,-9.805400446396197,4.029596612638311,-0.5743612799670963,3.223818627918007,-8.770124958961519,-4.596081101738857,-1.6295925665562265,-5.711945369078971,6.2909784875144865,-9.704749142568959,6.778053737385765,-3.901584221364934,0.022208173167754808,3.4386450029009463,7.520685453795938,3.814130034879838,3.7814344696077917,4.225794424651097,-9.032718783080238,9.12845197983144,9.053104687454997,-3.7107285026307064,4.9392547000579,-6.369542542894835,-5.6203323838208945,0.5087632990180104,-3.1830826152316147,-8.733792402942,9.596153971591999,5.61592704432578,-5.80180788138027,-9.181528768737294,0.01815610744438878,1.6751353360114525,-7.730772454328008,9.466892924720522,-2.846720188152771,-8.070351767392655,-3.382647771414052,-5.050183275913096,3.6991767058651366,9.785250369179654,-9.375321769826607,3.2625857280187525,-8.039992936017208,3.01640290484578,6.036653526948193,4.186072350949473,2.1006753243503358,-8.978579061773,-1.6909915611785458,3.5853499673544604,-9.185750838625573,6.693348493112545,-4.701430819417337,6.822761383670624,1.5026184067401527,-3.3423559262351183,-1.7251614010558,-3.1013049147045493,9.07457976160968,4.593302243977252,-7.217652013779574,1.3702372432508731],"split_indices":[7,8,11,2,9,8,17,10,3,4,17,2,15,0,18,8,0,0,0,17,5,1,17,8,11,0,1,18,12,0,14,0,18,11,6,0,0,16,0,5,5,0,0,0,0,18,0,0,17,0,3,16,0,3,0,0,6,0,0,13,4,5,4,0,0,2,3,0,0,1,0,0,0,0,0,0,13,0,0,0,11,0,0,11,0,0,0,8,0,7,0,0,10,0,6,10,5,0,0,6,0,0,12,8,0,5,0,14,0,0,0,0,0,0,0,0,0,0,6,0,0,0,0,0,0],"sum_hessian":[0.0,0.0,0.0,0.0,0.0,0.0,0.0,0.0,0.0,0.0,0.0,0.0,0.0,0.0,0.0,0.0,0.0,0.0,0.0,0.0,0.0,0.0,0.0,0.0,0.0,0.0,0.0,0.0,0.0,0.0,0.0,0.0,0.0,0.0,0.0,0.0,0.0,0.0,0.0,0.0,0.0,0.0,0.0,0.0,0.0,0.0,0.0,0.0,0.0,0.0,0.0,0.0,0.0,0.0,0.0,0.0,0.0,0.0,0.0,0.0,0.0,0.0,0.0,0.0,0.0,0.0,0.0,0.0,0.0,0.0,0.0,0.0,0.0,0.0,0.0,0.0,0.0,0.0,0.0,0.0,0.0,0.0,0.0,0.0,0.0,0.0,0.0,0.0,0.0,0.0,0.0,0.0,0.0,0.0,0.0,0.0,0.0,0.0,0.0,0.0,0.0,0.0,0.0,0.0,0.0,0.0,0.0,0.0,0.0,0.0,0.0,0.0,0.0,0.0,0.0,0.0,0.0,0.0,0.0,0.0,0.0,0.0,0.0,0.0,0.0],"tree_param":{"num_deleted":"0","num_feature":"19","num_nodes":"125","size_leaf_vector":"0"}}]},"name":"gbtree"},"learner_model_param":{"base_score":"5E-1","num_class":"0","num_feature":"19"},"objective":{"name":"reg:squarederror","reg_loss_param":{"scale_pos_weight":"1"}}},"version":[1,4,0]}