{"learner":{"attributes":{},"feature_types":["float","float","float","float","float","float","float"],"gradient_booster":{"model":{"gbtree_model_param":{"num_trees":"1","size_leaf_vector":"0"},"tree_info":[0],"trees":[{"base_weights":[0.0,0.0,0.0,0.0,0.0,0.0,0.0,0.0,0.0,0.0,0.0,0.0,0.0,0.0,0.0,0.0,0.0,0.0,0.0,0.0,0.0,0.0,0.0,0.0,0.0,0.0,0.0,0.0,0.0,0.0,0.0,0.0,0.0,0.0,0.0,0.0,0.0,0.0,0.0,0.0,0.0,0.0,0.0,0.0,0.0,0.0,0.0,0.0,0.0,0.0,0.0,0.0,0.0,0.0,0.0,0.0,0.0,0.0,0.0,0.0,0.0,0.0,0.0,0.0,0.0,0.0,0.0,0.0,0.0,0.0,0.0,0.0,0.0,0.0,0.0,0.0,0.0,0.0,0.0,0.0,0.0,0.0,0.0,0.0,0.0,0.0,0.0,0.0,0.0,0.0,0.0,0.0,0.0,0.0,0.0,0.0,0.0,0.0,0.0,0.0,0.0,0.0,0.0,0.0,0.0,0.0,0.0,0.0,0.0,0.0,0.0],"categories":[],"categories_nodes":[],"categories_segments":[],"categories_sizes":[],"default_left":[false,false,false,false,false,false,false,false,false,false,false,false,false,false,false,false,false,false,false,false,false,false,false,false,false,false,false,false,false,false,false,false,false,false,false,false,false,false,false,false,false,false,false,false,false,false,false,false,false,false,false,false,false,false,false,false,false,false,false,false,false,false,false,false,false,false,false,false,false,false,false,false,false,false,false,false,false,false,false,false,false,false,false,false,false,false,false,false,false,false,false,false,false,false,false,false,false,false,false,false,false,false,false,false,false,false,false,false,false,false,false],"id":0,"left_children":[1,3,5,7,9,11,13,15,17,19,21,23,25,-1,27,-1,-1,29,31,33,-1,35,37,-1,-1,39,41,43,45,-1,47,49,51,-1,-1,53,-1,-1,-1,55,57,59,61,63,-1,-1,65,-1,-1,-1,-1,67,69,-1,71,73,75,-1,-1,77,-1,79,81,-1,83,85,87,-1,89,-1,-1,-1,91,-1,-1,-1,-1,-1,93,-1,-1,-1,-1,-1,-1,95,97,-1,99,101,103,-1,-1,105,107,-1,-1,-1,-1,-1,-1,-1,-1,-1,-1,-1,-1,109,-1,-1,-1],"loss_changes":[0.0,0.0,0.0,0.0,0.0,0.0,0.0,0.0,0.0,0.0,0.0,0.0,0.0,0.0,0.0,0.0,0.0,0.0,0.0,0.0,0.0,0.0,0.0,0.0,0.0,0.0,0.0,0.0,0.0,0.0,0.0,0.0,0.0,0.0,0.0,0.0,0.0,0.0,0.0,0.0,0.0,0.0,0.0,0.0,0.0,0.0,0.0,0.0,0.0,0.0,0.0,0.0,0.0,0.0,0.0,0.0,0.0,0.0,0.0,0.0,0.0,0.0,0.0,0.0,0.0,0.0,0.0,0.0,0.0,0.0,0.0,0.0,0.0,0.0,0.0,0.0,0.0,0.0,0.0,0.0,0.0,0.0,0.0,0.0,0.0,0.0,0.0,0.0,0.0,0.0,0.0,0.0,0.0,0.0,0.0,0.0,0.0,0.0,0.0,0.0,0.0,0.0,0.0,0.0,0.0,0.0,0.0,0.0,0.0,0.0,0.0],"parents":[2147483647,0,0,1,1,2,2,3,3,4,4,5,5,6,6,7,7,8,8,9,9,10,10,11,11,12,12,14,14,17,17,18,18,19,19,21,21,22,22,25,25,26,26,27,27,28,28,30,30,31,31,32,32,35,35,39,39,40,40,41,41,42,42,43,43,46,46,51,51,52,52,54,54,55,55,56,56,59,59,61,61,62,62,64,64,65,65,66,66,68,68,72,72,78,78,85,85,86,86,88,88,89,89,90,90,93,93,94,94,107,107],"right_children":[2,4,6,8,10,12,14,16,18,20,22,24,26,-1,28,-1,-1,30,32,34,-1,36,38,-1,-1,40,42,44,46,-1,48,50,52,-1,-1,54,-1,-1,-1,56,58,60,62,64,-1,-1,66,-1,-1,-1,-1,68,70,-1,72,74,76,-1,-1,78,-1,80,82,-1,84,86,88,-1,90,-1,-1,-1,92,-1,-1,-1,-1,-1,94,-1,-1,-1,-1,-1,-1,96,98,-1,100,102,104,-1,-1,106,108,-1,-1,-1,-1,-1,-1,-1,-1,-1,-1,-1,-1,110,-1,-1,-1],"split_conditions":[0.8319207356945757,8.080171073177922,6.508964122342498,-9.896964753103722,-3.880384321908795,9.367969081139144,-5.29091364139708,-5.461065050129986,-7.42814581546434,4.646300320923052,-4.000463537780171,5.68088308536101,-2.220791904378973,-4.833823487502392,-1.872282162551036,-4.81832498135403,-4.881378123920715,-8.548784343465542,-9.118984428431759,2.3589993323435987,-7.140817205132281,5.627127064173873,-3.956409905123925,1.8515814982833785,-3.9140347453380464,5.978230241779645,7.755393228628115,7.226083056890257,6.504363052469927,-6.239935148219145,7.060343671449864,5.562583639543785,9.571547498987382,9.732227919304972,3.2594663066528806,-6.799963039609715,6.597896057326377,-2.5468557715845117,2.2590375201328037,5.076095315698003,0.19024358379923711,4.282846372122783,8.256389097990965,4.158472034024101,-4.213113730326628,7.215804701839772,4.123300156122941,-1.8986278779274741,3.988965104763416,1.5754828081386556,-5.5611859760317355,1.5040822044351554,1.752614821849889,0.6224701999201763,-4.337831095290845,-1.399549454947147,-0.7093249513672006,1.2501928315049398,-4.410079003081531,-0.14296081124056492,-7.537121726279135,3.6294444646907174,-7.408123297323984,-3.419625109821226,-0.6583857616604867,0.10099071263447179,-7.706287751857847,8.975356326210907,-0.028613350867921383,1.8465185786221063,3.0079244112005483,-3.638361575854824,4.832472484461945,-6.864313613583543,-3.4589036094410517,3.0291464464037983,5.071436074129609,2.7368688269393964,-5.035451387124532,-5.77668948643756,1.7135661805040279,4.476122826961742,1.3485517252585684,7.540919702185015,-0.9862784923931489,-5.918765868204265,-4.168536243025343,5.311653492606913,-3.081911610478267,-9.410381369846652,-6.224965011260954,-9.979303365594424,-6.8039687283378,-0.18581644438139833,-6.225364242508853,-6.125130892812388,-4.073743857800749,1.983997323412364,9.147985095368949,1.3446810200881067,-7.93011711603748,-5.034283713081933,-5.271457656559223,7.180480098116483,4.03842839631999,-5.148117997649891,1.2834546432138243,7.85703288502684,8.322575874913085,4.877979450726171,-5.271568669408013],"split_indices":[1,5,2,3,6,1,5,4,5,1,2,0,2,0,6,0,0,0,1,1,0,6,3,0,0,5,5,0,6,0,3,0,1,0,0,5,0,0,0,6,6,5,2,2,0,0,6,0,0,0,0,5,2,0,1,0,6,0,0,1,0,3,6,0,6,3,5,0,2,0,0,0,0,0,0,0,0,0,6,0,0,0,0,0,0,4,4,0,1,2,0,0,0,4,0,0,0,0,0,0,0,0,0,0,0,0,0,5,0,0,0],"sum_hessian":[0.0,0.0,0.0,0.0,0.0,0.0,0.0,0.0,0.0,0.0,0.0,0.0,0.0,0.0,0.0,0.0,0.0,0.0,0.0,0.0,0.0,0.0,0.0,0.0,0.0,0.0,0.0,0.0,0.0,0.0,0.0,0.0,0.0,0.0,0.0,0.0,0.0,0.0,0.0,0.0,0.0,0.0,0.0,0.0,0.0,0.0,0.0,0.0,0.0,0.0,0.0,0.0,0.0,0.0,0.0,0.0,0.0,0.0,0.0,0.0,0.0,0.0,0.0,0.0,0.0,0.0,0.0,0.0,0.0,0.0,0.0,0.0,0.0,0.0,0.0,0.0,0.0,0.0,0.0,0.0,0.0,0.0,0.0,0.0,0.0,0.0,0.0,0.0,0.0,0.0,0.0,0.0,0.0,0.0,0.0,0.0,0.0,0.0,0.0,0.0,0.0,0.0,0.0,0.0,0.0,0.0,0.0,0.0,0.0,0.0,0.0],"tree_param":{"num_deleted":"0","num_feature":"7","num_nodes":"111","size_leaf_vector":"0"}}]},"name":"gbtree"},"learner_model_param":{"base_score":"5E-1","num_class":"0","num_feature":"7"},"objective":{"name":"reg:squarederror","reg_loss_param":{"scale_pos_weight":"1"}}},"version":[1,4,0]}