{"learner":{"attributes":{},"feature_types":["float","float","float","float","float","float","float","float","float","float","float","float","float","float","float","float","float","float"],"gradient_booster":{"model":{"gbtree_model_param":{"num_trees":"1","size_leaf_vector":"0"},"tree_info":[0],"trees":[{"base_weights":[0.0,0.0,0.0,0.0,0.0,0.0,0.0,0.0,0.0,0.0,0.0,0.0,0.0,0.0,0.0,0.0,0.0,0.0,0.0,0.0,0.0,0.0,0.0,0.0,0.0,0.0,0.0,0.0,0.0,0.0,0.0,0.0,0.0,0.0,0.0,0.0,0.0,0.0,0.0,0.0,0.0,0.0,0.0,0.0,0.0,0.0,0.0,0.0,0.0,0.0,0.0,0.0,0.0,0.0,0.0,0.0,0.0,0.0,0.0,0.0,0.0,0.0,0.0,0.0,0.0,0.0,0.0,0.0,0.0,0.0,0.0,0.0,0.0,0.0,0.0,0.0,0.0,0.0,0.0,0.0,0.0,0.0,0.0,0.0,0.0],"categories":[],"categories_nodes":[],"categories_segments":[],"categories_sizes":[],"default_left":[false,false,false,false,false,false,false,false,false,false,false,false,false,false,false,false,false,false,false,false,false,false,false,false,false,false,false,false,false,false,false,false,false,false,false,false,false,false,false,false,false,false,false,false,false,false,false,false,false,false,false,false,false,false,false,false,false,false,false,false,false,false,false,false,false,false,false,false,false,false,false,false,false,false,false,false,false,false,false,false,false,false,false,false,false],"id":0,"left_children":[1,3,5,7,9,-1,11,13,-1,-1,-1,15,17,19,21,23,-1,25,27,29,-1,-1,31,33,35,-1,37,-1,39,41,-1,43,-1,45,47,49,51,53,-1,55,-1,-1,57,59,61,-1,-1,63,-1,65,-1,67,69,-1,-1,71,73,-1,-1,-1,-1,75,-1,77,-1,-1,-1,-1,-1,-1,-1,-1,79,81,-1,-1,-1,83,-1,-1,-1,-1,-1,-1,-1],"loss_changes":[0.0,0.0,0.0,0.0,0.0,0.0,0.0,0.0,0.0,0.0,0.0,0.0,0.0,0.0,0.0,0.0,0.0,0.0,0.0,0.0,0.0,0.0,0.0,0.0,0.0,0.0,0.0,0.0,0.0,0.0,0.0,0.0,0.0,0.0,0.0,0.0,0.0,0.0,0.0,0.0,0.0,0.0,0.0,0.0,0.0,0.0,0.0,0.0,0.0,0.0,0.0,0.0,0.0,0.0,0.0,0.0,0.0,0.0,0.0,0.0,0.0,0.0,0.0,0.0,0.0,0.0,0.0,0.0,0.0,0.0,0.0,0.0,0.0,0.0,0.0,0.0,0.0,0.0,0.0,0.0,0.0,0.0,0.0,0.0,0.0],"parents":[2147483647,0,0,1,1,2,2,3,3,4,4,6,6,7,7,11,11,12,12,13,13,14,14,15,15,17,17,18,18,19,19,22,22,23,23,24,24,26,26,28,28,29,29,31,31,33,33,34,34,35,35,36,36,37,37,39,39,42,42,43,43,44,44,47,47,49,49,51,51,52,52,55,55,56,56,61,61,63,63,72,72,73,73,77,77],"right_children":[2,4,6,8,10,-1,12,14,-1,-1,-1,16,18,20,22,24,-1,26,28,30,-1,-1,32,34,36,-1,38,-1,40,42,-1,44,-1,46,48,50,52,54,-1,56,-1,-1,58,60,62,-1,-1,64,-1,66,-1,68,70,-1,-1,72,74,-1,-1,-1,-1,76,-1,78,-1,-1,-1,-1,-1,-1,-1,-1,80,82,-1,-1,-1,84,-1,-1,-1,-1,-1,-1,-1],"split_conditions":[-4.768227036553865,2.971833065094069,3.3423702633830654,-9.78205876313808,7.354296814193081,6.317586687227969,-4.8198867126647045,8.904497757034505,-1.1427548562689154,-2.786193880349627,0.019542135467006005,-0.9401626198184232,-3.484669181351812,-3.398975015597136,-4.819839218456842,7.432116873612355,5.524079552832614,6.956071840744052,1.9839370783458232,0.7983377058208951,8.869333517350888,-8.082636579627394,-7.830860307272664,7.714782652920313,1.1193330611977892,7.405900204968752,5.19468283871741,0.7694364183605362,2.773480784496078,-4.716839970899099,-3.453191132683152,-0.4386262333126929,7.36737435154285,8.810670051916585,3.3126513031454135,-8.46865540098667,9.172279553415475,6.934369535566887,-5.951515535434602,-1.792410415398768,-8.324401897180275,-0.7465940486804037,-2.023006188700869,8.946852493472363,-5.139604445715381,5.318179422677641,8.858549538362098,-9.434794235507026,-2.5782978047732,-9.250203143769536,2.3530940864966254,-6.4138863478367725,-9.951797256119368,8.013417717954859,-4.426865003547298,7.688652764430536,-9.69497987700224,-5.493704755129871,3.509899013848134,-4.61977664897372,-8.35597831849339,3.952379826985677,-6.343849241077634,-1.926525017515706,-8.329049821443054,6.95241155857595,3.2149921789843265,2.255108015376786,-6.341932485026547,5.840063426152238,-8.317392245281399,-9.508928964230934,-4.138255497580689,3.017798791461523,-3.865975156742363,3.99567977131567,0.2941978240631382,-0.9750502289788336,1.6579844725085273,6.726071815177093,-4.770950520599446,3.223755390913439,-3.6555588716739384,9.520845784258249,-9.325638318475283],"split_indices":[7,6,1,5,15,0,5,12,0,0,0,8,11,7,2,0,0,9,5,5,0,0,4,16,15,0,9,0,10,15,0,3,0,1,17,9,2,6,0,14,0,0,3,10,17,0,0,0,0,12,0,1,6,0,0,8,0,0,0,0,0,11,0,12,0,0,0,0,0,0,0,0,7,1,0,0,0,12,0,0,0,0,0,0,0],"sum_hessian":[0.0,0.0,0.0,0.0,0.0,0.0,0.0,0.0,0.0,0.0,0.0,0.0,0.0,0.0,0.0,0.0,0.0,0.0,0.0,0.0,0.0,0.0,0.0,0.0,0.0,0.0,0.0,0.0,0.0,0.0,0.0,0.0,0.0,0.0,0.0,0.0,0.0,0.0,0.0,0.0,0.0,0.0,0.0,0.0,0.0,0.0,0.0,0.0,0.0,0.0,0.0,0.0,0.0,0.0,0.0,0.0,0.0,0.0,0.0,0.0,0.0,0.0,0.0,0.0,0.0,0.0,0.0,0.0,0.0,0.0,0.0,0.0,0.0,0.0,0.0,0.0,0.0,0.0,0.0,0.0,0.0,0.0,0.0,0.0,0.0],"tree_param":{"num_deleted":"0","num_feature":"18","num_nodes":"85","size_leaf_vector":"0"}}]},"name":"gbtree"},"learner_model_param":{"base_score":"5E-1","num_class":"0","num_feature":"18"},"objective":{"name":"reg:squarederror","reg_loss_param":{"scale_pos_weight":"1"}}},"version":[1,4,0]}