{"learner":{"attributes":{},"feature_types":["float","float","float","float","float","float","float","float","float","float","float","float","float","float","float","float","float","float","float","float"],"gradient_booster":{"model":{"gbtree_model_param":{"num_trees":"1","size_leaf_vector":"0"},"tree_info":[0],"trees":[{"base_weights":[0.0,0.0,0.0,0.0,0.0,0.0,0.0,0.0,0.0,0.0,0.0,0.0,0.0,0.0,0.0,0.0,0.0,0.0,0.0,0.0,0.0,0.0,0.0,0.0,0.0,0.0,0.0,0.0,0.0,0.0,0.0,0.0,0.0,0.0,0.0,0.0,0.0,0.0,0.0,0.0,0.0,0.0,0.0,0.0,0.0,0.0,0.0,0.0,0.0,0.0,0.0,0.0,0.0,0.0,0.0,0.0,0.0,0.0,0.0,0.0,0.0,0.0,0.0,0.0,0.0,0.0,0.0,0.0,0.0,0.0,0.0,0.0,0.0,0.0,0.0,0.0,0.0,0.0,0.0,0.0,0.0,0.0,0.0,0.0,0.0,0.0,0.0,0.0,0.0,0.0,0.0,0.0,0.0],"categories":[],"categories_nodes":[],"categories_segments":[],"categories_sizes":[],"default_left":[false,false,false,false,false,false,false,false,false,false,false,false,false,false,false,false,false,false,false,false,false,false,false,false,false,false,false,false,false,false,false,false,false,false,false,false,false,false,false,false,false,false,false,false,false,false,false,false,false,false,false,false,false,false,false,false,false,false,false,false,false,false,false,false,false,false,false,false,false,false,false,false,false,false,false,false,false,false,false,false,false,false,false,false,false,false,false,false,false,false,false,false,false],"id":0,"left_children":[1,3,5,7,9,-1,11,13,-1,15,17,-1,19,21,-1,23,25,27,29,31,33,35,-1,37,39,-1,41,43,45,47,-1,49,-1,-1,-1,51,53,55,-1,-1,-1,-1,57,-1,59,61,63,65,-1,-1,-1,-1,67,-1,-1,69,71,-1,73,75,77,-1,-1,-1,79,-1,-1,81,-1,-1,-1,-1,-1,-1,83,-1,-1,85,87,-1,-1,-1,-1,-1,-1,-1,89,91,-1,-1,-1,-1,-1],"loss_changes":[0.0,0.0,0.0,0.0,0.0,0.0,0.0,0.0,0.0,0.0,0.0,0.0,0.0,0.0,0.0,0.0,0.0,0.0,0.0,0.0,0.0,0.0,0.0,0.0,0.0,0.0,0.0,0.0,0.0,0.0,0.0,0.0,0.0,0.0,0.0,0.0,0.0,0.0,0.0,0.0,0.0,0.0,0.0,0.0,0.0,0.0,0.0,0.0,0.0,0.0,0.0,0.0,0.0,0.0,0.0,0.0,0.0,0.0,0.0,0.0,0.0,0.0,0.0,0.0,0.0,0.0,0.0,0.0,0.0,0.0,0.0,0.0,0.0,0.0,0.0,0.0,0.0,0.0,0.0,0.0,0.0,0.0,0.0,0.0,0.0,0.0,0.0,0.0,0.0,0.0,0.0,0.0,0.0],"parents":[2147483647,0,0,1,1,2,2,3,3,4,4,6,6,7,7,9,9,10,10,12,12,13,13,15,15,16,16,17,17,18,18,19,19,20,20,21,21,23,23,24,24,26,26,27,27,28,28,29,29,31,31,35,35,36,36,37,37,42,42,44,44,45,45,46,46,47,47,52,52,55,55,56,56,58,58,59,59,60,60,64,64,67,67,74,74,77,77,78,78,86,86,87,87],"right_children":[2,4,6,8,10,-1,12,14,-1,16,18,-1,20,22,-1,24,26,28,30,32,34,36,-1,38,40,-1,42,44,46,48,-1,50,-1,-1,-1,52,54,56,-1,-1,-1,-1,58,-1,60,62,64,66,-1,-1,-1,-1,68,-1,-1,70,72,-1,74,76,78,-1,-1,-1,80,-1,-1,82,-1,-1,-1,-1,-1,-1,84,-1,-1,86,88,-1,-1,-1,-1,-1,-1,-1,90,92,-1,-1,-1,-1,-1],"split_conditions":[-9.714645394215118,-8.67222018933641,-9.585599690766308,-2.5378843648110925,4.747551051569008,-4.3370182804084045,-1.8850250817387924,9.349643280622036,1.537072370716599,-4.51263545291611,-0.6891917581402129,-6.448710649415786,7.107524216676445,4.560576133549713,7.067285583649195,-0.6372043831604461,8.596653013467982,-2.4894640056193174,8.1097436885414,4.100167986399661,4.843962492834155,-7.0514171818702724,-2.448542134316992,7.374225660863839,-7.209980321205953,-5.991422965024059,-1.1373392927228068,-1.995815568834331,-2.947121052205217,4.150946516009093,-6.377753126275499,9.328733955201045,-4.197716902815127,-2.025242014858031,2.6274300529719703,-6.0655790936554395,-8.72378053440757,-2.9713609213265784,-4.165441421587874,1.358759487977487,-7.838911895515185,-8.768642789314908,-7.340436380933602,7.874618654475828,2.301636558668763,-1.1120736938429499,-0.2922737964354418,-5.508414132416482,2.855935963062562,9.836936764590384,-4.554356750621937,-9.35961941859602,-2.524207080658888,6.705519463742526,-0.4613441851403497,7.757836712241293,3.7247125990569145,-1.52725595424754,0.10128335653842235,-9.180550829691235,-5.987767564523648,-2.119250740404393,5.963257526924817,-8.034238553167107,9.365184646067537,-3.2873398881881357,3.23722133865083,1.3751182485240356,6.0412829786854765,2.8559078496835753,-0.7000973145549985,-0.7322032043695863,4.954556629890266,8.976969948714153,-2.0652633142056107,1.453092524544921,-3.7394031963394365,7.292410698057672,8.163038563728911,2.192153250742157,5.494526164515962,5.148101085621477,-9.028384313047724,-3.732331195536056,2.700013654808078,-0.8866726323451424,6.761725331110764,-6.225162274008108,9.295363908482045,-4.993879356027728,7.751132369445976,-9.215996711799402,-4.186569826982335],"split_indices":[12,13,18,4,0,0,4,9,0,9,2,0,4,5,0,6,11,5,9,6,19,1,0,9,16,0,15,5,11,7,0,0,0,0,0,2,6,12,0,0,0,0,8,0,2,1,15,1,0,0,0,0,17,0,0,14,17,0,14,10,16,0,0,0,9,0,0,19,0,0,0,0,0,0,10,0,0,13,2,0,0,0,0,0,0,0,12,18,0,0,0,0,0],"sum_hessian":[0.0,0.0,0.0,0.0,0.0,0.0,0.0,0.0,0.0,0.0,0.0,0.0,0.0,0.0,0.0,0.0,0.0,0.0,0.0,0.0,0.0,0.0,0.0,0.0,0.0,0.0,0.0,0.0,0.0,0.0,0.0,0.0,0.0,0.0,0.0,0.0,0.0,0.0,0.0,0.0,0.0,0.0,0.0,0.0,0.0,0.0,0.0,0.0,0.0,0.0,0.0,0.0,0.0,0.0,0.0,0.0,0.0,0.0,0.0,0.0,0.0,0.0,0.0,0.0,0.0,0.0,0.0,0.0,0.0,0.0,0.0,0.0,0.0,0.0,0.0,0.0,0.0,0.0,0.0,0.0,0.0,0.0,0.0,0.0,0.0,0.0,0.0,0.0,0.0,0.0,0.0,0.0,0.0],"tree_param":{"num_deleted":"0","num_feature":"20","num_nodes":"93","size_leaf_vector":"0"}}]},"name":"gbtree"},"learner_model_param":{"base_score":"5E-1","num_class":"0","num_feature":"20"},"objective":{"name":"reg:squarederror","reg_loss_param":{"scale_pos_weight":"1"}}},"version":[1,4,0]}