{"learner":{"attributes":{},"feature_types":["float","float","float","float","float","float","float","float","float","float","float","float","float","float","float","float","float"],"gradient_booster":{"model":{"gbtree_model_param":{"num_trees":"1","size_leaf_vector":"0"},"tree_info":[0],"trees":[{"base_weights":[0.0,0.0,0.0,0.0,0.0,0.0,0.0,0.0,0.0,0.0,0.0,0.0,0.0,0.0,0.0,0.0,0.0,0.0,0.0,0.0,0.0,0.0,0.0,0.0,0.0,0.0,0.0,0.0,0.0,0.0,0.0,0.0,0.0,0.0,0.0,0.0,0.0,0.0,0.0,0.0,0.0,0.0,0.0,0.0,0.0,0.0,0.0,0.0,0.0,0.0,0.0,0.0,0.0,0.0,0.0,0.0,0.0,0.0,0.0,0.0,0.0,0.0,0.0,0.0,0.0,0.0,0.0,0.0,0.0,0.0,0.0,0.0,0.0,0.0,0.0,0.0,0.0,0.0,0.0,0.0,0.0,0.0,0.0,0.0,0.0,0.0,0.0,0.0,0.0,0.0,0.0],"categories":[],"categories_nodes":[],"categories_segments":[],"categories_sizes":[],"default_left":[false,false,false,false,false,false,false,false,false,false,false,false,false,false,false,false,false,false,false,false,false,false,false,false,false,false,false,false,false,false,false,false,false,false,false,false,false,false,false,false,false,false,false,false,false,false,false,false,false,false,false,false,false,false,false,false,false,false,false,false,false,false,false,false,false,false,false,false,false,false,false,false,false,false,false,false,false,false,false,false,false,false,false,false,false,false,false,false,false,false,false],"id":0,"left_children":[1,3,5,7,9,11,13,15,17,19,-1,21,23,25,27,29,31,33,-1,-1,35,37,39,-1,41,-1,-1,-1,-1,-1,43,-1,-1,45,-1,-1,47,49,51,-1,-1,53,-1,55,57,59,61,-1,63,65,-1,67,-1,69,-1,-1,71,-1,-1,-1,-1,73,75,-1,-1,-1,77,-1,79,81,-1,83,-1,-1,-1,-1,-1,85,-1,-1,-1,87,-1,89,-1,-1,-1,-1,-1,-1,-1],"loss_changes":[0.0,0.0,0.0,0.0,0.0,0.0,0.0,0.0,0.0,0.0,0.0,0.0,0.0,0.0,0.0,0.0,0.0,0.0,0.0,0.0,0.0,0.0,0.0,0.0,0.0,0.0,0.0,0.0,0.0,0.0,0.0,0.0,0.0,0.0,0.0,0.0,0.0,0.0,0.0,0.0,0.0,0.0,0.0,0.0,0.0,0.0,0.0,0.0,0.0,0.0,0.0,0.0,0.0,0.0,0.0,0.0,0.0,0.0,0.0,0.0,0.0,0.0,0.0,0.0,0.0,0.0,0.0,0.0,0.0,0.0,0.0,0.0,0.0,0.0,0.0,0.0,0.0,0.0,0.0,0.0,0.0,0.0,0.0,0.0,0.0,0.0,0.0,0.0,0.0,0.0,0.0],"parents":[2147483647,0,0,1,1,2,2,3,3,4,4,5,5,6,6,7,7,8,8,9,9,11,11,12,12,13,13,14,14,15,15,16,16,17,17,20,20,21,21,22,22,24,24,30,30,33,33,36,36,37,37,38,38,41,41,43,43,44,44,45,45,46,46,48,48,49,49,51,51,53,53,56,56,61,61,62,62,66,66,68,68,69,69,71,71,77,77,81,81,83,83],"right_children":[2,4,6,8,10,12,14,16,18,20,-1,22,24,26,28,30,32,34,-1,-1,36,38,40,-1,42,-1,-1,-1,-1,-1,44,-1,-1,46,-1,-1,48,50,52,-1,-1,54,-1,56,58,60,62,-1,64,66,-1,68,-1,70,-1,-1,72,-1,-1,-1,-1,74,76,-1,-1,-1,78,-1,80,82,-1,84,-1,-1,-1,-1,-1,86,-1,-1,-1,88,-1,90,-1,-1,-1,-1,-1,-1,-1],"split_conditions":[-1.1717769334560817,-6.842401824171497,-6.281779978331973,-3.245265828583066,1.8336962389868194,3.3678242116684505,-2.242500745156214,-6.376333421389652,-8.411937549623062,1.0138261206558106,-5.834818924829673,-8.242507930445552,3.8350081302842813,2.82422238397565,-5.066411706551588,1.6921744539937684,3.927900671539785,-8.759111587766593,7.528288965846926,-9.258380881440111,5.735341840903205,9.5936374868548,1.0860009003793927,-5.39495784346164,-1.9750733833505603,6.579785623903604,0.03064481468782354,-6.743773088535841,0.12806988195030655,-6.237918511111525,2.119039451436869,-4.479218934219561,6.908693742591325,3.3007145677639453,9.824647506656156,-6.032630890299628,0.21053191809025407,6.318700384911786,-9.595141675029101,5.8890198083864185,4.154395621273769,6.43813078370685,2.864833376136829,-8.755118354688278,3.03375716590568,-1.5594318374479492,-5.2548909848303005,-6.203407998654295,-9.321002284384832,0.13932656583238412,-5.566739803471048,-6.54281633824605,-2.8077533980007683,5.617192747759802,5.648604255277368,4.95960352879322,-3.266446617248077,-8.967704398539993,2.7686068439531812,3.9287853851187275,9.639995072299556,7.853272226642506,-9.50207982742878,-2.03631461525568,0.41089289418722075,9.63225632191714,5.9286429008471515,-0.9720626527661373,-0.29796885807634865,-1.7689430590828206,3.163039881208787,-0.06728537457214223,3.7039885152124796,7.6723766957722574,9.99262296759182,-8.41455286282343,-0.8072923740766171,9.871200947386306,2.966545849530224,6.209997033817057,7.785669195940603,6.76293099399653,3.198506531229464,4.129060860230638,4.54626756988241,3.4956152917955823,3.9980426934261963,4.552890065088917,-5.217054877337132,-1.8536113099056823,4.52755192839512],"split_indices":[3,4,15,13,13,8,10,16,5,13,0,4,10,6,12,3,7,14,0,0,3,10,6,0,13,0,0,0,0,0,14,0,0,14,0,0,15,8,14,0,0,3,0,7,0,11,15,0,11,7,0,13,0,0,0,0,15,0,0,0,0,7,10,0,0,0,1,0,9,15,0,1,0,0,0,0,0,9,0,0,0,12,0,7,0,0,0,0,0,0,0],"sum_hessian":[0.0,0.0,0.0,0.0,0.0,0.0,0.0,0.0,0.0,0.0,0.0,0.0,0.0,0.0,0.0,0.0,0.0,0.0,0.0,0.0,0.0,0.0,0.0,0.0,0.0,0.0,0.0,0.0,0.0,0.0,0.0,0.0,0.0,0.0,0.0,0.0,0.0,0.0,0.0,0.0,0.0,0.0,0.0,0.0,0.0,0.0,0.0,0.0,0.0,0.0,0.0,0.0,0.0,0.0,0.0,0.0,0.0,0.0,0.0,0.0,0.0,0.0,0.0,0.0,0.0,0.0,0.0,0.0,0.0,0.0,0.0,0.0,0.0,0.0,0.0,0.0,0.0,0.0,0.0,0.0,0.0,0.0,0.0,0.0,0.0,0.0,0.0,0.0,0.0,0.0,0.0],"tree_param":{"num_deleted":"0","num_feature":"17","num_nodes":"91","size_leaf_vector":"0"}}]},"name":"gbtree"},"learner_model_param":{"base_score":"5E-1","num_class":"0","num_feature":"17"},"objective":{"name":"reg:squarederror","reg_loss_param":{"scale_pos_weight":"1"}}},"version":[1,4,0]}