{"learner":{"attributes":{},"feature_types":["float","float","float","float","float","float","float","float","float","float","float","float","float","float","float","float"],"gradient_booster":{"model":{"gbtree_model_param":{"num_trees":"1","size_leaf_vector":"0"},"tree_info":[0],"trees":[{"base_weights":[0.0,0.0,0.0,0.0,0.0,0.0,0.0,0.0,0.0,0.0,0.0,0.0,0.0,0.0,0.0,0.0,0.0,0.0,0.0,0.0,0.0,0.0,0.0,0.0,0.0,0.0,0.0,0.0,0.0,0.0,0.0,0.0,0.0,0.0,0.0,0.0,0.0,0.0,0.0,0.0,0.0,0.0,0.0,0.0,0.0,0.0,0.0,0.0,0.0,0.0,0.0,0.0,0.0,0.0,0.0,0.0,0.0,0.0,0.0,0.0,0.0,0.0,0.0,0.0,0.0,0.0,0.0,0.0,0.0,0.0,0.0,0.0,0.0,0.0,0.0,0.0,0.0,0.0,0.0,0.0,0.0,0.0,0.0,0.0,0.0,0.0,0.0,0.0,0.0,0.0,0.0,0.0,0.0,0.0,0.0,0.0,0.0,0.0,0.0,0.0,0.0,0.0,0.0,0.0,0.0,0.0,0.0,0.0,0.0,0.0,0.0,0.0,0.0,0.0,0.0,0.0,0.0,0.0,0.0,0.0,0.0,0.0,0.0,0.0,0.0,0.0,0.0,0.0,0.0,0.0,0.0,0.0,0.0,0.0,0.0,0.0,0.0,0.0,0.0,0.0,0.0,0.0,0.0,0.0,0.0,0.0,0.0],"categories":[],"categories_nodes":[],"categories_segments":[],"categories_sizes":[],"default_left":[false,false,false,false,false,false,false,false,false,false,false,false,false,false,false,false,false,false,false,false,false,false,false,false,false,false,false,false,false,false,false,false,false,false,false,false,false,false,false,false,false,false,false,false,false,false,false,false,false,false,false,false,false,false,false,false,false,false,false,false,false,false,false,false,false,false,false,false,false,false,false,false,false,false,false,false,false,false,false,false,false,false,false,false,false,false,false,false,false,false,false,false,false,false,false,false,false,false,false,false,false,false,false,false,false,false,false,false,false,false,false,false,false,false,false,false,false,false,false,false,false,false,false,false,false,false,false,false,false,false,false,false,false,false,false,false,false,false,false,false,false,false,false,false,false,false,false],"id":0,"left_children":[1,3,5,7,9,11,13,15,17,19,21,23,25,-1,27,-1,29,-1,31,-1,33,35,-1,37,39,-1,41,-1,-1,43,45,47,49,51,-1,53,55,57,59,61,63,65,67,69,-1,71,-1,73,-1,75,-1,-1,-1,-1,77,79,-1,-1,81,83,85,87,89,91,-1,-1,-1,93,95,-1,-1,-1,-1,97,99,-1,-1,101,103,-1,105,-1,-1,-1,-1,-1,-1,-1,107,109,111,113,-1,115,117,119,121,-1,-1,-1,-1,-1,-1,123,-1,125,-1,127,-1,-1,-1,-1,-1,129,131,-1,-1,133,-1,-1,135,-1,-1,137,-1,-1,-1,139,-1,-1,141,-1,-1,-1,-1,143,145,-1,-1,-1,-1,-1,-1,-1,-1,-1,-1],"loss_changes":[0.0,0.0,0.0,0.0,0.0,0.0,0.0,0.0,0.0,0.0,0.0,0.0,0.0,0.0,0.0,0.0,0.0,0.0,0.0,0.0,0.0,0.0,0.0,0.0,0.0,0.0,0.0,0.0,0.0,0.0,0.0,0.0,0.0,0.0,0.0,0.0,0.0,0.0,0.0,0.0,0.0,0.0,0.0,0.0,0.0,0.0,0.0,0.0,0.0,0.0,0.0,0.0,0.0,0.0,0.0,0.0,0.0,0.0,0.0,0.0,0.0,0.0,0.0,0.0,0.0,0.0,0.0,0.0,0.0,0.0,0.0,0.0,0.0,0.0,0.0,0.0,0.0,0.0,0.0,0.0,0.0,0.0,0.0,0.0,0.0,0.0,0.0,0.0,0.0,0.0,0.0,0.0,0.0,0.0,0.0,0.0,0.0,0.0,0.0,0.0,0.0,0.0,0.0,0.0,0.0,0.0,0.0,0.0,0.0,0.0,0.0,0.0,0.0,0.0,0.0,0.0,0.0,0.0,0.0,0.0,0.0,0.0,0.0,0.0,0.0,0.0,0.0,0.0,0.0,0.0,0.0,0.0,0.0,0.0,0.0,0.0,0.0,0.0,0.0,0.0,0.0,0.0,0.0,0.0,0.0,0.0,0.0],"parents":[2147483647,0,0,1,1,2,2,3,3,4,4,5,5,6,6,7,7,8,8,9,9,10,10,11,11,12,12,14,14,16,16,18,18,20,20,21,21,23,23,24,24,26,26,29,29,30,30,31,31,32,32,33,33,35,35,36,36,37,37,38,38,39,39,40,40,41,41,42,42,43,43,45,45,47,47,49,49,54,54,55,55,58,58,59,59,60,60,61,61,62,62,63,63,67,67,68,68,73,73,74,74,77,77,78,78,80,80,88,88,89,89,90,90,91,91,93,93,94,94,95,95,96,96,103,103,105,105,107,107,113,113,114,114,117,117,120,120,123,123,127,127,130,130,135,135,136,136],"right_children":[2,4,6,8,10,12,14,16,18,20,22,24,26,-1,28,-1,30,-1,32,-1,34,36,-1,38,40,-1,42,-1,-1,44,46,48,50,52,-1,54,56,58,60,62,64,66,68,70,-1,72,-1,74,-1,76,-1,-1,-1,-1,78,80,-1,-1,82,84,86,88,90,92,-1,-1,-1,94,96,-1,-1,-1,-1,98,100,-1,-1,102,104,-1,106,-1,-1,-1,-1,-1,-1,-1,108,110,112,114,-1,116,118,120,122,-1,-1,-1,-1,-1,-1,124,-1,126,-1,128,-1,-1,-1,-1,-1,130,132,-1,-1,134,-1,-1,136,-1,-1,138,-1,-1,-1,140,-1,-1,142,-1,-1,-1,-1,144,146,-1,-1,-1,-1,-1,-1,-1,-1,-1,-1],"split_conditions":[7.868873607943144,0.001996425701179305,4.070381301767096,5.156681841980394,-6.331054794011216,7.946923661678298,-0.13963756510074177,-0.14095010274450814,-9.63905069642861,9.99021370435446,-1.752588667365524,-4.969144428725833,1.1416566160413577,-8.277070777235899,-2.0954048920980197,-2.495739381798554,-2.038810515899981,-8.136043353461247,-2.74154290040342,-2.1220868884363107,-7.263167580463776,3.171870863704065,-8.184136243236255,-0.25493577789318955,-8.786993249324556,8.795308073848656,-7.240407328781843,4.000232765802323,4.555794138973333,5.543161696258501,-2.8863996692319125,0.2884726509505491,7.090422176884793,0.8576634376137893,-5.554706489804337,5.593016008557576,-8.194315831520019,0.6369464146707475,-7.9822031481926725,3.6909925918738917,-8.607243311620845,0.16578122419783625,-0.391133963217845,-2.242075954173826,2.132060420923951,9.269225527389914,6.464707656276399,8.452915869455538,5.379980121711565,1.8292266133691282,-6.320791193369745,0.036159627318358645,-1.5416929817456388,0.5199296720180726,-5.6218881270893135,-8.503319267332637,-1.6784606478177206,-1.8906722970859047,1.7012414556009077,0.34487311676201315,-1.3130741574757394,4.573316671717558,9.61500937350759,-7.555570231947998,5.591173755503389,-3.2518860480010545,5.856919693486663,1.720912264486163,-9.879874143785287,-1.6932244563684176,4.405490924135753,2.2494492889519435,-9.698689767541698,-3.346222739743099,-8.250885697258601,-6.397411579978312,-5.163759891352783,-3.6788429422615323,6.092021444946745,5.978856798726756,5.710108145355587,-0.1062935127716731,4.382442161253344,9.042119297665923,-4.99919350018335,5.706711754338517,-4.3236411765879526,-8.055637926601424,2.8176946914592786,-4.262745814898973,9.347853499196656,-7.8303632940227885,4.877205265849117,-9.167801490946111,-7.557238626406733,5.378743117764584,-3.5293658344621415,-8.355869954157328,6.6266094794321795,6.16890388960406,4.671539092663615,-2.583872149477523,-3.8549730403086855,4.814322009361664,-3.7955488525833383,3.712048606852573,6.848958121809439,2.6846963851200236,-0.6013901116047364,-1.4787152576598057,0.5213029474143198,-3.5730898101886535,0.47555955714938847,-1.6244448833694847,0.419110854973205,1.3741139681747363,3.362464746423001,-9.978909864774955,-7.533075811953074,-2.4782399064765386,-4.5936819735714245,-9.8259214118574,3.911120095159804,7.679439190312756,-8.575144185630666,7.98439828309046,-1.2833526475040617,-6.9618439259801015,9.415803195954883,1.3817870532842669,-8.714853498022395,9.602332710770028,-1.8854891588533018,-6.661334707558371,6.603933894521834,-1.8448159995166655,7.816034431245416,8.164191401382052,9.497570013197194,2.1954741667998707,-2.7656731595893476,6.646903588906131,-4.378151438374971,0.23109443619254222,9.513966177865434,1.0564450492925044,-0.5626761011253762],"split_indices":[5,15,1,14,2,3,8,6,2,1,10,4,1,0,14,0,5,0,9,0,12,12,0,12,7,0,12,0,0,15,12,8,4,9,0,2,6,1,3,7,15,15,12,0,0,4,0,13,0,15,0,0,0,0,7,1,0,0,15,11,11,0,0,6,0,0,0,5,1,0,0,0,0,14,5,0,0,14,1,0,0,0,0,0,0,0,0,0,0,4,11,7,0,15,11,13,1,0,0,0,0,0,0,10,0,6,0,0,0,0,0,0,0,2,14,0,0,15,0,0,9,0,0,15,0,0,0,15,0,0,7,0,0,0,0,9,12,0,0,0,0,0,0,0,0,0,0],"sum_hessian":[0.0,0.0,0.0,0.0,0.0,0.0,0.0,0.0,0.0,0.0,0.0,0.0,0.0,0.0,0.0,0.0,0.0,0.0,0.0,0.0,0.0,0.0,0.0,0.0,0.0,0.0,0.0,0.0,0.0,0.0,0.0,0.0,0.0,0.0,0.0,0.0,0.0,0.0,0.0,0.0,0.0,0.0,0.0,0.0,0.0,0.0,0.0,0.0,0.0,0.0,0.0,0.0,0.0,0.0,0.0,0.0,0.0,0.0,0.0,0.0,0.0,0.0,0.0,0.0,0.0,0.0,0.0,0.0,0.0,0.0,0.0,0.0,0.0,0.0,0.0,0.0,0.0,0.0,0.0,0.0,0.0,0.0,0.0,0.0,0.0,0.0,0.0,0.0,0.0,0.0,0.0,0.0,0.0,0.0,0.0,0.0,0.0,0.0,0.0,0.0,0.0,0.0,0.0,0.0,0.0,0.0,0.0,0.0,0.0,0.0,0.0,0.0,0.0,0.0,0.0,0.0,0.0,0.0,0.0,0.0,0.0,0.0,0.0,0.0,0.0,0.0,0.0,0.0,0.0,0.0,0.0,0.0,0.0,0.0,0.0,0.0,0.0,0.0,0.0,0.0,0.0,0.0,0.0,0.0,0.0,0.0,0.0],"tree_param":{"num_deleted":"0","num_feature":"16","num_nodes":"147","size_leaf_vector":"0"}}]},"name":"gbtree"},"learner_model_param":{"base_score":"5E-1","num_class":"0","num_feature":"16"},"objective":{"name":"reg:squarederror","reg_loss_param":{"scale_pos_weight":"1"}}},"version":[1,4,0]}