{"learner":{"attributes":{},"feature_types":["float","float","float","float","float","float","float","float"],"gradient_booster":{"model":{"gbtree_model_param":{"num_trees":"1","size_leaf_vector":"0"},"tree_info":[0],"trees":[{"base_weights":[0.0,0.0,0.0,0.0,0.0,0.0,0.0,0.0,0.0,0.0,0.0,0.0,0.0,0.0,0.0,0.0,0.0,0.0,0.0,0.0,0.0,0.0,0.0,0.0,0.0,0.0,0.0,0.0,0.0,0.0,0.0,0.0,0.0,0.0,0.0,0.0,0.0,0.0,0.0,0.0,0.0,0.0,0.0,0.0,0.0,0.0,0.0,0.0,0.0,0.0,0.0,0.0,0.0,0.0,0.0,0.0,0.0,0.0,0.0,0.0,0.0,0.0,0.0,0.0,0.0,0.0,0.0,0.0,0.0,0.0,0.0,0.0,0.0,0.0,0.0,0.0,0.0,0.0,0.0,0.0,0.0,0.0,0.0,0.0,0.0,0.0,0.0,0.0,0.0,0.0,0.0,0.0,0.0,0.0,0.0,0.0,0.0,0.0,0.0,0.0,0.0,0.0,0.0,0.0,0.0],"categories":[],"categories_nodes":[],"categories_segments":[],"categories_sizes":[],"default_left":[false,false,false,false,false,false,false,false,false,false,false,false,false,false,false,false,false,false,false,false,false,false,false,false,false,false,false,false,false,false,false,false,false,false,false,false,false,false,false,false,false,false,false,false,false,false,false,false,false,false,false,false,false,false,false,false,false,false,false,false,false,false,false,false,false,false,false,false,false,false,false,false,false,false,false,false,false,false,false,false,false,false,false,false,false,false,false,false,false,false,false,false,false,false,false,false,false,false,false,false,false,false,false,false,false],"id":0,"left_children":[1,3,5,7,-1,9,11,13,-1,-1,15,17,-1,-1,19,21,23,25,27,29,31,-1,33,35,-1,37,39,-1,41,43,45,47,49,-1,-1,-1,-1,51,53,55,57,-1,59,61,-1,63,-1,-1,65,-1,67,69,-1,71,-1,-1,73,75,77,79,81,83,-1,-1,-1,-1,85,87,-1,89,-1,91,-1,-1,-1,-1,-1,-1,93,95,-1,-1,97,-1,99,-1,-1,101,-1,-1,-1,-1,-1,-1,-1,-1,-1,103,-1,-1,-1,-1,-1,-1,-1],"loss_changes":[0.0,0.0,0.0,0.0,0.0,0.0,0.0,0.0,0.0,0.0,0.0,0.0,0.0,0.0,0.0,0.0,0.0,0.0,0.0,0.0,0.0,0.0,0.0,0.0,0.0,0.0,0.0,0.0,0.0,0.0,0.0,0.0,0.0,0.0,0.0,0.0,0.0,0.0,0.0,0.0,0.0,0.0,0.0,0.0,0.0,0.0,0.0,0.0,0.0,0.0,0.0,0.0,0.0,0.0,0.0,0.0,0.0,0.0,0.0,0.0,0.0,0.0,0.0,0.0,0.0,0.0,0.0,0.0,0.0,0.0,0.0,0.0,0.0,0.0,0.0,0.0,0.0,0.0,0.0,0.0,0.0,0.0,0.0,0.0,0.0,0.0,0.0,0.0,0.0,0.0,0.0,0.0,0.0,0.0,0.0,0.0,0.0,0.0,0.0,0.0,0.0,0.0,0.0,0.0,0.0],"parents":[2147483647,0,0,1,1,2,2,3,3,5,5,6,6,7,7,10,10,11,11,14,14,15,15,16,16,17,17,18,18,19,19,20,20,22,22,23,23,25,25,26,26,28,28,29,29,30,30,31,31,32,32,37,37,38,38,39,39,40,40,42,42,43,43,45,45,48,48,50,50,51,51,53,53,56,56,57,57,58,58,59,59,60,60,61,61,66,66,67,67,69,69,71,71,78,78,79,79,82,82,84,84,87,87,97,97],"right_children":[2,4,6,8,-1,10,12,14,-1,-1,16,18,-1,-1,20,22,24,26,28,30,32,-1,34,36,-1,38,40,-1,42,44,46,48,50,-1,-1,-1,-1,52,54,56,58,-1,60,62,-1,64,-1,-1,66,-1,68,70,-1,72,-1,-1,74,76,78,80,82,84,-1,-1,-1,-1,86,88,-1,90,-1,92,-1,-1,-1,-1,-1,-1,94,96,-1,-1,98,-1,100,-1,-1,102,-1,-1,-1,-1,-1,-1,-1,-1,-1,104,-1,-1,-1,-1,-1,-1,-1],"split_conditions":[-2.635928864411988,4.043806229431137,-0.8415886200999125,1.0587389649948555,-7.843068169976639,8.390325578403708,2.0077561083326056,-3.412469820262121,9.77925952263585,-5.06398461837375,9.668322015257349,0.15225697221411139,1.1310780175028299,-8.25271388205723,3.1588762553488614,-9.134940836132214,-3.293917777698695,-7.478033028175204,-2.4359224129268062,7.0187753629749,-6.994041324464941,-7.655799969599053,0.3409564945729944,9.504975389339627,-5.2157784922035155,2.327874939132272,7.535604628599433,-1.3990141112806231,-9.203314814939453,9.56137705509899,6.36424235900752,-2.0007547070397393,5.365759023068273,4.474638400802128,7.566620642953094,-6.898895453905851,3.6478724838173537,9.186390391251663,-0.23579976685027937,-1.9892846541359503,9.444359125032545,2.167582697504395,-5.5949464030523,-7.769088027135679,1.9989577722779188,-3.1924811417752244,-5.245044416069861,-7.098790942260704,-7.31112118867078,6.9852644446772345,-9.647867009127372,7.414923626205628,-0.041513641591000905,-9.928322689907107,-6.736920485191044,-9.304414613807097,-2.7248621928438226,3.080079968651596,3.9061841762743263,7.734623701986013,7.299942162640672,-0.828390952182863,4.355895597488221,8.896000405043395,-2.479216539427198,-0.819492874530944,-6.322639459216308,-8.538645877853064,-2.3350414023658157,-6.095034991743477,-2.9801196320718955,7.221444810618529,-4.502464901760687,-4.991212882063394,3.756052930797882,-1.7647017676350867,-7.785926391007312,-5.803762176925806,-0.39197721606714,-5.593272650790578,8.47464658958668,-9.460294454802328,7.6851903247790645,7.337104398326915,-1.3013258224420294,-2.63960367410223,8.771905481610908,-2.369700985312166,-8.834813234186912,-0.7079025738390357,-7.357391975855904,9.915111980462935,2.4061715664177257,8.093174440595078,-3.3281169267281028,7.245202659655554,-0.5676693866861164,-6.960675558623164,-8.401833509128373,-1.9167427337960348,5.93825698782566,7.0849306330573185,3.5047177391594957,-2.422094356166604,-9.593104898762451],"split_indices":[1,6,3,5,0,6,4,3,0,0,0,0,0,0,1,3,5,5,7,5,7,0,4,0,0,0,1,0,4,1,7,7,7,0,0,0,0,6,3,3,2,0,4,0,0,7,0,0,5,0,0,2,0,4,0,0,4,5,7,1,5,5,0,0,0,0,5,1,0,2,0,6,0,0,0,0,0,0,6,7,0,0,1,0,4,0,0,7,0,0,0,0,0,0,0,0,0,3,0,0,0,0,0,0,0],"sum_hessian":[0.0,0.0,0.0,0.0,0.0,0.0,0.0,0.0,0.0,0.0,0.0,0.0,0.0,0.0,0.0,0.0,0.0,0.0,0.0,0.0,0.0,0.0,0.0,0.0,0.0,0.0,0.0,0.0,0.0,0.0,0.0,0.0,0.0,0.0,0.0,0.0,0.0,0.0,0.0,0.0,0.0,0.0,0.0,0.0,0.0,0.0,0.0,0.0,0.0,0.0,0.0,0.0,0.0,0.0,0.0,0.0,0.0,0.0,0.0,0.0,0.0,0.0,0.0,0.0,0.0,0.0,0.0,0.0,0.0,0.0,0.0,0.0,0.0,0.0,0.0,0.0,0.0,0.0,0.0,0.0,0.0,0.0,0.0,0.0,0.0,0.0,0.0,0.0,0.0,0.0,0.0,0.0,0.0,0.0,0.0,0.0,0.0,0.0,0.0,0.0,0.0,0.0,0.0,0.0,0.0],"tree_param":{"num_deleted":"0","num_feature":"8","num_nodes":"105","size_leaf_vector":"0"}}]},"name":"gbtree"},"learner_model_param":{"base_score":"5E-1","num_class":"0","num_feature":"8"},"objective":{"name":"reg:squarederror","reg_loss_param":{"scale_pos_weight":"1"}}},"version":[1,4,0]}