{"learner":{"attributes":{},"feature_types":["float","float","float"],"gradient_booster":{"model":{"gbtree_model_param":{"num_trees":"1","size_leaf_vector":"0"},"tree_info":[0],"trees":[{"base_weights":[0.0,0.0,0.0,0.0,0.0,0.0,0.0,0.0,0.0,0.0,0.0,0.0,0.0,0.0,0.0,0.0,0.0,0.0,0.0,0.0,0.0,0.0,0.0,0.0,0.0,0.0,0.0,0.0,0.0,0.0,0.0,0.0,0.0,0.0,0.0,0.0,0.0,0.0,0.0,0.0,0.0,0.0,0.0,0.0,0.0,0.0,0.0,0.0,0.0,0.0,0.0,0.0,0.0,0.0,0.0,0.0,0.0,0.0,0.0,0.0,0.0,0.0,0.0,0.0,0.0,0.0,0.0,0.0,0.0,0.0,0.0,0.0,0.0,0.0,0.0,0.0,0.0,0.0,0.0,0.0,0.0,0.0,0.0,0.0,0.0,0.0,0.0,0.0,0.0,0.0,0.0,0.0,0.0,0.0,0.0,0.0,0.0,0.0,0.0,0.0,0.0,0.0,0.0,0.0,0.0,0.0,0.0,0.0,0.0,0.0,0.0,0.0,0.0,0.0,0.0,0.0,0.0,0.0,0.0,0.0,0.0],"categories":[],"categories_nodes":[],"categories_segments":[],"categories_sizes":[],"default_left":[false,false,false,false,false,false,false,false,false,false,false,false,false,false,false,false,false,false,false,false,false,false,false,false,false,false,false,false,false,false,false,false,false,false,false,false,false,false,false,false,false,false,false,false,false,false,false,false,false,false,false,false,false,false,false,false,false,false,false,false,false,false,false,false,false,false,false,false,false,false,false,false,false,false,false,false,false,false,false,false,false,false,false,false,false,false,false,false,false,false,false,false,false,false,false,false,false,false,false,false,false,false,false,false,false,false,false,false,false,false,false,false,false,false,false,false,false,false,false,false,false],"id":0,"left_children":[1,3,5,7,9,11,13,15,17,19,21,23,25,27,29,-1,31,33,-1,35,-1,37,39,41,43,-1,45,47,49,51,-1,-1,53,-1,-1,-1,55,-1,57,59,-1,-1,61,-1,63,-1,-1,65,-1,67,-1,69,71,-1,-1,73,75,77,-1,79,81,83,85,87,-1,-1,-1,89,-1,-1,91,-1,-1,-1,-1,-1,93,-1,-1,95,-1,-1,-1,97,-1,-1,-1,99,101,103,-1,-1,105,107,-1,109,-1,-1,-1,111,-1,-1,113,115,-1,-1,-1,-1,-1,117,-1,-1,-1,-1,-1,-1,119,-1,-1,-1,-1],"loss_changes":[0.0,0.0,0.0,0.0,0.0,0.0,0.0,0.0,0.0,0.0,0.0,0.0,0.0,0.0,0.0,0.0,0.0,0.0,0.0,0.0,0.0,0.0,0.0,0.0,0.0,0.0,0.0,0.0,0.0,0.0,0.0,0.0,0.0,0.0,0.0,0.0,0.0,0.0,0.0,0.0,0.0,0.0,0.0,0.0,0.0,0.0,0.0,0.0,0.0,0.0,0.0,0.0,0.0,0.0,0.0,0.0,0.0,0.0,0.0,0.0,0.0,0.0,0.0,0.0,0.0,0.0,0.0,0.0,0.0,0.0,0.0,0.0,0.0,0.0,0.0,0.0,0.0,0.0,0.0,0.0,0.0,0.0,0.0,0.0,0.0,0.0,0.0,0.0,0.0,0.0,0.0,0.0,0.0,0.0,0.0,0.0,0.0,0.0,0.0,0.0,0.0,0.0,0.0,0.0,0.0,0.0,0.0,0.0,0.0,0.0,0.0,0.0,0.0,0.0,0.0,0.0,0.0,0.0,0.0,0.0,0.0],"parents":[2147483647,0,0,1,1,2,2,3,3,4,4,5,5,6,6,7,7,8,8,9,9,10,10,11,11,12,12,13,13,14,14,16,16,17,17,19,19,21,21,22,22,23,23,24,24,26,26,27,27,28,28,29,29,32,32,36,36,38,38,39,39,42,42,44,44,47,47,49,49,51,51,52,52,55,55,56,56,57,57,59,59,60,60,61,61,62,62,63,63,67,67,70,70,76,76,79,79,83,83,87,87,88,88,89,89,92,92,93,93,95,95,99,99,102,102,103,103,109,109,116,116],"right_children":[2,4,6,8,10,12,14,16,18,20,22,24,26,28,30,-1,32,34,-1,36,-1,38,40,42,44,-1,46,48,50,52,-1,-1,54,-1,-1,-1,56,-1,58,60,-1,-1,62,-1,64,-1,-1,66,-1,68,-1,70,72,-1,-1,74,76,78,-1,80,82,84,86,88,-1,-1,-1,90,-1,-1,92,-1,-1,-1,-1,-1,94,-1,-1,96,-1,-1,-1,98,-1,-1,-1,100,102,104,-1,-1,106,108,-1,110,-1,-1,-1,112,-1,-1,114,116,-1,-1,-1,-1,-1,118,-1,-1,-1,-1,-1,-1,120,-1,-1,-1,-1],"split_conditions":[-9.607035711832296,5.684487124685326,-1.3105218199225792,3.3446576401894657,-5.37856867787912,-5.766434776898606,-8.855021156212418,-4.770137354338047,7.32545891483219,8.24696554832392,-8.511215648379526,2.95169548015706,9.905154035242148,3.486410157210475,6.601759596618319,7.705119759937137,-2.0043965048278096,-3.417680817965528,5.687988864034349,-8.107310541372595,0.3250368296454056,6.801573766698347,2.675336785676963,-7.767401474601657,-4.886464954658445,-9.5746534165618,2.7755178996783325,-3.233128460159631,-9.081436626235243,-7.769074750888036,9.275695014555591,-0.5642503198970967,7.07966320222765,2.120324601716474,0.22050274971174133,-3.000081908824778,-0.6124187957080292,-4.171839876639867,-7.496246267939236,-8.359547878104182,-3.972089220796211,-9.71670465326348,6.597558813923353,-0.7631035194270908,-3.60607329905565,-6.486500117551342,8.08372628679233,-8.30846313531985,-1.5521750642248993,4.637619290607805,-8.93504784767512,-8.035146786250912,-8.57970180726551,-1.0672195234305342,5.817587302522041,9.220304232708493,9.370997442909253,-3.5747027894752836,9.577725835090735,5.489742923250658,-4.749650679482745,-2.0165244907769004,-7.92776990992351,4.624871879405429,4.027660496964977,3.4795272707090437,-5.037119484363668,-6.373609014779161,-6.614557031505447,-0.3321957645501499,3.49662094691282,7.051391865595868,-8.782620220683091,-4.51259244096303,8.49291137358999,9.390357894210123,-8.862740485714697,6.724381328483201,3.932813502905738,6.943661601890405,7.641477929219146,-3.1811581673274256,2.4356465756984758,9.808247444639232,6.392754446012013,-4.682137658305898,7.163540936748298,-5.87175808956359,-0.5556742096130467,8.260868472293414,-6.744975140661094,4.210770766158415,1.6286046001693535,6.019239062060965,3.6865447374037092,-6.301674988955154,-8.549762326630375,4.732285721587974,-2.825042995039925,1.1596389576953499,-2.9804710697885772,-0.8065378083416146,-0.3890213685556745,9.923057370538924,-9.005974306994583,-2.234113678243732,5.42295933640089,-6.10276531793825,8.009082166754016,-4.416569936184631,3.109656422676588,8.552858077140101,-8.605565641585107,9.272004155331679,-8.179719029174752,-0.40394145751185917,0.4996847983276691,1.964498127139171,-1.8319446430389963,-4.1186347417382905,-1.052917920392403],"split_indices":[1,0,2,1,2,2,1,0,1,2,1,2,1,2,1,0,2,0,0,1,0,0,1,1,2,0,0,1,0,1,0,0,1,0,0,0,0,0,0,2,0,0,0,0,1,0,0,2,0,1,0,2,1,0,0,2,1,1,0,0,1,1,1,2,0,0,0,0,0,0,2,0,0,0,0,0,2,0,0,1,0,0,0,2,0,0,0,0,0,1,0,0,1,1,0,1,0,0,0,2,0,0,1,2,0,0,0,0,0,0,0,0,0,0,0,0,0,0,0,0,0],"sum_hessian":[0.0,0.0,0.0,0.0,0.0,0.0,0.0,0.0,0.0,0.0,0.0,0.0,0.0,0.0,0.0,0.0,0.0,0.0,0.0,0.0,0.0,0.0,0.0,0.0,0.0,0.0,0.0,0.0,0.0,0.0,0.0,0.0,0.0,0.0,0.0,0.0,0.0,0.0,0.0,0.0,0.0,0.0,0.0,0.0,0.0,0.0,0.0,0.0,0.0,0.0,0.0,0.0,0.0,0.0,0.0,0.0,0.0,0.0,0.0,0.0,0.0,0.0,0.0,0.0,0.0,0.0,0.0,0.0,0.0,0.0,0.0,0.0,0.0,0.0,0.0,0.0,0.0,0.0,0.0,0.0,0.0,0.0,0.0,0.0,0.0,0.0,0.0,0.0,0.0,0.0,0.0,0.0,0.0,0.0,0.0,0.0,0.0,0.0,0.0,0.0,0.0,0.0,0.0,0.0,0.0,0.0,0.0,0.0,0.0,0.0,0.0,0.0,0.0,0.0,0.0,0.0,0.0,0.0,0.0,0.0,0.0],"tree_param":{"num_deleted":"0","num_feature":"3","num_nodes":"121","size_leaf_vector":"0"}}]},"name":"gbtree"},"learner_model_param":{"base_score":"5E-1","num_class":"0","num_feature":"3"},"objective":{"name":"reg:squarederror","reg_loss_param":{"scale_pos_weight":"1"}}},"version":[1,4,0]}