{"learner":{"attributes":{},"feature_types":["float","float","float","float","float","float","float","float"],"gradient_booster":{"model":{"gbtree_model_param":{"num_trees":"1","size_leaf_vector":"0"},"tree_info":[0],"trees":[{"base_weights":[0.0,0.0,0.0,0.0,0.0,0.0,0.0,0.0,0.0,0.0,0.0,0.0,0.0,0.0,0.0,0.0,0.0,0.0,0.0,0.0,0.0,0.0,0.0,0.0,0.0,0.0,0.0,0.0,0.0,0.0,0.0,0.0,0.0,0.0,0.0,0.0,0.0,0.0,0.0,0.0,0.0,0.0,0.0,0.0,0.0,0.0,0.0,0.0,0.0,0.0,0.0,0.0,0.0,0.0,0.0,0.0,0.0,0.0,0.0,0.0,0.0,0.0,0.0,0.0,0.0,0.0,0.0,0.0,0.0,0.0,0.0,0.0,0.0,0.0,0.0,0.0,0.0,0.0,0.0,0.0,0.0,0.0,0.0,0.0,0.0,0.0,0.0,0.0,0.0,0.0,0.0,0.0,0.0,0.0,0.0,0.0,0.0,0.0,0.0,0.0,0.0,0.0,0.0,0.0,0.0,0.0,0.0,0.0,0.0,0.0,0.0,0.0,0.0,0.0,0.0,0.0,0.0,0.0,0.0,0.0,0.0,0.0,0.0,0.0,0.0,0.0,0.0,0.0,0.0,0.0,0.0,0.0,0.0,0.0,0.0,0.0,0.0,0.0,0.0,0.0,0.0,0.0,0.0,0.0,0.0],"categories":[],"categories_nodes":[],"categories_segments":[],"categories_sizes":[],"default_left":[false,false,false,false,false,false,false,false,false,false,false,false,false,false,false,false,false,false,false,false,false,false,false,false,false,false,false,false,false,false,false,false,false,false,false,false,false,false,false,false,false,false,false,false,false,false,false,false,false,false,false,false,false,false,false,false,false,false,false,false,false,false,false,false,false,false,false,false,false,false,false,false,false,false,false,false,false,false,false,false,false,false,false,false,false,false,false,false,false,false,false,false,false,false,false,false,false,false,false,false,false,false,false,false,false,false,false,false,false,false,false,false,false,false,false,false,false,false,false,false,false,false,false,false,false,false,false,false,false,false,false,false,false,false,false,false,false,false,false,false,false,false,false,false,false],"id":0,"left_children":[1,3,5,7,9,11,13,15,17,19,21,23,25,27,29,31,33,-1,-1,35,37,39,-1,41,43,45,47,49,-1,51,53,-1,-1,-1,-1,55,57,59,61,63,65,67,69,-1,71,-1,73,75,77,-1,-1,-1,-1,79,-1,81,83,-1,85,-1,-1,87,89,-1,-1,-1,-1,91,-1,-1,93,95,97,99,-1,101,103,-1,105,107,-1,-1,-1,109,111,113,-1,-1,115,-1,-1,117,119,121,123,125,-1,-1,127,-1,129,-1,131,-1,-1,-1,-1,133,-1,135,-1,137,-1,-1,-1,-1,-1,-1,-1,-1,139,-1,-1,-1,-1,-1,-1,-1,-1,-1,-1,-1,141,-1,-1,-1,-1,-1,143,-1,-1,-1,-1,-1,-1],"loss_changes":[0.0,0.0,0.0,0.0,0.0,0.0,0.0,0.0,0.0,0.0,0.0,0.0,0.0,0.0,0.0,0.0,0.0,0.0,0.0,0.0,0.0,0.0,0.0,0.0,0.0,0.0,0.0,0.0,0.0,0.0,0.0,0.0,0.0,0.0,0.0,0.0,0.0,0.0,0.0,0.0,0.0,0.0,0.0,0.0,0.0,0.0,0.0,0.0,0.0,0.0,0.0,0.0,0.0,0.0,0.0,0.0,0.0,0.0,0.0,0.0,0.0,0.0,0.0,0.0,0.0,0.0,0.0,0.0,0.0,0.0,0.0,0.0,0.0,0.0,0.0,0.0,0.0,0.0,0.0,0.0,0.0,0.0,0.0,0.0,0.0,0.0,0.0,0.0,0.0,0.0,0.0,0.0,0.0,0.0,0.0,0.0,0.0,0.0,0.0,0.0,0.0,0.0,0.0,0.0,0.0,0.0,0.0,0.0,0.0,0.0,0.0,0.0,0.0,0.0,0.0,0.0,0.0,0.0,0.0,0.0,0.0,0.0,0.0,0.0,0.0,0.0,0.0,0.0,0.0,0.0,0.0,0.0,0.0,0.0,0.0,0.0,0.0,0.0,0.0,0.0,0.0,0.0,0.0,0.0,0.0],"parents":[2147483647,0,0,1,1,2,2,3,3,4,4,5,5,6,6,7,7,8,8,9,9,10,10,11,11,12,12,13,13,14,14,15,15,16,16,19,19,20,20,21,21,23,23,24,24,25,25,26,26,27,27,29,29,30,30,35,35,36,36,37,37,38,38,39,39,40,40,41,41,42,42,44,44,46,46,47,47,48,48,53,53,55,55,56,56,58,58,61,61,62,62,67,67,70,70,71,71,72,72,73,73,75,75,76,76,78,78,79,79,83,83,84,84,85,85,88,88,91,91,92,92,93,93,94,94,95,95,98,98,100,100,102,102,107,107,109,109,111,111,120,120,132,132,138,138],"right_children":[2,4,6,8,10,12,14,16,18,20,22,24,26,28,30,32,34,-1,-1,36,38,40,-1,42,44,46,48,50,-1,52,54,-1,-1,-1,-1,56,58,60,62,64,66,68,70,-1,72,-1,74,76,78,-1,-1,-1,-1,80,-1,82,84,-1,86,-1,-1,88,90,-1,-1,-1,-1,92,-1,-1,94,96,98,100,-1,102,104,-1,106,108,-1,-1,-1,110,112,114,-1,-1,116,-1,-1,118,120,122,124,126,-1,-1,128,-1,130,-1,132,-1,-1,-1,-1,134,-1,136,-1,138,-1,-1,-1,-1,-1,-1,-1,-1,140,-1,-1,-1,-1,-1,-1,-1,-1,-1,-1,-1,142,-1,-1,-1,-1,-1,144,-1,-1,-1,-1,-1,-1],"split_conditions":[-5.064346305613926,-2.344378407687816,7.262268488512554,-1.4062132627581576,-8.595038965611879,-9.730035450497624,2.351860468029267,6.314808814700257e-05,4.615125283980156,7.044233233648033,8.016790177649401,-2.894346362430462,-5.03290850874802,-2.171048569611333,4.778470364222343,9.5766826675804,-6.364354806846718,-9.597297799106656,-2.1610089542477704,4.833517292029924,-7.878379667904495,4.453163199084905,2.501820135194322,-8.360629022749107,-8.408814502545033,-7.6054988068510845,8.219039024967593,-3.2842588249505544,5.291508020663597,1.33966787350046,9.180118609448861,9.731894752245097,-8.637724093636187,4.436678740835555,-6.16098758514342,7.210268217308485,5.119378802641856,-2.1863606443653136,0.9839856311763562,-6.609233323661434,1.0133620168180872,-3.6564107904369694,5.017472427244801,-3.405222875565914,8.661373139522262,-4.091064975682573,0.2291911637102988,7.353108653732317,-8.552607503706291,7.439880043495222,-9.26864180178603,-7.277668811889025,3.837028422034285,9.54786908213697,-6.063214281937192,-9.587022147392029,-1.8303262092526555,-9.631916989223676,-8.4440073220239,3.424396003539991,7.579168873422493,6.592873763340979,4.2541203014553,6.044735698561137,-1.1105250904955675,1.4623852199270075,-6.81161337399854,5.50407247894746,-2.8560442118502207,-4.908360244395274,4.1435912666772055,-4.181813324566486,9.040726675662864,1.7372973947071717,-4.953832545380202,-6.575816697120139,-3.624518818334624,5.70813821209525,9.700331268584065,2.1080522253016554,-5.546090693215816,-2.2785211129535776,1.0668600407164863,6.509639255568157,7.022416788689064,-5.752972363437399,6.92210650054778,-2.191169606895077,7.555684275015114,2.3166445448944266,4.13925070724693,1.005069885719422,-1.6951543442510015,-8.846759593520847,-3.3297420967666316,5.343228680731984,8.118572959397952,2.406357389180638,-0.14581860665806445,-2.5769016127159237,9.972371836544408,-4.887058534747489,5.453636112578534,3.3681676966463847,5.680558087712889,1.3430299396629337,4.432214600240771,5.701383429388924,6.300295923059657,7.976553698653262,4.225231275745603,-0.25897393843243677,6.4748735869019605,1.3541436305907695,2.6786590468006626,6.2361378874699795,7.046348287627055,-5.263046641095203,1.789966457575673,7.932336058041628,-6.603567082063476,-8.736846930500587,-3.535494531263698,-4.189122045518619,-4.3164392383283445,-4.17840305241603,8.474646342667626,6.075925047273891,-6.21834108303819,-4.998009071253739,-5.670942384625217,-4.7036685986934055,-7.763735784284051,-4.907703169594781,-2.4063819646383973,2.733298282344892,-9.287602520071937,6.060012243902779,4.593485817920204,-6.522095288936706,-5.095173499278309,-1.4420384174447793,8.521617621193254,-3.8391350336214805,-1.8924078336960104],"split_indices":[0,3,1,5,0,6,5,3,2,6,2,5,3,2,3,7,2,0,0,5,2,2,0,0,3,3,1,6,0,0,2,0,0,0,0,6,5,2,1,4,5,1,0,0,1,0,7,6,1,0,0,0,0,0,0,6,5,0,6,0,0,6,7,0,0,0,0,5,0,0,1,6,7,2,0,6,2,0,3,1,0,0,0,1,4,0,0,0,3,0,0,5,0,7,0,7,0,0,0,0,5,0,1,0,0,0,0,6,0,4,0,5,0,0,0,0,0,0,0,0,5,0,0,0,0,0,0,0,0,0,0,0,1,0,0,0,0,0,1,0,0,0,0,0,0],"sum_hessian":[0.0,0.0,0.0,0.0,0.0,0.0,0.0,0.0,0.0,0.0,0.0,0.0,0.0,0.0,0.0,0.0,0.0,0.0,0.0,0.0,0.0,0.0,0.0,0.0,0.0,0.0,0.0,0.0,0.0,0.0,0.0,0.0,0.0,0.0,0.0,0.0,0.0,0.0,0.0,0.0,0.0,0.0,0.0,0.0,0.0,0.0,0.0,0.0,0.0,0.0,0.0,0.0,0.0,0.0,0.0,0.0,0.0,0.0,0.0,0.0,0.0,0.0,0.0,0.0,0.0,0.0,0.0,0.0,0.0,0.0,0.0,0.0,0.0,0.0,0.0,0.0,0.0,0.0,0.0,0.0,0.0,0.0,0.0,0.0,0.0,0.0,0.0,0.0,0.0,0.0,0.0,0.0,0.0,0.0,0.0,0.0,0.0,0.0,0.0,0.0,0.0,0.0,0.0,0.0,0.0,0.0,0.0,0.0,0.0,0.0,0.0,0.0,0.0,0.0,0.0,0.0,0.0,0.0,0.0,0.0,0.0,0.0,0.0,0.0,0.0,0.0,0.0,0.0,0.0,0.0,0.0,0.0,0.0,0.0,0.0,0.0,0.0,0.0,0.0,0.0,0.0,0.0,0.0,0.0,0.0],"tree_param":{"num_deleted":"0","num_feature":"8","num_nodes":"145","size_leaf_vector":"0"}}]},"name":"gbtree"},"learner_model_param":{"base_score":"5E-1","num_class":"0","num_feature":"8"},"objective":{"name":"reg:squarederror","reg_loss_param":{"scale_pos_weight":"1"}}},"version":[1,4,0]}