{"learner":{"attributes":{},"feature_types":["float","float","float","float","float","float","float","float","float","float","float","float","float"],"gradient_booster":{"model":{"gbtree_model_param":{"num_trees":"1","size_leaf_vector":"0"},"tree_info":[0],"trees":[{"base_weights":[0.0,0.0,0.0,0.0,0.0,0.0,0.0,0.0,0.0,0.0,0.0,0.0,0.0,0.0,0.0,0.0,0.0,0.0,0.0,0.0,0.0,0.0,0.0,0.0,0.0,0.0,0.0,0.0,0.0,0.0,0.0,0.0,0.0,0.0,0.0,0.0,0.0,0.0,0.0,0.0,0.0,0.0,0.0,0.0,0.0,0.0,0.0,0.0,0.0,0.0,0.0,0.0,0.0,0.0,0.0,0.0,0.0,0.0,0.0,0.0,0.0,0.0,0.0,0.0,0.0,0.0,0.0,0.0,0.0,0.0,0.0,0.0,0.0,0.0,0.0],"categories":[],"categories_nodes":[],"categories_segments":[],"categories_sizes":[],"default_left":[false,false,false,false,false,false,false,false,false,false,false,false,false,false,false,false,false,false,false,false,false,false,false,false,false,false,false,false,false,false,false,false,false,false,false,false,false,false,false,false,false,false,false,false,false,false,false,false,false,false,false,false,false,false,false,false,false,false,false,false,false,false,false,false,false,false,false,false,false,false,false,false,false,false,false],"id":0,"left_children":[1,3,5,7,-1,9,11,-1,13,15,17,19,21,23,-1,-1,25,-1,27,29,-1,31,33,-1,35,-1,-1,-1,37,39,41,43,45,47,49,51,-1,53,55,-1,-1,-1,57,-1,-1,-1,-1,59,-1,-1,-1,61,-1,-1,-1,-1,-1,63,65,-1,-1,-1,67,-1,-1,69,-1,71,73,-1,-1,-1,-1,-1,-1],"loss_changes":[0.0,0.0,0.0,0.0,0.0,0.0,0.0,0.0,0.0,0.0,0.0,0.0,0.0,0.0,0.0,0.0,0.0,0.0,0.0,0.0,0.0,0.0,0.0,0.0,0.0,0.0,0.0,0.0,0.0,0.0,0.0,0.0,0.0,0.0,0.0,0.0,0.0,0.0,0.0,0.0,0.0,0.0,0.0,0.0,0.0,0.0,0.0,0.0,0.0,0.0,0.0,0.0,0.0,0.0,0.0,0.0,0.0,0.0,0.0,0.0,0.0,0.0,0.0,0.0,0.0,0.0,0.0,0.0,0.0,0.0,0.0,0.0,0.0,0.0,0.0],"parents":[2147483647,0,0,1,1,2,2,3,3,5,5,6,6,8,8,9,9,10,10,11,11,12,12,13,13,16,16,18,18,19,19,21,21,22,22,24,24,28,28,29,29,30,30,31,31,32,32,33,33,34,34,35,35,37,37,38,38,42,42,47,47,51,51,57,57,58,58,62,62,65,65,67,67,68,68],"right_children":[2,4,6,8,-1,10,12,-1,14,16,18,20,22,24,-1,-1,26,-1,28,30,-1,32,34,-1,36,-1,-1,-1,38,40,42,44,46,48,50,52,-1,54,56,-1,-1,-1,58,-1,-1,-1,-1,60,-1,-1,-1,62,-1,-1,-1,-1,-1,64,66,-1,-1,-1,68,-1,-1,70,-1,72,74,-1,-1,-1,-1,-1,-1],"split_conditions":[-2.2095917509167764,0.6637611557834298,-4.551475902531337,-5.974312237168913,-4.598757118547308,-7.383591213256603,3.2620300845192816,-3.095913118603434,3.5237913206143787,-4.37703521165573,7.047482941981595,-7.976144212350802,2.9130090462909166,-1.4189499311845246,8.59827596096751,-9.247221876342975,-7.944262375370958,2.5454147809232968,1.658433027916704,-2.3352810461295164,-8.796982566948113,4.166714809537261,-5.096346340390019,-3.339334719166308,-3.2907860133847073,-4.424206155987176,-4.2283567755650955,1.1818382511735663,-9.762352534498252,-8.490811177963655,4.218670719599068,6.3387529658647885,-7.02706625006561,7.552332930398542,9.123654563227632,2.3871367345638017,6.847801527830491,6.086850954260832,9.048774712286999,-7.015083594646786,0.09752417526352986,2.9853311010236396,4.122260859309579,8.63054891176035,4.1968807421521035,1.4791360445114137,-4.956322552028113,0.49446488119679266,-3.712307777908226,-5.001392731737411,-8.048241070479458,-6.684524716380961,-6.613565350492007,-6.805696011787452,-6.828858361988213,-0.8452703599648093,2.6878755487373205,7.722283564051764,1.9134896653306193,-8.736705453146772,-1.8591569925997735,3.8101836755899434,8.26442838678507,5.316877134786836,-5.596938266954897,3.7498961697799587,3.1775370138002863,0.9652451564633591,4.199424025160885,-8.954582013930525,-9.459496111388823,-0.23697000538683177,-2.6491392387973223,-5.467239868109119,-3.614090077551767],"split_indices":[2,10,6,5,0,12,7,0,5,11,9,10,1,4,0,0,4,0,9,10,0,10,5,0,7,0,0,0,6,10,6,11,3,1,9,7,0,4,3,0,0,0,4,0,0,0,0,4,0,0,0,5,0,0,0,0,0,9,9,0,0,0,7,0,0,0,0,7,7,0,0,0,0,0,0],"sum_hessian":[0.0,0.0,0.0,0.0,0.0,0.0,0.0,0.0,0.0,0.0,0.0,0.0,0.0,0.0,0.0,0.0,0.0,0.0,0.0,0.0,0.0,0.0,0.0,0.0,0.0,0.0,0.0,0.0,0.0,0.0,0.0,0.0,0.0,0.0,0.0,0.0,0.0,0.0,0.0,0.0,0.0,0.0,0.0,0.0,0.0,0.0,0.0,0.0,0.0,0.0,0.0,0.0,0.0,0.0,0.0,0.0,0.0,0.0,0.0,0.0,0.0,0.0,0.0,0.0,0.0,0.0,0.0,0.0,0.0,0.0,0.0,0.0,0.0,0.0,0.0],"tree_param":{"num_deleted":"0","num_feature":"13","num_nodes":"75","size_leaf_vector":"0"}}]},"name":"gbtree"},"learner_model_param":{"base_score":"5E-1","num_class":"0","num_feature":"13"},"objective":{"name":"reg:squarederror","reg_loss_param":{"scale_pos_weight":"1"}}},"version":[1,4,0]}