{"learner":{"attributes":{},"feature_types":["float","float","float","float","float","float","float","float","float"],"gradient_booster":{"model":{"gbtree_model_param":{"num_trees":"1","size_leaf_vector":"0"},"tree_info":[0],"trees":[{"base_weights":[0.0,0.0,0.0,0.0,0.0,0.0,0.0,0.0,0.0,0.0,0.0,0.0,0.0,0.0,0.0,0.0,0.0,0.0,0.0,0.0,0.0,0.0,0.0,0.0,0.0,0.0,0.0,0.0,0.0,0.0,0.0,0.0,0.0,0.0,0.0,0.0,0.0,0.0,0.0,0.0,0.0,0.0,0.0,0.0,0.0,0.0,0.0,0.0,0.0,0.0,0.0,0.0,0.0,0.0,0.0,0.0,0.0,0.0,0.0,0.0,0.0,0.0,0.0,0.0,0.0,0.0,0.0,0.0,0.0,0.0,0.0,0.0,0.0,0.0,0.0,0.0,0.0,0.0,0.0,0.0,0.0,0.0,0.0,0.0,0.0,0.0,0.0,0.0,0.0,0.0,0.0,0.0,0.0,0.0,0.0,0.0,0.0,0.0,0.0,0.0,0.0,0.0,0.0,0.0,0.0,0.0,0.0,0.0,0.0],"categories":[],"categories_nodes":[],"categories_segments":[],"categories_sizes":[],"default_left":[false,false,false,false,false,false,false,false,false,false,false,false,false,false,false,false,false,false,false,false,false,false,false,false,false,false,false,false,false,false,false,false,false,false,false,false,false,false,false,false,false,false,false,false,false,false,false,false,false,false,false,false,false,false,false,false,false,false,false,false,false,false,false,false,false,false,false,false,false,false,false,false,false,false,false,false,false,false,false,false,false,false,false,false,false,false,false,false,false,false,false,false,false,false,false,false,false,false,false,false,false,false,false,false,false,false,false,false,false],"id":0,"left_children":[1,3,5,7,9,11,13,15,17,19,21,23,25,27,-1,-1,29,-1,-1,-1,-1,31,33,35,37,39,41,43,-1,45,47,49,-1,-1,51,53,-1,-1,55,-1,57,59,-1,61,-1,63,65,67,69,-1,71,-1,-1,-1,-1,73,75,-1,77,-1,79,-1,-1,81,83,-1,85,-1,-1,87,-1,89,-1,91,-1,-1,-1,93,95,97,-1,-1,-1,-1,-1,99,-1,-1,-1,-1,101,-1,103,-1,-1,-1,-1,-1,-1,105,107,-1,-1,-1,-1,-1,-1,-1,-1],"loss_changes":[0.0,0.0,0.0,0.0,0.0,0.0,0.0,0.0,0.0,0.0,0.0,0.0,0.0,0.0,0.0,0.0,0.0,0.0,0.0,0.0,0.0,0.0,0.0,0.0,0.0,0.0,0.0,0.0,0.0,0.0,0.0,0.0,0.0,0.0,0.0,0.0,0.0,0.0,0.0,0.0,0.0,0.0,0.0,0.0,0.0,0.0,0.0,0.0,0.0,0.0,0.0,0.0,0.0,0.0,0.0,0.0,0.0,0.0,0.0,0.0,0.0,0.0,0.0,0.0,0.0,0.0,0.0,0.0,0.0,0.0,0.0,0.0,0.0,0.0,0.0,0.0,0.0,0.0,0.0,0.0,0.0,0.0,0.0,0.0,0.0,0.0,0.0,0.0,0.0,0.0,0.0,0.0,0.0,0.0,0.0,0.0,0.0,0.0,0.0,0.0,0.0,0.0,0.0,0.0,0.0,0.0,0.0,0.0,0.0],"parents":[2147483647,0,0,1,1,2,2,3,3,4,4,5,5,6,6,7,7,8,8,9,9,10,10,11,11,12,12,13,13,16,16,21,21,22,22,23,23,24,24,25,25,26,26,27,27,29,29,30,30,31,31,34,34,35,35,38,38,40,40,41,41,43,43,45,45,46,46,47,47,48,48,50,50,55,55,56,56,58,58,60,60,63,63,64,64,66,66,69,69,71,71,73,73,77,77,78,78,79,79,85,85,90,90,92,92,99,99,100,100],"right_children":[2,4,6,8,10,12,14,16,18,20,22,24,26,28,-1,-1,30,-1,-1,-1,-1,32,34,36,38,40,42,44,-1,46,48,50,-1,-1,52,54,-1,-1,56,-1,58,60,-1,62,-1,64,66,68,70,-1,72,-1,-1,-1,-1,74,76,-1,78,-1,80,-1,-1,82,84,-1,86,-1,-1,88,-1,90,-1,92,-1,-1,-1,94,96,98,-1,-1,-1,-1,-1,100,-1,-1,-1,-1,102,-1,104,-1,-1,-1,-1,-1,-1,106,108,-1,-1,-1,-1,-1,-1,-1,-1],"split_conditions":[-7.625058647675603,-9.10505462981668,2.509465404061606,9.40819849774995,-6.262918969348032,4.719398493948006,-7.05874057778672,1.4788078639715003,-5.386358984861699,-1.6976725385575548,2.4885290544605034,5.00852238248795,-4.299198932841208,-0.22644308445808115,-9.120632001460578,1.676891207393128,-5.925636587610172,7.767888025329828,-4.211852033370428,1.6239587755173357,-2.3304557749719947,2.5464409617570745,-0.8661823008205385,-4.992062174461261,0.31783539381223314,-4.654038368152353,3.891531758528652,4.9834127605691805,2.326457289113053,1.7732386284755357,5.562953925692282,-9.139119727773178,-0.44406157516327305,-5.896354085980997,-6.706861284536027,-7.0953310236524105,-7.695438091516385,6.992646586196798,9.174607745420605,-7.590933394127566,1.181054498254376,7.367655015651362,-5.418686819772751,-1.4812258605663473,-6.655854432160349,-3.672111007487471,-3.746826960604981,-0.5033138629130853,-0.25887111618155956,3.259271800398265,7.08449870126347,6.21191018132744,-0.765788234125619,-2.7337802129769475,-6.237569446402398,3.091676832701655,-0.7711301328080786,0.27224693417650947,9.254141212455018,-3.5480500355131923,9.022886965115493,-0.8334524259752385,2.3290469614598823,7.625369483580769,9.210031691407252,-5.646362706521276,-1.0809901893274372,8.05631982328961,5.785429824074715,4.456423996766137,3.269262527569232,3.8097943860985524,-3.590345679426373,4.54761251835812,2.5807798084613953,8.101777594711752,7.154369486075687,9.175543787396762,7.193055115057707,-2.217007921259074,-6.712283981118202,-1.74502785404297,-3.07765113833688,-3.301284366538523,-7.642670540011806,-0.42518839234968375,1.4666024088355893,-0.05155459575257382,-7.492912702165343,-6.241146738982803,-5.135709611346152,8.35597682182761,4.542762635057722,-6.517157453577485,8.55701508275007,4.4756737999507905,-1.4694546779897717,2.534560606466103,0.7359587005347734,6.101650478321382,-5.68692117371326,-0.892850542127622,3.6481989466355564,-5.751296958272717,-3.5197894368417737,-4.481673003168413,-5.175305409000402,-1.2508789971248842,1.96260043983186],"split_indices":[3,8,1,7,5,3,6,8,6,3,1,7,8,3,0,0,2,0,0,0,0,1,2,0,6,7,8,2,0,3,5,8,0,0,1,4,0,0,1,0,0,7,0,3,0,1,3,5,5,0,4,0,0,0,0,8,4,0,4,0,3,0,0,7,0,0,8,0,0,4,0,5,0,5,0,0,0,8,4,4,0,0,0,0,0,1,0,0,0,0,7,0,3,0,0,0,0,0,0,5,5,0,0,0,0,0,0,0,0],"sum_hessian":[0.0,0.0,0.0,0.0,0.0,0.0,0.0,0.0,0.0,0.0,0.0,0.0,0.0,0.0,0.0,0.0,0.0,0.0,0.0,0.0,0.0,0.0,0.0,0.0,0.0,0.0,0.0,0.0,0.0,0.0,0.0,0.0,0.0,0.0,0.0,0.0,0.0,0.0,0.0,0.0,0.0,0.0,0.0,0.0,0.0,0.0,0.0,0.0,0.0,0.0,0.0,0.0,0.0,0.0,0.0,0.0,0.0,0.0,0.0,0.0,0.0,0.0,0.0,0.0,0.0,0.0,0.0,0.0,0.0,0.0,0.0,0.0,0.0,0.0,0.0,0.0,0.0,0.0,0.0,0.0,0.0,0.0,0.0,0.0,0.0,0.0,0.0,0.0,0.0,0.0,0.0,0.0,0.0,0.0,0.0,0.0,0.0,0.0,0.0,0.0,0.0,0.0,0.0,0.0,0.0,0.0,0.0,0.0,0.0],"tree_param":{"num_deleted":"0","num_feature":"9","num_nodes":"109","size_leaf_vector":"0"}}]},"name":"gbtree"},"learner_model_param":{"base_score":"5E-1","num_class":"0","num_feature":"9"},"objective":{"name":"reg:squarederror","reg_loss_param":{"scale_pos_weight":"1"}}},"version":[1,4,0]}