{"learner":{"attributes":{},"feature_types":["float","float"],"gradient_booster":{"model":{"gbtree_model_param":{"num_trees":"2","size_leaf_vector":"0"},"tree_info":[0,0],"trees":[{"base_weights":[0.0,0.0,0.0,0.0,0.0,0.0,0.0,0.0,0.0,0.0,0.0,0.0,0.0,0.0,0.0,0.0,0.0,0.0,0.0,0.0,0.0,0.0,0.0,0.0,0.0,0.0,0.0,0.0,0.0,0.0,0.0,0.0,0.0,0.0,0.0,0.0,0.0,0.0,0.0,0.0,0.0,0.0,0.0,0.0,0.0,0.0,0.0,0.0,0.0,0.0,0.0,0.0,0.0,0.0,0.0,0.0,0.0,0.0,0.0,0.0,0.0,0.0,0.0],"categories":[],"categories_nodes":[],"categories_segments":[],"categories_sizes":[],"default_left":[false,false,false,false,false,false,false,false,false,false,false,false,false,false,false,false,false,false,false,false,false,false,false,false,false,false,false,false,false,false,false,false,false,false,false,false,false,false,false,false,false,false,false,false,false,false,false,false,false,false,false,false,false,false,false,false,false,false,false,false,false,false,false],"id":0,"left_children":[1,3,5,7,9,11,-1,13,-1,15,17,19,21,-1,-1,23,-1,25,27,29,-1,31,33,-1,35,37,-1,39,41,-1,-1,-1,43,-1,-1,-1,45,47,-1,49,-1,51,-1,-1,-1,-1,-1,53,55,-1,-1,57,59,61,-1,-1,-1,-1,-1,-1,-1,-1,-1],"loss_changes":[0.0,0.0,0.0,0.0,0.0,0.0,0.0,0.0,0.0,0.0,0.0,0.0,0.0,0.0,0.0,0.0,0.0,0.0,0.0,0.0,0.0,0.0,0.0,0.0,0.0,0.0,0.0,0.0,0.0,0.0,0.0,0.0,0.0,0.0,0.0,0.0,0.0,0.0,0.0,0.0,0.0,0.0,0.0,0.0,0.0,0.0,0.0,0.0,0.0,0.0,0.0,0.0,0.0,0.0,0.0,0.0,0.0,0.0,0.0,0.0,0.0,0.0,0.0],"parents":[2147483647,0,0,1,1,2,2,3,3,4,4,5,5,7,7,9,9,10,10,11,11,12,12,15,15,17,17,18,18,19,19,21,21,22,22,24,24,25,25,27,27,28,28,32,32,36,36,37,37,39,39,41,41,47,47,48,48,51,51,52,52,53,53],"right_children":[2,4,6,8,10,12,-1,14,-1,16,18,20,22,-1,-1,24,-1,26,28,30,-1,32,34,-1,36,38,-1,40,42,-1,-1,-1,44,-1,-1,-1,46,48,-1,50,-1,52,-1,-1,-1,-1,-1,54,56,-1,-1,58,60,62,-1,-1,-1,-1,-1,-1,-1,-1,-1],"split_conditions":[-1.1833841346211074,5.344564186132011,-7.495145691914447,-7.492126713676743,5.080199159095574,2.5157421827348276,-6.644066572506372,5.211530774523887,-1.2105114138582458,5.164746245624311,4.214465353959964,4.155552864833643,9.11251946648106,-9.9931395360196,1.059989384372095,-5.353406435628117,8.912283593209036,-1.1073080420743882,6.329504152607836,5.180163455840798,5.315301497038998,9.968689702440464,-6.505679258614997,9.076886713555176,7.687752957402093,-5.963188684683728,8.314001588133031,-6.667728979120815,3.7636863119187183,8.837629542756027,-7.913981166974744,-9.644582210489876,4.016473734726027,-6.582435504650785,9.627785413920911,-4.252566119640951,-0.7516958510776046,6.6395763538106465,-6.583795056006979,9.52749556206123,9.812591230989746,1.4607827611037454,-7.173307617166822,-2.823520072716345,8.870653406793323,-9.829974685972093,-7.876952650008068,-1.655500539924473,3.0156835369264297,1.8870234209538275,3.6792596113568052,1.8457831497412123,6.877032348680395,-4.913279796710989,1.1695234717197156,6.7928007984934915,-6.788146701043898,-1.0526661555088932,3.127688413545398,-2.6238113315854683,-1.2130254257370225,-1.0723666977902173,-1.998154809400372],"split_indices":[1,0,1,0,1,1,0,1,0,1,0,1,0,0,0,1,0,0,0,0,0,0,0,0,1,1,0,1,0,0,0,0,0,0,0,0,0,0,0,1,0,1,0,0,0,0,0,1,0,0,0,0,0,0,0,0,0,0,0,0,0,0,0],"sum_hessian":[0.0,0.0,0.0,0.0,0.0,0.0,0.0,0.0,0.0,0.0,0.0,0.0,0.0,0.0,0.0,0.0,0.0,0.0,0.0,0.0,0.0,0.0,0.0,0.0,0.0,0.0,0.0,0.0,0.0,0.0,0.0,0.0,0.0,0.0,0.0,0.0,0.0,0.0,0.0,0.0,0.0,0.0,0.0,0.0,0.0,0.0,0.0,0.0,0.0,0.0,0.0,0.0,0.0,0.0,0.0,0.0,0.0,0.0,0.0,0.0,0.0,0.0,0.0],"tree_param":{"num_deleted":"0","num_feature":"2","num_nodes":"63","size_leaf_vector":"0"}},{"base_weights":[0.0,0.0,0.0,0.0,0.0,0.0,0.0,0.0,0.0,0.0,0.0,0.0,0.0,0.0,0.0,0.0,0.0,0.0,0.0,0.0,0.0,0.0,0.0,0.0,0.0,0.0,0.0,0.0,0.0,0.0,0.0,0.0,0.0,0.0,0.0,0.0,0.0,0.0,0.0,0.0,0.0,0.0,0.0,0.0,0.0,0.0,0.0,0.0,0.0,0.0,0.0,0.0,0.0,0.0,0.0,0.0,0.0,0.0,0.0,0.0,0.0,0.0,0.0,0.0,0.0,0.0,0.0,0.0,0.0,0.0,0.0,0.0,0.0,0.0,0.0,0.0,0.0,0.0,0.0,0.0,0.0,0.0,0.0,0.0,0.0,0.0,0.0,0.0,0.0,0.0,0.0,0.0,0.0,0.0,0.0,0.0,0.0,0.0,0.0,0.0,0.0,0.0,0.0,0.0,0.0,0.0,0.0,0.0,0.0,0.0,0.0,0.0,0.0,0.0,0.0,0.0,0.0,0.0,0.0,0.0,0.0,0.0,0.0,0.0,0.0,0.0,0.0,0.0,0.0,0.0,0.0,0.0,0.0,0.0,0.0],"categories":[],"categories_nodes":[],"categories_segments":[],"categories_sizes":[],"default_left":[false,false,false,false,false,false,false,false,false,false,false,false,false,false,false,false,false,false,false,false,false,false,false,false,false,false,false,false,false,false,false,false,false,false,false,false,false,false,false,false,false,false,false,false,false,false,false,false,false,false,false,false,false,false,false,false,false,false,false,false,false,false,false,false,false,false,false,false,false,false,false,false,false,false,false,false,false,false,false,false,false,false,false,false,false,false,false,false,false,false,false,false,false,false,false,false,false,false,false,false,false,false,false,false,false,false,false,false,false,false,false,false,false,false,false,false,false,false,false,false,false,false,false,false,false,false,false,false,false,false,false,false,false,false,false],"id":1,"left_children":[1,3,5,7,9,11,13,15,17,19,21,23,25,27,29,31,33,-1,-1,-1,35,37,-1,39,41,43,-1,45,47,49,-1,51,53,-1,-1,-1,-1,55,57,59,61,63,65,67,69,-1,-1,71,73,75,-1,77,79,81,-1,-1,83,85,-1,-1,87,-1,89,-1,91,-1,93,-1,95,97,-1,-1,-1,-1,-1,99,-1,101,103,105,-1,107,-1,-1,-1,109,111,-1,-1,-1,113,-1,-1,-1,115,-1,-1,-1,117,119,-1,-1,121,-1,123,-1,-1,125,-1,-1,-1,-1,-1,127,-1,129,-1,-1,-1,131,-1,-1,-1,-1,-1,-1,133,-1,-1,-1,-1,-1,-1,-1,-1],"loss_changes":[0.0,0.0,0.0,0.0,0.0,0.0,0.0,0.0,0.0,0.0,0.0,0.0,0.0,0.0,0.0,0.0,0.0,0.0,0.0,0.0,0.0,0.0,0.0,0.0,0.0,0.0,0.0,0.0,0.0,0.0,0.0,0.0,0.0,0.0,0.0,0.0,0.0,0.0,0.0,0.0,0.0,0.0,0.0,0.0,0.0,0.0,0.0,0.0,0.0,0.0,0.0,0.0,0.0,0.0,0.0,0.0,0.0,0.0,0.0,0.0,0.0,0.0,0.0,0.0,0.0,0.0,0.0,0.0,0.0,0.0,0.0,0.0,0.0,0.0,0.0,0.0,0.0,0.0,0.0,0.0,0.0,0.0,0.0,0.0,0.0,0.0,0.0,0.0,0.0,0.0,0.0,0.0,0.0,0.0,0.0,0.0,0.0,0.0,0.0,0.0,0.0,0.0,0.0,0.0,0.0,0.0,0.0,0.0,0.0,0.0,0.0,0.0,0.0,0.0,0.0,0.0,0.0,0.0,0.0,0.0,0.0,0.0,0.0,0.0,0.0,0.0,0.0,0.0,0.0,0.0,0.0,0.0,0.0,0.0,0.0],"parents":[2147483647,0,0,1,1,2,2,3,3,4,4,5,5,6,6,7,7,8,8,9,9,10,10,11,11,12,12,13,13,14,14,15,15,16,16,20,20,21,21,23,23,24,24,25,25,27,27,28,28,29,29,31,31,32,32,37,37,38,38,39,39,40,40,41,41,42,42,43,43,44,44,47,47,48,48,49,49,51,51,52,52,53,53,56,56,57,57,60,60,62,62,64,64,66,66,68,68,69,69,75,75,77,77,78,78,79,79,81,81,85,85,86,86,90,90,94,94,98,98,99,99,102,102,104,104,107,107,113,113,115,115,119,119,126,126],"right_children":[2,4,6,8,10,12,14,16,18,20,22,24,26,28,30,32,34,-1,-1,-1,36,38,-1,40,42,44,-1,46,48,50,-1,52,54,-1,-1,-1,-1,56,58,60,62,64,66,68,70,-1,-1,72,74,76,-1,78,80,82,-1,-1,84,86,-1,-1,88,-1,90,-1,92,-1,94,-1,96,98,-1,-1,-1,-1,-1,100,-1,102,104,106,-1,108,-1,-1,-1,110,112,-1,-1,-1,114,-1,-1,-1,116,-1,-1,-1,118,120,-1,-1,122,-1,124,-1,-1,126,-1,-1,-1,-1,-1,128,-1,130,-1,-1,-1,132,-1,-1,-1,-1,-1,-1,134,-1,-1,-1,-1,-1,-1,-1,-1],"split_conditions":[-2.3147597948121046,-6.558579969948748,-3.6909320797249254,3.572024399372806,1.3629200101402823,-7.373323613868941,6.512876184182836,1.6233316763920431,3.071152466861143,9.440714354618162,-6.3718882854953804,-1.840490176316985,-3.985794357542596,-4.592582641934922,1.5129621487565803,-0.46268602535799275,-0.18108508042495508,0.026155310526759123,-2.707618488803229,-3.4955551049199505,-2.1988205361478936,2.0891860417398984,2.4391729061135674,-2.674150868805577,0.3452740068003628,-7.371228496706751,-8.852808855022847,1.9076165130153058,-7.666748680773123,-7.793606749820652,-5.357270563586077,-1.1445313571114148,-5.063790684519611,-4.810707713097578,-3.3571448244946387,0.3978571802605462,-7.176945898760591,-6.527077842319747,2.445194057522585,7.3425880085662065,9.753908190967053,0.06820589727194815,-0.8191268107702765,-6.593449620668451,-3.8288302277731114,2.541425418715601,-0.3475833992724624,-6.8091622605202495,4.396087098442422,2.9623779917462656,4.7629189187921135,-5.605269488528132,-3.5694769863785014,0.19600845754603569,1.6236839778017789,-4.360828630182743,3.3478045770577367,-9.000222375186974,-0.5032092632957852,2.8629186626148453,-0.13864052502486146,-2.8856849642584725,3.617906562823272,3.1530760256801607,-0.49614925139370847,-4.3307351968962235,7.748545977174153,-9.699425530646563,8.09554775638522,-5.858268677564898,6.304023699779499,8.149482397434063,8.298137863689252,-1.1632447286314793,0.010705325674493338,7.607173882637987,-6.4136727240538765,0.7623091220768821,-5.718307487328719,-2.866957542984496,7.0457590371039345,-9.73162265953144,-4.43819694414573,-2.7373407685864013,0.23931121397817456,-4.4765573351993835,6.350441498967459,1.843074307945745,8.796542661876586,3.656558615299179,3.215410854909088,-8.93372739003394,-5.911255027544044,-6.3753609245488425,-7.765505137423872,4.959406791793878,-7.389989620335799,0.7057817276160279,4.935958750932821,-7.010193026140826,6.4088384786361985,0.39972783904149445,-2.5265033720292944,1.4152784131617242,-3.4268301580086105,-4.045009925829709,-7.316310193369342,4.430049033231249,-6.272666672432833,7.597937592704881,1.2397473621835715,1.461782529340283,1.0293864395375572,-6.986983673020419,-1.5815440092193391,7.638964323644977,3.9599157608874975,6.194367730655742,6.352559469676475,5.442310136792665,7.053934612995597,-3.785456824393588,8.271389605543984,-4.9454502990928955,-0.9214854465964066,8.925339401413389,9.408652906355833,0.507023707715085,3.2538241716198932,-6.604953500025104,-5.3038488240018244,3.1005569200025,-2.5780351793408682,-4.334236606362097,9.56136561640237],"split_indices":[1,0,0,1,1,0,1,0,0,0,0,0,0,1,0,1,0,0,0,0,1,0,0,1,1,0,0,1,1,0,0,1,0,0,0,0,0,0,0,1,1,1,1,1,0,0,0,0,1,1,0,1,1,0,0,0,0,0,0,0,1,0,0,0,0,0,0,0,1,0,0,0,0,0,0,1,0,1,1,0,0,1,0,0,0,0,0,0,0,0,0,0,0,0,1,0,0,0,1,1,0,0,1,0,0,0,0,1,0,0,0,0,0,0,0,1,0,0,0,0,0,0,0,0,0,0,1,0,0,0,0,0,0,0,0],"sum_hessian":[0.0,0.0,0.0,0.0,0.0,0.0,0.0,0.0,0.0,0.0,0.0,0.0,0.0,0.0,0.0,0.0,0.0,0.0,0.0,0.0,0.0,0.0,0.0,0.0,0.0,0.0,0.0,0.0,0.0,0.0,0.0,0.0,0.0,0.0,0.0,0.0,0.0,0.0,0.0,0.0,0.0,0.0,0.0,0.0,0.0,0.0,0.0,0.0,0.0,0.0,0.0,0.0,0.0,0.0,0.0,0.0,0.0,0.0,0.0,0.0,0.0,0.0,0.0,0.0,0.0,0.0,0.0,0.0,0.0,0.0,0.0,0.0,0.0,0.0,0.0,0.0,0.0,0.0,0.0,0.0,0.0,0.0,0.0,0.0,0.0,0.0,0.0,0.0,0.0,0.0,0.0,0.0,0.0,0.0,0.0,0.0,0.0,0.0,0.0,0.0,0.0,0.0,0.0,0.0,0.0,0.0,0.0,0.0,0.0,0.0,0.0,0.0,0.0,0.0,0.0,0.0,0.0,0.0,0.0,0.0,0.0,0.0,0.0,0.0,0.0,0.0,0.0,0.0,0.0,0.0,0.0,0.0,0.0,0.0,0.0],"tree_param":{"num_deleted":"0","num_feature":"2","num_nodes":"135","size_leaf_vector":"0"}}]},"name":"gbtree"},"learner_model_param":{"base_score":"5E-1","num_class":"0","num_feature":"2"},"objective":{"name":"reg:squarederror","reg_loss_param":{"scale_pos_weight":"1"}}},"version":[1,4,0]}