{"learner":{"attributes":{},"feature_types":["float","float","float","float","float","float","float"],"gradient_booster":{"model":{"gbtree_model_param":{"num_trees":"2","size_leaf_vector":"0"},"tree_info":[0,0],"trees":[{"base_weights":[0.0,0.0,0.0,0.0,0.0,0.0,0.0,0.0,0.0,0.0,0.0,0.0,0.0,0.0,0.0,0.0,0.0,0.0,0.0,0.0,0.0,0.0,0.0,0.0,0.0,0.0,0.0,0.0,0.0,0.0,0.0,0.0,0.0,0.0,0.0,0.0,0.0,0.0,0.0,0.0,0.0,0.0,0.0,0.0,0.0,0.0,0.0,0.0,0.0,0.0,0.0,0.0,0.0,0.0,0.0,0.0,0.0,0.0,0.0,0.0,0.0,0.0,0.0,0.0,0.0,0.0,0.0,0.0,0.0,0.0,0.0,0.0,0.0,0.0,0.0,0.0,0.0,0.0,0.0,0.0,0.0,0.0,0.0,0.0,0.0,0.0,0.0,0.0,0.0,0.0,0.0,0.0,0.0,0.0,0.0,0.0,0.0,0.0,0.0,0.0,0.0,0.0,0.0,0.0,0.0,0.0,0.0,0.0,0.0,0.0,0.0,0.0,0.0,0.0,0.0,0.0,0.0,0.0,0.0,0.0,0.0,0.0,0.0,0.0,0.0,0.0,0.0,0.0,0.0,0.0,0.0,0.0,0.0,0.0,0.0,0.0,0.0,0.0,0.0,0.0,0.0,0.0,0.0,0.0,0.0,0.0,0.0],"categories":[],"categories_nodes":[],"categories_segments":[],"categories_sizes":[],"default_left":[false,false,false,false,false,false,false,false,false,false,false,false,false,false,false,false,false,false,false,false,false,false,false,false,false,false,false,false,false,false,false,false,false,false,false,false,false,false,false,false,false,false,false,false,false,false,false,false,false,false,false,false,false,false,false,false,false,false,false,false,false,false,false,false,false,false,false,false,false,false,false,false,false,false,false,false,false,false,false,false,false,false,false,false,false,false,false,false,false,false,false,false,false,false,false,false,false,false,false,false,false,false,false,false,false,false,false,false,false,false,false,false,false,false,false,false,false,false,false,false,false,false,false,false,false,false,false,false,false,false,false,false,false,false,false,false,false,false,false,false,false,false,false,false,false,false,false],"id":0,"left_children":[1,3,5,7,9,11,13,15,17,19,21,23,25,27,-1,29,31,33,35,37,-1,39,41,43,45,47,-1,-1,49,-1,51,53,55,57,-1,59,61,63,-1,65,67,69,71,-1,-1,-1,-1,-1,73,-1,75,77,79,-1,81,83,-1,-1,-1,-1,-1,85,-1,-1,87,89,91,93,-1,95,97,99,101,103,105,107,-1,109,111,-1,-1,113,-1,115,-1,-1,-1,-1,-1,117,-1,119,-1,121,-1,-1,-1,123,-1,-1,-1,-1,125,-1,-1,127,-1,129,-1,-1,-1,131,-1,133,-1,-1,-1,-1,135,-1,-1,-1,-1,-1,137,-1,-1,-1,139,141,-1,-1,-1,143,-1,-1,-1,-1,-1,-1,-1,-1,145,-1,-1,-1,-1],"loss_changes":[0.0,0.0,0.0,0.0,0.0,0.0,0.0,0.0,0.0,0.0,0.0,0.0,0.0,0.0,0.0,0.0,0.0,0.0,0.0,0.0,0.0,0.0,0.0,0.0,0.0,0.0,0.0,0.0,0.0,0.0,0.0,0.0,0.0,0.0,0.0,0.0,0.0,0.0,0.0,0.0,0.0,0.0,0.0,0.0,0.0,0.0,0.0,0.0,0.0,0.0,0.0,0.0,0.0,0.0,0.0,0.0,0.0,0.0,0.0,0.0,0.0,0.0,0.0,0.0,0.0,0.0,0.0,0.0,0.0,0.0,0.0,0.0,0.0,0.0,0.0,0.0,0.0,0.0,0.0,0.0,0.0,0.0,0.0,0.0,0.0,0.0,0.0,0.0,0.0,0.0,0.0,0.0,0.0,0.0,0.0,0.0,0.0,0.0,0.0,0.0,0.0,0.0,0.0,0.0,0.0,0.0,0.0,0.0,0.0,0.0,0.0,0.0,0.0,0.0,0.0,0.0,0.0,0.0,0.0,0.0,0.0,0.0,0.0,0.0,0.0,0.0,0.0,0.0,0.0,0.0,0.0,0.0,0.0,0.0,0.0,0.0,0.0,0.0,0.0,0.0,0.0,0.0,0.0,0.0,0.0,0.0,0.0],"parents":[2147483647,0,0,1,1,2,2,3,3,4,4,5,5,6,6,7,7,8,8,9,9,10,10,11,11,12,12,13,13,15,15,16,16,17,17,18,18,19,19,21,21,22,22,23,23,24,24,25,25,28,28,30,30,31,31,32,32,33,33,35,35,36,36,37,37,39,39,40,40,41,41,42,42,48,48,50,50,51,51,52,52,54,54,55,55,61,61,64,64,65,65,66,66,67,67,69,69,70,70,71,71,72,72,73,73,74,74,75,75,77,77,78,78,81,81,83,83,89,89,91,91,93,93,97,97,102,102,105,105,107,107,111,111,113,113,118,118,124,124,128,128,129,129,133,133,142,142],"right_children":[2,4,6,8,10,12,14,16,18,20,22,24,26,28,-1,30,32,34,36,38,-1,40,42,44,46,48,-1,-1,50,-1,52,54,56,58,-1,60,62,64,-1,66,68,70,72,-1,-1,-1,-1,-1,74,-1,76,78,80,-1,82,84,-1,-1,-1,-1,-1,86,-1,-1,88,90,92,94,-1,96,98,100,102,104,106,108,-1,110,112,-1,-1,114,-1,116,-1,-1,-1,-1,-1,118,-1,120,-1,122,-1,-1,-1,124,-1,-1,-1,-1,126,-1,-1,128,-1,130,-1,-1,-1,132,-1,134,-1,-1,-1,-1,136,-1,-1,-1,-1,-1,138,-1,-1,-1,140,142,-1,-1,-1,144,-1,-1,-1,-1,-1,-1,-1,-1,146,-1,-1,-1,-1],"split_conditions":[1.742299458349903,-2.549020042011371,-4.512879618985118,6.941902406396544,7.801385658782738,-1.2485782427396312,-8.342492722429988,-9.329656648601572,-4.7950100060392975,2.25746786800568,2.6831380145374553,8.156519225151623,-0.30280732944019384,7.346427766519163,0.8026855726076203,-7.116420737424699,3.729395725436058,4.298821739207755,4.170970921524312,-1.308075359843361,-7.975342364624641,8.60710278669222,-8.11687885431754,4.066389798430501,-3.297695995047304,-8.176238593682402,0.037762561369433456,-4.848863938599262,3.8425024244326327,8.4891226985158,4.757909890086097,-0.30923647603046156,-8.552240132154136,-8.54377580888732,-8.381764378838895,-0.4852466251638141,8.480760115338978,6.209894709058442,5.004575517379875,-0.7238734347639042,5.3511086079751795,1.5905556907303247,-8.453863935774029,8.521457940728826,-9.228390810769092,-4.377254192578869,3.6131368350587127,1.7493135779455393,-1.724580283996687,-8.895617837277788,-1.0117870676961456,-1.4094508238043666,5.867193627861161,-7.930695578887894,3.7839731762671285,8.700701636483462,6.751693804435849,8.304302382149341,-1.7692238858267189,4.238843469968041,-2.1559054337083827,4.130997410578765,1.9238461390136443,3.975783780623871,9.149181517463983,2.884637406597495,-2.0644989608137676,-5.753713576118032,3.903617394894855,-2.24423797261903,3.9077899133020626,-0.25140053986775435,-7.928838035404071,-4.806633832259958,-6.394899434718406,9.1890929559085,-6.739906059293055,4.717909251140158,1.7069728536589945,-9.380981937298689,-7.625248438932031,-6.455245669436415,-7.299876771131498,9.619462961271097,-3.0009938417851254,-2.1693741632874364,9.384225741654618,-1.2564589631375593,7.619826545121416,-7.726517820852285,-3.2566084231546055,-2.310048642253113,2.654679156907431,-2.718740524616475,-9.071330959629144,1.2692719056535822,0.586455716470482,8.923512646630051,9.394886284332923,-0.36508566081114324,7.977416608029074,0.523467802337338,9.15850556587635,4.993077440329257,-6.961990994350526,-1.2989299559913565,-1.5556731326606315,8.62674057937317,5.898993446581294,-9.99352605638761,7.008927105354115,1.2911391431436297,8.40223389395301,3.0419547722592597,4.12941850115627,7.375148559320511,2.862295268768932,-7.733771305675802,8.846852018558785,-5.869007848635709,3.5067303649938246,-1.0633267605523287,7.995272283396979,2.12485516519369,-8.716619920961719,-7.596137228536588,7.984364158794918,-8.3417811053436,4.37579041687817,-6.358543165974789,9.25388129560476,-9.688248985411953,5.637660826392683,-4.5016736420053345,-6.423584338173712,-2.0215802333451247,-1.9156381956152515,0.42018958697584274,-3.8972502015704773,-2.5652160550701364,-0.027124958433205393,7.550095733656068,3.5708846911748164,4.34106522698595,-1.3400566267394645,-5.701294068205741,-1.0893491622004081],"split_indices":[4,0,3,5,2,6,3,1,1,5,0,1,1,4,0,6,4,1,3,2,0,0,5,5,0,4,0,0,3,0,0,5,5,2,0,0,1,0,0,1,1,6,1,0,0,0,0,0,0,0,2,6,4,0,2,4,0,0,0,0,0,4,0,0,5,6,0,3,0,4,4,4,6,3,3,1,0,0,2,0,0,3,0,3,0,0,0,0,0,4,0,5,0,2,0,0,0,0,0,0,0,0,1,0,0,1,0,5,0,0,0,1,0,4,0,0,0,0,5,0,0,0,0,0,3,0,0,0,0,4,0,0,0,5,0,0,0,0,0,0,0,0,0,0,0,0,0],"sum_hessian":[0.0,0.0,0.0,0.0,0.0,0.0,0.0,0.0,0.0,0.0,0.0,0.0,0.0,0.0,0.0,0.0,0.0,0.0,0.0,0.0,0.0,0.0,0.0,0.0,0.0,0.0,0.0,0.0,0.0,0.0,0.0,0.0,0.0,0.0,0.0,0.0,0.0,0.0,0.0,0.0,0.0,0.0,0.0,0.0,0.0,0.0,0.0,0.0,0.0,0.0,0.0,0.0,0.0,0.0,0.0,0.0,0.0,0.0,0.0,0.0,0.0,0.0,0.0,0.0,0.0,0.0,0.0,0.0,0.0,0.0,0.0,0.0,0.0,0.0,0.0,0.0,0.0,0.0,0.0,0.0,0.0,0.0,0.0,0.0,0.0,0.0,0.0,0.0,0.0,0.0,0.0,0.0,0.0,0.0,0.0,0.0,0.0,0.0,0.0,0.0,0.0,0.0,0.0,0.0,0.0,0.0,0.0,0.0,0.0,0.0,0.0,0.0,0.0,0.0,0.0,0.0,0.0,0.0,0.0,0.0,0.0,0.0,0.0,0.0,0.0,0.0,0.0,0.0,0.0,0.0,0.0,0.0,0.0,0.0,0.0,0.0,0.0,0.0,0.0,0.0,0.0,0.0,0.0,0.0,0.0,0.0,0.0],"tree_param":{"num_deleted":"0","num_feature":"7","num_nodes":"147","size_leaf_vector":"0"}},{"base_weights":[0.0,0.0,0.0,0.0,0.0,0.0,0.0,0.0,0.0,0.0,0.0,0.0,0.0,0.0,0.0,0.0,0.0,0.0,0.0,0.0,0.0,0.0,0.0,0.0,0.0,0.0,0.0,0.0,0.0,0.0,0.0,0.0,0.0,0.0,0.0,0.0,0.0,0.0,0.0,0.0,0.0,0.0,0.0,0.0,0.0,0.0,0.0,0.0,0.0,0.0,0.0,0.0,0.0,0.0,0.0,0.0,0.0,0.0,0.0,0.0,0.0,0.0,0.0,0.0,0.0,0.0,0.0,0.0,0.0,0.0,0.0,0.0,0.0,0.0,0.0,0.0,0.0,0.0,0.0,0.0,0.0,0.0,0.0,0.0,0.0,0.0,0.0,0.0,0.0,0.0,0.0,0.0,0.0,0.0,0.0,0.0,0.0,0.0,0.0,0.0,0.0,0.0,0.0,0.0,0.0,0.0,0.0,0.0,0.0,0.0,0.0,0.0,0.0,0.0,0.0,0.0,0.0,0.0,0.0,0.0,0.0,0.0,0.0,0.0,0.0,0.0,0.0,0.0,0.0,0.0,0.0,0.0,0.0,0.0,0.0,0.0,0.0,0.0,0.0,0.0,0.0,0.0,0.0,0.0,0.0,0.0,0.0,0.0,0.0],"categories":[],"categories_nodes":[],"categories_segments":[],"categories_sizes":[],"default_left":[false,false,false,false,false,false,false,false,false,false,false,false,false,false,false,false,false,false,false,false,false,false,false,false,false,false,false,false,false,false,false,false,false,false,false,false,false,false,false,false,false,false,false,false,false,false,false,false,false,false,false,false,false,false,false,false,false,false,false,false,false,false,false,false,false,false,false,false,false,false,false,false,false,false,false,false,false,false,false,false,false,false,false,false,false,false,false,false,false,false,false,false,false,false,false,false,false,false,false,false,false,false,false,false,false,false,false,false,false,false,false,false,false,false,false,false,false,false,false,false,false,false,false,false,false,false,false,false,false,false,false,false,false,false,false,false,false,false,false,false,false,false,false,false,false,false,false,false,false],"id":1,"left_children":[1,3,5,7,9,11,13,15,17,19,21,23,25,-1,27,29,31,-1,33,-1,35,37,39,41,-1,43,-1,45,47,49,51,53,-1,55,57,59,61,63,65,-1,67,-1,69,71,-1,73,-1,-1,-1,-1,75,77,-1,-1,-1,79,81,-1,83,85,-1,87,89,91,93,-1,95,97,99,-1,-1,101,-1,-1,103,-1,-1,105,-1,107,-1,109,-1,-1,-1,111,-1,113,-1,-1,-1,-1,115,-1,117,119,-1,-1,-1,-1,121,-1,123,125,127,-1,-1,-1,129,-1,-1,-1,131,133,-1,-1,-1,-1,-1,-1,-1,-1,135,-1,-1,-1,137,139,-1,141,-1,-1,-1,-1,-1,143,-1,145,-1,147,-1,-1,-1,-1,-1,-1,-1,-1,-1],"loss_changes":[0.0,0.0,0.0,0.0,0.0,0.0,0.0,0.0,0.0,0.0,0.0,0.0,0.0,0.0,0.0,0.0,0.0,0.0,0.0,0.0,0.0,0.0,0.0,0.0,0.0,0.0,0.0,0.0,0.0,0.0,0.0,0.0,0.0,0.0,0.0,0.0,0.0,0.0,0.0,0.0,0.0,0.0,0.0,0.0,0.0,0.0,0.0,0.0,0.0,0.0,0.0,0.0,0.0,0.0,0.0,0.0,0.0,0.0,0.0,0.0,0.0,0.0,0.0,0.0,0.0,0.0,0.0,0.0,0.0,0.0,0.0,0.0,0.0,0.0,0.0,0.0,0.0,0.0,0.0,0.0,0.0,0.0,0.0,0.0,0.0,0.0,0.0,0.0,0.0,0.0,0.0,0.0,0.0,0.0,0.0,0.0,0.0,0.0,0.0,0.0,0.0,0.0,0.0,0.0,0.0,0.0,0.0,0.0,0.0,0.0,0.0,0.0,0.0,0.0,0.0,0.0,0.0,0.0,0.0,0.0,0.0,0.0,0.0,0.0,0.0,0.0,0.0,0.0,0.0,0.0,0.0,0.0,0.0,0.0,0.0,0.0,0.0,0.0,0.0,0.0,0.0,0.0,0.0,0.0,0.0,0.0,0.0,0.0,0.0],"parents":[2147483647,0,0,1,1,2,2,3,3,4,4,5,5,6,6,7,7,8,8,9,9,10,10,11,11,12,12,14,14,15,15,16,16,18,18,20,20,21,21,22,22,23,23,25,25,27,27,28,28,29,29,30,30,31,31,33,33,34,34,35,35,36,36,37,37,38,38,40,40,42,42,43,43,45,45,50,50,51,51,55,55,56,56,58,58,59,59,61,61,62,62,63,63,64,64,66,66,67,67,68,68,71,71,74,74,77,77,79,79,81,81,85,85,87,87,92,92,94,94,95,95,100,100,102,102,103,103,104,104,108,108,112,112,113,113,122,122,126,126,127,127,129,129,135,135,137,137,139,139],"right_children":[2,4,6,8,10,12,14,16,18,20,22,24,26,-1,28,30,32,-1,34,-1,36,38,40,42,-1,44,-1,46,48,50,52,54,-1,56,58,60,62,64,66,-1,68,-1,70,72,-1,74,-1,-1,-1,-1,76,78,-1,-1,-1,80,82,-1,84,86,-1,88,90,92,94,-1,96,98,100,-1,-1,102,-1,-1,104,-1,-1,106,-1,108,-1,110,-1,-1,-1,112,-1,114,-1,-1,-1,-1,116,-1,118,120,-1,-1,-1,-1,122,-1,124,126,128,-1,-1,-1,130,-1,-1,-1,132,134,-1,-1,-1,-1,-1,-1,-1,-1,136,-1,-1,-1,138,140,-1,142,-1,-1,-1,-1,-1,144,-1,146,-1,148,-1,-1,-1,-1,-1,-1,-1,-1,-1],"split_conditions":[4.564882994598694,-0.7977777387472464,-6.96511843031837,1.5331950803426597,6.7204749073880095,5.092932340419461,9.469099942816673,8.572751393263516,5.44483265163583,-8.288598036344442,-8.619912855271446,6.366467869976841,-4.042554245335638,-0.4985313012828101,-7.3299383426862645,4.397393053576925,0.49137283623208106,8.590941496504808,6.282628498168819,-6.01689218083017,-2.0471385167124776,5.414131013242917,-0.3812712218828338,-7.615933083871286,-3.4769173721483684,-3.3207945529804705,-0.6138760192343629,-0.9116157223624839,-7.007034225981304,7.185289408350201,0.9837866810548448,-5.704718944791292,-2.5027740254980566,-5.348326261539088,-7.186051591267807,-8.032457472847591,7.898449681282482,-6.619495455290654,-1.6761459546919184,1.375053999656572,-0.6658357390226559,-2.2312546340528074,-9.255134053043255,-8.14796911386345,-4.784798644596177,-9.329292367435182,-4.826647189076631,-0.009109467772786317,-8.60827843306586,3.9961883139916274,3.922107496356384,7.479396079546888,-7.995115665782219,1.7380502342579405,-7.11530445165905,7.381908771830716,-4.051594348869363,0.235853849466249,-9.437706784562238,6.463293655889711,-9.207336594903527,-1.9068276094481398,-9.251645842507516,-0.28029896601061743,7.20014175514622,5.642994982566085,-1.4544853743193649,-2.091437987132223,6.806178663591787,1.2533187953906335,-7.985498538295459,-7.579919103364225,-8.836231650427509,7.126620361524427,-7.696438242895651,-9.101189856332578,-1.4331797142632734,4.074143637535137,3.178947666387577,1.1566273903961886,-5.343973130056557,-1.2163534829272002,-5.2528128614271745,0.4747651361443346,-5.68773315538923,2.8679861230094605,-3.215504776698973,0.20271522763420968,8.652746337363897,7.3099799737972795,4.6774764438122425,6.704304396183421,-7.6967520067624395,-5.6489706268573086,-9.715551744599518,6.545221317407076,-0.20858161668975939,-6.423860210441871,4.774727895911745,8.079983782954248,9.912489418211091,9.735159335438762,2.549456485042212,5.7977239242745,-2.4702443721114777,8.183933338739372,-9.814954054907554,1.7465820632347278,-9.348935898887124,-0.5663251877292641,3.409814469538187,9.182718041032185,8.569077613269911,-6.9703272381492605,-0.9406834631080141,-9.12781845118731,-8.198091100342394,9.299577403130229,-5.649066880152182,-4.624411069581401,3.3783064655716437,6.147333639543014,8.787375907193493,-1.6529105232622605,8.64726061514116,-8.414781805788003,0.847623389868291,-3.4502478508090997,7.527581565001004,7.907752421444478,7.060466423554196,-4.510695158700812,6.008682463550215,-2.622893576259239,-4.603054940047614,9.381139342675269,8.856719994935439,-3.1296093569766716,-8.286020782192153,9.49448440982803,-1.4010715120436945,-8.585792456348187,9.932260816479285,-8.06287905405193,-4.033753528975286,-6.064012199138709,0.13228612613637125,-9.880510644723678,2.466222037334166],"split_indices":[4,0,1,6,3,3,0,3,0,5,5,5,1,0,3,4,6,0,4,0,1,0,6,4,0,6,0,1,6,6,1,4,0,3,5,2,2,5,6,0,6,0,3,3,0,4,0,0,0,0,6,4,0,0,0,4,2,0,0,6,0,4,1,4,1,0,1,1,5,0,0,3,0,0,6,0,0,5,0,1,0,6,0,0,0,1,0,6,0,0,0,0,5,0,6,4,0,0,0,0,6,0,6,2,1,0,0,0,3,0,0,0,0,1,0,0,0,0,0,0,0,0,1,0,0,0,4,1,0,6,0,0,0,0,0,3,0,3,0,2,0,0,0,0,0,0,0,0,0],"sum_hessian":[0.0,0.0,0.0,0.0,0.0,0.0,0.0,0.0,0.0,0.0,0.0,0.0,0.0,0.0,0.0,0.0,0.0,0.0,0.0,0.0,0.0,0.0,0.0,0.0,0.0,0.0,0.0,0.0,0.0,0.0,0.0,0.0,0.0,0.0,0.0,0.0,0.0,0.0,0.0,0.0,0.0,0.0,0.0,0.0,0.0,0.0,0.0,0.0,0.0,0.0,0.0,0.0,0.0,0.0,0.0,0.0,0.0,0.0,0.0,0.0,0.0,0.0,0.0,0.0,0.0,0.0,0.0,0.0,0.0,0.0,0.0,0.0,0.0,0.0,0.0,0.0,0.0,0.0,0.0,0.0,0.0,0.0,0.0,0.0,0.0,0.0,0.0,0.0,0.0,0.0,0.0,0.0,0.0,0.0,0.0,0.0,0.0,0.0,0.0,0.0,0.0,0.0,0.0,0.0,0.0,0.0,0.0,0.0,0.0,0.0,0.0,0.0,0.0,0.0,0.0,0.0,0.0,0.0,0.0,0.0,0.0,0.0,0.0,0.0,0.0,0.0,0.0,0.0,0.0,0.0,0.0,0.0,0.0,0.0,0.0,0.0,0.0,0.0,0.0,0.0,0.0,0.0,0.0,0.0,0.0,0.0,0.0,0.0,0.0],"tree_param":{"num_deleted":"0","num_feature":"7","num_nodes":"149","size_leaf_vector":"0"}}]},"name":"gbtree"},"learner_model_param":{"base_score":"5E-1","num_class":"0","num_feature":"7"},"objective":{"name":"reg:squarederror","reg_loss_param":{"scale_pos_weight":"1"}}},"version":[1,4,0]}