{"learner":{"attributes":{},"feature_types":["float","float","float","float","float"],"gradient_booster":{"model":{"gbtree_model_param":{"num_trees":"2","size_leaf_vector":"0"},"tree_info":[0,0],"trees":[{"base_weights":[0.0,0.0,0.0,0.0,0.0,0.0,0.0,0.0,0.0,0.0,0.0,0.0,0.0,0.0,0.0,0.0,0.0,0.0,0.0,0.0,0.0,0.0,0.0,0.0,0.0,0.0,0.0,0.0,0.0,0.0,0.0,0.0,0.0,0.0,0.0,0.0,0.0,0.0,0.0,0.0,0.0,0.0,0.0,0.0,0.0,0.0,0.0,0.0,0.0,0.0,0.0,0.0,0.0,0.0,0.0,0.0,0.0,0.0,0.0,0.0,0.0,0.0,0.0,0.0,0.0,0.0,0.0,0.0,0.0,0.0,0.0,0.0,0.0,0.0,0.0,0.0,0.0,0.0,0.0,0.0,0.0,0.0,0.0,0.0,0.0,0.0,0.0,0.0,0.0,0.0,0.0,0.0,0.0,0.0,0.0,0.0,0.0,0.0,0.0,0.0,0.0,0.0,0.0,0.0,0.0,0.0,0.0,0.0,0.0,0.0,0.0,0.0,0.0,0.0,0.0,0.0,0.0,0.0,0.0,0.0,0.0,0.0,0.0,0.0,0.0,0.0,0.0,0.0,0.0,0.0,0.0,0.0,0.0,0.0,0.0,0.0,0.0,0.0,0.0,0.0,0.0],"categories":[],"categories_nodes":[],"categories_segments":[],"categories_sizes":[],"default_left":[false,false,false,false,false,false,false,false,false,false,false,false,false,false,false,false,false,false,false,false,false,false,false,false,false,false,false,false,false,false,false,false,false,false,false,false,false,false,false,false,false,false,false,false,false,false,false,false,false,false,false,false,false,false,false,false,false,false,false,false,false,false,false,false,false,false,false,false,false,false,false,false,false,false,false,false,false,false,false,false,false,false,false,false,false,false,false,false,false,false,false,false,false,false,false,false,false,false,false,false,false,false,false,false,false,false,false,false,false,false,false,false,false,false,false,false,false,false,false,false,false,false,false,false,false,false,false,false,false,false,false,false,false,false,false,false,false,false,false,false,false],"id":0,"left_children":[1,3,5,7,9,11,13,15,17,19,21,-1,23,25,27,-1,29,31,33,-1,35,37,39,41,43,45,47,49,51,53,-1,55,-1,-1,-1,-1,-1,-1,-1,-1,57,59,61,-1,63,-1,65,67,69,71,73,75,77,79,81,83,-1,-1,-1,85,-1,-1,-1,-1,87,-1,89,91,-1,-1,93,-1,-1,-1,-1,95,-1,97,99,-1,-1,-1,101,103,-1,105,107,-1,-1,109,-1,-1,-1,111,113,-1,-1,115,117,119,-1,-1,-1,-1,-1,121,-1,123,-1,125,127,-1,-1,-1,-1,-1,129,-1,131,-1,133,-1,-1,-1,135,-1,-1,137,-1,-1,139,-1,-1,-1,-1,-1,-1,-1,-1,-1,-1],"loss_changes":[0.0,0.0,0.0,0.0,0.0,0.0,0.0,0.0,0.0,0.0,0.0,0.0,0.0,0.0,0.0,0.0,0.0,0.0,0.0,0.0,0.0,0.0,0.0,0.0,0.0,0.0,0.0,0.0,0.0,0.0,0.0,0.0,0.0,0.0,0.0,0.0,0.0,0.0,0.0,0.0,0.0,0.0,0.0,0.0,0.0,0.0,0.0,0.0,0.0,0.0,0.0,0.0,0.0,0.0,0.0,0.0,0.0,0.0,0.0,0.0,0.0,0.0,0.0,0.0,0.0,0.0,0.0,0.0,0.0,0.0,0.0,0.0,0.0,0.0,0.0,0.0,0.0,0.0,0.0,0.0,0.0,0.0,0.0,0.0,0.0,0.0,0.0,0.0,0.0,0.0,0.0,0.0,0.0,0.0,0.0,0.0,0.0,0.0,0.0,0.0,0.0,0.0,0.0,0.0,0.0,0.0,0.0,0.0,0.0,0.0,0.0,0.0,0.0,0.0,0.0,0.0,0.0,0.0,0.0,0.0,0.0,0.0,0.0,0.0,0.0,0.0,0.0,0.0,0.0,0.0,0.0,0.0,0.0,0.0,0.0,0.0,0.0,0.0,0.0,0.0,0.0],"parents":[2147483647,0,0,1,1,2,2,3,3,4,4,5,5,6,6,7,7,8,8,9,9,10,10,12,12,13,13,14,14,16,16,17,17,18,18,20,20,21,21,22,22,23,23,24,24,25,25,26,26,27,27,28,28,29,29,31,31,40,40,41,41,42,42,44,44,46,46,47,47,48,48,49,49,50,50,51,51,52,52,53,53,54,54,55,55,59,59,64,64,66,66,67,67,70,70,75,75,77,77,78,78,82,82,83,83,85,85,86,86,89,89,93,93,94,94,97,97,98,98,99,99,105,105,107,107,109,109,110,110,116,116,118,118,120,120,124,124,127,127,130,130],"right_children":[2,4,6,8,10,12,14,16,18,20,22,-1,24,26,28,-1,30,32,34,-1,36,38,40,42,44,46,48,50,52,54,-1,56,-1,-1,-1,-1,-1,-1,-1,-1,58,60,62,-1,64,-1,66,68,70,72,74,76,78,80,82,84,-1,-1,-1,86,-1,-1,-1,-1,88,-1,90,92,-1,-1,94,-1,-1,-1,-1,96,-1,98,100,-1,-1,-1,102,104,-1,106,108,-1,-1,110,-1,-1,-1,112,114,-1,-1,116,118,120,-1,-1,-1,-1,-1,122,-1,124,-1,126,128,-1,-1,-1,-1,-1,130,-1,132,-1,134,-1,-1,-1,136,-1,-1,138,-1,-1,140,-1,-1,-1,-1,-1,-1,-1,-1,-1,-1],"split_conditions":[1.6131089576984063,-2.3392905746964354,-5.716742155123883,7.435983304957844,1.9258098444840055,-0.3862736689988946,-5.809725418435931,9.14409874021857,3.1963190587693173,-1.3326898878429532,-0.3807075014409449,-8.49206298588792,8.909360329037284,1.5982625177460932,2.1437916295597788,7.543360358643248,-8.548709500159418,-2.510394262674449,-0.9896007488991962,-9.544591579000347,0.8277522062169869,8.298322331972482,8.887161333123554,2.715847657658937,4.139244003094094,3.5797410061848147,5.696210374040003,-2.044033544961895,0.8032496228520785,1.1963414371484085,1.6866034735840234,7.8345134730366155,4.376558380652433,-1.8208275708603647,-5.9697237704014245,-9.605277103584555,3.32702069205385,-9.63959954317891,-8.009965877556922,-7.8415060201273885,-2.118421075170427,-4.725968047163834,-2.756852845110787,0.1375566451272725,5.347171220341247,-4.136404691619743,-6.093236077639467,-5.031255386686982,-5.154296394602355,-5.132715930184367,-6.558873676175231,6.832261925675201,-0.7673509431191352,-7.120937492885853,-9.259363674802229,5.02445157575378,-5.1094951472100005,-5.733591723546329,-4.553845835496873,7.4211343750367575,-8.344375053166205,-4.967461901426072,6.52601934862945,-6.024143133755171,-4.872312938504601,4.0728097472155085,9.177688581212323,0.7256052500465575,-4.808938049092294,5.766571174972935,6.807405375442851,-8.52004547161191,-7.767252773771839,-9.75347989709338,5.312932668611555,6.523731130719128,9.554553094754127,9.719419309823504,4.722977676317818,8.854139570794239,-3.7926153721019107,5.123688208110623,-1.4105386759888248,8.472816550211402,-3.2555669060208734,7.7774350690745955,5.748503111124332,6.964282837146481,5.82248108335137,1.6289416676442965,1.1582435137162648,-4.073732660928046,5.60423379905146,-2.7659445815862007,-9.1567310076354,-1.113934332187922,-0.7272705276144968,4.74303605930514,-8.187725023875057,-2.827657613519678,8.531534181873926,1.8283586376584857,-6.861652492559083,7.470994327275115,-8.68671000013468,7.084618486981405,8.550380811707512,5.9437214439670605,5.337286029090187,-8.417574251895326,-8.107719659387055,4.856808494979919,0.7239139686634815,5.497537981707804,4.885954393627847,-8.862577761168842,0.6922676003073249,6.046103344213996,0.5782635468766539,3.8391050056020006,-1.397724796210504,-7.11160801711496,4.316167538377414,3.9609317525804517,-7.841832241972714,7.2746101965769014,-0.02188921067655869,-3.490009456864378,-1.5601842253228675,-5.822683149607787,-9.552573849361927,-1.4378674488038907,2.538818018288829,-7.190662762720265,-6.867620789521197,5.222348618966926,-6.033994589726074,7.468593440333603,-7.630753588964376,-7.820596196034456,-9.906042278386668],"split_indices":[2,0,3,4,4,4,4,0,0,4,3,0,4,4,3,0,3,0,3,0,1,0,2,1,2,2,4,0,4,4,0,4,0,0,0,0,0,0,0,0,0,3,1,0,4,0,3,2,3,1,2,3,0,3,4,3,0,0,0,3,0,0,0,0,3,0,0,4,0,0,0,0,0,0,0,2,0,2,0,0,0,0,3,0,0,4,1,0,0,1,0,0,0,3,0,0,0,2,3,1,0,0,0,0,0,2,0,2,0,3,3,0,0,0,0,0,1,0,0,0,2,0,0,0,1,0,0,3,0,0,1,0,0,0,0,0,0,0,0,0,0],"sum_hessian":[0.0,0.0,0.0,0.0,0.0,0.0,0.0,0.0,0.0,0.0,0.0,0.0,0.0,0.0,0.0,0.0,0.0,0.0,0.0,0.0,0.0,0.0,0.0,0.0,0.0,0.0,0.0,0.0,0.0,0.0,0.0,0.0,0.0,0.0,0.0,0.0,0.0,0.0,0.0,0.0,0.0,0.0,0.0,0.0,0.0,0.0,0.0,0.0,0.0,0.0,0.0,0.0,0.0,0.0,0.0,0.0,0.0,0.0,0.0,0.0,0.0,0.0,0.0,0.0,0.0,0.0,0.0,0.0,0.0,0.0,0.0,0.0,0.0,0.0,0.0,0.0,0.0,0.0,0.0,0.0,0.0,0.0,0.0,0.0,0.0,0.0,0.0,0.0,0.0,0.0,0.0,0.0,0.0,0.0,0.0,0.0,0.0,0.0,0.0,0.0,0.0,0.0,0.0,0.0,0.0,0.0,0.0,0.0,0.0,0.0,0.0,0.0,0.0,0.0,0.0,0.0,0.0,0.0,0.0,0.0,0.0,0.0,0.0,0.0,0.0,0.0,0.0,0.0,0.0,0.0,0.0,0.0,0.0,0.0,0.0,0.0,0.0,0.0,0.0,0.0,0.0],"tree_param":{"num_deleted":"0","num_feature":"5","num_nodes":"141","size_leaf_vector":"0"}},{"base_weights":[0.0,0.0,0.0,0.0,0.0,0.0,0.0,0.0,0.0,0.0,0.0,0.0,0.0,0.0,0.0,0.0,0.0,0.0,0.0,0.0,0.0,0.0,0.0,0.0,0.0,0.0,0.0,0.0,0.0,0.0,0.0,0.0,0.0,0.0,0.0,0.0,0.0,0.0,0.0,0.0,0.0,0.0,0.0,0.0,0.0,0.0,0.0,0.0,0.0,0.0,0.0,0.0,0.0,0.0,0.0,0.0,0.0,0.0,0.0,0.0,0.0,0.0,0.0,0.0,0.0,0.0,0.0,0.0,0.0,0.0,0.0,0.0,0.0,0.0,0.0,0.0,0.0,0.0,0.0,0.0,0.0,0.0,0.0,0.0,0.0,0.0,0.0,0.0,0.0,0.0,0.0,0.0,0.0,0.0,0.0,0.0,0.0,0.0,0.0,0.0,0.0,0.0,0.0,0.0,0.0,0.0,0.0,0.0,0.0,0.0,0.0,0.0,0.0,0.0,0.0,0.0,0.0,0.0,0.0,0.0,0.0,0.0,0.0,0.0,0.0,0.0,0.0,0.0,0.0,0.0,0.0,0.0,0.0,0.0,0.0],"categories":[],"categories_nodes":[],"categories_segments":[],"categories_sizes":[],"default_left":[false,false,false,false,false,false,false,false,false,false,false,false,false,false,false,false,false,false,false,false,false,false,false,false,false,false,false,false,false,false,false,false,false,false,false,false,false,false,false,false,false,false,false,false,false,false,false,false,false,false,false,false,false,false,false,false,false,false,false,false,false,false,false,false,false,false,false,false,false,false,false,false,false,false,false,false,false,false,false,false,false,false,false,false,false,false,false,false,false,false,false,false,false,false,false,false,false,false,false,false,false,false,false,false,false,false,false,false,false,false,false,false,false,false,false,false,false,false,false,false,false,false,false,false,false,false,false,false,false,false,false,false,false,false,false],"id":1,"left_children":[1,3,5,7,9,11,13,15,-1,17,-1,19,21,23,25,-1,27,29,-1,31,33,35,37,39,41,43,45,47,49,-1,51,-1,53,55,57,-1,59,61,-1,63,65,67,69,-1,-1,71,73,-1,-1,75,-1,-1,77,-1,-1,-1,79,81,83,85,87,-1,-1,89,-1,91,93,95,-1,-1,97,99,-1,-1,-1,101,103,-1,105,-1,107,-1,-1,-1,109,-1,111,-1,-1,-1,-1,113,-1,-1,-1,-1,115,-1,-1,-1,-1,-1,-1,-1,117,119,-1,-1,-1,-1,121,123,125,-1,127,-1,129,-1,-1,-1,-1,-1,-1,-1,131,-1,-1,133,-1,-1,-1,-1,-1,-1,-1],"loss_changes":[0.0,0.0,0.0,0.0,0.0,0.0,0.0,0.0,0.0,0.0,0.0,0.0,0.0,0.0,0.0,0.0,0.0,0.0,0.0,0.0,0.0,0.0,0.0,0.0,0.0,0.0,0.0,0.0,0.0,0.0,0.0,0.0,0.0,0.0,0.0,0.0,0.0,0.0,0.0,0.0,0.0,0.0,0.0,0.0,0.0,0.0,0.0,0.0,0.0,0.0,0.0,0.0,0.0,0.0,0.0,0.0,0.0,0.0,0.0,0.0,0.0,0.0,0.0,0.0,0.0,0.0,0.0,0.0,0.0,0.0,0.0,0.0,0.0,0.0,0.0,0.0,0.0,0.0,0.0,0.0,0.0,0.0,0.0,0.0,0.0,0.0,0.0,0.0,0.0,0.0,0.0,0.0,0.0,0.0,0.0,0.0,0.0,0.0,0.0,0.0,0.0,0.0,0.0,0.0,0.0,0.0,0.0,0.0,0.0,0.0,0.0,0.0,0.0,0.0,0.0,0.0,0.0,0.0,0.0,0.0,0.0,0.0,0.0,0.0,0.0,0.0,0.0,0.0,0.0,0.0,0.0,0.0,0.0,0.0,0.0],"parents":[2147483647,0,0,1,1,2,2,3,3,4,4,5,5,6,6,7,7,9,9,11,11,12,12,13,13,14,14,16,16,17,17,19,19,20,20,21,21,22,22,23,23,24,24,25,25,26,26,27,27,28,28,30,30,32,32,33,33,34,34,36,36,37,37,39,39,40,40,41,41,42,42,45,45,46,46,49,49,52,52,56,56,57,57,58,58,59,59,60,60,63,63,65,65,66,66,67,67,70,70,71,71,75,75,76,76,78,78,80,80,84,84,86,86,91,91,96,96,104,104,105,105,110,110,111,111,112,112,114,114,116,116,124,124,127,127],"right_children":[2,4,6,8,10,12,14,16,-1,18,-1,20,22,24,26,-1,28,30,-1,32,34,36,38,40,42,44,46,48,50,-1,52,-1,54,56,58,-1,60,62,-1,64,66,68,70,-1,-1,72,74,-1,-1,76,-1,-1,78,-1,-1,-1,80,82,84,86,88,-1,-1,90,-1,92,94,96,-1,-1,98,100,-1,-1,-1,102,104,-1,106,-1,108,-1,-1,-1,110,-1,112,-1,-1,-1,-1,114,-1,-1,-1,-1,116,-1,-1,-1,-1,-1,-1,-1,118,120,-1,-1,-1,-1,122,124,126,-1,128,-1,130,-1,-1,-1,-1,-1,-1,-1,132,-1,-1,134,-1,-1,-1,-1,-1,-1,-1],"split_conditions":[4.003545859960482,0.4917102229452581,0.3298322421927953,5.20011781071976,9.289425159163574,-1.6446171020397333,8.11891776941166,2.2758176682365434,9.907168620040046,8.684768128918549,-7.527224638259337,4.334740104576429,-5.729297259303311,8.91410346674449,-7.699381611449928,5.037286822422082,9.284773390277557,-8.636712043269016,7.944359496459832,-1.8079164203019626,-9.702447279389954,2.6175337288079596,-5.393910472037794,-2.694872149915808,4.1779063874125875,3.0856894964610486,-1.6785032574318297,1.0109946647602381,-6.348693316797554,-9.58851086413545,-4.064736727725986,-8.905027648239706,9.216470885471505,-5.878153848530273,7.730453462848818,8.241272177224602,-4.770841707707118,7.602465780304165,-1.363707360090892,-4.82685500328254,9.79797319201726,9.990965910741437,6.3070280283389195,2.1979067780489245,-6.186507525677078,-7.145937491831535,-1.1145773227034539,5.873491699727737,7.999009727626941,-1.97084397111243,-1.99090020814279,4.558978138474231,9.073882787037924,-1.796414236135785,-9.276535450679262,5.8202417556342585,-1.591445167309466,-4.4413826122182964,-8.701008398031128,9.026335406981346,-0.6673927027766027,-3.7205830778680156,4.7839063617646325,8.53526780501804,-8.28915234951507,9.939282595301545,-4.885651185288028,-5.918275946554555,9.939443747299062,-7.016067099698981,5.172077221761906,-4.612836742438036,-4.315534940505302,6.811858452495457,-2.5670145817658883,4.060583635182963,5.341609914362142,6.930109617019976,-2.252628816504446,-6.935557128358586,-2.278054913175758,-9.23336865429854,-3.62785308772665,7.019807290136772,2.2534903740016343,1.5422119131154606,-6.4033917811485725,-8.20689649270565,4.44818562181003,-7.81088053688458,-8.680960709193743,-6.5875358743332395,-4.916705007138919,0.13873598732853587,4.541373888005911,-4.463808754056889,2.57550964951999,0.947657472661076,-1.7706062799949969,-4.580735104699024,-7.215751600851954,2.1174482056624235,9.611063370154014,-6.493746892165691,-1.996779972059219,-2.0939788426205306,-8.870763819993515,-2.5337165520519314,1.3022210404747252,-6.160550498465867,-7.107154942722798,-7.936595852992827,3.8312644497599297,6.262265296759644,2.546538456790204,-8.731427820158856,-9.212219733617827,3.6589278790751205,1.8747346262832671,-3.6682734808326964,3.4039166468518154,5.816121009157143,7.943703945247254,-9.924730582659583,2.06547151241001,-0.10742053780574956,-4.809233372163857,2.159070542644452,4.6799266324295825,-1.6746558318388587,-5.070314949153721,-5.218752193695932,-7.478626551749278,-9.57682353384919,5.644826509760017],"split_indices":[3,2,3,1,2,3,2,3,0,0,0,0,3,3,0,0,4,1,0,2,2,3,3,0,3,4,1,2,0,0,3,0,2,4,3,0,0,3,0,0,3,2,2,0,0,0,2,0,0,2,0,0,4,0,0,0,4,0,2,1,2,0,0,0,0,3,2,1,0,0,0,0,0,0,0,4,2,0,3,0,0,0,0,0,4,0,0,0,0,0,0,2,0,0,0,0,1,0,0,0,0,0,0,0,4,2,0,0,0,0,3,2,4,0,3,0,1,0,0,0,0,0,0,0,1,0,0,1,0,0,0,0,0,0,0],"sum_hessian":[0.0,0.0,0.0,0.0,0.0,0.0,0.0,0.0,0.0,0.0,0.0,0.0,0.0,0.0,0.0,0.0,0.0,0.0,0.0,0.0,0.0,0.0,0.0,0.0,0.0,0.0,0.0,0.0,0.0,0.0,0.0,0.0,0.0,0.0,0.0,0.0,0.0,0.0,0.0,0.0,0.0,0.0,0.0,0.0,0.0,0.0,0.0,0.0,0.0,0.0,0.0,0.0,0.0,0.0,0.0,0.0,0.0,0.0,0.0,0.0,0.0,0.0,0.0,0.0,0.0,0.0,0.0,0.0,0.0,0.0,0.0,0.0,0.0,0.0,0.0,0.0,0.0,0.0,0.0,0.0,0.0,0.0,0.0,0.0,0.0,0.0,0.0,0.0,0.0,0.0,0.0,0.0,0.0,0.0,0.0,0.0,0.0,0.0,0.0,0.0,0.0,0.0,0.0,0.0,0.0,0.0,0.0,0.0,0.0,0.0,0.0,0.0,0.0,0.0,0.0,0.0,0.0,0.0,0.0,0.0,0.0,0.0,0.0,0.0,0.0,0.0,0.0,0.0,0.0,0.0,0.0,0.0,0.0,0.0,0.0],"tree_param":{"num_deleted":"0","num_feature":"5","num_nodes":"135","size_leaf_vector":"0"}}]},"name":"gbtree"},"learner_model_param":{"base_score":"5E-1","num_class":"0","num_feature":"5"},"objective":{"name":"reg:squarederror","reg_loss_param":{"scale_pos_weight":"1"}}},"version":[1,4,0]}