{"learner":{"attributes":{},"feature_types":["float","float","float","float","float","float","float","float","float","float"],"gradient_booster":{"model":{"gbtree_model_param":{"num_trees":"2","size_leaf_vector":"0"},"tree_info":[0,0],"trees":[{"base_weights":[0.0,0.0,0.0,0.0,0.0,0.0,0.0,0.0,0.0,0.0,0.0,0.0,0.0,0.0,0.0,0.0,0.0,0.0,0.0,0.0,0.0,0.0,0.0,0.0,0.0,0.0,0.0,0.0,0.0,0.0,0.0,0.0,0.0,0.0,0.0,0.0,0.0,0.0,0.0,0.0,0.0,0.0,0.0,0.0,0.0,0.0,0.0,0.0,0.0,0.0,0.0,0.0,0.0,0.0,0.0,0.0,0.0,0.0,0.0,0.0,0.0,0.0,0.0,0.0,0.0,0.0,0.0,0.0,0.0,0.0,0.0,0.0,0.0,0.0,0.0,0.0,0.0,0.0,0.0,0.0,0.0,0.0,0.0,0.0,0.0,0.0,0.0,0.0,0.0,0.0,0.0,0.0,0.0,0.0,0.0,0.0,0.0,0.0,0.0,0.0,0.0,0.0,0.0,0.0,0.0,0.0,0.0,0.0,0.0,0.0,0.0,0.0,0.0,0.0,0.0,0.0,0.0,0.0,0.0,0.0,0.0,0.0,0.0,0.0,0.0,0.0,0.0,0.0,0.0,0.0,0.0,0.0,0.0,0.0,0.0,0.0,0.0,0.0,0.0,0.0,0.0,0.0,0.0,0.0,0.0,0.0,0.0,0.0,0.0,0.0,0.0,0.0,0.0,0.0,0.0,0.0,0.0,0.0,0.0,0.0,0.0,0.0,0.0],"categories":[],"categories_nodes":[],"categories_segments":[],"categories_sizes":[],"default_left":[false,false,false,false,false,false,false,false,false,false,false,false,false,false,false,false,false,false,false,false,false,false,false,false,false,false,false,false,false,false,false,false,false,false,false,false,false,false,false,false,false,false,false,false,false,false,false,false,false,false,false,false,false,false,false,false,false,false,false,false,false,false,false,false,false,false,false,false,false,false,false,false,false,false,false,false,false,false,false,false,false,false,false,false,false,false,false,false,false,false,false,false,false,false,false,false,false,false,false,false,false,false,false,false,false,false,false,false,false,false,false,false,false,false,false,false,false,false,false,false,false,false,false,false,false,false,false,false,false,false,false,false,false,false,false,false,false,false,false,false,false,false,false,false,false,false,false,false,false,false,false,false,false,false,false,false,false,false,false,false,false,false,false],"id":0,"left_children":[1,3,5,7,9,11,-1,13,15,17,19,21,23,25,27,-1,29,31,33,35,-1,37,39,41,43,45,47,49,51,-1,-1,53,55,-1,57,59,61,63,65,67,-1,-1,-1,69,71,-1,-1,73,75,-1,-1,77,79,81,83,-1,85,87,89,91,-1,93,95,97,-1,99,101,103,-1,-1,105,107,-1,-1,-1,-1,109,111,-1,113,115,-1,-1,-1,117,-1,119,-1,121,-1,-1,123,-1,-1,-1,-1,-1,-1,-1,125,127,-1,129,131,-1,-1,-1,-1,133,135,137,-1,139,-1,-1,141,143,-1,145,-1,-1,147,-1,149,151,-1,-1,-1,-1,-1,-1,153,-1,-1,-1,-1,-1,155,-1,-1,-1,157,-1,-1,-1,159,-1,-1,-1,161,-1,-1,-1,-1,-1,-1,-1,-1,-1,-1,-1,-1,-1],"loss_changes":[0.0,0.0,0.0,0.0,0.0,0.0,0.0,0.0,0.0,0.0,0.0,0.0,0.0,0.0,0.0,0.0,0.0,0.0,0.0,0.0,0.0,0.0,0.0,0.0,0.0,0.0,0.0,0.0,0.0,0.0,0.0,0.0,0.0,0.0,0.0,0.0,0.0,0.0,0.0,0.0,0.0,0.0,0.0,0.0,0.0,0.0,0.0,0.0,0.0,0.0,0.0,0.0,0.0,0.0,0.0,0.0,0.0,0.0,0.0,0.0,0.0,0.0,0.0,0.0,0.0,0.0,0.0,0.0,0.0,0.0,0.0,0.0,0.0,0.0,0.0,0.0,0.0,0.0,0.0,0.0,0.0,0.0,0.0,0.0,0.0,0.0,0.0,0.0,0.0,0.0,0.0,0.0,0.0,0.0,0.0,0.0,0.0,0.0,0.0,0.0,0.0,0.0,0.0,0.0,0.0,0.0,0.0,0.0,0.0,0.0,0.0,0.0,0.0,0.0,0.0,0.0,0.0,0.0,0.0,0.0,0.0,0.0,0.0,0.0,0.0,0.0,0.0,0.0,0.0,0.0,0.0,0.0,0.0,0.0,0.0,0.0,0.0,0.0,0.0,0.0,0.0,0.0,0.0,0.0,0.0,0.0,0.0,0.0,0.0,0.0,0.0,0.0,0.0,0.0,0.0,0.0,0.0,0.0,0.0,0.0,0.0,0.0,0.0],"parents":[2147483647,0,0,1,1,2,2,3,3,4,4,5,5,7,7,8,8,9,9,10,10,11,11,12,12,13,13,14,14,16,16,17,17,18,18,19,19,21,21,22,22,23,23,24,24,25,25,26,26,27,27,28,28,31,31,32,32,34,34,35,35,36,36,37,37,38,38,39,39,43,43,44,44,47,47,48,48,51,51,52,52,53,53,54,54,56,56,57,57,58,58,59,59,61,61,62,62,63,63,65,65,66,66,67,67,70,70,71,71,76,76,77,77,79,79,80,80,84,84,86,86,88,88,91,91,99,99,100,100,102,102,103,103,108,108,109,109,110,110,112,112,115,115,116,116,118,118,121,121,123,123,124,124,131,131,137,137,141,141,145,145,149,149],"right_children":[2,4,6,8,10,12,-1,14,16,18,20,22,24,26,28,-1,30,32,34,36,-1,38,40,42,44,46,48,50,52,-1,-1,54,56,-1,58,60,62,64,66,68,-1,-1,-1,70,72,-1,-1,74,76,-1,-1,78,80,82,84,-1,86,88,90,92,-1,94,96,98,-1,100,102,104,-1,-1,106,108,-1,-1,-1,-1,110,112,-1,114,116,-1,-1,-1,118,-1,120,-1,122,-1,-1,124,-1,-1,-1,-1,-1,-1,-1,126,128,-1,130,132,-1,-1,-1,-1,134,136,138,-1,140,-1,-1,142,144,-1,146,-1,-1,148,-1,150,152,-1,-1,-1,-1,-1,-1,154,-1,-1,-1,-1,-1,156,-1,-1,-1,158,-1,-1,-1,160,-1,-1,-1,162,-1,-1,-1,-1,-1,-1,-1,-1,-1,-1,-1,-1,-1],"split_conditions":[8.903313199546687,1.1359570628844082,-5.659143044873268,1.238374389518528,-1.6746201170512034,2.3923280750794405,-0.3296043807486875,-5.818681313675333,-0.42456298402347237,5.924047910461997,4.209357858172812,-3.657413569837555,-8.57505377947274,7.1886273985512865,-2.1882835686973987,8.222187998392549,-7.703355760555684,-6.22610587073285,5.6982959786783844,6.7322688911885855,5.699588887238551,9.308477942329155,-8.396446253471755,9.453525465490081,-8.746371974917624,-9.5603297063803,-7.128967751446943,0.31657765854131625,-3.8221575000799257,5.234592648188329,8.783353810495008,-2.771372129669194,4.747965760945183,-3.4406374518300638,2.7147668248218526,-3.4439034076871513,-7.215566022533544,-6.457155793459277,-8.422415551680167,-5.532517799588755,-3.3120424697336945,-8.281729611308865,-7.097438627334041,-7.622243359330289,2.922048613323021,-2.003478567219574,-3.257492914956056,-5.891069970423006,-2.559008208127503,8.624500401703752,3.143895133383541,-0.3322583088845814,6.3576987161648475,3.666585644783231,1.9183139667741838,-2.4488619826802758,-5.671189397560853,3.381756592487813,-2.504856896104343,-5.7547975135095255,3.7359866731309914,-9.66002048809286,6.734874658207691,-4.160512875192151,-3.446124812593899,7.985171827872378,-6.180651257830973,1.6637734047866086,4.430852342695815,-3.580587088150704,9.573301260824838,0.025045015859213038,8.41508474293585,-2.9571598872419838,6.912022403468065,5.74061519700132,-3.7388786721695624,-8.640722335558051,-1.2448594941691766,7.915796171428752,-2.2103178985403567,4.9758224860065745,-7.094851171940464,-8.265249229068118,-5.201209747328009,0.4897453513140366,4.90105977751314,4.8732267429688125,-4.542594430549474,-4.392779873416418,-9.526461290340963,-1.0783749770980897,2.4938535194478604,-0.39786651763191294,-0.2320974922296397,-2.118108748741289,7.813313701547205,5.875088045977302,-3.289941243371512,8.12026225225178,2.685737772379097,5.84717067826983,0.4786439924513495,-9.326209853243522,-0.9248259549194096,-0.15223737289148787,2.0455395021949503,-4.24775510656612,3.9303134423165424,8.536276478496053,1.4660881377123545,0.8712109996978121,-4.265764458065313,-1.7223516247195967,-5.365480031869746,5.323408563352247,7.848866598649529,-2.2039774692499723,-9.204464768674685,6.960031587278781,0.12097680585109138,3.826061036171943,8.543072103357979,9.153777913684166,1.922296780056989,-1.094893188506882,7.891919136353028,8.937230116229614,9.399110752873767,-4.049617722945723,5.377739058043712,-7.495725908899036,-3.741916283296833,-8.46603524822604,-9.290617631893456,-3.507392868187578,-3.333431351141469,-0.626154347326624,2.5228430579471954,-1.5500933414429223,5.53800094205844,-5.894777537961147,-3.1429458329805833,-1.6353330300293472,5.857944188556118,-6.652016815489214,-8.851062569202307,2.705406651885019,-1.5094120889557754,2.3412544685194003,-6.64405850730031,3.7783761375840292,-1.7966669983281491,-9.491702472110749,-5.448191306559235,-8.277518201227858,-0.6855625281326532,2.701122578395669,-3.5271245918005096,-2.777184492545092,1.6002591326741626,7.539996559098995,-7.948211427139941],"split_indices":[3,1,3,9,6,7,0,9,8,0,0,8,0,5,5,0,2,9,2,9,0,5,9,4,8,3,9,2,9,0,0,8,8,0,1,8,4,1,7,2,0,0,0,4,6,0,0,2,3,0,0,0,0,7,4,0,8,7,9,4,0,5,0,6,0,5,1,5,0,0,9,5,0,0,0,0,1,2,0,9,6,0,0,0,8,0,3,0,9,0,0,8,0,0,0,0,0,0,0,3,4,0,1,8,0,0,0,0,7,3,1,0,8,0,0,5,4,0,4,0,0,6,0,4,1,0,0,0,0,0,0,5,0,0,0,0,0,8,0,0,0,1,0,0,0,8,0,0,0,9,0,0,0,0,0,0,0,0,0,0,0,0,0],"sum_hessian":[0.0,0.0,0.0,0.0,0.0,0.0,0.0,0.0,0.0,0.0,0.0,0.0,0.0,0.0,0.0,0.0,0.0,0.0,0.0,0.0,0.0,0.0,0.0,0.0,0.0,0.0,0.0,0.0,0.0,0.0,0.0,0.0,0.0,0.0,0.0,0.0,0.0,0.0,0.0,0.0,0.0,0.0,0.0,0.0,0.0,0.0,0.0,0.0,0.0,0.0,0.0,0.0,0.0,0.0,0.0,0.0,0.0,0.0,0.0,0.0,0.0,0.0,0.0,0.0,0.0,0.0,0.0,0.0,0.0,0.0,0.0,0.0,0.0,0.0,0.0,0.0,0.0,0.0,0.0,0.0,0.0,0.0,0.0,0.0,0.0,0.0,0.0,0.0,0.0,0.0,0.0,0.0,0.0,0.0,0.0,0.0,0.0,0.0,0.0,0.0,0.0,0.0,0.0,0.0,0.0,0.0,0.0,0.0,0.0,0.0,0.0,0.0,0.0,0.0,0.0,0.0,0.0,0.0,0.0,0.0,0.0,0.0,0.0,0.0,0.0,0.0,0.0,0.0,0.0,0.0,0.0,0.0,0.0,0.0,0.0,0.0,0.0,0.0,0.0,0.0,0.0,0.0,0.0,0.0,0.0,0.0,0.0,0.0,0.0,0.0,0.0,0.0,0.0,0.0,0.0,0.0,0.0,0.0,0.0,0.0,0.0,0.0,0.0],"tree_param":{"num_deleted":"0","num_feature":"10","num_nodes":"163","size_leaf_vector":"0"}},{"base_weights":[0.0,0.0,0.0,0.0,0.0,0.0,0.0,0.0,0.0,0.0,0.0,0.0,0.0,0.0,0.0,0.0,0.0,0.0,0.0,0.0,0.0,0.0,0.0,0.0,0.0,0.0,0.0,0.0,0.0,0.0,0.0,0.0,0.0,0.0,0.0,0.0,0.0,0.0,0.0,0.0,0.0,0.0,0.0,0.0,0.0,0.0,0.0,0.0,0.0,0.0,0.0,0.0,0.0,0.0,0.0,0.0,0.0,0.0,0.0,0.0,0.0,0.0,0.0,0.0,0.0,0.0,0.0,0.0,0.0,0.0,0.0,0.0,0.0,0.0,0.0,0.0,0.0,0.0,0.0,0.0,0.0],"categories":[],"categories_nodes":[],"categories_segments":[],"categories_sizes":[],"default_left":[false,false,false,false,false,false,false,false,false,false,false,false,false,false,false,false,false,false,false,false,false,false,false,false,false,false,false,false,false,false,false,false,false,false,false,false,false,false,false,false,false,false,false,false,false,false,false,false,false,false,false,false,false,false,false,false,false,false,false,false,false,false,false,false,false,false,false,false,false,false,false,false,false,false,false,false,false,false,false,false,false],"id":1,"left_children":[1,3,5,-1,7,9,11,-1,13,-1,15,17,19,21,23,25,-1,-1,27,29,31,-1,-1,33,35,37,39,41,43,45,47,-1,-1,-1,49,51,-1,-1,-1,53,55,57,-1,-1,-1,-1,59,-1,-1,-1,61,-1,-1,-1,63,65,-1,67,-1,-1,69,71,-1,-1,-1,73,75,-1,77,-1,-1,-1,-1,79,-1,-1,-1,-1,-1,-1,-1],"loss_changes":[0.0,0.0,0.0,0.0,0.0,0.0,0.0,0.0,0.0,0.0,0.0,0.0,0.0,0.0,0.0,0.0,0.0,0.0,0.0,0.0,0.0,0.0,0.0,0.0,0.0,0.0,0.0,0.0,0.0,0.0,0.0,0.0,0.0,0.0,0.0,0.0,0.0,0.0,0.0,0.0,0.0,0.0,0.0,0.0,0.0,0.0,0.0,0.0,0.0,0.0,0.0,0.0,0.0,0.0,0.0,0.0,0.0,0.0,0.0,0.0,0.0,0.0,0.0,0.0,0.0,0.0,0.0,0.0,0.0,0.0,0.0,0.0,0.0,0.0,0.0,0.0,0.0,0.0,0.0,0.0,0.0],"parents":[2147483647,0,0,1,1,2,2,4,4,5,5,6,6,8,8,10,10,11,11,12,12,13,13,14,14,15,15,18,18,19,19,20,20,23,23,24,24,25,25,26,26,27,27,28,28,29,29,30,30,34,34,35,35,39,39,40,40,41,41,46,46,50,50,54,54,55,55,57,57,60,60,61,61,65,65,66,66,68,68,73,73],"right_children":[2,4,6,-1,8,10,12,-1,14,-1,16,18,20,22,24,26,-1,-1,28,30,32,-1,-1,34,36,38,40,42,44,46,48,-1,-1,-1,50,52,-1,-1,-1,54,56,58,-1,-1,-1,-1,60,-1,-1,-1,62,-1,-1,-1,64,66,-1,68,-1,-1,70,72,-1,-1,-1,74,76,-1,78,-1,-1,-1,-1,80,-1,-1,-1,-1,-1,-1,-1],"split_conditions":[-1.8617324731475673,2.707015693948076,-9.361388109125397,-8.250372036387365,-5.125472748736835,9.0661305659625,-7.4239048861375,-6.9514483474810405,-4.75948132158042,-0.6895034389938424,0.8187350199625438,-8.043796854312077,9.699904980807656,7.753723471259313,-1.1934666493985944,5.333307238470844,2.2021457326176623,-3.352683991991725,-0.5820879364182332,7.28251722842597,-5.889200998163004,-6.251458821212925,0.5045776664284336,9.473669252484555,9.810734090427456,-5.487080156645259,7.829404763278102,-5.9886559903594545,-4.560885045015851,8.274176054417211,1.248228741699883,3.460363142773854,-7.280711452758988,5.0538947934951235,-9.292647025264404,2.8444664173964203,-1.8460797042353114,-1.2075071545914629,-8.571860126202619,-8.500083297462925,5.18589714750105,-3.4174184944878805,-3.1633774552429976,-9.504738559919053,9.814524920238917,2.46132699229606,-1.3825232975183201,4.06410829117749,-1.1077582898610352,-3.7949128918452315,5.322515671681199,-6.6963872404539515,-1.5243894194221426,-2.8335224891826805,-8.507945725517322,0.27687730656221277,4.338949089883389,3.648063389629563,9.6344138319782,0.10784637793697271,-7.213772992321667,-0.3781351117012104,4.819285240355768,5.890756525240754,-1.4959631372736517,7.6367584041956995,-4.599493458291213,-7.629736708288874,5.180877684616952,-6.19903173058552,2.9500226517372496,-4.47698245105337,9.66428261508213,-8.011034857918137,8.711850871458434,-5.349155839548755,-6.648752118921638,-7.0791935581285275,-1.9793726527147602,5.639806392671055,-2.1341596482618357],"split_indices":[0,5,8,0,3,3,9,0,5,0,2,3,5,0,3,7,0,0,3,0,8,0,0,8,6,9,7,9,8,1,9,0,0,0,6,5,0,0,0,3,1,5,0,0,0,0,3,0,0,0,0,0,0,0,2,2,0,2,0,0,4,2,0,0,0,7,4,0,4,0,0,0,0,7,0,0,0,0,0,0,0],"sum_hessian":[0.0,0.0,0.0,0.0,0.0,0.0,0.0,0.0,0.0,0.0,0.0,0.0,0.0,0.0,0.0,0.0,0.0,0.0,0.0,0.0,0.0,0.0,0.0,0.0,0.0,0.0,0.0,0.0,0.0,0.0,0.0,0.0,0.0,0.0,0.0,0.0,0.0,0.0,0.0,0.0,0.0,0.0,0.0,0.0,0.0,0.0,0.0,0.0,0.0,0.0,0.0,0.0,0.0,0.0,0.0,0.0,0.0,0.0,0.0,0.0,0.0,0.0,0.0,0.0,0.0,0.0,0.0,0.0,0.0,0.0,0.0,0.0,0.0,0.0,0.0,0.0,0.0,0.0,0.0,0.0,0.0],"tree_param":{"num_deleted":"0","num_feature":"10","num_nodes":"81","size_leaf_vector":"0"}}]},"name":"gbtree"},"learner_model_param":{"base_score":"5E-1","num_class":"0","num_feature":"10"},"objective":{"name":"reg:squarederror","reg_loss_param":{"scale_pos_weight":"1"}}},"version":[1,4,0]}