{"learner":{"attributes":{},"feature_types":["float","float","float","float","float","float","float","float","float","float","float","float","float","float","float"],"gradient_booster":{"model":{"gbtree_model_param":{"num_trees":"2","size_leaf_vector":"0"},"tree_info":[0,0],"trees":[{"base_weights":[0.0,0.0,0.0,0.0,0.0,0.0,0.0,0.0,0.0,0.0,0.0,0.0,0.0,0.0,0.0,0.0,0.0,0.0,0.0,0.0,0.0,0.0,0.0,0.0,0.0,0.0,0.0,0.0,0.0,0.0,0.0,0.0,0.0,0.0,0.0,0.0,0.0,0.0,0.0,0.0,0.0,0.0,0.0,0.0,0.0,0.0,0.0,0.0,0.0,0.0,0.0,0.0,0.0,0.0,0.0,0.0,0.0,0.0,0.0,0.0,0.0,0.0,0.0,0.0,0.0,0.0,0.0,0.0,0.0,0.0,0.0,0.0,0.0,0.0,0.0,0.0,0.0,0.0,0.0,0.0,0.0,0.0,0.0,0.0,0.0,0.0,0.0,0.0,0.0,0.0,0.0,0.0,0.0,0.0,0.0,0.0,0.0,0.0,0.0,0.0,0.0,0.0,0.0,0.0,0.0,0.0,0.0,0.0,0.0,0.0,0.0,0.0,0.0,0.0,0.0,0.0,0.0,0.0,0.0,0.0,0.0,0.0,0.0],"categories":[],"categories_nodes":[],"categories_segments":[],"categories_sizes":[],"default_left":[false,false,false,false,false,false,false,false,false,false,false,false,false,false,false,false,false,false,false,false,false,false,false,false,false,false,false,false,false,false,false,false,false,false,false,false,false,false,false,false,false,false,false,false,false,false,false,false,false,false,false,false,false,false,false,false,false,false,false,false,false,false,false,false,false,false,false,false,false,false,false,false,false,false,false,false,false,false,false,false,false,false,false,false,false,false,false,false,false,false,false,false,false,false,false,false,false,false,false,false,false,false,false,false,false,false,false,false,false,false,false,false,false,false,false,false,false,false,false,false,false,false,false],"id":0,"left_children":[1,3,5,7,9,11,-1,-1,-1,13,15,17,19,21,23,25,27,-1,29,31,33,-1,-1,35,37,39,41,-1,43,-1,45,-1,-1,47,49,51,53,55,57,59,61,-1,-1,63,65,67,69,-1,71,-1,73,-1,-1,75,-1,77,-1,79,81,83,-1,85,-1,87,-1,89,-1,91,93,-1,95,97,-1,-1,99,101,-1,103,-1,-1,-1,-1,-1,-1,105,107,-1,-1,-1,-1,109,-1,-1,-1,-1,111,-1,-1,-1,-1,113,-1,115,-1,117,119,-1,-1,-1,-1,-1,-1,121,-1,-1,-1,-1,-1,-1,-1,-1,-1,-1],"loss_changes":[0.0,0.0,0.0,0.0,0.0,0.0,0.0,0.0,0.0,0.0,0.0,0.0,0.0,0.0,0.0,0.0,0.0,0.0,0.0,0.0,0.0,0.0,0.0,0.0,0.0,0.0,0.0,0.0,0.0,0.0,0.0,0.0,0.0,0.0,0.0,0.0,0.0,0.0,0.0,0.0,0.0,0.0,0.0,0.0,0.0,0.0,0.0,0.0,0.0,0.0,0.0,0.0,0.0,0.0,0.0,0.0,0.0,0.0,0.0,0.0,0.0,0.0,0.0,0.0,0.0,0.0,0.0,0.0,0.0,0.0,0.0,0.0,0.0,0.0,0.0,0.0,0.0,0.0,0.0,0.0,0.0,0.0,0.0,0.0,0.0,0.0,0.0,0.0,0.0,0.0,0.0,0.0,0.0,0.0,0.0,0.0,0.0,0.0,0.0,0.0,0.0,0.0,0.0,0.0,0.0,0.0,0.0,0.0,0.0,0.0,0.0,0.0,0.0,0.0,0.0,0.0,0.0,0.0,0.0,0.0,0.0,0.0,0.0],"parents":[2147483647,0,0,1,1,2,2,3,3,4,4,5,5,9,9,10,10,11,11,12,12,13,13,14,14,15,15,16,16,18,18,19,19,20,20,23,23,24,24,25,25,26,26,28,28,30,30,33,33,34,34,35,35,36,36,37,37,38,38,39,39,40,40,43,43,44,44,45,45,46,46,48,48,50,50,53,53,55,55,57,57,58,58,59,59,61,61,63,63,65,65,67,67,68,68,70,70,71,71,74,74,75,75,77,77,84,84,85,85,90,90,95,95,100,100,102,102,104,104,105,105,112,112],"right_children":[2,4,6,8,10,12,-1,-1,-1,14,16,18,20,22,24,26,28,-1,30,32,34,-1,-1,36,38,40,42,-1,44,-1,46,-1,-1,48,50,52,54,56,58,60,62,-1,-1,64,66,68,70,-1,72,-1,74,-1,-1,76,-1,78,-1,80,82,84,-1,86,-1,88,-1,90,-1,92,94,-1,96,98,-1,-1,100,102,-1,104,-1,-1,-1,-1,-1,-1,106,108,-1,-1,-1,-1,110,-1,-1,-1,-1,112,-1,-1,-1,-1,114,-1,116,-1,118,120,-1,-1,-1,-1,-1,-1,122,-1,-1,-1,-1,-1,-1,-1,-1,-1,-1],"split_conditions":[1.335959302414052,0.544866835836018,4.304668970226199,2.0475378104764363,1.8337675607584067,4.1932371481076665,8.424212631456104,7.046500068708106,-0.828355182242019,-8.865624830461083,-7.57955994973843,0.9543358323884537,5.637879981976116,-2.600474700003735,-1.722654306445646,6.143825395093909,-2.5438925993463366,-5.439700697108317,-2.9688518429472834,-3.2974732085701133,-8.102221262338926,9.112735348720417,6.904538389390204,-5.093305991357543,-3.610591295556203,6.116954579364734,-5.449900852414834,2.774081528327713,6.2809480629054555,-3.7685853390408406,2.528281233345284,0.2673047961854955,-1.8409900116542772,4.968663480232678,-5.476561237896595,3.8872535122709007,8.050639433049032,-9.989220719054158,8.921985506837238,1.655200467463116,0.010553447828465679,-9.152980788132611,6.862737989189661,6.701893508220568,5.237799173814356,8.522366882296453,2.528997810227162,5.822194623401629,-9.743410740905453,7.437507840159711,3.39288931190487,-7.992187170560042,2.1989754406009396,-9.090056510220176,-9.212299390383833,3.886239202963619,-3.1300164847986354,-7.355597731141675,5.205188811480358,-4.919034061874252,-0.994145430336177,8.386681079494124,-1.443149159079688,-1.2689303860995125,-8.820015397405568,-9.189155572559281,-4.9517029272903565,2.3180991759264398,7.061603829058118,-4.811564391490739,-7.578249841044703,-7.329898293675526,-7.032354055001573,-5.247451426637712,-2.8271796354995047,-9.243723914187289,-7.894673022771782,-9.133336198672868,0.10959504908386997,4.229474055461411,-5.75552456205984,-4.8452368780354504,0.4882354662752597,3.8193645085541554,-5.899415685471957,-9.35362840381003,-1.8281600032343128,-3.9500000485297537,8.929339900718162,-0.3007665167410405,1.5605077769858653,-3.22772052840246,2.548910255221621,-2.8082996338758734,-4.280275265743359,1.5827881627279812,-7.245414834136344,-6.839289031488303,-9.566143322704056,0.6927140662232496,6.106106838555924,4.43764384304329,-3.612298421840193,1.3186281187594453,5.9515537963340535,-1.6950877515146061,-1.2196344560249646,5.052136001492309,7.9598933566493955,2.240077916545456,-2.994104033026142,-0.33953338688652934,-0.4601667043200557,0.20677928044582217,8.281019885511963,-9.798386025749888,-6.921532000566025,1.5053278753146238,-8.83211555836585,-2.107005923273534,-5.489365927401747,-2.9280549680276735,-0.6447044064153253],"split_indices":[12,13,10,1,10,0,0,0,0,9,6,13,12,3,6,5,0,0,6,8,4,0,0,4,10,6,4,0,7,0,5,0,0,8,13,7,9,5,2,3,4,0,0,9,8,11,9,0,7,0,3,0,0,10,0,4,0,2,0,9,0,0,0,13,0,11,0,5,6,0,6,9,0,0,14,14,0,6,0,0,0,0,0,0,6,9,0,0,0,0,8,0,0,0,0,1,0,0,0,0,2,0,1,0,13,7,0,0,0,0,0,0,11,0,0,0,0,0,0,0,0,0,0],"sum_hessian":[0.0,0.0,0.0,0.0,0.0,0.0,0.0,0.0,0.0,0.0,0.0,0.0,0.0,0.0,0.0,0.0,0.0,0.0,0.0,0.0,0.0,0.0,0.0,0.0,0.0,0.0,0.0,0.0,0.0,0.0,0.0,0.0,0.0,0.0,0.0,0.0,0.0,0.0,0.0,0.0,0.0,0.0,0.0,0.0,0.0,0.0,0.0,0.0,0.0,0.0,0.0,0.0,0.0,0.0,0.0,0.0,0.0,0.0,0.0,0.0,0.0,0.0,0.0,0.0,0.0,0.0,0.0,0.0,0.0,0.0,0.0,0.0,0.0,0.0,0.0,0.0,0.0,0.0,0.0,0.0,0.0,0.0,0.0,0.0,0.0,0.0,0.0,0.0,0.0,0.0,0.0,0.0,0.0,0.0,0.0,0.0,0.0,0.0,0.0,0.0,0.0,0.0,0.0,0.0,0.0,0.0,0.0,0.0,0.0,0.0,0.0,0.0,0.0,0.0,0.0,0.0,0.0,0.0,0.0,0.0,0.0,0.0,0.0],"tree_param":{"num_deleted":"0","num_feature":"15","num_nodes":"123","size_leaf_vector":"0"}},{"base_weights":[0.0,0.0,0.0,0.0,0.0,0.0,0.0,0.0,0.0,0.0,0.0,0.0,0.0,0.0,0.0,0.0,0.0,0.0,0.0,0.0,0.0,0.0,0.0,0.0,0.0,0.0,0.0,0.0,0.0,0.0,0.0,0.0,0.0,0.0,0.0,0.0,0.0,0.0,0.0,0.0,0.0,0.0,0.0,0.0,0.0,0.0,0.0,0.0,0.0,0.0,0.0,0.0,0.0,0.0,0.0,0.0,0.0,0.0,0.0,0.0,0.0,0.0,0.0,0.0,0.0,0.0,0.0,0.0,0.0,0.0,0.0,0.0,0.0,0.0,0.0,0.0,0.0,0.0,0.0,0.0,0.0,0.0,0.0,0.0,0.0,0.0,0.0,0.0,0.0,0.0,0.0,0.0,0.0],"categories":[],"categories_nodes":[],"categories_segments":[],"categories_sizes":[],"default_left":[false,false,false,false,false,false,false,false,false,false,false,false,false,false,false,false,false,false,false,false,false,false,false,false,false,false,false,false,false,false,false,false,false,false,false,false,false,false,false,false,false,false,false,false,false,false,false,false,false,false,false,false,false,false,false,false,false,false,false,false,false,false,false,false,false,false,false,false,false,false,false,false,false,false,false,false,false,false,false,false,false,false,false,false,false,false,false,false,false,false,false,false,false],"id":1,"left_children":[1,3,5,7,9,11,13,15,17,-1,-1,19,21,23,25,-1,27,-1,29,-1,31,33,35,-1,37,39,41,-1,43,-1,45,47,49,51,53,-1,-1,55,57,59,61,-1,-1,-1,-1,-1,-1,-1,63,-1,65,-1,67,-1,-1,-1,69,71,73,75,-1,-1,77,-1,79,-1,-1,-1,-1,81,-1,-1,-1,83,85,87,-1,-1,89,-1,-1,-1,91,-1,-1,-1,-1,-1,-1,-1,-1,-1,-1],"loss_changes":[0.0,0.0,0.0,0.0,0.0,0.0,0.0,0.0,0.0,0.0,0.0,0.0,0.0,0.0,0.0,0.0,0.0,0.0,0.0,0.0,0.0,0.0,0.0,0.0,0.0,0.0,0.0,0.0,0.0,0.0,0.0,0.0,0.0,0.0,0.0,0.0,0.0,0.0,0.0,0.0,0.0,0.0,0.0,0.0,0.0,0.0,0.0,0.0,0.0,0.0,0.0,0.0,0.0,0.0,0.0,0.0,0.0,0.0,0.0,0.0,0.0,0.0,0.0,0.0,0.0,0.0,0.0,0.0,0.0,0.0,0.0,0.0,0.0,0.0,0.0,0.0,0.0,0.0,0.0,0.0,0.0,0.0,0.0,0.0,0.0,0.0,0.0,0.0,0.0,0.0,0.0,0.0,0.0],"parents":[2147483647,0,0,1,1,2,2,3,3,4,4,5,5,6,6,7,7,8,8,11,11,12,12,13,13,14,14,16,16,18,18,20,20,21,21,22,22,24,24,25,25,26,26,28,28,30,30,31,31,32,32,33,33,34,34,37,37,38,38,39,39,40,40,48,48,50,50,52,52,56,56,57,57,58,58,59,59,62,62,64,64,69,69,73,73,74,74,75,75,78,78,82,82],"right_children":[2,4,6,8,10,12,14,16,18,-1,-1,20,22,24,26,-1,28,-1,30,-1,32,34,36,-1,38,40,42,-1,44,-1,46,48,50,52,54,-1,-1,56,58,60,62,-1,-1,-1,-1,-1,-1,-1,64,-1,66,-1,68,-1,-1,-1,70,72,74,76,-1,-1,78,-1,80,-1,-1,-1,-1,82,-1,-1,-1,84,86,88,-1,-1,90,-1,-1,-1,92,-1,-1,-1,-1,-1,-1,-1,-1,-1,-1],"split_conditions":[4.899195991403806,-9.771422233863815,2.23039820060068,-1.8142357301383925,7.143445661600698,3.7250483581056493,3.274078105591453,-8.338291912199603,-0.6954995717806955,-4.2929344295666825,-3.825513090450242,7.150173631922442,-8.196566866299014,-3.3805083605586432,0.6924175280179838,3.3775148839657465,-3.2628343165596077,6.590276323920683,-0.8165728010216338,6.593320308986769,-2.002399896171201,-4.882987301668105,-8.756441763641032,2.7331351220785898,-9.596807723239104,-9.25755528977649,5.76237143126521,-4.557577055404257,1.9312265637347288,-4.452554380118958,-8.059662991309299,-7.072656978145443,2.47653017279176,4.9142638655467685,7.514989300919673,9.841917768971832,-1.6186685598922317,6.322978513648184,-1.866546717369502,-1.9242398811685408,5.172924670299132,3.725754355101598,6.802395741368059,0.507340091293834,0.21366032842667337,-6.968424977043368,5.1981533430870375,-3.341526049563562,5.267343554029974,4.985272716168934,0.27150995872388783,-5.17794018851736,-9.861634979214914,5.66804349140444,7.007597264957791,2.1339607419243496,-3.5401935557774458,5.1937020415806945,-0.15298564026038086,-0.666923292364693,2.6467149319164545,-0.41799662754800515,6.925067453735849,6.216308720621715,2.285105460788932,-4.9077053199944585,-1.29483514214607,-6.55804863166197,0.5703245413944948,0.5689421377041182,-5.998403001461665,-9.017103037507725,-3.882583686299231,-1.287104550423777,8.516730917233286,-1.2250948007486109,5.2382402836210105,-5.485769341118634,-8.906418755117366,-7.72405271414575,-0.6089633604298026,-7.799749211854383,6.416453532120244,3.982505476323759,0.2594694376815312,7.849558667873211,0.07997483032060337,-7.377398683253533,-4.468189887722394,7.224370239126415,-6.567293937526694,5.491752202701674,7.513359077977412],"split_indices":[8,9,5,3,8,11,6,11,0,0,0,9,14,2,0,0,3,0,1,0,6,9,0,0,13,5,13,0,2,0,13,14,4,8,13,0,0,1,9,3,1,0,0,0,0,0,0,0,10,0,1,0,2,0,0,0,0,6,7,8,0,0,12,0,9,0,0,0,0,13,0,0,0,1,10,1,0,0,8,0,0,0,9,0,0,0,0,0,0,0,0,0,0],"sum_hessian":[0.0,0.0,0.0,0.0,0.0,0.0,0.0,0.0,0.0,0.0,0.0,0.0,0.0,0.0,0.0,0.0,0.0,0.0,0.0,0.0,0.0,0.0,0.0,0.0,0.0,0.0,0.0,0.0,0.0,0.0,0.0,0.0,0.0,0.0,0.0,0.0,0.0,0.0,0.0,0.0,0.0,0.0,0.0,0.0,0.0,0.0,0.0,0.0,0.0,0.0,0.0,0.0,0.0,0.0,0.0,0.0,0.0,0.0,0.0,0.0,0.0,0.0,0.0,0.0,0.0,0.0,0.0,0.0,0.0,0.0,0.0,0.0,0.0,0.0,0.0,0.0,0.0,0.0,0.0,0.0,0.0,0.0,0.0,0.0,0.0,0.0,0.0,0.0,0.0,0.0,0.0,0.0,0.0],"tree_param":{"num_deleted":"0","num_feature":"15","num_nodes":"93","size_leaf_vector":"0"}}]},"name":"gbtree"},"learner_model_param":{"base_score":"5E-1","num_class":"0","num_feature":"15"},"objective":{"name":"reg:squarederror","reg_loss_param":{"scale_pos_weight":"1"}}},"version":[1,4,0]}