{"learner":{"attributes":{},"feature_types":["float","float","float","float","float","float","float"],"gradient_booster":{"model":{"gbtree_model_param":{"num_trees":"2","size_leaf_vector":"0"},"tree_info":[0,0],"trees":[{"base_weights":[0.0,0.0,0.0,0.0,0.0,0.0,0.0,0.0,0.0,0.0,0.0,0.0,0.0,0.0,0.0,0.0,0.0,0.0,0.0,0.0,0.0,0.0,0.0,0.0,0.0,0.0,0.0,0.0,0.0,0.0,0.0,0.0,0.0,0.0,0.0,0.0,0.0,0.0,0.0,0.0,0.0,0.0,0.0,0.0,0.0,0.0,0.0,0.0,0.0,0.0,0.0,0.0,0.0,0.0,0.0,0.0,0.0,0.0,0.0,0.0,0.0,0.0,0.0,0.0,0.0,0.0,0.0,0.0,0.0,0.0,0.0,0.0,0.0,0.0,0.0,0.0,0.0,0.0,0.0,0.0,0.0,0.0,0.0,0.0,0.0,0.0,0.0,0.0,0.0,0.0,0.0,0.0,0.0,0.0,0.0,0.0,0.0],"categories":[],"categories_nodes":[],"categories_segments":[],"categories_sizes":[],"default_left":[false,false,false,false,false,false,false,false,false,false,false,false,false,false,false,false,false,false,false,false,false,false,false,false,false,false,false,false,false,false,false,false,false,false,false,false,false,false,false,false,false,false,false,false,false,false,false,false,false,false,false,false,false,false,false,false,false,false,false,false,false,false,false,false,false,false,false,false,false,false,false,false,false,false,false,false,false,false,false,false,false,false,false,false,false,false,false,false,false,false,false,false,false,false,false,false,false],"id":0,"left_children":[1,3,5,7,9,11,13,15,-1,-1,17,19,21,23,25,-1,27,-1,-1,29,31,33,35,37,39,41,43,-1,45,47,49,51,-1,53,55,57,-1,59,61,63,-1,-1,-1,65,67,-1,-1,-1,69,-1,71,-1,-1,-1,-1,-1,-1,73,-1,-1,75,-1,-1,-1,77,79,81,83,-1,-1,-1,-1,85,-1,-1,-1,-1,-1,87,-1,-1,-1,89,-1,-1,-1,91,-1,93,-1,-1,-1,95,-1,-1,-1,-1],"loss_changes":[0.0,0.0,0.0,0.0,0.0,0.0,0.0,0.0,0.0,0.0,0.0,0.0,0.0,0.0,0.0,0.0,0.0,0.0,0.0,0.0,0.0,0.0,0.0,0.0,0.0,0.0,0.0,0.0,0.0,0.0,0.0,0.0,0.0,0.0,0.0,0.0,0.0,0.0,0.0,0.0,0.0,0.0,0.0,0.0,0.0,0.0,0.0,0.0,0.0,0.0,0.0,0.0,0.0,0.0,0.0,0.0,0.0,0.0,0.0,0.0,0.0,0.0,0.0,0.0,0.0,0.0,0.0,0.0,0.0,0.0,0.0,0.0,0.0,0.0,0.0,0.0,0.0,0.0,0.0,0.0,0.0,0.0,0.0,0.0,0.0,0.0,0.0,0.0,0.0,0.0,0.0,0.0,0.0,0.0,0.0,0.0,0.0],"parents":[2147483647,0,0,1,1,2,2,3,3,4,4,5,5,6,6,7,7,10,10,11,11,12,12,13,13,14,14,16,16,19,19,20,20,21,21,22,22,23,23,24,24,25,25,26,26,28,28,29,29,30,30,31,31,33,33,34,34,35,35,37,37,38,38,39,39,43,43,44,44,48,48,50,50,57,57,60,60,64,64,65,65,66,66,67,67,72,72,78,78,82,82,86,86,88,88,92,92],"right_children":[2,4,6,8,10,12,14,16,-1,-1,18,20,22,24,26,-1,28,-1,-1,30,32,34,36,38,40,42,44,-1,46,48,50,52,-1,54,56,58,-1,60,62,64,-1,-1,-1,66,68,-1,-1,-1,70,-1,72,-1,-1,-1,-1,-1,-1,74,-1,-1,76,-1,-1,-1,78,80,82,84,-1,-1,-1,-1,86,-1,-1,-1,-1,-1,88,-1,-1,-1,90,-1,-1,-1,92,-1,94,-1,-1,-1,96,-1,-1,-1,-1],"split_conditions":[-7.994212707540061,5.8693987996896,-7.122494788476702,4.870068483362168,9.858492907473714,4.792393096059239,-1.9291591593395339,9.765518955024657,6.492092496184188,8.893239582922,-3.16469416792327,-4.363668954903687,-8.980749572408143,-1.3205026813503782,-7.415045920926733,1.397131020583073,9.56370559697815,-1.4905050357483063,-6.7680639215848215,-4.812551482792744,-5.916706929059271,-8.024484120598053,-7.628484874753113,0.26758412591079406,-1.1754658583423012,-7.473687781016478,6.708807683710663,9.466723471227112,3.4279874864140503,0.7654758977677965,7.122211551342332,2.8631229744467674,8.72747771523391,4.517728492647528,-3.6529455863773395,1.8893263942375214,7.187829562315958,-3.1983322957234606,-1.5327747712046165,-6.074706758590365,-5.580252967566601,-4.702343257272968,-9.465982579155012,-9.48956977438539,-0.888570887448223,2.1456681718816313,-7.356689668755594,-0.12223386291420013,-0.46861708328807694,-7.734434962504972,8.620232754087006,0.9714374110322961,-1.2647112919277266,8.058966745676251,4.529368592892782,8.712099315975156,8.072806607822912,-0.1708034283740325,6.0843038545336405,-6.553317130653301,-7.298822480023241,-3.733766707816625,1.8804004643915668,-5.7877776062812085,3.1401829796351794,-6.261958238209228,-5.538863267961346,-0.351143194925184,-2.186198840786586,-9.68420442463943,9.16236163274825,6.3351830532334965,7.595297279613419,0.12290211050220634,-8.710415960020262,9.747698530251988,-5.015523829439548,-0.017079378878174012,3.1643550729381715,-3.5882166926115753,-0.6115426175470802,6.594961304840222,3.0486246950800435,-9.674911694805512,1.618932622345838,-5.304663090349175,-2.6439237122454697,-6.428098485980831,4.29799880502604,7.023529821165667,-3.9429409142701486,8.320578183767253,6.318684266537776,-9.863130746974138,-1.0031503562156754,-5.762623840588532,-4.283284849555433],"split_indices":[3,3,6,6,6,1,5,1,0,0,1,6,6,0,2,0,4,0,0,3,0,2,0,4,2,0,4,0,6,0,0,0,0,6,3,3,0,1,6,4,0,0,0,6,4,0,0,0,1,0,3,0,0,0,0,0,0,2,0,0,4,0,0,0,0,1,1,6,0,0,0,0,4,0,0,0,0,0,0,0,0,0,6,0,0,0,6,0,5,0,0,0,2,0,0,0,0],"sum_hessian":[0.0,0.0,0.0,0.0,0.0,0.0,0.0,0.0,0.0,0.0,0.0,0.0,0.0,0.0,0.0,0.0,0.0,0.0,0.0,0.0,0.0,0.0,0.0,0.0,0.0,0.0,0.0,0.0,0.0,0.0,0.0,0.0,0.0,0.0,0.0,0.0,0.0,0.0,0.0,0.0,0.0,0.0,0.0,0.0,0.0,0.0,0.0,0.0,0.0,0.0,0.0,0.0,0.0,0.0,0.0,0.0,0.0,0.0,0.0,0.0,0.0,0.0,0.0,0.0,0.0,0.0,0.0,0.0,0.0,0.0,0.0,0.0,0.0,0.0,0.0,0.0,0.0,0.0,0.0,0.0,0.0,0.0,0.0,0.0,0.0,0.0,0.0,0.0,0.0,0.0,0.0,0.0,0.0,0.0,0.0,0.0,0.0],"tree_param":{"num_deleted":"0","num_feature":"7","num_nodes":"97","size_leaf_vector":"0"}},{"base_weights":[0.0,0.0,0.0,0.0,0.0,0.0,0.0,0.0,0.0,0.0,0.0,0.0,0.0,0.0,0.0,0.0,0.0,0.0,0.0,0.0,0.0,0.0,0.0,0.0,0.0,0.0,0.0,0.0,0.0,0.0,0.0,0.0,0.0,0.0,0.0,0.0,0.0,0.0,0.0,0.0,0.0,0.0,0.0,0.0,0.0,0.0,0.0,0.0,0.0,0.0,0.0,0.0,0.0,0.0,0.0,0.0,0.0,0.0,0.0,0.0,0.0],"categories":[],"categories_nodes":[],"categories_segments":[],"categories_sizes":[],"default_left":[false,false,false,false,false,false,false,false,false,false,false,false,false,false,false,false,false,false,false,false,false,false,false,false,false,false,false,false,false,false,false,false,false,false,false,false,false,false,false,false,false,false,false,false,false,false,false,false,false,false,false,false,false,false,false,false,false,false,false,false,false],"id":1,"left_children":[1,3,5,7,9,11,13,-1,-1,-1,15,-1,-1,17,19,21,-1,23,-1,25,27,29,31,33,-1,-1,35,-1,37,-1,39,41,-1,43,-1,45,47,-1,49,51,-1,-1,-1,-1,-1,-1,-1,-1,53,-1,55,-1,-1,-1,-1,57,59,-1,-1,-1,-1],"loss_changes":[0.0,0.0,0.0,0.0,0.0,0.0,0.0,0.0,0.0,0.0,0.0,0.0,0.0,0.0,0.0,0.0,0.0,0.0,0.0,0.0,0.0,0.0,0.0,0.0,0.0,0.0,0.0,0.0,0.0,0.0,0.0,0.0,0.0,0.0,0.0,0.0,0.0,0.0,0.0,0.0,0.0,0.0,0.0,0.0,0.0,0.0,0.0,0.0,0.0,0.0,0.0,0.0,0.0,0.0,0.0,0.0,0.0,0.0,0.0,0.0,0.0],"parents":[2147483647,0,0,1,1,2,2,3,3,4,4,5,5,6,6,10,10,13,13,14,14,15,15,17,17,19,19,20,20,21,21,22,22,23,23,26,26,28,28,30,30,31,31,33,33,35,35,36,36,38,38,39,39,48,48,50,50,55,55,56,56],"right_children":[2,4,6,8,10,12,14,-1,-1,-1,16,-1,-1,18,20,22,-1,24,-1,26,28,30,32,34,-1,-1,36,-1,38,-1,40,42,-1,44,-1,46,48,-1,50,52,-1,-1,-1,-1,-1,-1,-1,-1,54,-1,56,-1,-1,-1,-1,58,60,-1,-1,-1,-1],"split_conditions":[8.757769758921647,-6.405337697271589,-1.334013628249778,-9.988444183063976,-0.02412286900865368,-8.688848598711216,-1.1997475475417403,2.0628509283424545,-3.449405764011594,-7.131486165364658,1.1859010197596866,3.198322642803424,5.274474227679622,1.3638542773246307,3.5440956708754214,4.428072636759936,0.2867564509811409,4.972557861776508,-5.743853086093346,-5.007964493464984,-2.116447214037878,9.899315965144485,6.100341508740101,1.7468625351943743,-4.0984669763039925,1.1807357104019562,4.479903036733656,9.868371416871746,9.304768218516386,-7.8650824650369335,8.324605891053952,1.6187784873153692,5.492009884165345,-9.302071128907965,-4.035369206976494,3.283805334760304,2.622762819243892,9.4895365241231,4.064348987616096,-3.90840391572301,-2.262071455643934,-5.820467309866907,3.004165394157992,8.072092788814945,-0.8120131067569965,1.3310479625733613,9.049259302008569,-6.301040871105377,-9.413648148155257,2.6985123387157444,0.5387101482326084,-1.825981927223662,-4.448797518642974,-4.441639127566282,0.2656698292062707,2.261992636333119,-6.138207644082877,-9.874923317128417,7.229640680108297,5.452233418101455,-1.4130299069781458],"split_indices":[0,5,5,1,6,6,0,0,0,0,4,0,0,6,3,5,0,6,0,6,5,5,2,3,0,0,2,0,6,0,1,4,0,1,0,0,5,0,2,5,0,0,0,0,0,0,0,0,5,0,4,0,0,0,0,1,6,0,0,0,0],"sum_hessian":[0.0,0.0,0.0,0.0,0.0,0.0,0.0,0.0,0.0,0.0,0.0,0.0,0.0,0.0,0.0,0.0,0.0,0.0,0.0,0.0,0.0,0.0,0.0,0.0,0.0,0.0,0.0,0.0,0.0,0.0,0.0,0.0,0.0,0.0,0.0,0.0,0.0,0.0,0.0,0.0,0.0,0.0,0.0,0.0,0.0,0.0,0.0,0.0,0.0,0.0,0.0,0.0,0.0,0.0,0.0,0.0,0.0,0.0,0.0,0.0,0.0],"tree_param":{"num_deleted":"0","num_feature":"7","num_nodes":"61","size_leaf_vector":"0"}}]},"name":"gbtree"},"learner_model_param":{"base_score":"5E-1","num_class":"0","num_feature":"7"},"objective":{"name":"reg:squarederror","reg_loss_param":{"scale_pos_weight":"1"}}},"version":[1,4,0]}