{"learner":{"attributes":{},"feature_types":["float","float","float","float","float"],"gradient_booster":{"model":{"gbtree_model_param":{"num_trees":"2","size_leaf_vector":"0"},"tree_info":[0,0],"trees":[{"base_weights":[0.0,0.0,0.0,0.0,0.0,0.0,0.0,0.0,0.0,0.0,0.0,0.0,0.0,0.0,0.0,0.0,0.0,0.0,0.0,0.0,0.0,0.0,0.0,0.0,0.0,0.0,0.0,0.0,0.0,0.0,0.0,0.0,0.0,0.0,0.0,0.0,0.0,0.0,0.0,0.0,0.0,0.0,0.0,0.0,0.0,0.0,0.0,0.0,0.0,0.0,0.0,0.0,0.0,0.0,0.0,0.0,0.0,0.0,0.0,0.0,0.0,0.0,0.0,0.0,0.0,0.0,0.0,0.0,0.0,0.0,0.0,0.0,0.0,0.0,0.0,0.0,0.0,0.0,0.0,0.0,0.0,0.0,0.0],"categories":[],"categories_nodes":[],"categories_segments":[],"categories_sizes":[],"default_left":[false,false,false,false,false,false,false,false,false,false,false,false,false,false,false,false,false,false,false,false,false,false,false,false,false,false,false,false,false,false,false,false,false,false,false,false,false,false,false,false,false,false,false,false,false,false,false,false,false,false,false,false,false,false,false,false,false,false,false,false,false,false,false,false,false,false,false,false,false,false,false,false,false,false,false,false,false,false,false,false,false,false,false],"id":0,"left_children":[1,3,5,7,-1,9,11,-1,-1,13,15,-1,17,19,21,-1,-1,23,25,27,29,31,-1,-1,33,35,37,39,-1,41,43,45,-1,-1,47,49,-1,-1,51,-1,-1,53,55,-1,57,59,-1,61,-1,-1,-1,63,-1,-1,-1,-1,65,67,69,71,73,75,-1,-1,-1,-1,-1,-1,-1,-1,77,-1,79,-1,81,-1,-1,-1,-1,-1,-1,-1,-1],"loss_changes":[0.0,0.0,0.0,0.0,0.0,0.0,0.0,0.0,0.0,0.0,0.0,0.0,0.0,0.0,0.0,0.0,0.0,0.0,0.0,0.0,0.0,0.0,0.0,0.0,0.0,0.0,0.0,0.0,0.0,0.0,0.0,0.0,0.0,0.0,0.0,0.0,0.0,0.0,0.0,0.0,0.0,0.0,0.0,0.0,0.0,0.0,0.0,0.0,0.0,0.0,0.0,0.0,0.0,0.0,0.0,0.0,0.0,0.0,0.0,0.0,0.0,0.0,0.0,0.0,0.0,0.0,0.0,0.0,0.0,0.0,0.0,0.0,0.0,0.0,0.0,0.0,0.0,0.0,0.0,0.0,0.0,0.0,0.0],"parents":[2147483647,0,0,1,1,2,2,3,3,5,5,6,6,9,9,10,10,12,12,13,13,14,14,17,17,18,18,19,19,20,20,21,21,24,24,25,25,26,26,27,27,29,29,30,30,31,31,34,34,35,35,38,38,41,41,42,42,44,44,45,45,47,47,51,51,56,56,57,57,58,58,59,59,60,60,61,61,70,70,72,72,74,74],"right_children":[2,4,6,8,-1,10,12,-1,-1,14,16,-1,18,20,22,-1,-1,24,26,28,30,32,-1,-1,34,36,38,40,-1,42,44,46,-1,-1,48,50,-1,-1,52,-1,-1,54,56,-1,58,60,-1,62,-1,-1,-1,64,-1,-1,-1,-1,66,68,70,72,74,76,-1,-1,-1,-1,-1,-1,-1,-1,78,-1,80,-1,82,-1,-1,-1,-1,-1,-1,-1,-1],"split_conditions":[3.948126971962715,5.626377415166532,-0.8153238711273403,4.437190906517571,-6.420377923988276,-4.388372074703236,6.206503761825807,-1.0277381123316047,-8.441778645143835,8.091860844561477,8.522344450319899,6.722099215894691,9.777809831614054,3.062052203034181,6.284915283983189,6.0813453091539245,0.629991582102198,9.093251866318532,2.638795722468748,8.476888199331029,2.1267144945830836,5.484092269146032,-7.276272243934658,3.624651771913335,-4.925279213366506,-6.892036931379776,-3.4549420184843926,-9.202590324927995,4.488767887954278,-5.228013428486253,9.435200521511462,5.8085101894741324,2.779094664919681,7.1121054682222145,-3.4899274502351467,4.6625635073485405,3.9634366321127388,-5.542311500897831,-0.7978493134542433,4.491238449673553,-7.094183156011732,-7.628745902761139,3.1807390594925202,3.8141149940259034,4.148745947771001,-8.773363669612092,-1.0652374588608797,9.035004415690903,0.39071179155907565,-0.7045480875264261,4.7729326910127945,-3.4939094299266635,9.694694204322381,-3.2986824784883435,-0.5547864450678937,4.902854433467068,-2.8346893109056026,5.475696966903643,0.9287635954686468,-2.030457380905509,-6.269817379111483,1.2733146504322903,-1.1260176314946335,-9.618679650039313,-2.4880561570903117,0.22731915275608117,1.3007240828736837,-3.511894400529398,6.596199295229869,9.643827176015492,4.390022338637326,1.8207805640833783,-2.9921938598551847,-1.3186319404960152,-5.745576328605262,-6.714485073513096,-7.0748982678914505,-9.670441066739633,-0.7777160249624622,-6.718232505557699,-1.4992583299052527,0.047912020909656405,8.351547248156447],"split_indices":[2,0,4,3,0,0,4,0,0,2,1,0,3,2,2,0,0,0,2,1,0,0,0,0,1,4,4,3,0,1,1,4,0,0,3,1,0,0,1,0,0,0,1,0,2,3,0,2,0,0,0,2,0,0,0,0,0,4,3,3,3,4,0,0,0,0,0,0,0,0,0,0,0,0,0,0,0,0,0,0,0,0,0],"sum_hessian":[0.0,0.0,0.0,0.0,0.0,0.0,0.0,0.0,0.0,0.0,0.0,0.0,0.0,0.0,0.0,0.0,0.0,0.0,0.0,0.0,0.0,0.0,0.0,0.0,0.0,0.0,0.0,0.0,0.0,0.0,0.0,0.0,0.0,0.0,0.0,0.0,0.0,0.0,0.0,0.0,0.0,0.0,0.0,0.0,0.0,0.0,0.0,0.0,0.0,0.0,0.0,0.0,0.0,0.0,0.0,0.0,0.0,0.0,0.0,0.0,0.0,0.0,0.0,0.0,0.0,0.0,0.0,0.0,0.0,0.0,0.0,0.0,0.0,0.0,0.0,0.0,0.0,0.0,0.0,0.0,0.0,0.0,0.0],"tree_param":{"num_deleted":"0","num_feature":"5","num_nodes":"83","size_leaf_vector":"0"}},{"base_weights":[0.0,0.0,0.0,0.0,0.0,0.0,0.0,0.0,0.0,0.0,0.0,0.0,0.0,0.0,0.0,0.0,0.0,0.0,0.0,0.0,0.0,0.0,0.0,0.0,0.0,0.0,0.0,0.0,0.0,0.0,0.0,0.0,0.0,0.0,0.0,0.0,0.0,0.0,0.0,0.0,0.0,0.0,0.0,0.0,0.0,0.0,0.0,0.0,0.0,0.0,0.0,0.0,0.0,0.0,0.0,0.0,0.0,0.0,0.0,0.0,0.0,0.0,0.0,0.0,0.0,0.0,0.0,0.0,0.0,0.0,0.0,0.0,0.0,0.0,0.0,0.0,0.0,0.0,0.0,0.0,0.0,0.0,0.0,0.0,0.0,0.0,0.0,0.0,0.0,0.0,0.0,0.0,0.0,0.0,0.0,0.0,0.0,0.0,0.0],"categories":[],"categories_nodes":[],"categories_segments":[],"categories_sizes":[],"default_left":[false,false,false,false,false,false,false,false,false,false,false,false,false,false,false,false,false,false,false,false,false,false,false,false,false,false,false,false,false,false,false,false,false,false,false,false,false,false,false,false,false,false,false,false,false,false,false,false,false,false,false,false,false,false,false,false,false,false,false,false,false,false,false,false,false,false,false,false,false,false,false,false,false,false,false,false,false,false,false,false,false,false,false,false,false,false,false,false,false,false,false,false,false,false,false,false,false,false,false],"id":1,"left_children":[1,3,5,7,9,11,13,15,17,-1,19,21,-1,23,25,27,29,31,-1,33,35,37,39,-1,41,-1,-1,-1,43,-1,-1,-1,45,47,-1,-1,49,-1,51,53,55,57,-1,-1,59,61,63,-1,65,67,69,-1,-1,71,73,-1,-1,-1,75,-1,-1,-1,77,79,-1,81,-1,-1,-1,83,-1,-1,85,87,-1,89,-1,-1,-1,-1,-1,91,-1,93,95,-1,-1,-1,-1,-1,97,-1,-1,-1,-1,-1,-1,-1,-1],"loss_changes":[0.0,0.0,0.0,0.0,0.0,0.0,0.0,0.0,0.0,0.0,0.0,0.0,0.0,0.0,0.0,0.0,0.0,0.0,0.0,0.0,0.0,0.0,0.0,0.0,0.0,0.0,0.0,0.0,0.0,0.0,0.0,0.0,0.0,0.0,0.0,0.0,0.0,0.0,0.0,0.0,0.0,0.0,0.0,0.0,0.0,0.0,0.0,0.0,0.0,0.0,0.0,0.0,0.0,0.0,0.0,0.0,0.0,0.0,0.0,0.0,0.0,0.0,0.0,0.0,0.0,0.0,0.0,0.0,0.0,0.0,0.0,0.0,0.0,0.0,0.0,0.0,0.0,0.0,0.0,0.0,0.0,0.0,0.0,0.0,0.0,0.0,0.0,0.0,0.0,0.0,0.0,0.0,0.0,0.0,0.0,0.0,0.0,0.0,0.0],"parents":[2147483647,0,0,1,1,2,2,3,3,4,4,5,5,6,6,7,7,8,8,10,10,11,11,13,13,14,14,15,15,16,16,17,17,19,19,20,20,21,21,22,22,24,24,28,28,32,32,33,33,36,36,38,38,39,39,40,40,41,41,44,44,45,45,46,46,48,48,49,49,50,50,53,53,54,54,58,58,62,62,63,63,65,65,69,69,72,72,73,73,75,75,81,81,83,83,84,84,90,90],"right_children":[2,4,6,8,10,12,14,16,18,-1,20,22,-1,24,26,28,30,32,-1,34,36,38,40,-1,42,-1,-1,-1,44,-1,-1,-1,46,48,-1,-1,50,-1,52,54,56,58,-1,-1,60,62,64,-1,66,68,70,-1,-1,72,74,-1,-1,-1,76,-1,-1,-1,78,80,-1,82,-1,-1,-1,84,-1,-1,86,88,-1,90,-1,-1,-1,-1,-1,92,-1,94,96,-1,-1,-1,-1,-1,98,-1,-1,-1,-1,-1,-1,-1,-1],"split_conditions":[-0.2854669460714483,-8.222843991221017,7.563368803299429,8.678304632131223,-7.326968597345042,-1.1892794973022376,-3.009782810786831,-5.697539848409573,5.697029823924584,3.233695902774908,5.253108492534043,-9.855553299251167,0.6556725461670521,3.933306747121339,7.565650370741089,-6.142820112827087,8.292156797111161,2.817182178026602,-1.1484302384959673,5.669271133522496,0.1384604123494242,7.421045184219757,-8.306005985079116,-3.844267698994588,-0.4128604670101961,8.531581989298768,7.022192452852373,-9.055121748412672,-8.754120953529666,1.2090405091036516,8.903211731294743,3.4327083246247287,5.0527444788981555,-1.0577062446740033,4.008051513641904,-4.864818289900895,-3.813042447375871,4.350010218190777,-8.124268769165557,-0.6517302601739114,1.723232434669196,-8.805745362045041,3.0312802849743967,1.1901320370495405,1.1868206887399584,-0.8297801060720094,-5.212128416392041,-2.275411099847605,0.4468737242601506,-3.1149984677333933,0.47992540724710864,8.715882627890036,1.0939786351231362,2.483930506682949,-3.2159406873400185,-7.085657478959201,6.304787179278218,-2.601763701443635,-0.2125446721679065,-1.896637650876178,-7.212020000041916,4.855564013476075,-8.998745504687854,0.23718291001252467,6.618316455242471,7.721274291661121,-7.606443240717098,8.227752383967555,5.7353680696668885,8.939003522489006,-8.939303263465746,-6.2025764774482415,-1.8545427276616842,6.277375157133221,-7.707261998029743,-6.829718852078028,8.176468267873819,1.5837140376830465,4.438664415487139,-3.000403854523805,-0.14264619774795406,-1.6485620421966374,4.80235067441577,-0.791775070919476,2.319131090940898,5.3114654253670786,-0.606160667277365,8.103916506990537,7.8116764788083906,1.8372965943485475,6.550815111893968,-3.5633427787367014,-4.885609060298232,5.230684658738925,-7.8920163788355415,7.52358436375793,5.223744846783838,-3.9845203133081206,2.5870312125629766],"split_indices":[2,2,0,1,1,1,1,2,2,0,3,4,0,0,3,4,2,1,0,4,0,2,2,0,4,0,0,0,3,0,0,0,3,0,0,0,2,0,4,3,1,4,0,0,3,2,2,0,1,4,4,0,0,3,0,0,0,0,1,0,0,0,2,0,0,4,0,0,0,4,0,0,4,2,0,1,0,0,0,0,0,4,0,0,1,0,0,0,0,0,4,0,0,0,0,0,0,0,0],"sum_hessian":[0.0,0.0,0.0,0.0,0.0,0.0,0.0,0.0,0.0,0.0,0.0,0.0,0.0,0.0,0.0,0.0,0.0,0.0,0.0,0.0,0.0,0.0,0.0,0.0,0.0,0.0,0.0,0.0,0.0,0.0,0.0,0.0,0.0,0.0,0.0,0.0,0.0,0.0,0.0,0.0,0.0,0.0,0.0,0.0,0.0,0.0,0.0,0.0,0.0,0.0,0.0,0.0,0.0,0.0,0.0,0.0,0.0,0.0,0.0,0.0,0.0,0.0,0.0,0.0,0.0,0.0,0.0,0.0,0.0,0.0,0.0,0.0,0.0,0.0,0.0,0.0,0.0,0.0,0.0,0.0,0.0,0.0,0.0,0.0,0.0,0.0,0.0,0.0,0.0,0.0,0.0,0.0,0.0,0.0,0.0,0.0,0.0,0.0,0.0],"tree_param":{"num_deleted":"0","num_feature":"5","num_nodes":"99","size_leaf_vector":"0"}}]},"name":"gbtree"},"learner_model_param":{"base_score":"5E-1","num_class":"0","num_feature":"5"},"objective":{"name":"reg:squarederror","reg_loss_param":{"scale_pos_weight":"1"}}},"version":[1,4,0]}