{"learner":{"attributes":{},"feature_types":["float","float","float","float","float","float","float","float","float","float","float","float","float","float","float","float","float","float","float","float"],"gradient_booster":{"model":{"gbtree_model_param":{"num_trees":"2","size_leaf_vector":"0"},"tree_info":[0,0],"trees":[{"base_weights":[0.0,0.0,0.0,0.0,0.0,0.0,0.0,0.0,0.0,0.0,0.0,0.0,0.0,0.0,0.0,0.0,0.0,0.0,0.0,0.0,0.0,0.0,0.0,0.0,0.0,0.0,0.0,0.0,0.0,0.0,0.0,0.0,0.0,0.0,0.0,0.0,0.0,0.0,0.0,0.0,0.0,0.0,0.0,0.0,0.0,0.0,0.0,0.0,0.0,0.0,0.0,0.0,0.0,0.0,0.0,0.0,0.0,0.0,0.0,0.0,0.0,0.0,0.0,0.0,0.0,0.0,0.0,0.0,0.0,0.0,0.0,0.0,0.0,0.0,0.0,0.0,0.0,0.0,0.0,0.0,0.0,0.0,0.0],"categories":[],"categories_nodes":[],"categories_segments":[],"categories_sizes":[],"default_left":[false,false,false,false,false,false,false,false,false,false,false,false,false,false,false,false,false,false,false,false,false,false,false,false,false,false,false,false,false,false,false,false,false,false,false,false,false,false,false,false,false,false,false,false,false,false,false,false,false,false,false,false,false,false,false,false,false,false,false,false,false,false,false,false,false,false,false,false,false,false,false,false,false,false,false,false,false,false,false,false,false,false,false],"id":0,"left_children":[1,3,5,-1,7,9,11,13,15,-1,17,19,21,-1,23,25,-1,27,-1,29,-1,31,-1,33,-1,-1,-1,35,37,-1,39,41,-1,43,45,-1,47,49,51,53,-1,55,-1,-1,-1,-1,57,59,61,63,-1,-1,-1,65,-1,67,69,71,73,75,-1,77,-1,-1,-1,-1,-1,-1,-1,79,81,-1,-1,-1,-1,-1,-1,-1,-1,-1,-1,-1,-1],"loss_changes":[0.0,0.0,0.0,0.0,0.0,0.0,0.0,0.0,0.0,0.0,0.0,0.0,0.0,0.0,0.0,0.0,0.0,0.0,0.0,0.0,0.0,0.0,0.0,0.0,0.0,0.0,0.0,0.0,0.0,0.0,0.0,0.0,0.0,0.0,0.0,0.0,0.0,0.0,0.0,0.0,0.0,0.0,0.0,0.0,0.0,0.0,0.0,0.0,0.0,0.0,0.0,0.0,0.0,0.0,0.0,0.0,0.0,0.0,0.0,0.0,0.0,0.0,0.0,0.0,0.0,0.0,0.0,0.0,0.0,0.0,0.0,0.0,0.0,0.0,0.0,0.0,0.0,0.0,0.0,0.0,0.0,0.0,0.0],"parents":[2147483647,0,0,1,1,2,2,4,4,5,5,6,6,7,7,8,8,10,10,11,11,12,12,14,14,15,15,17,17,19,19,21,21,23,23,27,27,28,28,30,30,31,31,33,33,34,34,36,36,37,37,38,38,39,39,41,41,46,46,47,47,48,48,49,49,53,53,55,55,56,56,57,57,58,58,59,59,61,61,69,69,70,70],"right_children":[2,4,6,-1,8,10,12,14,16,-1,18,20,22,-1,24,26,-1,28,-1,30,-1,32,-1,34,-1,-1,-1,36,38,-1,40,42,-1,44,46,-1,48,50,52,54,-1,56,-1,-1,-1,-1,58,60,62,64,-1,-1,-1,66,-1,68,70,72,74,76,-1,78,-1,-1,-1,-1,-1,-1,-1,80,82,-1,-1,-1,-1,-1,-1,-1,-1,-1,-1,-1,-1],"split_conditions":[0.987482545095828,9.883207800260802,-6.520275945020645,7.308697317102656,7.390996527889865,-4.49610877616823,-4.310495189400594,4.036896986635645,1.187335180412033,8.196218070526584,3.2409880659292494,-3.482618992803804,-3.359657111075353,7.86882031692236,-7.261479668388747,7.492159153960795,0.5839048093962234,-0.9526512453733851,4.487965362375789,-3.0025333137403916,-8.74143302506602,-0.48241564289964245,7.932779151987461,-6.154259515668312,-2.9424984300218417,0.38196745523328346,-5.348420117750901,-4.056497938339906,-2.5082886945655716,-9.05794667016743,0.4391667378901225,1.344164553833222,7.40639695800872,-0.25734324029653877,-6.869939059784878,-2.8756433122550815,-5.327477472024078,0.38443252836915853,-6.1810847514248914,-4.977784973691254,-6.9826298803583065,2.1761355880711193,-6.728474004475126,0.8740023463367326,-8.360148850300954,-1.6756746323164577,-7.679134113813447,4.982069593406704,-1.3127549910376661,9.106092455798802,6.880640101417697,7.538809816724715,1.4586902451671406,-4.924378679869115,-5.072188722261865,-2.8982911564367866,7.422009179834031,1.7487916972040516,-4.944889624725192,-9.936590491476023,-0.865798358131677,3.489189023161874,0.40766892848200165,-6.587564227751606,0.7367716468288563,-2.5627133701033635,3.437348805356212,-1.8951189744052481,6.5482323705050085,-0.2384874863954316,4.1118897223914495,-4.058995343513283,-0.34936184574124063,-5.556296247128562,-6.0129148420547835,4.801646670915687,0.27450140112326693,-3.0403863720205795,2.9484610140541427,3.140231393929527,7.041226362471804,0.910447316951446,1.3595062854690898],"split_indices":[11,13,18,0,12,15,17,14,9,0,9,2,5,0,1,17,0,12,0,12,0,1,0,18,0,0,0,13,8,0,14,13,0,15,14,0,6,10,19,6,0,4,0,0,0,0,1,10,14,2,0,0,0,6,0,16,5,0,13,7,0,2,0,0,0,0,0,0,0,0,16,0,0,0,0,0,0,0,0,0,0,0,0],"sum_hessian":[0.0,0.0,0.0,0.0,0.0,0.0,0.0,0.0,0.0,0.0,0.0,0.0,0.0,0.0,0.0,0.0,0.0,0.0,0.0,0.0,0.0,0.0,0.0,0.0,0.0,0.0,0.0,0.0,0.0,0.0,0.0,0.0,0.0,0.0,0.0,0.0,0.0,0.0,0.0,0.0,0.0,0.0,0.0,0.0,0.0,0.0,0.0,0.0,0.0,0.0,0.0,0.0,0.0,0.0,0.0,0.0,0.0,0.0,0.0,0.0,0.0,0.0,0.0,0.0,0.0,0.0,0.0,0.0,0.0,0.0,0.0,0.0,0.0,0.0,0.0,0.0,0.0,0.0,0.0,0.0,0.0,0.0,0.0],"tree_param":{"num_deleted":"0","num_feature":"20","num_nodes":"83","size_leaf_vector":"0"}},{"base_weights":[0.0,0.0,0.0,0.0,0.0,0.0,0.0,0.0,0.0,0.0,0.0,0.0,0.0,0.0,0.0,0.0,0.0,0.0,0.0,0.0,0.0,0.0,0.0,0.0,0.0,0.0,0.0,0.0,0.0,0.0,0.0,0.0,0.0,0.0,0.0,0.0,0.0,0.0,0.0,0.0,0.0,0.0,0.0,0.0,0.0,0.0,0.0,0.0,0.0,0.0,0.0,0.0,0.0,0.0,0.0,0.0,0.0,0.0,0.0,0.0,0.0,0.0,0.0,0.0,0.0,0.0,0.0,0.0,0.0,0.0,0.0,0.0,0.0,0.0,0.0,0.0,0.0,0.0,0.0,0.0,0.0,0.0,0.0,0.0,0.0,0.0,0.0,0.0,0.0,0.0,0.0,0.0,0.0],"categories":[],"categories_nodes":[],"categories_segments":[],"categories_sizes":[],"default_left":[false,false,false,false,false,false,false,false,false,false,false,false,false,false,false,false,false,false,false,false,false,false,false,false,false,false,false,false,false,false,false,false,false,false,false,false,false,false,false,false,false,false,false,false,false,false,false,false,false,false,false,false,false,false,false,false,false,false,false,false,false,false,false,false,false,false,false,false,false,false,false,false,false,false,false,false,false,false,false,false,false,false,false,false,false,false,false,false,false,false,false,false,false],"id":1,"left_children":[1,3,5,7,9,11,13,15,-1,17,19,21,23,25,27,-1,29,31,33,35,-1,37,-1,39,-1,-1,-1,41,43,-1,-1,-1,45,47,49,-1,51,-1,-1,53,55,57,59,-1,-1,-1,61,63,-1,65,67,69,-1,-1,-1,-1,-1,-1,71,-1,-1,-1,-1,73,75,77,-1,79,-1,81,-1,83,-1,-1,-1,-1,-1,85,-1,-1,87,-1,-1,89,91,-1,-1,-1,-1,-1,-1,-1,-1],"loss_changes":[0.0,0.0,0.0,0.0,0.0,0.0,0.0,0.0,0.0,0.0,0.0,0.0,0.0,0.0,0.0,0.0,0.0,0.0,0.0,0.0,0.0,0.0,0.0,0.0,0.0,0.0,0.0,0.0,0.0,0.0,0.0,0.0,0.0,0.0,0.0,0.0,0.0,0.0,0.0,0.0,0.0,0.0,0.0,0.0,0.0,0.0,0.0,0.0,0.0,0.0,0.0,0.0,0.0,0.0,0.0,0.0,0.0,0.0,0.0,0.0,0.0,0.0,0.0,0.0,0.0,0.0,0.0,0.0,0.0,0.0,0.0,0.0,0.0,0.0,0.0,0.0,0.0,0.0,0.0,0.0,0.0,0.0,0.0,0.0,0.0,0.0,0.0,0.0,0.0,0.0,0.0,0.0,0.0],"parents":[2147483647,0,0,1,1,2,2,3,3,4,4,5,5,6,6,7,7,9,9,10,10,11,11,12,12,13,13,14,14,16,16,17,17,18,18,19,19,21,21,23,23,27,27,28,28,32,32,33,33,34,34,36,36,39,39,40,40,41,41,42,42,46,46,47,47,49,49,50,50,51,51,58,58,63,63,64,64,65,65,67,67,69,69,71,71,77,77,80,80,83,83,84,84],"right_children":[2,4,6,8,10,12,14,16,-1,18,20,22,24,26,28,-1,30,32,34,36,-1,38,-1,40,-1,-1,-1,42,44,-1,-1,-1,46,48,50,-1,52,-1,-1,54,56,58,60,-1,-1,-1,62,64,-1,66,68,70,-1,-1,-1,-1,-1,-1,72,-1,-1,-1,-1,74,76,78,-1,80,-1,82,-1,84,-1,-1,-1,-1,-1,86,-1,-1,88,-1,-1,90,92,-1,-1,-1,-1,-1,-1,-1,-1],"split_conditions":[9.393273306493107,-9.238274902496816,-7.87043151999603,5.9437453709561705,-9.342549777402652,7.970284358819704,1.7020052908328314,-2.977656261993298,-8.33590933766287,-9.239925366481481,8.921179782205996,5.657255862623563,5.765141011116409,0.12358970648986123,4.836906774237786,-3.002050219161494,-0.6026375462600697,-6.952948405444702,-5.442557952422194,4.04048355310322,1.0971785080511438,1.9541269699785442,6.383356554647751,4.77992190888955,-9.509788538154655,4.18843453484083,6.51316033177401,-5.443757992591606,9.586591897615207,-2.839807091489778,9.230962943586519,3.9690984636606057,0.25855074281838597,0.7703287507339596,6.7239254567679865,1.1496425697301085,4.546277094859523,-6.3879162219024614,7.205368881982356,-7.013425190607434,4.501861718358819,-9.86975428181215,-5.740934891395801,-4.62910098754456,7.945680556178317,-2.7989030464580384,-7.579906018227872,-8.292510917934456,8.830398671094216,-4.970103370017547,-6.689551712849513,-9.322746296139412,-0.562406950372706,-8.277988139947569,-4.4709039233137595,7.259649607244011,3.6437786600650135,3.601190688685463,8.429563834734513,6.94774531197109,-6.800755325913273,-6.327030580467595,-7.5322494997530445,-5.991921899206188,9.453392796933034,-3.3518249646057976,-0.5122897129339741,-2.7508637331036123,-5.754266584797894,0.5383794301715561,-3.3703016227668634,-3.893845057088308,0.48057053717415954,0.7100776230077983,-3.385906627053008,1.2419402848452403,-1.6818147242623454,7.77298012341274,-2.136718916448408,-3.4677083094185672,-6.464943225852817,9.946547665924825,-4.455677615944223,-6.499665859653605,1.7093456201457542,3.0656477491440803,8.941906032715998,4.067809501981493,-6.449119445378507,-8.414679187267183,-4.346210683152282,-2.0181040309630838,3.4915115853229217],"split_indices":[16,13,12,1,18,13,10,13,0,19,6,0,3,8,8,0,14,0,14,4,0,17,0,17,0,0,0,11,11,0,0,0,9,15,0,0,8,0,0,6,3,17,12,0,0,0,2,4,0,4,19,6,0,0,0,0,0,0,11,0,0,0,0,15,2,6,0,15,0,11,0,2,0,0,0,0,0,4,0,0,11,0,0,7,10,0,0,0,0,0,0,0,0],"sum_hessian":[0.0,0.0,0.0,0.0,0.0,0.0,0.0,0.0,0.0,0.0,0.0,0.0,0.0,0.0,0.0,0.0,0.0,0.0,0.0,0.0,0.0,0.0,0.0,0.0,0.0,0.0,0.0,0.0,0.0,0.0,0.0,0.0,0.0,0.0,0.0,0.0,0.0,0.0,0.0,0.0,0.0,0.0,0.0,0.0,0.0,0.0,0.0,0.0,0.0,0.0,0.0,0.0,0.0,0.0,0.0,0.0,0.0,0.0,0.0,0.0,0.0,0.0,0.0,0.0,0.0,0.0,0.0,0.0,0.0,0.0,0.0,0.0,0.0,0.0,0.0,0.0,0.0,0.0,0.0,0.0,0.0,0.0,0.0,0.0,0.0,0.0,0.0,0.0,0.0,0.0,0.0,0.0,0.0],"tree_param":{"num_deleted":"0","num_feature":"20","num_nodes":"93","size_leaf_vector":"0"}}]},"name":"gbtree"},"learner_model_param":{"base_score":"5E-1","num_class":"0","num_feature":"20"},"objective":{"name":"reg:squarederror","reg_loss_param":{"scale_pos_weight":"1"}}},"version":[1,4,0]}