{"learner":{"attributes":{},"feature_types":["float","float","float","float","float","float","float","float","float","float","float","float","float","float","float","float","float","float"],"gradient_booster":{"model":{"gbtree_model_param":{"num_trees":"2","size_leaf_vector":"0"},"tree_info":[0,0],"trees":[{"base_weights":[0.0,0.0,0.0,0.0,0.0,0.0,0.0,0.0,0.0,0.0,0.0,0.0,0.0,0.0,0.0,0.0,0.0,0.0,0.0,0.0,0.0,0.0,0.0,0.0,0.0,0.0,0.0,0.0,0.0,0.0,0.0,0.0,0.0,0.0,0.0,0.0,0.0,0.0,0.0,0.0,0.0,0.0,0.0,0.0,0.0,0.0,0.0,0.0,0.0,0.0,0.0,0.0,0.0,0.0,0.0,0.0,0.0,0.0,0.0,0.0,0.0,0.0,0.0,0.0,0.0,0.0,0.0,0.0,0.0,0.0,0.0,0.0,0.0,0.0,0.0,0.0,0.0,0.0,0.0,0.0,0.0,0.0,0.0,0.0,0.0,0.0,0.0,0.0,0.0,0.0,0.0,0.0,0.0,0.0,0.0,0.0,0.0,0.0,0.0,0.0,0.0,0.0,0.0,0.0,0.0,0.0,0.0,0.0,0.0,0.0,0.0,0.0,0.0],"categories":[],"categories_nodes":[],"categories_segments":[],"categories_sizes":[],"default_left":[false,false,false,false,false,false,false,false,false,false,false,false,false,false,false,false,false,false,false,false,false,false,false,false,false,false,false,false,false,false,false,false,false,false,false,false,false,false,false,false,false,false,false,false,false,false,false,false,false,false,false,false,false,false,false,false,false,false,false,false,false,false,false,false,false,false,false,false,false,false,false,false,false,false,false,false,false,false,false,false,false,false,false,false,false,false,false,false,false,false,false,false,false,false,false,false,false,false,false,false,false,false,false,false,false,false,false,false,false,false,false,false,false],"id":0,"left_children":[1,3,5,7,9,11,13,15,-1,17,19,21,23,25,27,29,31,-1,33,35,37,39,41,-1,43,45,47,49,51,-1,-1,-1,-1,53,-1,55,57,-1,59,-1,61,63,65,-1,67,69,-1,-1,71,-1,-1,73,-1,75,-1,77,79,-1,-1,-1,81,-1,83,-1,-1,-1,-1,-1,85,-1,87,89,-1,91,-1,93,-1,95,-1,-1,-1,97,-1,-1,99,101,-1,103,-1,-1,-1,-1,105,-1,-1,-1,107,-1,-1,-1,109,-1,-1,-1,-1,-1,-1,-1,-1,-1,111,-1,-1],"loss_changes":[0.0,0.0,0.0,0.0,0.0,0.0,0.0,0.0,0.0,0.0,0.0,0.0,0.0,0.0,0.0,0.0,0.0,0.0,0.0,0.0,0.0,0.0,0.0,0.0,0.0,0.0,0.0,0.0,0.0,0.0,0.0,0.0,0.0,0.0,0.0,0.0,0.0,0.0,0.0,0.0,0.0,0.0,0.0,0.0,0.0,0.0,0.0,0.0,0.0,0.0,0.0,0.0,0.0,0.0,0.0,0.0,0.0,0.0,0.0,0.0,0.0,0.0,0.0,0.0,0.0,0.0,0.0,0.0,0.0,0.0,0.0,0.0,0.0,0.0,0.0,0.0,0.0,0.0,0.0,0.0,0.0,0.0,0.0,0.0,0.0,0.0,0.0,0.0,0.0,0.0,0.0,0.0,0.0,0.0,0.0,0.0,0.0,0.0,0.0,0.0,0.0,0.0,0.0,0.0,0.0,0.0,0.0,0.0,0.0,0.0,0.0,0.0,0.0],"parents":[2147483647,0,0,1,1,2,2,3,3,4,4,5,5,6,6,7,7,9,9,10,10,11,11,12,12,13,13,14,14,15,15,16,16,18,18,19,19,20,20,21,21,22,22,24,24,25,25,26,26,27,27,28,28,33,33,35,35,36,36,38,38,40,40,41,41,42,42,44,44,45,45,48,48,51,51,53,53,55,55,56,56,60,60,62,62,68,68,70,70,71,71,73,73,75,75,77,77,81,81,84,84,85,85,87,87,92,92,96,96,100,100,110,110],"right_children":[2,4,6,8,10,12,14,16,-1,18,20,22,24,26,28,30,32,-1,34,36,38,40,42,-1,44,46,48,50,52,-1,-1,-1,-1,54,-1,56,58,-1,60,-1,62,64,66,-1,68,70,-1,-1,72,-1,-1,74,-1,76,-1,78,80,-1,-1,-1,82,-1,84,-1,-1,-1,-1,-1,86,-1,88,90,-1,92,-1,94,-1,96,-1,-1,-1,98,-1,-1,100,102,-1,104,-1,-1,-1,-1,106,-1,-1,-1,108,-1,-1,-1,110,-1,-1,-1,-1,-1,-1,-1,-1,-1,112,-1,-1],"split_conditions":[1.1824851141381956,-4.056179545334995,-2.7821085118917868,-4.516448005147678,0.11305237728980089,0.2937015587179701,3.2493550327045373,-6.407007085930869,0.1118657536101626,-8.17964991112795,-1.915934481905916,-0.1656335025554494,-2.6886556461110613,-6.714345800212023,-7.233634331102661,0.9619562708546141,-5.5899616814695134,-6.816446088811264,-6.978861829663973,-6.6417683308184285,0.5076872778930657,-6.358566337735188,-6.838053197814528,-0.8269938040132772,7.725151252862034,-0.4819330458033342,6.088047023171988,3.281539257158265,-1.7571398368136943,-4.676543383836112,8.018493628545219,6.9176991883146925,3.6344112754854603,3.5488109829989707,5.5888407542223995,6.395349099182329,-8.34332686302105,0.6616939037236058,9.707317106819076,-9.376233932990191,3.1797335224951144,-6.859332538148575,7.279285642820081,-4.077877549413126,-9.24890429607209,-7.657343316768569,2.131826906634126,0.10680182225680923,1.1458983811933248,2.686617281641057,-0.35515799731151354,9.90925464212199,-2.805717616687506,-7.780415761341189,-2.858514399696804,4.425467604554852,9.20239913097344,0.6519365647847213,-0.794809644684559,-3.8827337325596956,8.12024350064409,-4.839996527637843,5.429019064335016,6.279752976364637,-8.109474578893924,2.6944153873494514,8.570312154525933,6.2913070929858,2.095020747991228,-6.490128515025614,3.830841269799098,-8.700397822622525,7.464030005966691,1.0988726708647985,2.3790669177802997,-1.088946668971717,2.183761501519381,-0.6088468816865991,2.6325394539412414,-4.249850326584081,2.3314745604222136,-5.207387319875107,-7.9084065429941575,4.98326166127087,-9.414212831299885,-5.878675507498391,7.021176758333937,6.803880384292665,-5.130152219000836,5.972663911598865,-1.0244893448313075,2.201175126400239,2.160360783323444,9.471200880767803,1.1156417081478924,-6.992045928018792,6.581360479091327,-8.9903810685057,3.6616601174623202,4.101416742578142,-1.337523416562231,-4.870269515566045,-8.28715656234262,5.046143694910263,-4.57990324912695,-0.040675036611418136,-5.455371062948369,-4.932312457414545,-8.560985512115415,-0.9075397428789351,1.9026435141785392,-9.32118327113348,1.1623795091405515],"split_indices":[1,7,1,10,2,4,12,3,0,0,0,13,9,3,2,17,4,0,9,13,14,16,12,0,1,1,2,5,0,0,0,0,0,15,0,2,17,0,7,0,6,1,4,0,6,8,0,0,2,0,0,13,0,12,0,12,8,0,0,0,15,0,12,0,0,0,0,0,7,0,3,16,0,4,0,7,0,10,0,0,0,16,0,0,14,17,0,11,0,0,0,0,2,0,0,0,11,0,0,0,17,0,0,0,0,0,0,0,0,0,8,0,0],"sum_hessian":[0.0,0.0,0.0,0.0,0.0,0.0,0.0,0.0,0.0,0.0,0.0,0.0,0.0,0.0,0.0,0.0,0.0,0.0,0.0,0.0,0.0,0.0,0.0,0.0,0.0,0.0,0.0,0.0,0.0,0.0,0.0,0.0,0.0,0.0,0.0,0.0,0.0,0.0,0.0,0.0,0.0,0.0,0.0,0.0,0.0,0.0,0.0,0.0,0.0,0.0,0.0,0.0,0.0,0.0,0.0,0.0,0.0,0.0,0.0,0.0,0.0,0.0,0.0,0.0,0.0,0.0,0.0,0.0,0.0,0.0,0.0,0.0,0.0,0.0,0.0,0.0,0.0,0.0,0.0,0.0,0.0,0.0,0.0,0.0,0.0,0.0,0.0,0.0,0.0,0.0,0.0,0.0,0.0,0.0,0.0,0.0,0.0,0.0,0.0,0.0,0.0,0.0,0.0,0.0,0.0,0.0,0.0,0.0,0.0,0.0,0.0,0.0,0.0],"tree_param":{"num_deleted":"0","num_feature":"18","num_nodes":"113","size_leaf_vector":"0"}},{"base_weights":[0.0,0.0,0.0,0.0,0.0,0.0,0.0,0.0,0.0,0.0,0.0,0.0,0.0,0.0,0.0,0.0,0.0,0.0,0.0,0.0,0.0,0.0,0.0,0.0,0.0,0.0,0.0,0.0,0.0,0.0,0.0,0.0,0.0,0.0,0.0,0.0,0.0,0.0,0.0,0.0,0.0,0.0,0.0,0.0,0.0,0.0,0.0,0.0,0.0,0.0,0.0,0.0,0.0,0.0,0.0,0.0,0.0,0.0,0.0,0.0,0.0,0.0,0.0,0.0,0.0,0.0,0.0,0.0,0.0,0.0,0.0,0.0,0.0,0.0,0.0,0.0,0.0,0.0,0.0,0.0,0.0,0.0,0.0,0.0,0.0,0.0,0.0,0.0,0.0,0.0,0.0,0.0,0.0,0.0,0.0,0.0,0.0,0.0,0.0,0.0,0.0,0.0,0.0,0.0,0.0,0.0,0.0,0.0,0.0,0.0,0.0,0.0,0.0,0.0,0.0,0.0,0.0,0.0,0.0,0.0,0.0,0.0,0.0,0.0,0.0,0.0,0.0,0.0,0.0,0.0,0.0],"categories":[],"categories_nodes":[],"categories_segments":[],"categories_sizes":[],"default_left":[false,false,false,false,false,false,false,false,false,false,false,false,false,false,false,false,false,false,false,false,false,false,false,false,false,false,false,false,false,false,false,false,false,false,false,false,false,false,false,false,false,false,false,false,false,false,false,false,false,false,false,false,false,false,false,false,false,false,false,false,false,false,false,false,false,false,false,false,false,false,false,false,false,false,false,false,false,false,false,false,false,false,false,false,false,false,false,false,false,false,false,false,false,false,false,false,false,false,false,false,false,false,false,false,false,false,false,false,false,false,false,false,false,false,false,false,false,false,false,false,false,false,false,false,false,false,false,false,false,false,false],"id":1,"left_children":[1,3,5,7,9,11,13,15,17,-1,19,21,23,25,27,29,31,-1,33,35,37,-1,39,41,43,45,-1,-1,47,49,51,53,-1,55,57,59,61,63,-1,65,-1,-1,-1,67,69,-1,71,-1,73,75,-1,-1,-1,77,-1,-1,-1,-1,79,-1,-1,-1,81,-1,83,85,87,-1,89,91,-1,93,-1,95,97,-1,-1,-1,99,101,-1,103,-1,-1,105,-1,107,-1,109,-1,111,-1,-1,113,115,-1,-1,-1,117,-1,-1,119,-1,-1,-1,-1,-1,-1,-1,-1,-1,121,-1,-1,-1,-1,123,-1,125,-1,-1,-1,127,-1,129,-1,-1,-1,-1,-1,-1],"loss_changes":[0.0,0.0,0.0,0.0,0.0,0.0,0.0,0.0,0.0,0.0,0.0,0.0,0.0,0.0,0.0,0.0,0.0,0.0,0.0,0.0,0.0,0.0,0.0,0.0,0.0,0.0,0.0,0.0,0.0,0.0,0.0,0.0,0.0,0.0,0.0,0.0,0.0,0.0,0.0,0.0,0.0,0.0,0.0,0.0,0.0,0.0,0.0,0.0,0.0,0.0,0.0,0.0,0.0,0.0,0.0,0.0,0.0,0.0,0.0,0.0,0.0,0.0,0.0,0.0,0.0,0.0,0.0,0.0,0.0,0.0,0.0,0.0,0.0,0.0,0.0,0.0,0.0,0.0,0.0,0.0,0.0,0.0,0.0,0.0,0.0,0.0,0.0,0.0,0.0,0.0,0.0,0.0,0.0,0.0,0.0,0.0,0.0,0.0,0.0,0.0,0.0,0.0,0.0,0.0,0.0,0.0,0.0,0.0,0.0,0.0,0.0,0.0,0.0,0.0,0.0,0.0,0.0,0.0,0.0,0.0,0.0,0.0,0.0,0.0,0.0,0.0,0.0,0.0,0.0,0.0,0.0],"parents":[2147483647,0,0,1,1,2,2,3,3,4,4,5,5,6,6,7,7,8,8,10,10,11,11,12,12,13,13,14,14,15,15,16,16,18,18,19,19,20,20,22,22,23,23,24,24,25,25,28,28,29,29,30,30,31,31,33,33,34,34,35,35,36,36,37,37,39,39,43,43,44,44,46,46,48,48,49,49,53,53,58,58,62,62,64,64,65,65,66,66,68,68,69,69,71,71,73,73,74,74,78,78,79,79,81,81,84,84,86,86,88,88,90,90,93,93,94,94,98,98,101,101,111,111,116,116,118,118,122,122,124,124],"right_children":[2,4,6,8,10,12,14,16,18,-1,20,22,24,26,28,30,32,-1,34,36,38,-1,40,42,44,46,-1,-1,48,50,52,54,-1,56,58,60,62,64,-1,66,-1,-1,-1,68,70,-1,72,-1,74,76,-1,-1,-1,78,-1,-1,-1,-1,80,-1,-1,-1,82,-1,84,86,88,-1,90,92,-1,94,-1,96,98,-1,-1,-1,100,102,-1,104,-1,-1,106,-1,108,-1,110,-1,112,-1,-1,114,116,-1,-1,-1,118,-1,-1,120,-1,-1,-1,-1,-1,-1,-1,-1,-1,122,-1,-1,-1,-1,124,-1,126,-1,-1,-1,128,-1,130,-1,-1,-1,-1,-1,-1],"split_conditions":[-2.110677152908016,-2.7672359899071477,-9.479272870809346,-9.377635655132003,9.359491768513529,-1.8823238563521176,-8.22573122938998,6.423506211638621,4.916575250782078,-3.3548298202178026,4.506633572057044,-4.872481019948872,7.367122759056226,-7.575727099146591,-7.132986479135154,9.678172143295253,1.527522883469068,-8.011029858717377,-3.7576657280733414,5.379402230313595,1.5248434605779622,3.7076299579189342,8.794070892347069,-3.6501662433511637,-8.657869986303114,8.141670927412726,1.6790844052642555,5.026899597272363,-9.790744466331512,-4.342887001446824,9.154719196024455,-3.885484514027752,-7.111876345053766,1.6893591274298547,8.981205778357989,3.3672905037673235,-6.749478962010877,3.2352889470612904,8.48030459593182,2.6330521915152474,-5.5099703371909605,-4.131426336673835,8.37023038533037,-9.176068828083256,-2.4373185876865824,2.6433624075264905,2.6295920560054924,-0.41619139643772485,-1.9596923813808758,1.9859559128372002,-6.632715734486663,7.540704207722129,-6.363659697884102,-8.680610880374656,-9.965070511237782,3.6157707130206713,-6.4328979757304,-0.8740947547899367,-2.2789175006402553,-6.946704546528512,-1.6856334071528334,-8.599690687189876,5.5540778927059336,3.8824820184790543,6.617027158051695,1.8839873713018704,9.3280223592796,-3.4212656366479264,-5.565942238943162,2.97468770226779,-2.4449661007098946,5.592543991147529,9.899354204246208,8.794458633041405,-0.13045287262973382,-5.689969216692705,3.431133170367202,-4.0040528447343435,9.69141871990577,-3.0114235270702263,-1.982590358405817,-3.914570081849,6.730281884189296,0.732851587890071,-1.2875622401428064,0.1652256209824685,6.710717696215845,1.3553286861224496,2.251799612525435,-9.607938387254016,-8.957994515328595,6.439789222419428,-9.884754782627185,-0.4861872033458159,-6.418092946530889,6.836370651099031,4.384805335882348,-8.851087289386125,-3.9132158443713614,8.44554780894103,-8.254292442505054,-0.5209968788038282,1.0798222966064142,-2.406194335977884,5.076444476257061,-5.003438916444364,6.940361317355585,4.242523403584347,7.618114739976349,-9.899442116030029,4.7420778007994,7.617443247258041,-0.8752385546296395,0.6880219463619586,-5.9705513532735,-2.335383594059274,8.26706361576343,-5.954512722701289,-0.7654007508338729,-5.750935015143933,7.5877605154315795,-6.76420202791896,-9.82837588983504,-4.816514227017281,0.5735965833593077,7.0935142733573215,-9.983772889034494,-3.1263208671537086,-6.091752142547358,-1.267373909553429,-4.105941801200853],"split_indices":[6,3,14,13,2,1,7,5,3,0,4,9,1,6,6,14,4,0,14,16,12,0,15,1,6,11,0,0,17,2,13,16,0,2,13,2,0,8,0,17,0,0,0,7,11,0,11,0,11,6,0,0,0,17,0,0,0,0,4,0,0,0,13,0,2,9,2,0,7,12,0,7,0,3,4,0,0,0,5,3,0,5,0,0,9,0,7,0,3,0,14,0,0,17,0,0,0,0,16,0,0,11,0,0,0,0,0,0,0,0,0,14,0,0,0,0,2,0,4,0,0,0,11,0,14,0,0,0,0,0,0],"sum_hessian":[0.0,0.0,0.0,0.0,0.0,0.0,0.0,0.0,0.0,0.0,0.0,0.0,0.0,0.0,0.0,0.0,0.0,0.0,0.0,0.0,0.0,0.0,0.0,0.0,0.0,0.0,0.0,0.0,0.0,0.0,0.0,0.0,0.0,0.0,0.0,0.0,0.0,0.0,0.0,0.0,0.0,0.0,0.0,0.0,0.0,0.0,0.0,0.0,0.0,0.0,0.0,0.0,0.0,0.0,0.0,0.0,0.0,0.0,0.0,0.0,0.0,0.0,0.0,0.0,0.0,0.0,0.0,0.0,0.0,0.0,0.0,0.0,0.0,0.0,0.0,0.0,0.0,0.0,0.0,0.0,0.0,0.0,0.0,0.0,0.0,0.0,0.0,0.0,0.0,0.0,0.0,0.0,0.0,0.0,0.0,0.0,0.0,0.0,0.0,0.0,0.0,0.0,0.0,0.0,0.0,0.0,0.0,0.0,0.0,0.0,0.0,0.0,0.0,0.0,0.0,0.0,0.0,0.0,0.0,0.0,0.0,0.0,0.0,0.0,0.0,0.0,0.0,0.0,0.0,0.0,0.0],"tree_param":{"num_deleted":"0","num_feature":"18","num_nodes":"131","size_leaf_vector":"0"}}]},"name":"gbtree"},"learner_model_param":{"base_score":"5E-1","num_class":"0","num_feature":"18"},"objective":{"name":"reg:squarederror","reg_loss_param":{"scale_pos_weight":"1"}}},"version":[1,4,0]}