{"learner":{"attributes":{},"feature_types":["float","float","float","float","float","float","float","float","float","float","float","float","float","float","float","float","float","float","float","float"],"gradient_booster":{"model":{"gbtree_model_param":{"num_trees":"2","size_leaf_vector":"0"},"tree_info":[0,0],"trees":[{"base_weights":[0.0,0.0,0.0,0.0,0.0,0.0,0.0,0.0,0.0,0.0,0.0,0.0,0.0,0.0,0.0,0.0,0.0,0.0,0.0,0.0,0.0,0.0,0.0,0.0,0.0,0.0,0.0,0.0,0.0,0.0,0.0,0.0,0.0,0.0,0.0,0.0,0.0,0.0,0.0,0.0,0.0,0.0,0.0],"categories":[],"categories_nodes":[],"categories_segments":[],"categories_sizes":[],"default_left":[false,false,false,false,false,false,false,false,false,false,false,false,false,false,false,false,false,false,false,false,false,false,false,false,false,false,false,false,false,false,false,false,false,false,false,false,false,false,false,false,false,false,false],"id":0,"left_children":[1,3,5,7,9,11,-1,-1,13,15,-1,17,19,-1,21,-1,23,25,-1,27,-1,-1,-1,29,31,-1,-1,-1,33,35,37,-1,-1,39,-1,-1,-1,-1,41,-1,-1,-1,-1],"loss_changes":[0.0,0.0,0.0,0.0,0.0,0.0,0.0,0.0,0.0,0.0,0.0,0.0,0.0,0.0,0.0,0.0,0.0,0.0,0.0,0.0,0.0,0.0,0.0,0.0,0.0,0.0,0.0,0.0,0.0,0.0,0.0,0.0,0.0,0.0,0.0,0.0,0.0,0.0,0.0,0.0,0.0,0.0,0.0],"parents":[2147483647,0,0,1,1,2,2,3,3,4,4,5,5,8,8,9,9,11,11,12,12,14,14,16,16,17,17,19,19,23,23,24,24,28,28,29,29,30,30,33,33,38,38],"right_children":[2,4,6,8,10,12,-1,-1,14,16,-1,18,20,-1,22,-1,24,26,-1,28,-1,-1,-1,30,32,-1,-1,-1,34,36,38,-1,-1,40,-1,-1,-1,-1,42,-1,-1,-1,-1],"split_conditions":[9.78421848855437,7.532117386633448,4.309277511283041,-0.07585295589189123,0.3057435194968061,2.849081274366096,5.609472367070492,-5.789211857092032,2.5299312622609236,-0.909053943153701,7.5945022833518685,8.723648466069037,-2.630053155146209,-0.5762322139873017,-7.446414398906569,-3.7291194171713844,0.45211578975709976,4.427643458268346,8.236629535145642,6.20029245917485,-6.808175700470944,5.090083099017519,-8.054268706247694,-6.146447582070307,3.4389208302111065,2.184593933202283,0.2902996043356758,-4.122186513387765,4.959807573612361,-6.638222277398717,-7.726138687825925,1.0418394413375314,-0.21751420386141262,-0.10635452423830216,-5.794918939925729,-0.3556483900016687,-5.084089601897841,-4.680903557878975,-1.7907830847437172,7.828635368126278,-0.3239098419080868,2.550432905165593,-0.865862401430034],"split_indices":[11,16,7,14,5,16,0,0,18,2,0,1,8,0,13,0,19,0,0,2,0,0,0,4,11,0,0,0,14,3,12,0,0,3,0,0,0,0,19,0,0,0,0],"sum_hessian":[0.0,0.0,0.0,0.0,0.0,0.0,0.0,0.0,0.0,0.0,0.0,0.0,0.0,0.0,0.0,0.0,0.0,0.0,0.0,0.0,0.0,0.0,0.0,0.0,0.0,0.0,0.0,0.0,0.0,0.0,0.0,0.0,0.0,0.0,0.0,0.0,0.0,0.0,0.0,0.0,0.0,0.0,0.0],"tree_param":{"num_deleted":"0","num_feature":"20","num_nodes":"43","size_leaf_vector":"0"}},{"base_weights":[0.0,0.0,0.0,0.0,0.0,0.0,0.0,0.0,0.0,0.0,0.0,0.0,0.0,0.0,0.0,0.0,0.0,0.0,0.0,0.0,0.0,0.0,0.0,0.0,0.0,0.0,0.0,0.0,0.0,0.0,0.0,0.0,0.0,0.0,0.0,0.0,0.0,0.0,0.0,0.0,0.0,0.0,0.0,0.0,0.0,0.0,0.0,0.0,0.0,0.0,0.0,0.0,0.0,0.0,0.0,0.0,0.0,0.0,0.0,0.0,0.0],"categories":[],"categories_nodes":[],"categories_segments":[],"categories_sizes":[],"default_left":[false,false,false,false,false,false,false,false,false,false,false,false,false,false,false,false,false,false,false,false,false,false,false,false,false,false,false,false,false,false,false,false,false,false,false,false,false,false,false,false,false,false,false,false,false,false,false,false,false,false,false,false,false,false,false,false,false,false,false,false,false],"id":1,"left_children":[1,3,5,7,9,11,-1,13,-1,15,17,19,-1,21,23,-1,25,-1,-1,27,-1,-1,29,31,-1,-1,33,-1,35,-1,-1,37,-1,39,-1,41,43,45,-1,47,-1,-1,-1,-1,-1,49,51,-1,53,-1,55,57,59,-1,-1,-1,-1,-1,-1,-1,-1],"loss_changes":[0.0,0.0,0.0,0.0,0.0,0.0,0.0,0.0,0.0,0.0,0.0,0.0,0.0,0.0,0.0,0.0,0.0,0.0,0.0,0.0,0.0,0.0,0.0,0.0,0.0,0.0,0.0,0.0,0.0,0.0,0.0,0.0,0.0,0.0,0.0,0.0,0.0,0.0,0.0,0.0,0.0,0.0,0.0,0.0,0.0,0.0,0.0,0.0,0.0,0.0,0.0,0.0,0.0,0.0,0.0,0.0,0.0,0.0,0.0,0.0,0.0],"parents":[2147483647,0,0,1,1,2,2,3,3,4,4,5,5,7,7,9,9,10,10,11,11,13,13,14,14,16,16,19,19,22,22,23,23,26,26,28,28,31,31,33,33,35,35,36,36,37,37,39,39,45,45,46,46,48,48,50,50,51,51,52,52],"right_children":[2,4,6,8,10,12,-1,14,-1,16,18,20,-1,22,24,-1,26,-1,-1,28,-1,-1,30,32,-1,-1,34,-1,36,-1,-1,38,-1,40,-1,42,44,46,-1,48,-1,-1,-1,-1,-1,50,52,-1,54,-1,56,58,60,-1,-1,-1,-1,-1,-1,-1,-1],"split_conditions":[-3.234131554740104,-5.765427863748403,-7.62122558211913,-5.214020654150227,9.231798814655559,-0.8266194581086825,5.293037863563528,-3.4944832817186384,6.153880866626174,-4.818895530572479,1.9445157644080613,-8.891992365127589,7.5307749889689255,-0.85242712657897,3.376054481492501,3.8921279976280676,8.78910249173407,4.661137453458455,-2.0900082001131377,2.8120277579038664,7.30458312817872,9.049754020995774,-7.091077285693682,-5.510835924750134,-0.5876972224583028,0.38359181214581284,-4.3549163338268055,-5.937510313525961,-9.256327588921254,-7.500741309205214,0.7456258012384787,1.2715889761955275,-5.872671203908246,3.349338286022057,-7.72107252182374,-9.180322011721032,-3.9052809716031733,6.7149554957876525,8.74497659610996,5.163137507688392,1.806132915184298,-4.372263738541234,2.4512719435404478,-0.5986266348224607,-3.602807855343915,-1.1683030461905197,3.222793924806666,2.156235012120053,2.721829889693442,-0.16664184397123982,3.1355877703680477,-4.311895297758793,1.8083880998378916,1.8897025499393845,9.529172084247474,-1.7581959862995653,5.349467750147168,4.128126570313311,0.5490284481904606,-0.2017090282593763,-9.120585758588613],"split_indices":[9,16,16,18,4,14,0,8,0,16,19,13,0,2,11,0,4,0,0,15,0,0,16,16,0,0,13,0,11,0,0,11,0,1,0,14,7,0,0,6,0,0,0,0,0,4,0,0,5,0,1,14,4,0,0,0,0,0,0,0,0],"sum_hessian":[0.0,0.0,0.0,0.0,0.0,0.0,0.0,0.0,0.0,0.0,0.0,0.0,0.0,0.0,0.0,0.0,0.0,0.0,0.0,0.0,0.0,0.0,0.0,0.0,0.0,0.0,0.0,0.0,0.0,0.0,0.0,0.0,0.0,0.0,0.0,0.0,0.0,0.0,0.0,0.0,0.0,0.0,0.0,0.0,0.0,0.0,0.0,0.0,0.0,0.0,0.0,0.0,0.0,0.0,0.0,0.0,0.0,0.0,0.0,0.0,0.0],"tree_param":{"num_deleted":"0","num_feature":"20","num_nodes":"61","size_leaf_vector":"0"}}]},"name":"gbtree"},"learner_model_param":{"base_score":"5E-1","num_class":"0","num_feature":"20"},"objective":{"name":"reg:squarederror","reg_loss_param":{"scale_pos_weight":"1"}}},"version":[1,4,0]}