{"learner":{"attributes":{},"feature_types":["float","float","float","float","float","float","float","float","float","float","float","float","float","float"],"gradient_booster":{"model":{"gbtree_model_param":{"num_trees":"2","size_leaf_vector":"0"},"tree_info":[0,0],"trees":[{"base_weights":[0.0,0.0,0.0,0.0,0.0,0.0,0.0,0.0,0.0,0.0,0.0,0.0,0.0,0.0,0.0,0.0,0.0,0.0,0.0,0.0,0.0,0.0,0.0,0.0,0.0,0.0,0.0,0.0,0.0,0.0,0.0,0.0,0.0,0.0,0.0,0.0,0.0,0.0,0.0,0.0,0.0,0.0,0.0,0.0,0.0,0.0,0.0,0.0,0.0,0.0,0.0,0.0,0.0,0.0,0.0,0.0,0.0,0.0,0.0,0.0,0.0,0.0,0.0,0.0,0.0,0.0,0.0,0.0,0.0,0.0,0.0,0.0,0.0,0.0,0.0,0.0,0.0,0.0,0.0,0.0,0.0,0.0,0.0,0.0,0.0,0.0,0.0,0.0,0.0,0.0,0.0,0.0,0.0,0.0,0.0,0.0,0.0],"categories":[],"categories_nodes":[],"categories_segments":[],"categories_sizes":[],"default_left":[false,false,false,false,false,false,false,false,false,false,false,false,false,false,false,false,false,false,false,false,false,false,false,false,false,false,false,false,false,false,false,false,false,false,false,false,false,false,false,false,false,false,false,false,false,false,false,false,false,false,false,false,false,false,false,false,false,false,false,false,false,false,false,false,false,false,false,false,false,false,false,false,false,false,false,false,false,false,false,false,false,false,false,false,false,false,false,false,false,false,false,false,false,false,false,false,false],"id":0,"left_children":[1,3,5,7,9,11,13,15,17,19,21,23,25,27,-1,29,31,-1,33,35,37,-1,-1,39,-1,41,-1,43,-1,-1,45,47,49,-1,-1,-1,-1,-1,-1,51,-1,53,-1,-1,-1,-1,-1,55,57,59,61,63,65,67,69,71,73,-1,-1,75,-1,-1,-1,77,-1,79,-1,81,-1,83,-1,-1,-1,-1,-1,-1,-1,85,-1,87,89,-1,91,-1,-1,-1,-1,93,-1,-1,95,-1,-1,-1,-1,-1,-1],"loss_changes":[0.0,0.0,0.0,0.0,0.0,0.0,0.0,0.0,0.0,0.0,0.0,0.0,0.0,0.0,0.0,0.0,0.0,0.0,0.0,0.0,0.0,0.0,0.0,0.0,0.0,0.0,0.0,0.0,0.0,0.0,0.0,0.0,0.0,0.0,0.0,0.0,0.0,0.0,0.0,0.0,0.0,0.0,0.0,0.0,0.0,0.0,0.0,0.0,0.0,0.0,0.0,0.0,0.0,0.0,0.0,0.0,0.0,0.0,0.0,0.0,0.0,0.0,0.0,0.0,0.0,0.0,0.0,0.0,0.0,0.0,0.0,0.0,0.0,0.0,0.0,0.0,0.0,0.0,0.0,0.0,0.0,0.0,0.0,0.0,0.0,0.0,0.0,0.0,0.0,0.0,0.0,0.0,0.0,0.0,0.0,0.0,0.0],"parents":[2147483647,0,0,1,1,2,2,3,3,4,4,5,5,6,6,7,7,8,8,9,9,10,10,11,11,12,12,13,13,15,15,16,16,18,18,19,19,20,20,23,23,25,25,27,27,30,30,31,31,32,32,39,39,41,41,47,47,48,48,49,49,50,50,51,51,52,52,53,53,54,54,55,55,56,56,59,59,63,63,65,65,67,67,69,69,77,77,79,79,80,80,82,82,87,87,90,90],"right_children":[2,4,6,8,10,12,14,16,18,20,22,24,26,28,-1,30,32,-1,34,36,38,-1,-1,40,-1,42,-1,44,-1,-1,46,48,50,-1,-1,-1,-1,-1,-1,52,-1,54,-1,-1,-1,-1,-1,56,58,60,62,64,66,68,70,72,74,-1,-1,76,-1,-1,-1,78,-1,80,-1,82,-1,84,-1,-1,-1,-1,-1,-1,-1,86,-1,88,90,-1,92,-1,-1,-1,-1,94,-1,-1,96,-1,-1,-1,-1,-1,-1],"split_conditions":[8.090979668153437,-4.777110508043623,-7.352620849698826,-8.15835812267969,1.0137899485762922,7.02287674949136,-2.095880329535593,-3.7565374581365436,-5.570913415497753,6.516977298716213,7.3000855771790505,-2.259564929560475,0.2718291287697596,7.114351676494827,3.238402164477643,-2.8743256398258366,0.5893070999229622,-1.277551772269888,-0.7026216342226839,-6.0810598959149775,1.5979172217342779,5.7620246920734495,-5.544501535806516,8.592291396901906,-5.754684872253864,-8.630154319913963,-0.4899978177892663,5.921987419711716,1.30878588734776,-1.9732887498878142,-3.7660667341825205,-3.3471265374625876,8.576802663761246,9.172198340057054,7.7440660617197175,-0.6511464242600251,-6.943145488033176,3.677173183660866,2.2435090720692052,3.7341896570367545,-6.124133276930339,-6.4595910710623725,8.736646071694526,1.7257064877427872,8.633877478395409,6.598166249515131,-5.905905485570803,6.824727864477072,7.516116773965869,3.734508978438406,-4.789721402229689,-3.565497463667305,4.067407191745886,6.503063739620767,8.218788977203495,-9.899452661479426,-0.5384541969898393,8.069157010362819,4.6212823608892855,-6.808037424428857,-9.377262274660469,4.304905521913003,8.94963067511086,-6.460402770548709,-3.074345045047343,-3.2818353205122595,-2.7906210134066587,4.993822978906424,-4.460506113692465,-2.8984360998460037,3.0413684369113803,9.983686760687412,-8.7093905000469,-2.2667366515988485,4.4672958189203555,9.385444344077413,-3.7936048637148243,7.0382105668728485,3.024507720140768,-4.265040101708322,-4.807724118641483,-1.295244768603677,0.7234284460379818,7.944624241187114,-3.627902183081809,-8.880700742443725,8.3145904469803,0.8791859979200094,-8.781108407237854,6.776359417041434,-5.10526174397966,2.467973254137256,6.5050988809223576,8.709693527147174,9.664222602468652,2.0625097877497467,-4.388658904479122],"split_indices":[0,12,11,10,0,6,1,1,13,5,12,7,10,0,0,13,1,0,5,8,2,0,0,11,0,5,0,5,0,0,10,9,13,0,0,0,0,0,0,7,0,13,0,0,0,0,0,13,6,0,1,5,3,10,4,6,2,0,0,13,0,0,0,8,0,5,0,1,0,2,0,0,0,0,0,0,0,1,0,4,10,0,2,0,0,0,0,4,0,0,3,0,0,0,0,0,0],"sum_hessian":[0.0,0.0,0.0,0.0,0.0,0.0,0.0,0.0,0.0,0.0,0.0,0.0,0.0,0.0,0.0,0.0,0.0,0.0,0.0,0.0,0.0,0.0,0.0,0.0,0.0,0.0,0.0,0.0,0.0,0.0,0.0,0.0,0.0,0.0,0.0,0.0,0.0,0.0,0.0,0.0,0.0,0.0,0.0,0.0,0.0,0.0,0.0,0.0,0.0,0.0,0.0,0.0,0.0,0.0,0.0,0.0,0.0,0.0,0.0,0.0,0.0,0.0,0.0,0.0,0.0,0.0,0.0,0.0,0.0,0.0,0.0,0.0,0.0,0.0,0.0,0.0,0.0,0.0,0.0,0.0,0.0,0.0,0.0,0.0,0.0,0.0,0.0,0.0,0.0,0.0,0.0,0.0,0.0,0.0,0.0,0.0,0.0],"tree_param":{"num_deleted":"0","num_feature":"14","num_nodes":"97","size_leaf_vector":"0"}},{"base_weights":[0.0,0.0,0.0,0.0,0.0,0.0,0.0,0.0,0.0,0.0,0.0,0.0,0.0,0.0,0.0,0.0,0.0,0.0,0.0,0.0,0.0,0.0,0.0,0.0,0.0,0.0,0.0,0.0,0.0,0.0,0.0,0.0,0.0,0.0,0.0,0.0,0.0,0.0,0.0,0.0,0.0,0.0,0.0,0.0,0.0,0.0,0.0,0.0,0.0,0.0,0.0,0.0,0.0,0.0,0.0,0.0,0.0,0.0,0.0,0.0,0.0,0.0,0.0,0.0,0.0,0.0,0.0,0.0,0.0,0.0,0.0,0.0,0.0,0.0,0.0,0.0,0.0,0.0,0.0,0.0,0.0,0.0,0.0,0.0,0.0,0.0,0.0,0.0,0.0,0.0,0.0,0.0,0.0,0.0,0.0,0.0,0.0,0.0,0.0,0.0,0.0,0.0,0.0,0.0,0.0,0.0,0.0,0.0,0.0,0.0,0.0,0.0,0.0,0.0,0.0,0.0,0.0,0.0,0.0,0.0,0.0,0.0,0.0,0.0,0.0,0.0,0.0,0.0,0.0,0.0,0.0,0.0,0.0,0.0,0.0,0.0,0.0,0.0,0.0,0.0,0.0,0.0,0.0,0.0,0.0,0.0,0.0,0.0,0.0,0.0,0.0,0.0,0.0,0.0,0.0,0.0,0.0,0.0,0.0,0.0,0.0,0.0,0.0,0.0,0.0,0.0,0.0,0.0,0.0,0.0,0.0,0.0,0.0,0.0,0.0],"categories":[],"categories_nodes":[],"categories_segments":[],"categories_sizes":[],"default_left":[false,false,false,false,false,false,false,false,false,false,false,false,false,false,false,false,false,false,false,false,false,false,false,false,false,false,false,false,false,false,false,false,false,false,false,false,false,false,false,false,false,false,false,false,false,false,false,false,false,false,false,false,false,false,false,false,false,false,false,false,false,false,false,false,false,false,false,false,false,false,false,false,false,false,false,false,false,false,false,false,false,false,false,false,false,false,false,false,false,false,false,false,false,false,false,false,false,false,false,false,false,false,false,false,false,false,false,false,false,false,false,false,false,false,false,false,false,false,false,false,false,false,false,false,false,false,false,false,false,false,false,false,false,false,false,false,false,false,false,false,false,false,false,false,false,false,false,false,false,false,false,false,false,false,false,false,false,false,false,false,false,false,false,false,false,false,false,false,false,false,false,false,false,false,false],"id":1,"left_children":[1,3,5,7,9,11,13,15,17,19,21,-1,23,25,27,29,31,-1,33,35,37,39,-1,41,43,45,47,-1,49,51,53,55,-1,57,59,-1,61,63,65,67,-1,69,71,73,75,77,-1,79,81,83,85,87,-1,89,-1,91,-1,-1,93,-1,95,-1,-1,97,-1,-1,-1,-1,99,101,-1,103,-1,-1,105,-1,-1,107,-1,-1,-1,109,111,113,115,117,119,-1,-1,-1,121,-1,123,125,127,129,-1,-1,-1,-1,131,-1,-1,133,-1,-1,-1,135,137,-1,139,-1,-1,-1,-1,-1,-1,141,-1,-1,143,145,-1,-1,-1,-1,147,149,-1,151,153,155,-1,-1,-1,157,-1,159,-1,-1,161,-1,-1,163,165,-1,167,-1,-1,-1,-1,-1,-1,-1,-1,-1,-1,-1,-1,-1,-1,-1,169,171,-1,173,-1,-1,-1,-1,-1,-1,-1,-1,-1],"loss_changes":[0.0,0.0,0.0,0.0,0.0,0.0,0.0,0.0,0.0,0.0,0.0,0.0,0.0,0.0,0.0,0.0,0.0,0.0,0.0,0.0,0.0,0.0,0.0,0.0,0.0,0.0,0.0,0.0,0.0,0.0,0.0,0.0,0.0,0.0,0.0,0.0,0.0,0.0,0.0,0.0,0.0,0.0,0.0,0.0,0.0,0.0,0.0,0.0,0.0,0.0,0.0,0.0,0.0,0.0,0.0,0.0,0.0,0.0,0.0,0.0,0.0,0.0,0.0,0.0,0.0,0.0,0.0,0.0,0.0,0.0,0.0,0.0,0.0,0.0,0.0,0.0,0.0,0.0,0.0,0.0,0.0,0.0,0.0,0.0,0.0,0.0,0.0,0.0,0.0,0.0,0.0,0.0,0.0,0.0,0.0,0.0,0.0,0.0,0.0,0.0,0.0,0.0,0.0,0.0,0.0,0.0,0.0,0.0,0.0,0.0,0.0,0.0,0.0,0.0,0.0,0.0,0.0,0.0,0.0,0.0,0.0,0.0,0.0,0.0,0.0,0.0,0.0,0.0,0.0,0.0,0.0,0.0,0.0,0.0,0.0,0.0,0.0,0.0,0.0,0.0,0.0,0.0,0.0,0.0,0.0,0.0,0.0,0.0,0.0,0.0,0.0,0.0,0.0,0.0,0.0,0.0,0.0,0.0,0.0,0.0,0.0,0.0,0.0,0.0,0.0,0.0,0.0,0.0,0.0,0.0,0.0,0.0,0.0,0.0,0.0],"parents":[2147483647,0,0,1,1,2,2,3,3,4,4,5,5,6,6,7,7,8,8,9,9,10,10,12,12,13,13,14,14,15,15,16,16,18,18,19,19,20,20,21,21,23,23,24,24,25,25,26,26,28,28,29,29,30,30,31,31,33,33,34,34,36,36,37,37,38,38,39,39,41,41,42,42,43,43,44,44,45,45,47,47,48,48,49,49,50,50,51,51,53,53,55,55,58,58,60,60,63,63,68,68,69,69,71,71,74,74,77,77,81,81,82,82,83,83,84,84,85,85,86,86,90,90,92,92,93,93,94,94,95,95,100,100,103,103,107,107,108,108,110,110,117,117,120,120,121,121,126,126,127,127,129,129,130,130,131,131,135,135,137,137,140,140,143,143,144,144,146,146,162,162,163,163,165,165],"right_children":[2,4,6,8,10,12,14,16,18,20,22,-1,24,26,28,30,32,-1,34,36,38,40,-1,42,44,46,48,-1,50,52,54,56,-1,58,60,-1,62,64,66,68,-1,70,72,74,76,78,-1,80,82,84,86,88,-1,90,-1,92,-1,-1,94,-1,96,-1,-1,98,-1,-1,-1,-1,100,102,-1,104,-1,-1,106,-1,-1,108,-1,-1,-1,110,112,114,116,118,120,-1,-1,-1,122,-1,124,126,128,130,-1,-1,-1,-1,132,-1,-1,134,-1,-1,-1,136,138,-1,140,-1,-1,-1,-1,-1,-1,142,-1,-1,144,146,-1,-1,-1,-1,148,150,-1,152,154,156,-1,-1,-1,158,-1,160,-1,-1,162,-1,-1,164,166,-1,168,-1,-1,-1,-1,-1,-1,-1,-1,-1,-1,-1,-1,-1,-1,-1,170,172,-1,174,-1,-1,-1,-1,-1,-1,-1,-1,-1],"split_conditions":[7.921924876196641,2.0444595567656343,-9.57838200250311,-4.29918938721642,-3.5611366021087107,6.298888586759727,-9.343962733781483,7.705688023474924,1.415404220314219,3.2420124186392094,9.21174154368487,-0.2644360756836228,-3.9691056231696296,-9.965023908849028,2.470439216913519,1.925409667324839,-1.452173955293235,2.535973165827375,-3.386497086092514,-7.1246193195247605,-7.21869245891759,2.4009899470052876,6.083782495924801,1.7285077515977427,6.994054170445107,0.39668185855324367,2.0696039010698275,-7.3791490263972515,5.608850869623295,-4.416303590989527,0.7101251777618511,-3.365943028877129,-6.125469318787617,-2.7173372152509847,9.54256514552953,-2.6736668968014605,-9.738108089664504,6.135685411377796,-5.512987284277383,-9.07987788787721,-9.400690149532457,3.282413497728239,-0.025515714177686277,-0.8808523954537666,-2.7688185227407143,-4.111418061789949,0.850928607665109,-2.3256166090360715,7.194579802718476,6.230633306680161,7.7601097483829165,6.544908545023233,5.771452082723856,-6.469340861152274,-5.391952583666113,9.955393673807446,6.725668322600953,-7.098177403110046,-5.981835213890468,7.905587817763333,4.326958926784172,-7.643499529086574,8.824235304764752,-6.294885438848793,6.481780304468447,-3.462462635156795,-6.671356316943168,-6.411889852043311,-3.1274018139604953,4.833199243543138,1.3504347791273137,-0.4627993940340893,-3.1775828854431465,8.707703584011671,9.961549296028572,6.4129704133705125,8.282451806391666,3.4300719175078793,-8.19077586513166,6.0062946702119255,4.082022567375656,-3.351082726601387,0.2518228866849288,-0.10059257614760142,-7.582041681625126,-7.288649712859041,2.3416987291391536,3.730564252498695,-5.117386110743429,-7.1227687195435125,-0.7664467495035545,-5.9135132705678,-4.16120919651717,-5.489480124672623,-0.16737420267986636,7.384069530185688,-7.246220682059739,6.370012407373885,-0.9872471799289144,-9.016977135776441,0.3689298092160378,8.670084600502086,-7.936504172228024,-9.93659391323918,-7.046213271289689,2.6193504722970307,-4.071726194772346,5.50399997596867,-2.4402708504194006,5.097521232333307,-0.028979727672446387,-8.26946770050498,6.96391139790056,4.2562947997072555,3.5104498638701127,8.204896061601563,0.3759484079680817,7.854020013426894,-6.417888492219092,-4.2480196726983,-1.0742794199232861,-7.671515704804399,0.22082786425311518,-4.661427711590223,2.8970374417652103,-8.830013779620494,7.559759126823906,-1.5261095200717403,9.830674211806713,1.341105738880028,-1.3183836060301886,8.055697206977776,-3.466123221188253,9.680323624591885,5.975991672491329,9.195120788491458,0.7138316200670065,4.636286118633869,-1.1284918888430422,4.773994090956521,2.782822768262603,2.3337604032707553,6.447259962240469,-8.901417371412746,4.584786128618267,-6.956502320234526,-1.7688397465616603,1.5913363804259752,-4.960224046666833,2.273452245373363,7.856278455833369,6.409570495177942,6.1830415445204,-0.6371007336660579,8.105099455141193,2.5272084555888785,-4.023509297637582,2.126075736670657,-7.060952947898405,-5.557435642289553,-6.247801687066008,4.8405038584788045,-9.610090261079929,-4.227303751205222,2.986441904417738,2.2701168027235408,3.682175481238323,-6.894923822337058,-0.28719902175301115,9.78566989797875,7.278912738343834,0.9902685434424683,1.2689502257332101,5.107145983177276,4.478438846825636],"split_indices":[10,10,0,8,11,2,2,5,10,5,1,0,9,4,9,8,5,0,3,7,7,3,0,6,6,2,9,0,7,13,8,10,0,12,1,0,2,11,12,11,0,13,10,2,2,4,0,2,0,1,11,7,0,4,0,12,0,0,10,0,12,0,0,10,0,0,0,0,3,11,0,10,0,0,9,0,0,0,0,0,0,11,0,11,7,0,7,0,0,0,11,0,4,2,11,6,0,0,0,0,10,0,0,2,0,0,0,2,11,0,11,0,0,0,0,0,0,1,0,0,0,5,0,0,0,0,6,3,0,0,3,2,0,0,0,0,0,9,0,0,10,0,0,11,5,0,9,0,0,0,0,0,0,0,0,0,0,0,0,0,0,0,9,5,0,2,0,0,0,0,0,0,0,0,0],"sum_hessian":[0.0,0.0,0.0,0.0,0.0,0.0,0.0,0.0,0.0,0.0,0.0,0.0,0.0,0.0,0.0,0.0,0.0,0.0,0.0,0.0,0.0,0.0,0.0,0.0,0.0,0.0,0.0,0.0,0.0,0.0,0.0,0.0,0.0,0.0,0.0,0.0,0.0,0.0,0.0,0.0,0.0,0.0,0.0,0.0,0.0,0.0,0.0,0.0,0.0,0.0,0.0,0.0,0.0,0.0,0.0,0.0,0.0,0.0,0.0,0.0,0.0,0.0,0.0,0.0,0.0,0.0,0.0,0.0,0.0,0.0,0.0,0.0,0.0,0.0,0.0,0.0,0.0,0.0,0.0,0.0,0.0,0.0,0.0,0.0,0.0,0.0,0.0,0.0,0.0,0.0,0.0,0.0,0.0,0.0,0.0,0.0,0.0,0.0,0.0,0.0,0.0,0.0,0.0,0.0,0.0,0.0,0.0,0.0,0.0,0.0,0.0,0.0,0.0,0.0,0.0,0.0,0.0,0.0,0.0,0.0,0.0,0.0,0.0,0.0,0.0,0.0,0.0,0.0,0.0,0.0,0.0,0.0,0.0,0.0,0.0,0.0,0.0,0.0,0.0,0.0,0.0,0.0,0.0,0.0,0.0,0.0,0.0,0.0,0.0,0.0,0.0,0.0,0.0,0.0,0.0,0.0,0.0,0.0,0.0,0.0,0.0,0.0,0.0,0.0,0.0,0.0,0.0,0.0,0.0,0.0,0.0,0.0,0.0,0.0,0.0],"tree_param":{"num_deleted":"0","num_feature":"14","num_nodes":"175","size_leaf_vector":"0"}}]},"name":"gbtree"},"learner_model_param":{"base_score":"5E-1","num_class":"0","num_feature":"14"},"objective":{"name":"reg:squarederror","reg_loss_param":{"scale_pos_weight":"1"}}},"version":[1,4,0]}