{"learner":{"attributes":{},"feature_types":["float","float","float","float","float","float","float","float","float"],"gradient_booster":{"model":{"gbtree_model_param":{"num_trees":"2","size_leaf_vector":"0"},"tree_info":[0,0],"trees":[{"base_weights":[0.0,0.0,0.0,0.0,0.0,0.0,0.0,0.0,0.0,0.0,0.0,0.0,0.0,0.0,0.0,0.0,0.0,0.0,0.0,0.0,0.0,0.0,0.0,0.0,0.0,0.0,0.0,0.0,0.0,0.0,0.0,0.0,0.0,0.0,0.0,0.0,0.0,0.0,0.0,0.0,0.0,0.0,0.0,0.0,0.0,0.0,0.0,0.0,0.0,0.0,0.0,0.0,0.0,0.0,0.0,0.0,0.0,0.0,0.0],"categories":[],"categories_nodes":[],"categories_segments":[],"categories_sizes":[],"default_left":[false,false,false,false,false,false,false,false,false,false,false,false,false,false,false,false,false,false,false,false,false,false,false,false,false,false,false,false,false,false,false,false,false,false,false,false,false,false,false,false,false,false,false,false,false,false,false,false,false,false,false,false,false,false,false,false,false,false,false],"id":0,"left_children":[1,3,5,-1,7,9,-1,11,13,-1,-1,15,17,19,21,23,-1,25,27,-1,29,31,33,-1,35,-1,37,39,41,-1,-1,43,-1,-1,-1,-1,-1,-1,45,47,-1,49,51,-1,53,-1,-1,-1,-1,-1,-1,-1,-1,55,-1,-1,57,-1,-1],"loss_changes":[0.0,0.0,0.0,0.0,0.0,0.0,0.0,0.0,0.0,0.0,0.0,0.0,0.0,0.0,0.0,0.0,0.0,0.0,0.0,0.0,0.0,0.0,0.0,0.0,0.0,0.0,0.0,0.0,0.0,0.0,0.0,0.0,0.0,0.0,0.0,0.0,0.0,0.0,0.0,0.0,0.0,0.0,0.0,0.0,0.0,0.0,0.0,0.0,0.0,0.0,0.0,0.0,0.0,0.0,0.0,0.0,0.0,0.0,0.0],"parents":[2147483647,0,0,1,1,2,2,4,4,5,5,7,7,8,8,11,11,12,12,13,13,14,14,15,15,17,17,18,18,20,20,21,21,22,22,24,24,26,26,27,27,28,28,31,31,38,38,39,39,41,41,42,42,44,44,53,53,56,56],"right_children":[2,4,6,-1,8,10,-1,12,14,-1,-1,16,18,20,22,24,-1,26,28,-1,30,32,34,-1,36,-1,38,40,42,-1,-1,44,-1,-1,-1,-1,-1,-1,46,48,-1,50,52,-1,54,-1,-1,-1,-1,-1,-1,-1,-1,56,-1,-1,58,-1,-1],"split_conditions":[-0.6678414151382484,-4.544318390744878,-4.875086913978739,1.1711519210588772,3.2979071498178634,-4.631669674525018,2.766187693829165,-9.732182441422026,-1.0039846648741477,1.9511053962066711,-4.743961504416748,-1.077051790281482,4.297850300741015,-7.808207941356756,-1.4270322331134224,-9.802820535243457,-2.9387252314620174,8.430488058622213,-3.2958856379657933,-5.072874126807491,2.947264178246174,-0.3544372345417166,3.6147624593765126,-0.08850399068990633,-9.434404086135597,7.972199471176715,-9.622533538681157,5.809885586860437,9.982568646263825,-9.723413515810481,6.613466577530431,-3.055129096464203,2.936495843995301,-4.628991351415531,0.7301584413810573,-9.066068057480049,-3.8832416659718128,1.8914884518168869,-5.4117429345000625,4.031654510129263,1.0965641741138672,-3.4037553633323716,-6.680592410860774,4.468739054459821,-9.270197142349206,2.9446182046409834,9.876573927351242,5.860969017719654,1.7594249580238834,-3.144680714158982,8.116965580762784,3.7306157779833615,4.6918347645906735,0.44190879056861476,5.496607206617533,-6.108642089259404,-3.922116666306196,-2.526032133752791,2.94748189605677],"split_indices":[4,7,1,0,5,1,0,3,5,0,0,6,2,3,0,0,0,0,8,0,5,7,4,0,6,0,1,7,5,0,0,2,0,0,0,0,0,0,7,5,0,0,7,0,5,0,0,0,0,0,0,0,0,7,0,0,2,0,0],"sum_hessian":[0.0,0.0,0.0,0.0,0.0,0.0,0.0,0.0,0.0,0.0,0.0,0.0,0.0,0.0,0.0,0.0,0.0,0.0,0.0,0.0,0.0,0.0,0.0,0.0,0.0,0.0,0.0,0.0,0.0,0.0,0.0,0.0,0.0,0.0,0.0,0.0,0.0,0.0,0.0,0.0,0.0,0.0,0.0,0.0,0.0,0.0,0.0,0.0,0.0,0.0,0.0,0.0,0.0,0.0,0.0,0.0,0.0,0.0,0.0],"tree_param":{"num_deleted":"0","num_feature":"9","num_nodes":"59","size_leaf_vector":"0"}},{"base_weights":[0.0,0.0,0.0,0.0,0.0,0.0,0.0,0.0,0.0,0.0,0.0,0.0,0.0,0.0,0.0,0.0,0.0,0.0,0.0,0.0,0.0,0.0,0.0,0.0,0.0,0.0,0.0,0.0,0.0,0.0,0.0,0.0,0.0,0.0,0.0,0.0,0.0,0.0,0.0,0.0,0.0,0.0,0.0,0.0,0.0,0.0,0.0,0.0,0.0,0.0,0.0,0.0,0.0,0.0,0.0,0.0,0.0,0.0,0.0,0.0,0.0,0.0,0.0,0.0,0.0,0.0,0.0,0.0,0.0,0.0,0.0,0.0,0.0,0.0,0.0,0.0,0.0,0.0,0.0,0.0,0.0,0.0,0.0,0.0,0.0,0.0,0.0,0.0,0.0,0.0,0.0],"categories":[],"categories_nodes":[],"categories_segments":[],"categories_sizes":[],"default_left":[false,false,false,false,false,false,false,false,false,false,false,false,false,false,false,false,false,false,false,false,false,false,false,false,false,false,false,false,false,false,false,false,false,false,false,false,false,false,false,false,false,false,false,false,false,false,false,false,false,false,false,false,false,false,false,false,false,false,false,false,false,false,false,false,false,false,false,false,false,false,false,false,false,false,false,false,false,false,false,false,false,false,false,false,false,false,false,false,false,false,false],"id":1,"left_children":[1,3,5,7,9,11,13,15,17,19,21,23,25,27,-1,29,31,-1,-1,33,-1,35,37,39,-1,-1,-1,-1,-1,-1,41,43,-1,-1,-1,-1,45,47,49,51,-1,-1,53,55,57,59,-1,61,63,-1,65,-1,-1,-1,67,69,-1,-1,-1,71,73,-1,75,77,79,81,83,-1,-1,-1,-1,-1,-1,-1,-1,-1,-1,-1,-1,85,87,-1,-1,-1,-1,-1,89,-1,-1,-1,-1],"loss_changes":[0.0,0.0,0.0,0.0,0.0,0.0,0.0,0.0,0.0,0.0,0.0,0.0,0.0,0.0,0.0,0.0,0.0,0.0,0.0,0.0,0.0,0.0,0.0,0.0,0.0,0.0,0.0,0.0,0.0,0.0,0.0,0.0,0.0,0.0,0.0,0.0,0.0,0.0,0.0,0.0,0.0,0.0,0.0,0.0,0.0,0.0,0.0,0.0,0.0,0.0,0.0,0.0,0.0,0.0,0.0,0.0,0.0,0.0,0.0,0.0,0.0,0.0,0.0,0.0,0.0,0.0,0.0,0.0,0.0,0.0,0.0,0.0,0.0,0.0,0.0,0.0,0.0,0.0,0.0,0.0,0.0,0.0,0.0,0.0,0.0,0.0,0.0,0.0,0.0,0.0,0.0],"parents":[2147483647,0,0,1,1,2,2,3,3,4,4,5,5,6,6,7,7,8,8,9,9,10,10,11,11,12,12,13,13,15,15,16,16,19,19,21,21,22,22,23,23,30,30,31,31,36,36,37,37,38,38,39,39,42,42,43,43,44,44,45,45,47,47,48,48,50,50,54,54,55,55,59,59,60,60,62,62,63,63,64,64,65,65,66,66,79,79,80,80,86,86],"right_children":[2,4,6,8,10,12,14,16,18,20,22,24,26,28,-1,30,32,-1,-1,34,-1,36,38,40,-1,-1,-1,-1,-1,-1,42,44,-1,-1,-1,-1,46,48,50,52,-1,-1,54,56,58,60,-1,62,64,-1,66,-1,-1,-1,68,70,-1,-1,-1,72,74,-1,76,78,80,82,84,-1,-1,-1,-1,-1,-1,-1,-1,-1,-1,-1,-1,86,88,-1,-1,-1,-1,-1,90,-1,-1,-1,-1],"split_conditions":[0.24466162872195873,-7.45433103976245,-2.142068118507426,-8.078606739557468,-3.025495377195364,-9.566982376811476,-3.520768926469148,-2.1061022840043977,-2.0118294604482925,1.6188607643350537,-6.183422912204081,-2.5102132318897503,-3.196620501181413,0.7196756785123242,3.179526363163209,3.403477932091455,-4.616373906033639,8.681904487140116,-3.3920274398588326,7.7684111312223685,7.554812108427903,2.1880773730075838,-0.8267630153832108,-5.993177320123228,-5.562525596323859,-5.675821020791561,0.3182256395760916,5.357446422937064,-3.718182772787423,-3.0579282158077863,2.6778145825261372,-8.394974250659365,1.1626811652538578,5.502517946637893,4.7743419276428956,-9.889777458494706,-1.932256291910523,-6.264820650358231,5.021266707488763,8.926087539191695,8.203285710419614,-0.2923697440678037,-7.07384380755477,6.556887344473143,-7.954226414426403,5.976661777355201,6.31017148295118,1.5457954411548886,-2.8493041120344387,6.097838243157913,-1.2416124091756018,-4.4817544176534,-6.367465688204481,-5.341124706550529,-9.758874847764412,-1.5477527313145423,1.150847670379667,-4.353334790896069,-1.707991974685175,6.67616860518136,4.9833968597144835,-3.6173270496359446,-9.271166921075027,6.0175958313558695,8.101979776623562,-0.01452609041087527,2.8242273664921633,9.178832004239329,-8.445729462402321,-7.2979744596175244,-1.7748571589586994,3.187216275419784,8.502685146254066,-9.702253740816412,-9.046194435658142,-6.404196149546462,8.842090603901323,9.476966771374236,2.9265120332082226,9.838673498606294,-0.5228811416360433,-3.8994600893104545,-5.259565769029591,4.2872125688062805,7.408353141448618,2.8252900943547576,-2.237594909385309,-0.16214553685180455,4.017626475677027,-8.250902425417298,-5.275299687783579],"split_indices":[8,4,3,5,3,5,5,3,8,6,4,3,6,7,0,8,6,0,0,2,0,6,0,8,0,0,0,0,0,0,3,2,0,0,0,0,7,7,1,6,0,0,8,3,6,7,0,4,3,0,6,0,0,0,0,0,0,0,0,1,4,0,3,0,0,2,4,0,0,0,0,0,0,0,0,0,0,0,0,4,1,0,0,0,0,0,4,0,0,0,0],"sum_hessian":[0.0,0.0,0.0,0.0,0.0,0.0,0.0,0.0,0.0,0.0,0.0,0.0,0.0,0.0,0.0,0.0,0.0,0.0,0.0,0.0,0.0,0.0,0.0,0.0,0.0,0.0,0.0,0.0,0.0,0.0,0.0,0.0,0.0,0.0,0.0,0.0,0.0,0.0,0.0,0.0,0.0,0.0,0.0,0.0,0.0,0.0,0.0,0.0,0.0,0.0,0.0,0.0,0.0,0.0,0.0,0.0,0.0,0.0,0.0,0.0,0.0,0.0,0.0,0.0,0.0,0.0,0.0,0.0,0.0,0.0,0.0,0.0,0.0,0.0,0.0,0.0,0.0,0.0,0.0,0.0,0.0,0.0,0.0,0.0,0.0,0.0,0.0,0.0,0.0,0.0,0.0],"tree_param":{"num_deleted":"0","num_feature":"9","num_nodes":"91","size_leaf_vector":"0"}}]},"name":"gbtree"},"learner_model_param":{"base_score":"5E-1","num_class":"0","num_feature":"9"},"objective":{"name":"reg:squarederror","reg_loss_param":{"scale_pos_weight":"1"}}},"version":[1,4,0]}