{"learner":{"attributes":{},"feature_types":["float","float","float","float","float","float","float"],"gradient_booster":{"model":{"gbtree_model_param":{"num_trees":"2","size_leaf_vector":"0"},"tree_info":[0,0],"trees":[{"base_weights":[0.0,0.0,0.0,0.0,0.0,0.0,0.0,0.0,0.0,0.0,0.0,0.0,0.0,0.0,0.0,0.0,0.0,0.0,0.0,0.0,0.0,0.0,0.0,0.0,0.0,0.0,0.0,0.0,0.0,0.0,0.0,0.0,0.0,0.0,0.0,0.0,0.0,0.0,0.0,0.0,0.0,0.0,0.0,0.0,0.0,0.0,0.0,0.0,0.0,0.0,0.0,0.0,0.0,0.0,0.0,0.0,0.0,0.0,0.0,0.0,0.0,0.0,0.0,0.0,0.0,0.0,0.0,0.0,0.0,0.0,0.0,0.0,0.0,0.0,0.0,0.0,0.0,0.0,0.0,0.0,0.0,0.0,0.0,0.0,0.0,0.0,0.0],"categories":[],"categories_nodes":[],"categories_segments":[],"categories_sizes":[],"default_left":[false,false,false,false,false,false,false,false,false,false,false,false,false,false,false,false,false,false,false,false,false,false,false,false,false,false,false,false,false,false,false,false,false,false,false,false,false,false,false,false,false,false,false,false,false,false,false,false,false,false,false,false,false,false,false,false,false,false,false,false,false,false,false,false,false,false,false,false,false,false,false,false,false,false,false,false,false,false,false,false,false,false,false,false,false,false,false],"id":0,"left_children":[1,3,5,7,9,11,13,15,17,19,21,-1,-1,-1,23,25,27,-1,29,31,-1,33,35,37,39,-1,-1,41,43,45,47,49,51,53,55,-1,57,59,-1,61,63,-1,-1,65,-1,-1,-1,-1,-1,-1,67,-1,69,71,73,-1,75,77,-1,79,-1,81,-1,-1,-1,83,-1,-1,-1,-1,-1,-1,-1,-1,85,-1,-1,-1,-1,-1,-1,-1,-1,-1,-1,-1,-1],"loss_changes":[0.0,0.0,0.0,0.0,0.0,0.0,0.0,0.0,0.0,0.0,0.0,0.0,0.0,0.0,0.0,0.0,0.0,0.0,0.0,0.0,0.0,0.0,0.0,0.0,0.0,0.0,0.0,0.0,0.0,0.0,0.0,0.0,0.0,0.0,0.0,0.0,0.0,0.0,0.0,0.0,0.0,0.0,0.0,0.0,0.0,0.0,0.0,0.0,0.0,0.0,0.0,0.0,0.0,0.0,0.0,0.0,0.0,0.0,0.0,0.0,0.0,0.0,0.0,0.0,0.0,0.0,0.0,0.0,0.0,0.0,0.0,0.0,0.0,0.0,0.0,0.0,0.0,0.0,0.0,0.0,0.0,0.0,0.0,0.0,0.0,0.0,0.0],"parents":[2147483647,0,0,1,1,2,2,3,3,4,4,5,5,6,6,7,7,8,8,9,9,10,10,14,14,15,15,16,16,18,18,19,19,21,21,22,22,23,23,24,24,27,27,28,28,29,29,30,30,31,31,32,32,33,33,34,34,36,36,37,37,39,39,40,40,43,43,50,50,52,52,53,53,54,54,56,56,57,57,59,59,61,61,65,65,74,74],"right_children":[2,4,6,8,10,12,14,16,18,20,22,-1,-1,-1,24,26,28,-1,30,32,-1,34,36,38,40,-1,-1,42,44,46,48,50,52,54,56,-1,58,60,-1,62,64,-1,-1,66,-1,-1,-1,-1,-1,-1,68,-1,70,72,74,-1,76,78,-1,80,-1,82,-1,-1,-1,84,-1,-1,-1,-1,-1,-1,-1,-1,86,-1,-1,-1,-1,-1,-1,-1,-1,-1,-1,-1,-1],"split_conditions":[1.0668738595042768,-9.621730968544709,-4.270979742489317,-3.145770866405023,-6.776037184711686,3.285304826301253,-0.4993518065814513,-1.403186561474154,8.851285113239996,1.969319069943019,7.601189360884479,-2.513113493724399,4.371854188529952,5.7286409486455945,2.957660938329525,-3.340157061628161,-4.695320204135428,-5.037345505096706,-5.884056649072181,-2.965642796974304,-1.8271200054574699,4.724271562263196,-6.4853395903880795,9.25189786945537,8.884039493151693,-8.251059204658178,4.6941146312378415,-1.1242183862648005,9.244556639064495,-1.014875362155042,4.857496963728661,7.81043805435926,-8.250339153037999,9.397403955150079,0.8159750427368131,-8.360254282301916,-0.8043071290717592,0.6982172311820953,-1.374473758006527,-4.225966947597887,3.5847541092906603,-9.832721764818679,5.460665586260891,-8.09874564925779,9.242095205745734,6.227226473871465,2.0587222840138573,-1.609962170894315,3.2190863785321238,1.3170223487831656,-6.646185779564274,8.839665376362419,1.0459163842512869,4.142659378059882,1.9694134665358565,-5.404822701386042,-5.03677610650066,5.587520726750558,3.1960267222817897,-1.9044067955736406,1.3606253680632356,0.6165603320706055,-8.04671595323778,6.820436195600575,-5.445227967730094,4.25516685572803,4.667168803147664,-8.995277666873072,6.165173053826155,9.222515255794193,-3.67297347261875,0.15580419607422158,8.74436902297425,-3.035065623710609,-1.5516961068054975,1.3498608442939535,-7.191305886474502,-3.727980590574248,1.7106177842581758,-7.091539474628344,9.075742396487133,-7.999007998082656,8.185743073058415,5.147117541565358,-3.832176961992321,-9.014662760827822,-5.031417315388062],"split_indices":[0,4,3,1,2,0,5,4,3,4,5,0,0,0,4,1,4,0,3,3,0,3,6,5,6,0,0,0,2,4,6,3,6,5,5,0,3,0,0,5,0,0,0,6,0,0,0,0,0,0,1,0,6,2,5,0,2,4,0,3,0,0,0,0,0,3,0,0,0,0,0,0,0,0,2,0,0,0,0,0,0,0,0,0,0,0,0],"sum_hessian":[0.0,0.0,0.0,0.0,0.0,0.0,0.0,0.0,0.0,0.0,0.0,0.0,0.0,0.0,0.0,0.0,0.0,0.0,0.0,0.0,0.0,0.0,0.0,0.0,0.0,0.0,0.0,0.0,0.0,0.0,0.0,0.0,0.0,0.0,0.0,0.0,0.0,0.0,0.0,0.0,0.0,0.0,0.0,0.0,0.0,0.0,0.0,0.0,0.0,0.0,0.0,0.0,0.0,0.0,0.0,0.0,0.0,0.0,0.0,0.0,0.0,0.0,0.0,0.0,0.0,0.0,0.0,0.0,0.0,0.0,0.0,0.0,0.0,0.0,0.0,0.0,0.0,0.0,0.0,0.0,0.0,0.0,0.0,0.0,0.0,0.0,0.0],"tree_param":{"num_deleted":"0","num_feature":"7","num_nodes":"87","size_leaf_vector":"0"}},{"base_weights":[0.0,0.0,0.0,0.0,0.0,0.0,0.0,0.0,0.0,0.0,0.0,0.0,0.0,0.0,0.0,0.0,0.0,0.0,0.0,0.0,0.0,0.0,0.0,0.0,0.0,0.0,0.0,0.0,0.0,0.0,0.0,0.0,0.0,0.0,0.0,0.0,0.0,0.0,0.0,0.0,0.0,0.0,0.0,0.0,0.0,0.0,0.0,0.0,0.0,0.0,0.0,0.0,0.0,0.0,0.0,0.0,0.0,0.0,0.0,0.0,0.0,0.0,0.0,0.0,0.0,0.0,0.0,0.0,0.0,0.0,0.0,0.0,0.0,0.0,0.0,0.0,0.0,0.0,0.0,0.0,0.0,0.0,0.0],"categories":[],"categories_nodes":[],"categories_segments":[],"categories_sizes":[],"default_left":[false,false,false,false,false,false,false,false,false,false,false,false,false,false,false,false,false,false,false,false,false,false,false,false,false,false,false,false,false,false,false,false,false,false,false,false,false,false,false,false,false,false,false,false,false,false,false,false,false,false,false,false,false,false,false,false,false,false,false,false,false,false,false,false,false,false,false,false,false,false,false,false,false,false,false,false,false,false,false,false,false,false,false],"id":1,"left_children":[1,3,5,7,9,11,13,-1,-1,-1,15,-1,17,19,21,23,25,27,-1,-1,29,31,33,35,-1,37,-1,-1,-1,-1,-1,39,-1,-1,41,-1,43,45,47,49,51,53,-1,55,57,59,61,-1,63,65,-1,-1,67,69,-1,-1,71,73,-1,-1,-1,-1,-1,75,-1,-1,-1,77,-1,79,-1,-1,-1,-1,81,-1,-1,-1,-1,-1,-1,-1,-1],"loss_changes":[0.0,0.0,0.0,0.0,0.0,0.0,0.0,0.0,0.0,0.0,0.0,0.0,0.0,0.0,0.0,0.0,0.0,0.0,0.0,0.0,0.0,0.0,0.0,0.0,0.0,0.0,0.0,0.0,0.0,0.0,0.0,0.0,0.0,0.0,0.0,0.0,0.0,0.0,0.0,0.0,0.0,0.0,0.0,0.0,0.0,0.0,0.0,0.0,0.0,0.0,0.0,0.0,0.0,0.0,0.0,0.0,0.0,0.0,0.0,0.0,0.0,0.0,0.0,0.0,0.0,0.0,0.0,0.0,0.0,0.0,0.0,0.0,0.0,0.0,0.0,0.0,0.0,0.0,0.0,0.0,0.0,0.0,0.0],"parents":[2147483647,0,0,1,1,2,2,3,3,4,4,5,5,6,6,10,10,12,12,13,13,14,14,15,15,16,16,17,17,20,20,21,21,22,22,23,23,25,25,31,31,34,34,36,36,37,37,38,38,39,39,40,40,41,41,43,43,44,44,45,45,46,46,48,48,49,49,52,52,53,53,56,56,57,57,63,63,67,67,69,69,74,74],"right_children":[2,4,6,8,10,12,14,-1,-1,-1,16,-1,18,20,22,24,26,28,-1,-1,30,32,34,36,-1,38,-1,-1,-1,-1,-1,40,-1,-1,42,-1,44,46,48,50,52,54,-1,56,58,60,62,-1,64,66,-1,-1,68,70,-1,-1,72,74,-1,-1,-1,-1,-1,76,-1,-1,-1,78,-1,80,-1,-1,-1,-1,82,-1,-1,-1,-1,-1,-1,-1,-1],"split_conditions":[-0.511542143743215,-4.950583848221527,-1.2074145789875868,1.9841697261676785,5.880595955918039,2.9448993820342633,7.645501444672931,0.9116582668072404,-4.455312304717115,6.585043322514235,9.63339546382193,1.495982802652808,5.213083568368004,0.5301512015250367,1.876100902145792,-1.8798704678295426,7.608493560756816,7.5205197589625,-7.028215380394948,6.745969037455097,-0.5720065764721909,9.531825504899555,-6.023842886106245,-7.280413624826468,-6.629940649014903,-9.590134464505793,0.6281596549837616,-7.199180741583499,1.4068655362629343,6.9190623427676385,-0.6517461084380365,-1.4120688262405068,-9.173695089407001,1.0181449666209055,-3.7907082461585944,4.869246641055003,7.772025582697648,1.4746923330558754,-2.301894470689029,-8.892579147696072,-0.3510693879602407,-0.6939220393030858,9.45386316494912,-9.8283173637901,1.1779580543004755,6.873426041577709,-4.823069972572411,-9.573421355504115,5.259863953311472,9.964050957126304,9.06712727585915,2.090850525427218,4.312730255360577,-2.5940017956125008,-5.311911851757499,1.5155624648203592,5.935170285829013,3.3106725570894007,-7.388609663571433,9.357895242887363,7.00555651730426,-9.409518568524833,-8.283591128896806,8.535128978821277,-8.407800192297932,-7.357069966810037,7.652608006039351,-1.2867420688115612,-5.861818746056955,9.073642608262901,8.17529643881507,3.872403172295453,-2.371257308502914,0.22151456084608334,4.046082123469921,5.935387581689746,-2.9765960887115863,-7.4542876843573405,3.1218668021617564,6.365467417923817,3.281318425812863,-2.6081199429494113,-9.289303430447823],"split_indices":[1,3,6,0,6,3,5,0,0,0,3,0,0,1,1,4,6,6,0,0,6,6,4,6,0,4,0,0,0,0,0,1,0,0,6,0,6,3,0,2,3,6,0,5,3,2,4,0,5,3,0,0,0,6,0,0,4,1,0,0,0,0,0,4,0,0,0,6,0,0,0,0,0,0,3,0,0,0,0,0,0,0,0],"sum_hessian":[0.0,0.0,0.0,0.0,0.0,0.0,0.0,0.0,0.0,0.0,0.0,0.0,0.0,0.0,0.0,0.0,0.0,0.0,0.0,0.0,0.0,0.0,0.0,0.0,0.0,0.0,0.0,0.0,0.0,0.0,0.0,0.0,0.0,0.0,0.0,0.0,0.0,0.0,0.0,0.0,0.0,0.0,0.0,0.0,0.0,0.0,0.0,0.0,0.0,0.0,0.0,0.0,0.0,0.0,0.0,0.0,0.0,0.0,0.0,0.0,0.0,0.0,0.0,0.0,0.0,0.0,0.0,0.0,0.0,0.0,0.0,0.0,0.0,0.0,0.0,0.0,0.0,0.0,0.0,0.0,0.0,0.0,0.0],"tree_param":{"num_deleted":"0","num_feature":"7","num_nodes":"83","size_leaf_vector":"0"}}]},"name":"gbtree"},"learner_model_param":{"base_score":"5E-1","num_class":"0","num_feature":"7"},"objective":{"name":"reg:squarederror","reg_loss_param":{"scale_pos_weight":"1"}}},"version":[1,4,0]}