{"learner":{"attributes":{},"feature_types":["float","float","float","float","float","float","float","float"],"gradient_booster":{"model":{"gbtree_model_param":{"num_trees":"4","size_leaf_vector":"0"},"tree_info":[0,0,0,0],"trees":[{"base_weights":[0.0,0.0,0.0,0.0,0.0,0.0,0.0,0.0,0.0,0.0,0.0,0.0,0.0,0.0,0.0,0.0,0.0,0.0,0.0,0.0,0.0,0.0,0.0,0.0,0.0,0.0,0.0,0.0,0.0,0.0,0.0,0.0,0.0,0.0,0.0,0.0,0.0,0.0,0.0,0.0,0.0,0.0,0.0,0.0,0.0,0.0,0.0,0.0,0.0,0.0,0.0,0.0,0.0,0.0,0.0,0.0,0.0,0.0,0.0,0.0,0.0,0.0,0.0,0.0,0.0,0.0,0.0,0.0,0.0,0.0,0.0,0.0,0.0,0.0,0.0,0.0,0.0,0.0,0.0,0.0,0.0,0.0,0.0,0.0,0.0,0.0,0.0,0.0,0.0,0.0,0.0,0.0,0.0,0.0,0.0,0.0,0.0,0.0,0.0,0.0,0.0,0.0,0.0,0.0,0.0,0.0,0.0,0.0,0.0,0.0,0.0,0.0,0.0,0.0,0.0,0.0,0.0,0.0,0.0,0.0,0.0,0.0,0.0,0.0,0.0,0.0,0.0,0.0,0.0,0.0,0.0,0.0,0.0,0.0,0.0,0.0,0.0,0.0,0.0,0.0,0.0,0.0,0.0,0.0,0.0,0.0,0.0,0.0,0.0,0.0,0.0,0.0,0.0,0.0,0.0,0.0,0.0,0.0,0.0,0.0,0.0,0.0,0.0,0.0,0.0,0.0,0.0,0.0,0.0,0.0,0.0,0.0,0.0,0.0,0.0,0.0,0.0,0.0,0.0,0.0,0.0,0.0,0.0,0.0,0.0,0.0,0.0,0.0,0.0,0.0,0.0,0.0,0.0,0.0,0.0,0.0,0.0,0.0,0.0,0.0,0.0,0.0,0.0,0.0,0.0,0.0,0.0,0.0,0.0,0.0,0.0,0.0,0.0,0.0,0.0,0.0,0.0,0.0,0.0,0.0,0.0,0.0,0.0,0.0,0.0,0.0,0.0,0.0,0.0],"categories":[],"categories_nodes":[],"categories_segments":[],"categories_sizes":[],"default_left":[false,false,false,false,false,false,false,false,false,false,false,false,false,false,false,false,false,false,false,false,false,false,false,false,false,false,false,false,false,false,false,false,false,false,false,false,false,false,false,false,false,false,false,false,false,false,false,false,false,false,false,false,false,false,false,false,false,false,false,false,false,false,false,false,false,false,false,false,false,false,false,false,false,false,false,false,false,false,false,false,false,false,false,false,false,false,false,false,false,false,false,false,false,false,false,false,false,false,false,false,false,false,false,false,false,false,false,false,false,false,false,false,false,false,false,false,false,false,false,false,false,false,false,false,false,false,false,false,false,false,false,false,false,false,false,false,false,false,false,false,false,false,false,false,false,false,false,false,false,false,false,false,false,false,false,false,false,false,false,false,false,false,false,false,false,false,false,false,false,false,false,false,false,false,false,false,false,false,false,false,false,false,false,false,false,false,false,false,false,false,false,false,false,false,false,false,false,false,false,false,false,false,false,false,false,false,false,false,false,false,false,false,false,false,false,false,false,false,false,false,false,false,false,false,false,false,false,false,false],"id":0,"left_children":[1,3,5,7,9,11,13,15,17,19,21,23,25,27,29,31,-1,33,-1,-1,-1,35,37,-1,39,41,43,45,47,49,51,53,55,57,-1,59,61,63,65,67,69,71,-1,73,75,77,79,81,83,85,87,89,91,-1,93,95,97,-1,99,101,103,105,107,109,111,113,-1,115,117,-1,-1,-1,119,121,-1,123,125,127,129,131,133,-1,-1,-1,-1,-1,135,-1,-1,137,139,141,143,-1,-1,145,147,-1,-1,149,151,-1,-1,-1,153,-1,155,157,-1,159,-1,161,-1,163,165,167,-1,169,-1,-1,-1,-1,-1,-1,-1,-1,-1,-1,-1,-1,-1,171,173,-1,-1,-1,-1,175,-1,177,179,-1,-1,181,-1,-1,183,-1,185,-1,187,189,-1,191,-1,-1,193,-1,195,197,199,-1,201,-1,-1,-1,-1,-1,203,-1,205,207,-1,209,-1,211,-1,213,215,-1,-1,-1,-1,-1,-1,217,-1,-1,-1,-1,-1,-1,-1,-1,-1,219,-1,221,-1,-1,223,-1,-1,-1,-1,-1,-1,-1,-1,-1,225,-1,-1,-1,227,-1,-1,-1,-1,-1,-1,-1,-1,-1,-1,-1,-1,-1,-1],"loss_changes":[0.0,0.0,0.0,0.0,0.0,0.0,0.0,0.0,0.0,0.0,0.0,0.0,0.0,0.0,0.0,0.0,0.0,0.0,0.0,0.0,0.0,0.0,0.0,0.0,0.0,0.0,0.0,0.0,0.0,0.0,0.0,0.0,0.0,0.0,0.0,0.0,0.0,0.0,0.0,0.0,0.0,0.0,0.0,0.0,0.0,0.0,0.0,0.0,0.0,0.0,0.0,0.0,0.0,0.0,0.0,0.0,0.0,0.0,0.0,0.0,0.0,0.0,0.0,0.0,0.0,0.0,0.0,0.0,0.0,0.0,0.0,0.0,0.0,0.0,0.0,0.0,0.0,0.0,0.0,0.0,0.0,0.0,0.0,0.0,0.0,0.0,0.0,0.0,0.0,0.0,0.0,0.0,0.0,0.0,0.0,0.0,0.0,0.0,0.0,0.0,0.0,0.0,0.0,0.0,0.0,0.0,0.0,0.0,0.0,0.0,0.0,0.0,0.0,0.0,0.0,0.0,0.0,0.0,0.0,0.0,0.0,0.0,0.0,0.0,0.0,0.0,0.0,0.0,0.0,0.0,0.0,0.0,0.0,0.0,0.0,0.0,0.0,0.0,0.0,0.0,0.0,0.0,0.0,0.0,0.0,0.0,0.0,0.0,0.0,0.0,0.0,0.0,0.0,0.0,0.0,0.0,0.0,0.0,0.0,0.0,0.0,0.0,0.0,0.0,0.0,0.0,0.0,0.0,0.0,0.0,0.0,0.0,0.0,0.0,0.0,0.0,0.0,0.0,0.0,0.0,0.0,0.0,0.0,0.0,0.0,0.0,0.0,0.0,0.0,0.0,0.0,0.0,0.0,0.0,0.0,0.0,0.0,0.0,0.0,0.0,0.0,0.0,0.0,0.0,0.0,0.0,0.0,0.0,0.0,0.0,0.0,0.0,0.0,0.0,0.0,0.0,0.0,0.0,0.0,0.0,0.0,0.0,0.0,0.0,0.0,0.0,0.0,0.0,0.0],"parents":[2147483647,0,0,1,1,2,2,3,3,4,4,5,5,6,6,7,7,8,8,9,9,10,10,11,11,12,12,13,13,14,14,15,15,17,17,21,21,22,22,24,24,25,25,26,26,27,27,28,28,29,29,30,30,31,31,32,32,33,33,35,35,36,36,37,37,38,38,39,39,40,40,41,41,43,43,44,44,45,45,46,46,47,47,48,48,49,49,50,50,51,51,52,52,54,54,55,55,56,56,58,58,59,59,60,60,61,61,62,62,63,63,64,64,65,65,67,67,68,68,72,72,73,73,75,75,76,76,77,77,78,78,79,79,80,80,86,86,89,89,90,90,91,91,92,92,95,95,96,96,99,99,100,100,104,104,106,106,107,107,109,109,111,111,113,113,114,114,115,115,117,117,131,131,132,132,137,137,139,139,140,140,143,143,146,146,148,148,150,150,151,151,153,153,156,156,158,158,159,159,160,160,162,162,168,168,170,170,171,171,173,173,175,175,177,177,178,178,185,185,195,195,197,197,200,200,210,210,214,214],"right_children":[2,4,6,8,10,12,14,16,18,20,22,24,26,28,30,32,-1,34,-1,-1,-1,36,38,-1,40,42,44,46,48,50,52,54,56,58,-1,60,62,64,66,68,70,72,-1,74,76,78,80,82,84,86,88,90,92,-1,94,96,98,-1,100,102,104,106,108,110,112,114,-1,116,118,-1,-1,-1,120,122,-1,124,126,128,130,132,134,-1,-1,-1,-1,-1,136,-1,-1,138,140,142,144,-1,-1,146,148,-1,-1,150,152,-1,-1,-1,154,-1,156,158,-1,160,-1,162,-1,164,166,168,-1,170,-1,-1,-1,-1,-1,-1,-1,-1,-1,-1,-1,-1,-1,172,174,-1,-1,-1,-1,176,-1,178,180,-1,-1,182,-1,-1,184,-1,186,-1,188,190,-1,192,-1,-1,194,-1,196,198,200,-1,202,-1,-1,-1,-1,-1,204,-1,206,208,-1,210,-1,212,-1,214,216,-1,-1,-1,-1,-1,-1,218,-1,-1,-1,-1,-1,-1,-1,-1,-1,220,-1,222,-1,-1,224,-1,-1,-1,-1,-1,-1,-1,-1,-1,226,-1,-1,-1,228,-1,-1,-1,-1,-1,-1,-1,-1,-1,-1,-1,-1,-1,-1],"split_conditions":[6.74372819248266,7.2493421038305925,6.984507512435705,-8.888577292326838,1.4329837872062452,-0.9253486947457095,-4.612004691849422,-2.3070783120730987,-8.496376033699228,-1.3133408739748393,6.6921274341789285,1.0615035479915687,-1.060991357314382,-8.850306098308181,0.9139393370303122,6.307872278193521,2.4313626413656753,-0.40564690222107735,8.612359951791383,1.4323863041246714,1.8817566991904062,7.58011988407554,-4.690802015108998,-2.9996022738249657,-7.412432754278353,-8.67614957182729,0.3545860829915366,4.4203443198309955,0.8341402023404036,-0.8815445678774161,2.913256797119052,5.825136300759969,9.56689794635287,-7.686541991499604,-3.7748669814401854,-1.9633899064486844,-0.5423968232245393,-5.153584529404487,2.5992924986676478,4.092425248860263,2.3602511146940657,4.807861580769702,-5.8320006853020265,6.197805165372976,-0.1284944088116582,1.7673440721526,1.0826717267906343,4.969423532203487,-6.449480711450812,1.4196871624590308,-8.663026505710425,5.377572896772644,8.496402159149852,-4.1595290715486435,3.62714191761661,0.23793647655975647,1.6771685888375831,4.229557617957866,9.050386237256099,2.892406184070346,-6.216429374894514,-5.800955850721492,7.672282310522778,-5.095534830615829,6.650747768983194,-7.9116351065908255,-5.542101933605777,3.4053999117959677,-8.542098224528518,4.337030645256929,-9.821457215211794,4.143912380640906,0.041046869667489716,-7.923291668388517,-8.785537311886985,9.521151617167483,-8.894667857825354,-5.459575316239284,7.127795425151849,3.2907938950284503,-5.043080762023024,-6.262900681069947,9.942148048058876,0.8471884061210133,-6.439081886126856,2.4508544621906125,-2.8478478689790556,1.4727389942866544,-5.570092942468476,5.233210050631008,6.749124664132239,6.9012748100162895,-2.0587725065834084,-8.094427051817354,5.6727681445076925,-1.841234567391206,2.4858555493182184,-5.915519542038306,-3.964383554630434,-9.305896206613008,-1.372609016978517,-6.629963815811845,-9.328326608454718,1.7771989535663497,8.681583238413932,-8.941144598198049,1.435795432327808,8.472798418484832,1.2705167911350088,-4.600222274993263,-0.5956234364691024,7.332658669539828,-7.066920591838412,2.930879593263832,4.422718254555523,-9.90455205812081,-5.68028561438636,2.8808097072881402,0.30243533996657135,-7.087476581849053,4.620256062825979,-1.3630801088908342,-9.275322063770272,0.41716065390561496,5.56789743874962,2.9764818039773004,8.755929938714807,-5.9787317361911265,-9.628524998444659,-9.24968071257321,9.0099766722075,-1.705841237803778,-3.4071530295764427,5.804368016871335,7.048220030670606,-2.3441504275689145,-0.4484051834564866,7.041422911902934,-8.01031270639027,8.389641565874374,-4.676066398519389,-9.120593958794368,-8.778202766288361,-3.024130064174666,-7.993551754280573,1.6366315666095144,-5.614022776461411,-4.157405737028682,3.959469476018903,-1.3483094998280407,-2.483757289903501,5.845213987003673,2.1493748750304995,-4.406368675065955,-2.38184886019651,-1.7750717661818616,2.3053257035073784,7.176158411464712,5.963366726145765,2.3097938627603227,-2.6382505042752165,-0.7896332093066292,0.636622486462656,-8.470925289881642,-2.148583238864555,0.36722076736969633,-4.728871244450409,8.8308553064184,-9.788848930224956,4.638756769827417,6.831463073462519,4.575719856047172,-0.14026856764981588,-1.8994165097026432,-0.7263958106457764,-9.696142964264457,9.789398060095888,-3.5487720989559985,7.809242874509227,4.41561380267631,7.265839474451084,-7.970562386947098,2.8869070643745705,9.856677652088987,3.0530861529255233,-5.068335052549798,-4.299410856439559,-6.412125518986514,-9.008011837670672,-3.282961605075374,-7.258509011375024,2.2884314099686325,-0.8559235413379938,-1.7233309350270822,-8.007697644239311,-9.140169565203408,-9.481320289946973,3.04752823010546,0.2690445647660695,5.73499006044919,-9.955853819223673,3.6003152353015437,6.832516313028627,-0.7644936699768508,2.5958672790806467,9.843899606118093,-3.6902134627917675,-9.304205316322411,6.664030979800657,5.5743524917115845,8.830520353070686,-2.5655631317407535,-5.954151821599136,-5.444049483344048,-9.541891561496413,-4.189627112236608,0.918171524805766,3.2424449123733705,-7.605158930895001,-8.76300199617452,2.1983778157327087,-7.33110587788347,6.142104128968693,1.0994868086121627,6.9456031070040325,-6.583733763858565,5.812752754734136,-4.691238308106579,8.37656954879025],"split_indices":[2,6,0,0,4,4,7,5,7,4,7,6,2,6,6,5,0,1,0,0,0,6,0,0,6,2,1,4,5,3,0,1,2,7,0,1,6,5,7,4,3,5,0,7,0,2,7,2,5,2,2,7,7,0,6,0,7,0,6,3,3,5,4,2,0,2,0,0,6,0,0,0,0,0,0,3,7,3,2,4,0,0,0,0,0,0,1,0,0,4,3,4,2,0,0,7,2,0,0,4,1,0,0,0,3,0,7,3,0,5,0,5,0,1,4,6,0,1,0,0,0,0,0,0,0,0,0,0,0,0,0,3,0,0,0,0,0,1,0,7,4,0,0,7,0,0,7,0,5,0,7,6,0,6,0,0,7,0,5,3,7,0,1,0,0,0,0,0,0,0,0,2,0,6,0,7,0,7,3,0,0,0,0,0,0,6,0,0,0,0,0,0,0,0,0,0,0,6,0,0,0,0,0,0,0,0,0,0,0,0,5,0,0,0,4,0,0,0,0,0,0,0,0,0,0,0,0,0,0],"sum_hessian":[0.0,0.0,0.0,0.0,0.0,0.0,0.0,0.0,0.0,0.0,0.0,0.0,0.0,0.0,0.0,0.0,0.0,0.0,0.0,0.0,0.0,0.0,0.0,0.0,0.0,0.0,0.0,0.0,0.0,0.0,0.0,0.0,0.0,0.0,0.0,0.0,0.0,0.0,0.0,0.0,0.0,0.0,0.0,0.0,0.0,0.0,0.0,0.0,0.0,0.0,0.0,0.0,0.0,0.0,0.0,0.0,0.0,0.0,0.0,0.0,0.0,0.0,0.0,0.0,0.0,0.0,0.0,0.0,0.0,0.0,0.0,0.0,0.0,0.0,0.0,0.0,0.0,0.0,0.0,0.0,0.0,0.0,0.0,0.0,0.0,0.0,0.0,0.0,0.0,0.0,0.0,0.0,0.0,0.0,0.0,0.0,0.0,0.0,0.0,0.0,0.0,0.0,0.0,0.0,0.0,0.0,0.0,0.0,0.0,0.0,0.0,0.0,0.0,0.0,0.0,0.0,0.0,0.0,0.0,0.0,0.0,0.0,0.0,0.0,0.0,0.0,0.0,0.0,0.0,0.0,0.0,0.0,0.0,0.0,0.0,0.0,0.0,0.0,0.0,0.0,0.0,0.0,0.0,0.0,0.0,0.0,0.0,0.0,0.0,0.0,0.0,0.0,0.0,0.0,0.0,0.0,0.0,0.0,0.0,0.0,0.0,0.0,0.0,0.0,0.0,0.0,0.0,0.0,0.0,0.0,0.0,0.0,0.0,0.0,0.0,0.0,0.0,0.0,0.0,0.0,0.0,0.0,0.0,0.0,0.0,0.0,0.0,0.0,0.0,0.0,0.0,0.0,0.0,0.0,0.0,0.0,0.0,0.0,0.0,0.0,0.0,0.0,0.0,0.0,0.0,0.0,0.0,0.0,0.0,0.0,0.0,0.0,0.0,0.0,0.0,0.0,0.0,0.0,0.0,0.0,0.0,0.0,0.0,0.0,0.0,0.0,0.0,0.0,0.0],"tree_param":{"num_deleted":"0","num_feature":"8","num_nodes":"229","size_leaf_vector":"0"}},{"base_weights":[0.0,0.0,0.0,0.0,0.0,0.0,0.0,0.0,0.0,0.0,0.0,0.0,0.0,0.0,0.0,0.0,0.0,0.0,0.0,0.0,0.0,0.0,0.0,0.0,0.0,0.0,0.0,0.0,0.0,0.0,0.0,0.0,0.0,0.0,0.0,0.0,0.0,0.0,0.0,0.0,0.0,0.0,0.0,0.0,0.0,0.0,0.0,0.0,0.0,0.0,0.0,0.0,0.0,0.0,0.0,0.0,0.0,0.0,0.0,0.0,0.0,0.0,0.0,0.0,0.0,0.0,0.0,0.0,0.0,0.0,0.0,0.0,0.0,0.0,0.0,0.0,0.0,0.0,0.0,0.0,0.0,0.0,0.0,0.0,0.0,0.0,0.0,0.0,0.0,0.0,0.0,0.0,0.0,0.0,0.0,0.0,0.0,0.0,0.0,0.0,0.0,0.0,0.0,0.0,0.0,0.0,0.0,0.0,0.0,0.0,0.0,0.0,0.0,0.0,0.0,0.0,0.0,0.0,0.0,0.0,0.0,0.0,0.0,0.0,0.0,0.0,0.0,0.0,0.0,0.0,0.0,0.0,0.0,0.0,0.0,0.0,0.0,0.0,0.0,0.0,0.0,0.0,0.0,0.0,0.0,0.0,0.0,0.0,0.0,0.0,0.0,0.0,0.0,0.0,0.0,0.0,0.0,0.0,0.0],"categories":[],"categories_nodes":[],"categories_segments":[],"categories_sizes":[],"default_left":[false,false,false,false,false,false,false,false,false,false,false,false,false,false,false,false,false,false,false,false,false,false,false,false,false,false,false,false,false,false,false,false,false,false,false,false,false,false,false,false,false,false,false,false,false,false,false,false,false,false,false,false,false,false,false,false,false,false,false,false,false,false,false,false,false,false,false,false,false,false,false,false,false,false,false,false,false,false,false,false,false,false,false,false,false,false,false,false,false,false,false,false,false,false,false,false,false,false,false,false,false,false,false,false,false,false,false,false,false,false,false,false,false,false,false,false,false,false,false,false,false,false,false,false,false,false,false,false,false,false,false,false,false,false,false,false,false,false,false,false,false,false,false,false,false,false,false,false,false,false,false,false,false,false,false,false,false,false,false],"id":1,"left_children":[1,3,5,7,9,11,13,15,17,19,21,23,25,27,29,-1,31,33,35,37,39,41,-1,43,45,-1,47,49,51,-1,-1,53,55,-1,57,59,61,-1,-1,63,65,67,69,71,-1,73,75,77,79,81,-1,-1,-1,-1,83,-1,85,87,89,91,-1,93,-1,-1,95,-1,-1,-1,97,99,101,103,-1,105,-1,107,109,111,113,115,-1,-1,117,-1,119,121,-1,123,125,-1,-1,-1,-1,-1,127,129,-1,131,-1,-1,-1,-1,-1,-1,-1,-1,-1,-1,-1,133,-1,-1,135,-1,137,139,141,143,145,-1,-1,-1,-1,-1,-1,147,-1,-1,-1,-1,-1,-1,-1,-1,-1,-1,-1,-1,-1,-1,149,-1,-1,-1,-1,151,-1,153,155,-1,-1,157,-1,-1,-1,-1,-1,-1,-1],"loss_changes":[0.0,0.0,0.0,0.0,0.0,0.0,0.0,0.0,0.0,0.0,0.0,0.0,0.0,0.0,0.0,0.0,0.0,0.0,0.0,0.0,0.0,0.0,0.0,0.0,0.0,0.0,0.0,0.0,0.0,0.0,0.0,0.0,0.0,0.0,0.0,0.0,0.0,0.0,0.0,0.0,0.0,0.0,0.0,0.0,0.0,0.0,0.0,0.0,0.0,0.0,0.0,0.0,0.0,0.0,0.0,0.0,0.0,0.0,0.0,0.0,0.0,0.0,0.0,0.0,0.0,0.0,0.0,0.0,0.0,0.0,0.0,0.0,0.0,0.0,0.0,0.0,0.0,0.0,0.0,0.0,0.0,0.0,0.0,0.0,0.0,0.0,0.0,0.0,0.0,0.0,0.0,0.0,0.0,0.0,0.0,0.0,0.0,0.0,0.0,0.0,0.0,0.0,0.0,0.0,0.0,0.0,0.0,0.0,0.0,0.0,0.0,0.0,0.0,0.0,0.0,0.0,0.0,0.0,0.0,0.0,0.0,0.0,0.0,0.0,0.0,0.0,0.0,0.0,0.0,0.0,0.0,0.0,0.0,0.0,0.0,0.0,0.0,0.0,0.0,0.0,0.0,0.0,0.0,0.0,0.0,0.0,0.0,0.0,0.0,0.0,0.0,0.0,0.0,0.0,0.0,0.0,0.0,0.0,0.0],"parents":[2147483647,0,0,1,1,2,2,3,3,4,4,5,5,6,6,7,7,8,8,9,9,10,10,11,11,12,12,13,13,14,14,16,16,17,17,18,18,19,19,20,20,21,21,23,23,24,24,26,26,27,27,28,28,31,31,32,32,34,34,35,35,36,36,39,39,40,40,41,41,42,42,43,43,45,45,46,46,47,47,48,48,49,49,54,54,56,56,57,57,58,58,59,59,61,61,64,64,68,68,69,69,70,70,71,71,73,73,75,75,76,76,77,77,78,78,79,79,82,82,84,84,85,85,87,87,88,88,94,94,95,95,97,97,109,109,112,112,114,114,115,115,116,116,117,117,118,118,125,125,140,140,145,145,147,147,148,148,151,151],"right_children":[2,4,6,8,10,12,14,16,18,20,22,24,26,28,30,-1,32,34,36,38,40,42,-1,44,46,-1,48,50,52,-1,-1,54,56,-1,58,60,62,-1,-1,64,66,68,70,72,-1,74,76,78,80,82,-1,-1,-1,-1,84,-1,86,88,90,92,-1,94,-1,-1,96,-1,-1,-1,98,100,102,104,-1,106,-1,108,110,112,114,116,-1,-1,118,-1,120,122,-1,124,126,-1,-1,-1,-1,-1,128,130,-1,132,-1,-1,-1,-1,-1,-1,-1,-1,-1,-1,-1,134,-1,-1,136,-1,138,140,142,144,146,-1,-1,-1,-1,-1,-1,148,-1,-1,-1,-1,-1,-1,-1,-1,-1,-1,-1,-1,-1,-1,150,-1,-1,-1,-1,152,-1,154,156,-1,-1,158,-1,-1,-1,-1,-1,-1,-1],"split_conditions":[7.296112926009101,0.782619604057464,8.060701200512682,2.427504524733237,9.037673738873004,3.6802250979618485,-2.9748728208735242,3.7304253636719515,-0.8817373806487545,5.854196328587252,-7.689333900507754,-9.154451269107659,0.9021095801521355,6.158850773380578,0.343494025555799,8.055388047723582,-8.518829031367197,8.344425949273496,6.569191966444624,3.7794622645583473,-5.76005344331259,8.437769653666884,-7.098304468218044,9.706051364468038,-8.310429162367225,-4.045117248361111,2.1772734989950653,8.538971579439028,5.34223065402994,-6.9073330171153335,-1.0517089285919177,-3.8422470020245836,5.101573707376115,-7.8664798741826925,-2.3548761643840592,-1.3559436204155713,-1.991164222220828,6.92107741240503,6.188036938606871,1.3635619645648784,9.650501710000473,-8.018244969743538,3.1324123846190215,-4.311014376452268,-9.26040829789262,0.8649565983034435,-5.932746137159273,-3.3454227197453843,5.630137499651893,-6.435390717679542,4.298252936621816,-7.500277570358017,-5.433071313048533,-0.35773360958202005,5.7615060756398595,4.699934848218172,1.1570095303352481,-5.339351804296015,8.407092671013789,9.32169231585809,-1.7515331238389837,6.992953282056341,-5.640794164821447,9.948533120478274,-7.166785839187678,-4.625396867166453,0.6024110818031119,-8.728020578427019,0.24026279988005683,9.854842984715361,0.6554830694309146,-2.2467292358558177,4.467314186280946,-3.0919437854341494,5.463187014663873,-7.673664843380779,9.077935502039555,-1.837442675896778,0.12061890351158944,5.009373953867101,7.571034935183619,3.452301624801674,9.82804035646297,0.14032944041211692,-2.4749894410134896,6.130161052379151,-1.346057633530192,3.2584052084620225,4.34922162931459,5.095899957772831,-9.627142197738705,2.9032877342174395,-6.183568398418729,-5.360494179402727,7.839607928138474,-6.369150625233808,9.035061035121043,-2.289388822494413,-4.015077905550971,2.405935332357876,-8.485170441137692,-8.598071831738123,-2.7561192917256143,-5.783020657655557,3.9207133006914354,-2.953955564684377,8.667734175987306,-4.932542152311127,-5.417234995587648,-6.13986283092796,-1.1219637241855338,1.9058584009637975,-0.7143755590438001,-2.126289934292352,8.940895366140602,1.6614433063553236,7.8829052229625844,6.113849937230135,-5.925307487863412,-0.9561714322297128,-3.355609793174472,2.19019023837161,3.6739285104772677,4.9253469704755375,5.46271962917691,2.9360625550693253,9.729268613995451,8.612598495126747,-7.798984881301161,-5.130931278976361,5.29135363276046,0.1624191722983639,-3.0550506653127982,-6.753264044002134,-6.0968982723549265,1.486367455024526,-2.997101973816272,6.634523871463244,9.631192414612226,-7.140254816355284,8.49293095115592,-6.764965668204039,-1.283891611229297,-8.900960315516485,-9.419086405542632,-0.6238164756913118,1.9844475728374373,-9.16938451123214,0.626097075126161,-6.184087340039354,-7.117185252975583,4.344322947417535,-9.326975061226667,-0.18451601085677538,7.524589904916809,-0.7920100537885588,-6.9574320180137175,7.870874366826548,4.184252661263024],"split_indices":[3,5,5,6,3,5,6,2,6,1,2,6,0,4,6,0,7,1,7,2,4,7,0,0,3,0,7,6,2,0,0,7,1,0,0,1,7,0,0,7,6,0,0,7,0,5,4,1,1,6,0,0,0,0,5,0,2,0,4,2,0,6,0,0,7,0,0,0,2,3,5,0,0,4,0,2,4,7,4,2,0,0,5,0,0,6,0,1,5,0,0,0,0,0,6,6,0,4,0,0,0,0,0,0,0,0,0,0,0,3,0,0,2,0,0,7,7,4,6,0,0,0,0,0,0,2,0,0,0,0,0,0,0,0,0,0,0,0,0,0,6,0,0,0,0,5,0,4,6,0,0,6,0,0,0,0,0,0,0],"sum_hessian":[0.0,0.0,0.0,0.0,0.0,0.0,0.0,0.0,0.0,0.0,0.0,0.0,0.0,0.0,0.0,0.0,0.0,0.0,0.0,0.0,0.0,0.0,0.0,0.0,0.0,0.0,0.0,0.0,0.0,0.0,0.0,0.0,0.0,0.0,0.0,0.0,0.0,0.0,0.0,0.0,0.0,0.0,0.0,0.0,0.0,0.0,0.0,0.0,0.0,0.0,0.0,0.0,0.0,0.0,0.0,0.0,0.0,0.0,0.0,0.0,0.0,0.0,0.0,0.0,0.0,0.0,0.0,0.0,0.0,0.0,0.0,0.0,0.0,0.0,0.0,0.0,0.0,0.0,0.0,0.0,0.0,0.0,0.0,0.0,0.0,0.0,0.0,0.0,0.0,0.0,0.0,0.0,0.0,0.0,0.0,0.0,0.0,0.0,0.0,0.0,0.0,0.0,0.0,0.0,0.0,0.0,0.0,0.0,0.0,0.0,0.0,0.0,0.0,0.0,0.0,0.0,0.0,0.0,0.0,0.0,0.0,0.0,0.0,0.0,0.0,0.0,0.0,0.0,0.0,0.0,0.0,0.0,0.0,0.0,0.0,0.0,0.0,0.0,0.0,0.0,0.0,0.0,0.0,0.0,0.0,0.0,0.0,0.0,0.0,0.0,0.0,0.0,0.0,0.0,0.0,0.0,0.0,0.0,0.0],"tree_param":{"num_deleted":"0","num_feature":"8","num_nodes":"159","size_leaf_vector":"0"}},{"base_weights":[0.0,0.0,0.0,0.0,0.0,0.0,0.0,0.0,0.0,0.0,0.0,0.0,0.0,0.0,0.0,0.0,0.0,0.0,0.0,0.0,0.0,0.0,0.0,0.0,0.0,0.0,0.0,0.0,0.0,0.0,0.0,0.0,0.0,0.0,0.0,0.0,0.0,0.0,0.0,0.0,0.0,0.0,0.0,0.0,0.0,0.0,0.0,0.0,0.0,0.0,0.0,0.0,0.0,0.0,0.0,0.0,0.0,0.0,0.0,0.0,0.0,0.0,0.0,0.0,0.0,0.0,0.0,0.0,0.0,0.0,0.0,0.0,0.0,0.0,0.0,0.0,0.0,0.0,0.0,0.0,0.0,0.0,0.0,0.0,0.0],"categories":[],"categories_nodes":[],"categories_segments":[],"categories_sizes":[],"default_left":[false,false,false,false,false,false,false,false,false,false,false,false,false,false,false,false,false,false,false,false,false,false,false,false,false,false,false,false,false,false,false,false,false,false,false,false,false,false,false,false,false,false,false,false,false,false,false,false,false,false,false,false,false,false,false,false,false,false,false,false,false,false,false,false,false,false,false,false,false,false,false,false,false,false,false,false,false,false,false,false,false,false,false,false,false],"id":2,"left_children":[1,3,5,7,9,11,13,-1,15,17,19,21,-1,23,-1,-1,25,-1,27,-1,29,-1,31,33,35,37,-1,-1,39,-1,41,-1,43,-1,45,-1,47,49,51,-1,53,55,57,59,-1,-1,-1,-1,61,63,65,-1,-1,-1,-1,-1,67,69,71,-1,-1,-1,-1,73,75,77,79,-1,81,-1,-1,-1,83,-1,-1,-1,-1,-1,-1,-1,-1,-1,-1,-1,-1],"loss_changes":[0.0,0.0,0.0,0.0,0.0,0.0,0.0,0.0,0.0,0.0,0.0,0.0,0.0,0.0,0.0,0.0,0.0,0.0,0.0,0.0,0.0,0.0,0.0,0.0,0.0,0.0,0.0,0.0,0.0,0.0,0.0,0.0,0.0,0.0,0.0,0.0,0.0,0.0,0.0,0.0,0.0,0.0,0.0,0.0,0.0,0.0,0.0,0.0,0.0,0.0,0.0,0.0,0.0,0.0,0.0,0.0,0.0,0.0,0.0,0.0,0.0,0.0,0.0,0.0,0.0,0.0,0.0,0.0,0.0,0.0,0.0,0.0,0.0,0.0,0.0,0.0,0.0,0.0,0.0,0.0,0.0,0.0,0.0,0.0,0.0],"parents":[2147483647,0,0,1,1,2,2,3,3,4,4,5,5,6,6,8,8,9,9,10,10,11,11,13,13,16,16,18,18,20,20,22,22,23,23,24,24,25,25,28,28,30,30,32,32,34,34,36,36,37,37,38,38,40,40,41,41,42,42,43,43,48,48,49,49,50,50,56,56,57,57,58,58,63,63,64,64,65,65,66,66,68,68,72,72],"right_children":[2,4,6,8,10,12,14,-1,16,18,20,22,-1,24,-1,-1,26,-1,28,-1,30,-1,32,34,36,38,-1,-1,40,-1,42,-1,44,-1,46,-1,48,50,52,-1,54,56,58,60,-1,-1,-1,-1,62,64,66,-1,-1,-1,-1,-1,68,70,72,-1,-1,-1,-1,74,76,78,80,-1,82,-1,-1,-1,84,-1,-1,-1,-1,-1,-1,-1,-1,-1,-1,-1,-1],"split_conditions":[6.078814177357621,8.580192204071537,8.412671096529412,-9.004111518590623,4.981574991846667,1.5655134169523812,3.3755957336324087,6.700431352895482,-2.8232932824136014,1.871698885388291,7.400866545316362,1.5371569166879304,-8.382719661183879,-3.7790162338152395,-9.924846880045164,-9.409042618964826,-7.361443173414881,-7.868262964813187,-5.018241627297319,-3.5012211347379925,0.4823385754009202,2.5153215554441175,2.1240531386756007,2.722769570530918,8.575784466792438,9.836562867724584,-3.6520015691382053,8.0398664896124,-5.224335745291256,-8.868836503268694,9.912089181719832,7.786986155235528,-0.7267068145040145,-9.596997645733142,3.6213389886245633,-1.4893794833475535,7.987978234474614,-8.557013026474626,-7.747206267689794,6.69394176079544,-0.8068461145235233,-0.21107517240603357,-2.8092895426940556,3.561842070517079,3.4250816266621733,7.7208148338967675,4.028326775805116,-6.4874535937785485,-5.940687277594584,4.744939862817128,-2.269331599267142,5.220437733741285,-8.376847174343824,9.584554557121216,-8.206556137052685,5.750657934363737,6.107284746408659,2.3396787093693945,3.080546287461857,-8.107972401685025,-6.067314234413066,9.687002373221006,4.9394470921775415,4.009104389225319,-7.764087383099928,-1.445827444168902,4.830558894037418,9.127081423895941,0.9117622547748176,-4.74015914863034,1.5213944354629145,0.8025106723460205,-9.2119895809358,1.3367162214082668,0.6285847452079185,9.848464283295467,9.351424523450543,0.958850427087576,9.53674065706711,6.1930498606533,-1.8109144616335229,-2.594546438700717,4.850913156627527,-2.6310897240378264,5.202564173094624],"split_indices":[5,0,5,4,0,5,2,0,7,0,2,4,0,5,0,0,0,0,6,0,3,0,2,3,6,7,0,0,7,0,0,0,0,0,1,0,1,3,1,0,3,5,1,4,0,0,0,0,3,7,4,0,0,0,0,0,0,2,0,0,0,0,0,5,1,5,2,0,5,0,0,0,3,0,0,0,0,0,0,0,0,0,0,0,0],"sum_hessian":[0.0,0.0,0.0,0.0,0.0,0.0,0.0,0.0,0.0,0.0,0.0,0.0,0.0,0.0,0.0,0.0,0.0,0.0,0.0,0.0,0.0,0.0,0.0,0.0,0.0,0.0,0.0,0.0,0.0,0.0,0.0,0.0,0.0,0.0,0.0,0.0,0.0,0.0,0.0,0.0,0.0,0.0,0.0,0.0,0.0,0.0,0.0,0.0,0.0,0.0,0.0,0.0,0.0,0.0,0.0,0.0,0.0,0.0,0.0,0.0,0.0,0.0,0.0,0.0,0.0,0.0,0.0,0.0,0.0,0.0,0.0,0.0,0.0,0.0,0.0,0.0,0.0,0.0,0.0,0.0,0.0,0.0,0.0,0.0,0.0],"tree_param":{"num_deleted":"0","num_feature":"8","num_nodes":"85","size_leaf_vector":"0"}},{"base_weights":[0.0,0.0,0.0,0.0,0.0,0.0,0.0,0.0,0.0,0.0,0.0,0.0,0.0,0.0,0.0,0.0,0.0,0.0,0.0,0.0,0.0,0.0,0.0,0.0,0.0,0.0,0.0,0.0,0.0,0.0,0.0,0.0,0.0,0.0,0.0,0.0,0.0,0.0,0.0,0.0,0.0,0.0,0.0,0.0,0.0,0.0,0.0,0.0,0.0,0.0,0.0,0.0,0.0,0.0,0.0,0.0,0.0,0.0,0.0,0.0,0.0,0.0,0.0,0.0,0.0,0.0,0.0,0.0,0.0,0.0,0.0,0.0,0.0,0.0,0.0,0.0,0.0,0.0,0.0],"categories":[],"categories_nodes":[],"categories_segments":[],"categories_sizes":[],"default_left":[false,false,false,false,false,false,false,false,false,false,false,false,false,false,false,false,false,false,false,false,false,false,false,false,false,false,false,false,false,false,false,false,false,false,false,false,false,false,false,false,false,false,false,false,false,false,false,false,false,false,false,false,false,false,false,false,false,false,false,false,false,false,false,false,false,false,false,false,false,false,false,false,false,false,false,false,false,false,false],"id":3,"left_children":[1,3,5,7,9,11,13,15,17,-1,19,-1,21,-1,23,25,-1,27,29,-1,-1,31,-1,33,35,37,39,41,-1,-1,43,-1,45,47,-1,49,51,-1,53,55,-1,-1,57,-1,-1,-1,59,-1,-1,61,63,65,67,-1,-1,-1,-1,-1,69,-1,-1,-1,-1,-1,71,-1,-1,73,75,-1,-1,-1,-1,-1,-1,-1,77,-1,-1],"loss_changes":[0.0,0.0,0.0,0.0,0.0,0.0,0.0,0.0,0.0,0.0,0.0,0.0,0.0,0.0,0.0,0.0,0.0,0.0,0.0,0.0,0.0,0.0,0.0,0.0,0.0,0.0,0.0,0.0,0.0,0.0,0.0,0.0,0.0,0.0,0.0,0.0,0.0,0.0,0.0,0.0,0.0,0.0,0.0,0.0,0.0,0.0,0.0,0.0,0.0,0.0,0.0,0.0,0.0,0.0,0.0,0.0,0.0,0.0,0.0,0.0,0.0,0.0,0.0,0.0,0.0,0.0,0.0,0.0,0.0,0.0,0.0,0.0,0.0,0.0,0.0,0.0,0.0,0.0,0.0],"parents":[2147483647,0,0,1,1,2,2,3,3,4,4,5,5,6,6,7,7,8,8,10,10,12,12,14,14,15,15,17,17,18,18,21,21,23,23,24,24,25,25,26,26,27,27,30,30,32,32,33,33,35,35,36,36,38,38,39,39,42,42,46,46,49,49,50,50,51,51,52,52,58,58,64,64,67,67,68,68,76,76],"right_children":[2,4,6,8,10,12,14,16,18,-1,20,-1,22,-1,24,26,-1,28,30,-1,-1,32,-1,34,36,38,40,42,-1,-1,44,-1,46,48,-1,50,52,-1,54,56,-1,-1,58,-1,-1,-1,60,-1,-1,62,64,66,68,-1,-1,-1,-1,-1,70,-1,-1,-1,-1,-1,72,-1,-1,74,76,-1,-1,-1,-1,-1,-1,-1,78,-1,-1],"split_conditions":[8.506032195828922,0.7971770066191315,-9.705400418379154,8.371839051695574,8.643698917064533,3.3810610471658222,6.953387021516807,4.436915237271329,7.199973471243169,0.14530847073299036,8.00693737734614,6.851492290940836,3.438818860487114,2.489422790784497,-9.585883826183332,-2.883130406769707,1.872522836055964,9.710697837068885,8.961070216157527,-4.952756261033329,3.835690606260666,9.346257819568258,0.23487749585978612,3.508304248577936,-1.8843653987587885,-7.616306925354525,2.58734970774527,-5.719874290087894,-0.05067528990632297,5.933355663402898,0.7115862377572935,-7.483850813566242,6.909395952275858,2.288449227931986,-7.447109737468893,-6.169295421499563,-0.1582234044432731,3.097008048317903,9.455267717672442,9.917461148006726,-3.753429532126092,-9.119171264542478,6.556128917512819,-0.8560218275953098,9.202072909161078,9.891717669310225,-1.1751462567535,5.680945942399642,-4.92252296097485,2.0859208186412843,4.661723092376999,-2.817670549651499,2.8156354188771786,5.215488280335666,-7.745648772375929,-1.8663836384538222,-2.1395236606149792,8.628066234122901,-5.469726939944369,2.562276340065189,0.6907378560045796,-3.1638251368665546,1.5690098514305788,1.89739053219526,0.7355065817024986,1.928407841608541,-9.449729891120482,0.6972747184256427,-9.172480726449445,-9.042567302152122,0.9825384835178124,-5.645883752205804,-6.87334598365724,-1.2352402560639977,-5.517817094545413,1.0548062993699006,-8.830393604137061,-2.2789904927760265,-4.556074373664049],"split_indices":[6,6,3,5,1,4,6,2,7,0,4,0,1,0,3,3,0,4,3,0,0,1,0,0,2,2,3,6,0,0,2,0,7,6,0,6,1,0,4,5,0,0,5,0,0,0,1,0,0,1,3,2,3,0,0,0,0,0,6,0,0,0,0,0,4,0,0,0,2,0,0,0,0,0,0,0,3,0,0],"sum_hessian":[0.0,0.0,0.0,0.0,0.0,0.0,0.0,0.0,0.0,0.0,0.0,0.0,0.0,0.0,0.0,0.0,0.0,0.0,0.0,0.0,0.0,0.0,0.0,0.0,0.0,0.0,0.0,0.0,0.0,0.0,0.0,0.0,0.0,0.0,0.0,0.0,0.0,0.0,0.0,0.0,0.0,0.0,0.0,0.0,0.0,0.0,0.0,0.0,0.0,0.0,0.0,0.0,0.0,0.0,0.0,0.0,0.0,0.0,0.0,0.0,0.0,0.0,0.0,0.0,0.0,0.0,0.0,0.0,0.0,0.0,0.0,0.0,0.0,0.0,0.0,0.0,0.0,0.0,0.0],"tree_param":{"num_deleted":"0","num_feature":"8","num_nodes":"79","size_leaf_vector":"0"}}]},"name":"gbtree"},"learner_model_param":{"base_score":"5E-1","num_class":"0","num_feature":"8"},"objective":{"name":"reg:squarederror","reg_loss_param":{"scale_pos_weight":"1"}}},"version":[1,4,0]}