{"learner":{"attributes":{},"feature_types":["float","float","float","float","float","float","float","float","float","float","float","float","float","float","float","float","float","float"],"gradient_booster":{"model":{"gbtree_model_param":{"num_trees":"4","size_leaf_vector":"0"},"tree_info":[0,0,0,0],"trees":[{"base_weights":[0.0,0.0,0.0,0.0,0.0,0.0,0.0,0.0,0.0,0.0,0.0,0.0,0.0,0.0,0.0,0.0,0.0,0.0,0.0,0.0,0.0,0.0,0.0,0.0,0.0,0.0,0.0,0.0,0.0,0.0,0.0,0.0,0.0,0.0,0.0,0.0,0.0,0.0,0.0,0.0,0.0,0.0,0.0,0.0,0.0,0.0,0.0,0.0,0.0,0.0,0.0,0.0,0.0,0.0,0.0,0.0,0.0,0.0,0.0,0.0,0.0,0.0,0.0,0.0,0.0,0.0,0.0,0.0,0.0,0.0,0.0,0.0,0.0,0.0,0.0,0.0,0.0,0.0,0.0,0.0,0.0,0.0,0.0,0.0,0.0,0.0,0.0,0.0,0.0,0.0,0.0,0.0,0.0,0.0,0.0,0.0,0.0,0.0,0.0,0.0,0.0,0.0,0.0,0.0,0.0,0.0,0.0,0.0,0.0,0.0,0.0,0.0,0.0,0.0,0.0,0.0,0.0,0.0,0.0,0.0,0.0,0.0,0.0],"categories":[],"categories_nodes":[],"categories_segments":[],"categories_sizes":[],"default_left":[false,false,false,false,false,false,false,false,false,false,false,false,false,false,false,false,false,false,false,false,false,false,false,false,false,false,false,false,false,false,false,false,false,false,false,false,false,false,false,false,false,false,false,false,false,false,false,false,false,false,false,false,false,false,false,false,false,false,false,false,false,false,false,false,false,false,false,false,false,false,false,false,false,false,false,false,false,false,false,false,false,false,false,false,false,false,false,false,false,false,false,false,false,false,false,false,false,false,false,false,false,false,false,false,false,false,false,false,false,false,false,false,false,false,false,false,false,false,false,false,false,false,false],"id":0,"left_children":[1,3,5,7,9,11,13,15,17,-1,19,-1,21,23,-1,25,27,29,31,33,35,37,39,-1,41,43,45,47,49,-1,51,-1,-1,-1,-1,53,55,57,59,-1,61,-1,-1,-1,-1,63,-1,65,67,69,-1,71,-1,73,75,77,79,-1,-1,81,83,85,-1,-1,-1,-1,87,89,-1,-1,91,-1,-1,-1,-1,-1,93,-1,95,97,-1,-1,99,-1,101,103,105,-1,-1,-1,-1,-1,107,109,111,-1,-1,-1,-1,-1,-1,-1,113,-1,-1,115,117,-1,-1,-1,119,-1,121,-1,-1,-1,-1,-1,-1,-1,-1,-1,-1],"loss_changes":[0.0,0.0,0.0,0.0,0.0,0.0,0.0,0.0,0.0,0.0,0.0,0.0,0.0,0.0,0.0,0.0,0.0,0.0,0.0,0.0,0.0,0.0,0.0,0.0,0.0,0.0,0.0,0.0,0.0,0.0,0.0,0.0,0.0,0.0,0.0,0.0,0.0,0.0,0.0,0.0,0.0,0.0,0.0,0.0,0.0,0.0,0.0,0.0,0.0,0.0,0.0,0.0,0.0,0.0,0.0,0.0,0.0,0.0,0.0,0.0,0.0,0.0,0.0,0.0,0.0,0.0,0.0,0.0,0.0,0.0,0.0,0.0,0.0,0.0,0.0,0.0,0.0,0.0,0.0,0.0,0.0,0.0,0.0,0.0,0.0,0.0,0.0,0.0,0.0,0.0,0.0,0.0,0.0,0.0,0.0,0.0,0.0,0.0,0.0,0.0,0.0,0.0,0.0,0.0,0.0,0.0,0.0,0.0,0.0,0.0,0.0,0.0,0.0,0.0,0.0,0.0,0.0,0.0,0.0,0.0,0.0,0.0,0.0],"parents":[2147483647,0,0,1,1,2,2,3,3,4,4,5,5,6,6,7,7,8,8,10,10,12,12,13,13,15,15,16,16,17,17,18,18,19,19,20,20,21,21,22,22,24,24,25,25,26,26,27,27,28,28,30,30,35,35,36,36,37,37,38,38,40,40,45,45,47,47,48,48,49,49,51,51,53,53,54,54,55,55,56,56,59,59,60,60,61,61,66,66,67,67,70,70,76,76,78,78,79,79,82,82,84,84,85,85,86,86,92,92,93,93,94,94,102,102,105,105,106,106,110,110,112,112],"right_children":[2,4,6,8,10,12,14,16,18,-1,20,-1,22,24,-1,26,28,30,32,34,36,38,40,-1,42,44,46,48,50,-1,52,-1,-1,-1,-1,54,56,58,60,-1,62,-1,-1,-1,-1,64,-1,66,68,70,-1,72,-1,74,76,78,80,-1,-1,82,84,86,-1,-1,-1,-1,88,90,-1,-1,92,-1,-1,-1,-1,-1,94,-1,96,98,-1,-1,100,-1,102,104,106,-1,-1,-1,-1,-1,108,110,112,-1,-1,-1,-1,-1,-1,-1,114,-1,-1,116,118,-1,-1,-1,120,-1,122,-1,-1,-1,-1,-1,-1,-1,-1,-1,-1],"split_conditions":[2.3321575974445903,1.0727458464338095,0.9948969153921041,2.4830479458500676,9.223534473109407,-6.931970142961277,6.068849629303113,6.727804307730366,-6.993626093700068,5.110157719778508,-5.72576102923974,-4.038054424864406,0.6421656140186762,-2.4191306696035344,7.018535409604969,0.3788480059592949,7.0718125938688985,6.955256262114311,5.910609934625551,-4.798360357465624,4.828757959808183,-0.44464940719584334,-2.176606550361356,7.263544772089595,-9.922266675461241,0.5671293671449806,5.5599427689943575,3.2647312802673127,-7.183540425437521,3.4429790860592906,-5.713183330440001,7.429187625711869,0.2658783112533598,0.08579615374090288,-7.4138810788729925,-8.174017176501904,8.565862629243817,-7.1497040026949925,1.5033366422735632,3.742103858660519,6.497967856541273,4.677435818365224,3.5370392823477204,1.1391859518938396,4.461695920109555,1.5742285192508216,-2.73627822930154,-1.6691726504419577,-1.360983007794804,-1.3211082788946857,0.1527914994202284,6.308258213427173,-1.758526483755709,6.767810480037589,-7.820246875810403,-4.590762290461865,-8.808096082020969,4.8027331990505715,-0.5933798339189238,5.912753301636446,-1.4156468962913564,0.44268331554103924,4.049243100347788,-6.902466415006495,2.152420404406982,-0.8470315774067956,-7.226144074263352,-8.807746819934017,1.0765029634499346,7.0628512904495935,0.3489863592189302,6.099726381189537,-5.1074647735008165,-8.31867065380402,3.0534602628709173,-7.020614633901024,-9.770925203658045,-2.1069950686337693,9.342278577074836,8.330438736917788,3.978453238216213,7.778494118648972,0.47921804958134295,-0.02946751753446364,-0.48331860128471327,2.097001850365638,0.2690583453733826,-6.222564166829175,-3.705398306951434,-8.012588615873401,-1.9771433347571552,6.393673338415745,-0.8961637227546362,-7.30522843855265,8.545907051394604,-5.435780382888399,-7.263019162090157,-2.391796351211757,0.46874421365330754,2.6201871758582485,7.727833411168053,9.593083687903988,7.211409125770739,5.041156170219249,-3.3607071025319684,-9.440563799160916,2.0120144683694523,4.806920310799466,7.327079958370625,9.205238569797615,-8.759667120491516,4.825684940092129,-9.63303928784386,-4.373826321960066,-4.578049637699873,8.219168135653373,-4.402824821939184,-7.1783773925590815,1.5792212274663733,-4.2892457203552325,-1.0262847861708728,-5.087385713906284,5.909607107520635],"split_indices":[12,14,8,8,17,1,9,13,8,0,13,0,16,3,0,5,17,7,14,7,15,11,11,0,10,11,11,1,16,0,16,0,0,0,0,5,5,16,3,0,5,0,0,0,0,5,0,16,4,8,0,5,0,8,14,13,10,0,0,9,1,4,0,0,0,0,15,12,0,0,12,0,0,0,0,0,8,0,8,12,0,0,12,0,12,3,0,0,0,0,0,0,14,12,6,0,0,0,0,0,0,0,2,0,0,8,12,0,0,0,6,0,16,0,0,0,0,0,0,0,0,0,0],"sum_hessian":[0.0,0.0,0.0,0.0,0.0,0.0,0.0,0.0,0.0,0.0,0.0,0.0,0.0,0.0,0.0,0.0,0.0,0.0,0.0,0.0,0.0,0.0,0.0,0.0,0.0,0.0,0.0,0.0,0.0,0.0,0.0,0.0,0.0,0.0,0.0,0.0,0.0,0.0,0.0,0.0,0.0,0.0,0.0,0.0,0.0,0.0,0.0,0.0,0.0,0.0,0.0,0.0,0.0,0.0,0.0,0.0,0.0,0.0,0.0,0.0,0.0,0.0,0.0,0.0,0.0,0.0,0.0,0.0,0.0,0.0,0.0,0.0,0.0,0.0,0.0,0.0,0.0,0.0,0.0,0.0,0.0,0.0,0.0,0.0,0.0,0.0,0.0,0.0,0.0,0.0,0.0,0.0,0.0,0.0,0.0,0.0,0.0,0.0,0.0,0.0,0.0,0.0,0.0,0.0,0.0,0.0,0.0,0.0,0.0,0.0,0.0,0.0,0.0,0.0,0.0,0.0,0.0,0.0,0.0,0.0,0.0,0.0,0.0],"tree_param":{"num_deleted":"0","num_feature":"18","num_nodes":"123","size_leaf_vector":"0"}},{"base_weights":[0.0,0.0,0.0,0.0,0.0,0.0,0.0,0.0,0.0,0.0,0.0,0.0,0.0,0.0,0.0,0.0,0.0,0.0,0.0,0.0,0.0,0.0,0.0,0.0,0.0,0.0,0.0,0.0,0.0,0.0,0.0,0.0,0.0,0.0,0.0,0.0,0.0,0.0,0.0,0.0,0.0,0.0,0.0,0.0,0.0,0.0,0.0,0.0,0.0,0.0,0.0,0.0,0.0,0.0,0.0,0.0,0.0,0.0,0.0,0.0,0.0,0.0,0.0,0.0,0.0,0.0,0.0,0.0,0.0,0.0,0.0,0.0,0.0,0.0,0.0,0.0,0.0,0.0,0.0,0.0,0.0,0.0,0.0,0.0,0.0,0.0,0.0,0.0,0.0,0.0,0.0,0.0,0.0,0.0,0.0,0.0,0.0,0.0,0.0,0.0,0.0,0.0,0.0,0.0,0.0,0.0,0.0,0.0,0.0,0.0,0.0,0.0,0.0,0.0,0.0,0.0,0.0],"categories":[],"categories_nodes":[],"categories_segments":[],"categories_sizes":[],"default_left":[false,false,false,false,false,false,false,false,false,false,false,false,false,false,false,false,false,false,false,false,false,false,false,false,false,false,false,false,false,false,false,false,false,false,false,false,false,false,false,false,false,false,false,false,false,false,false,false,false,false,false,false,false,false,false,false,false,false,false,false,false,false,false,false,false,false,false,false,false,false,false,false,false,false,false,false,false,false,false,false,false,false,false,false,false,false,false,false,false,false,false,false,false,false,false,false,false,false,false,false,false,false,false,false,false,false,false,false,false,false,false,false,false,false,false,false,false],"id":1,"left_children":[1,3,5,7,9,11,-1,13,15,17,19,21,23,25,27,-1,29,31,33,35,37,39,41,43,-1,-1,-1,45,47,-1,-1,-1,-1,49,-1,51,53,55,-1,57,59,-1,-1,-1,61,-1,63,-1,-1,65,-1,67,69,71,-1,73,-1,75,-1,77,79,-1,81,83,-1,85,87,89,91,93,-1,-1,95,-1,-1,97,99,-1,-1,101,103,-1,-1,-1,-1,-1,-1,-1,105,-1,107,-1,109,111,-1,-1,-1,-1,113,-1,-1,-1,115,-1,-1,-1,-1,-1,-1,-1,-1,-1,-1,-1,-1,-1,-1],"loss_changes":[0.0,0.0,0.0,0.0,0.0,0.0,0.0,0.0,0.0,0.0,0.0,0.0,0.0,0.0,0.0,0.0,0.0,0.0,0.0,0.0,0.0,0.0,0.0,0.0,0.0,0.0,0.0,0.0,0.0,0.0,0.0,0.0,0.0,0.0,0.0,0.0,0.0,0.0,0.0,0.0,0.0,0.0,0.0,0.0,0.0,0.0,0.0,0.0,0.0,0.0,0.0,0.0,0.0,0.0,0.0,0.0,0.0,0.0,0.0,0.0,0.0,0.0,0.0,0.0,0.0,0.0,0.0,0.0,0.0,0.0,0.0,0.0,0.0,0.0,0.0,0.0,0.0,0.0,0.0,0.0,0.0,0.0,0.0,0.0,0.0,0.0,0.0,0.0,0.0,0.0,0.0,0.0,0.0,0.0,0.0,0.0,0.0,0.0,0.0,0.0,0.0,0.0,0.0,0.0,0.0,0.0,0.0,0.0,0.0,0.0,0.0,0.0,0.0,0.0,0.0,0.0,0.0],"parents":[2147483647,0,0,1,1,2,2,3,3,4,4,5,5,7,7,8,8,9,9,10,10,11,11,12,12,13,13,14,14,16,16,17,17,18,18,19,19,20,20,21,21,22,22,23,23,27,27,28,28,33,33,35,35,36,36,37,37,39,39,40,40,44,44,46,46,49,49,51,51,52,52,53,53,55,55,57,57,59,59,60,60,62,62,63,63,65,65,66,66,67,67,68,68,69,69,72,72,75,75,76,76,79,79,80,80,88,88,90,90,92,92,93,93,98,98,102,102],"right_children":[2,4,6,8,10,12,-1,14,16,18,20,22,24,26,28,-1,30,32,34,36,38,40,42,44,-1,-1,-1,46,48,-1,-1,-1,-1,50,-1,52,54,56,-1,58,60,-1,-1,-1,62,-1,64,-1,-1,66,-1,68,70,72,-1,74,-1,76,-1,78,80,-1,82,84,-1,86,88,90,92,94,-1,-1,96,-1,-1,98,100,-1,-1,102,104,-1,-1,-1,-1,-1,-1,-1,106,-1,108,-1,110,112,-1,-1,-1,-1,114,-1,-1,-1,116,-1,-1,-1,-1,-1,-1,-1,-1,-1,-1,-1,-1,-1,-1],"split_conditions":[-6.704932301680026,-8.75391515643107,-7.712767165782868,-9.019443688207474,2.9890773038226754,7.314816619530301,1.2141265764885052,6.83553974915797,4.9138397070980755,5.377726634211083,-5.374655370951654,7.6920693130293,-1.1888465689371266,-6.911459893946491,3.8904999961841185,8.712180546720344,5.121620311303644,9.33565264149668,5.174500657269602,5.3200641342866675,5.672470033628807,-6.693530869662512,6.094104786756201,3.6028390247616358,4.583851339128044,-0.493552861361092,2.1618415477621546,2.18761302466066,-9.657120834393913,-8.777121806111449,-8.298819323713435,-0.38597874547197364,7.970908519255694,-5.59462462178565,-8.380999849867358,-9.089872347768697,8.352419398864136,-3.6590398228984453,-7.127992050089674,-8.913635770520312,4.629743241998446,-0.15012970045194862,7.336932468786003,-7.163230410197979,-0.6071429296609949,-3.9757006509238657,5.220523189328363,3.2576193616229183,-2.2903218957440155,9.73689246877418,-8.567196517681484,-3.0550460016048273,-0.3076382846323611,7.7367597877882766,-8.885899519210705,1.2654446005492765,8.59245959009682,6.391642850320366,9.340726748220685,7.254529857711567,4.354192995593804,-3.667993977488422,-8.876060798024827,8.794027711207665,3.411529341101609,5.520541653863569,-4.847168703607776,0.6426177916577114,-2.6779698303650736,-3.881581003800897,3.528936372099283,-2.4591141746164187,-3.1639966097396277,5.967559614418711,4.123882633973345,6.62148581645863,-2.837058389796754,2.6908990614925585,-4.251218183197763,-1.322011926639238,7.67592851764007,-4.908621818913007,-0.8585989544625914,-0.3892083189790636,1.1444727118466993,7.047436230419532,0.5808146002831371,-2.6151305822847517,-7.67562071962293,9.395538330748703,-9.801813262398353,-1.2309486993390397,6.6487804603387985,0.08452832126190479,-4.3203723119361435,8.555023824954336,-5.651701925190756,-2.688599120513093,-9.761748432032828,2.4776666919984223,-0.8010481478382996,4.8158849629878056,-7.285359355492535,1.6187997570209056,-0.45891135211813605,7.810324760766861,6.6111919594384965,-9.496329776971058,8.42017709695812,6.062720201801163,-8.19660138471543,-0.7345748330950066,8.007516600144307,-8.099738031405137,2.362305841300735,9.962685456573922,4.163625333141889],"split_indices":[7,7,16,15,8,5,0,6,9,5,17,2,13,12,3,0,2,16,17,7,6,11,9,8,0,0,0,5,5,0,0,0,0,15,0,4,3,1,0,9,1,0,0,0,7,0,14,0,0,16,0,14,0,9,0,16,0,2,0,5,15,0,16,0,0,6,14,13,8,9,0,0,5,0,0,6,14,0,0,12,6,0,0,0,0,0,0,0,9,0,11,0,13,15,0,0,0,0,3,0,0,0,11,0,0,0,0,0,0,0,0,0,0,0,0,0,0],"sum_hessian":[0.0,0.0,0.0,0.0,0.0,0.0,0.0,0.0,0.0,0.0,0.0,0.0,0.0,0.0,0.0,0.0,0.0,0.0,0.0,0.0,0.0,0.0,0.0,0.0,0.0,0.0,0.0,0.0,0.0,0.0,0.0,0.0,0.0,0.0,0.0,0.0,0.0,0.0,0.0,0.0,0.0,0.0,0.0,0.0,0.0,0.0,0.0,0.0,0.0,0.0,0.0,0.0,0.0,0.0,0.0,0.0,0.0,0.0,0.0,0.0,0.0,0.0,0.0,0.0,0.0,0.0,0.0,0.0,0.0,0.0,0.0,0.0,0.0,0.0,0.0,0.0,0.0,0.0,0.0,0.0,0.0,0.0,0.0,0.0,0.0,0.0,0.0,0.0,0.0,0.0,0.0,0.0,0.0,0.0,0.0,0.0,0.0,0.0,0.0,0.0,0.0,0.0,0.0,0.0,0.0,0.0,0.0,0.0,0.0,0.0,0.0,0.0,0.0,0.0,0.0,0.0,0.0],"tree_param":{"num_deleted":"0","num_feature":"18","num_nodes":"117","size_leaf_vector":"0"}},{"base_weights":[0.0,0.0,0.0,0.0,0.0,0.0,0.0,0.0,0.0,0.0,0.0,0.0,0.0,0.0,0.0,0.0,0.0,0.0,0.0,0.0,0.0,0.0,0.0,0.0,0.0,0.0,0.0,0.0,0.0,0.0,0.0,0.0,0.0,0.0,0.0,0.0,0.0,0.0,0.0,0.0,0.0,0.0,0.0,0.0,0.0,0.0,0.0,0.0,0.0,0.0,0.0,0.0,0.0,0.0,0.0,0.0,0.0,0.0,0.0,0.0,0.0,0.0,0.0,0.0,0.0,0.0,0.0,0.0,0.0,0.0,0.0,0.0,0.0,0.0,0.0,0.0,0.0,0.0,0.0,0.0,0.0,0.0,0.0,0.0,0.0,0.0,0.0,0.0,0.0,0.0,0.0,0.0,0.0,0.0,0.0,0.0,0.0,0.0,0.0,0.0,0.0,0.0,0.0,0.0,0.0,0.0,0.0,0.0,0.0,0.0,0.0,0.0,0.0,0.0,0.0,0.0,0.0,0.0,0.0,0.0,0.0,0.0,0.0,0.0,0.0,0.0,0.0,0.0,0.0,0.0,0.0,0.0,0.0,0.0,0.0,0.0,0.0,0.0,0.0,0.0,0.0,0.0,0.0,0.0,0.0,0.0,0.0,0.0,0.0,0.0,0.0,0.0,0.0,0.0,0.0,0.0,0.0,0.0,0.0],"categories":[],"categories_nodes":[],"categories_segments":[],"categories_sizes":[],"default_left":[false,false,false,false,false,false,false,false,false,false,false,false,false,false,false,false,false,false,false,false,false,false,false,false,false,false,false,false,false,false,false,false,false,false,false,false,false,false,false,false,false,false,false,false,false,false,false,false,false,false,false,false,false,false,false,false,false,false,false,false,false,false,false,false,false,false,false,false,false,false,false,false,false,false,false,false,false,false,false,false,false,false,false,false,false,false,false,false,false,false,false,false,false,false,false,false,false,false,false,false,false,false,false,false,false,false,false,false,false,false,false,false,false,false,false,false,false,false,false,false,false,false,false,false,false,false,false,false,false,false,false,false,false,false,false,false,false,false,false,false,false,false,false,false,false,false,false,false,false,false,false,false,false,false,false,false,false,false,false],"id":2,"left_children":[1,3,5,7,9,11,13,15,17,19,21,23,25,27,-1,29,-1,31,33,35,37,39,41,43,45,-1,47,-1,-1,-1,49,51,53,-1,55,57,-1,59,-1,-1,61,63,65,-1,67,69,71,73,75,77,79,-1,81,-1,-1,83,-1,-1,85,-1,87,89,91,-1,-1,93,-1,-1,95,97,99,-1,101,-1,103,105,107,-1,109,111,-1,-1,-1,113,115,-1,117,-1,119,-1,121,123,125,-1,-1,-1,-1,127,-1,129,131,-1,133,-1,135,-1,-1,-1,137,-1,-1,139,-1,-1,-1,141,-1,-1,-1,-1,-1,143,145,147,-1,-1,-1,-1,-1,-1,-1,149,-1,-1,-1,-1,-1,-1,151,-1,-1,153,-1,-1,-1,-1,-1,-1,-1,155,157,-1,-1,-1,-1,-1,-1,-1,-1],"loss_changes":[0.0,0.0,0.0,0.0,0.0,0.0,0.0,0.0,0.0,0.0,0.0,0.0,0.0,0.0,0.0,0.0,0.0,0.0,0.0,0.0,0.0,0.0,0.0,0.0,0.0,0.0,0.0,0.0,0.0,0.0,0.0,0.0,0.0,0.0,0.0,0.0,0.0,0.0,0.0,0.0,0.0,0.0,0.0,0.0,0.0,0.0,0.0,0.0,0.0,0.0,0.0,0.0,0.0,0.0,0.0,0.0,0.0,0.0,0.0,0.0,0.0,0.0,0.0,0.0,0.0,0.0,0.0,0.0,0.0,0.0,0.0,0.0,0.0,0.0,0.0,0.0,0.0,0.0,0.0,0.0,0.0,0.0,0.0,0.0,0.0,0.0,0.0,0.0,0.0,0.0,0.0,0.0,0.0,0.0,0.0,0.0,0.0,0.0,0.0,0.0,0.0,0.0,0.0,0.0,0.0,0.0,0.0,0.0,0.0,0.0,0.0,0.0,0.0,0.0,0.0,0.0,0.0,0.0,0.0,0.0,0.0,0.0,0.0,0.0,0.0,0.0,0.0,0.0,0.0,0.0,0.0,0.0,0.0,0.0,0.0,0.0,0.0,0.0,0.0,0.0,0.0,0.0,0.0,0.0,0.0,0.0,0.0,0.0,0.0,0.0,0.0,0.0,0.0,0.0,0.0,0.0,0.0,0.0,0.0],"parents":[2147483647,0,0,1,1,2,2,3,3,4,4,5,5,6,6,7,7,8,8,9,9,10,10,11,11,12,12,13,13,15,15,17,17,18,18,19,19,20,20,21,21,22,22,23,23,24,24,26,26,30,30,31,31,32,32,34,34,35,35,37,37,40,40,41,41,42,42,44,44,45,45,46,46,47,47,48,48,49,49,50,50,52,52,55,55,58,58,60,60,61,61,62,62,65,65,68,68,69,69,70,70,72,72,74,74,75,75,76,76,78,78,79,79,83,83,84,84,86,86,88,88,90,90,91,91,92,92,97,97,99,99,100,100,102,102,104,104,108,108,111,111,115,115,121,121,122,122,123,123,131,131,138,138,141,141,149,149,150,150],"right_children":[2,4,6,8,10,12,14,16,18,20,22,24,26,28,-1,30,-1,32,34,36,38,40,42,44,46,-1,48,-1,-1,-1,50,52,54,-1,56,58,-1,60,-1,-1,62,64,66,-1,68,70,72,74,76,78,80,-1,82,-1,-1,84,-1,-1,86,-1,88,90,92,-1,-1,94,-1,-1,96,98,100,-1,102,-1,104,106,108,-1,110,112,-1,-1,-1,114,116,-1,118,-1,120,-1,122,124,126,-1,-1,-1,-1,128,-1,130,132,-1,134,-1,136,-1,-1,-1,138,-1,-1,140,-1,-1,-1,142,-1,-1,-1,-1,-1,144,146,148,-1,-1,-1,-1,-1,-1,-1,150,-1,-1,-1,-1,-1,-1,152,-1,-1,154,-1,-1,-1,-1,-1,-1,-1,156,158,-1,-1,-1,-1,-1,-1,-1,-1],"split_conditions":[4.5863419914696575,5.068353239462187,9.587209697879949,5.839641300933312,-6.423338951968828,8.973229204372174,-1.951549566772492,6.026346563923955,2.6464702822822517,-0.48668117713532233,8.752077985042412,-7.637156029641109,-8.811075414473136,-1.4135022029138042,8.831500062000202,-9.346657500832647,9.033631185252737,-5.969713059051219,3.0328289577003087,-0.8191572332932928,9.301090796961173,9.497370634024648,-8.643295975884449,6.191532923869708,6.995752942400564,-0.2663091466072913,2.9160476097075296,6.410531340732277,0.6837690073158971,7.471088402599985,1.8110330494609492,1.7154869222213893,-9.15563875085461,-8.333945865285713,7.6773939155776745,-0.9309675536931792,-8.84054226219617,-0.7793140686509972,2.8273715955112877,8.692852257534188,8.933510156869755,6.945400750747677,-7.478795359966117,-2.1684320411138955,3.0850776136083002,-5.522987163120038,4.055974701676426,9.453793199124675,-6.913797170574261,3.5530813776079384,-0.8278550664731963,1.4020000836855484,1.1843962604706562,3.746177544867189,-8.137333574430155,6.546395800476311,2.35087553071234,4.322653813946641,-7.924939657800589,-7.658676804162816,4.429486349680831,-4.66667776897908,1.2564457188639029,-7.866833288066979,3.7416688656930077,6.137297690823473,4.4757686020785314,-8.179576443879728,5.471322862968343,-0.5375348446552941,1.137089174516177,8.256547790874237,-4.132071614574988,-6.830966063823771,5.026734594652126,7.263670588411614,-8.641465548275583,9.488652138392801,-2.21423503418408,4.800661916864604,9.461925909222401,-2.5354927960648386,7.1594331481647515,-1.6731279787220394,-2.134996750264545,-8.910867810704122,-7.067610407289253,1.388477532497273,-1.3011266189072117,5.879822924721093,7.2048184115377865,6.140638347261337,-1.2867634869446878,5.870572782446333,3.0791455234831684,0.02021349004639461,-9.366966750704616,-4.896090468883365,-3.1908780582734773,8.694474315056635,-9.352512309736998,9.472253656273232,6.485874293718936,4.634155565567067,-6.639141099063785,-0.6171054761143662,-5.878798537032081,-5.866049176544505,5.9930169266304105,-5.131117740931216,8.253685461309775,-0.3498087554100522,-7.447705930736545,-9.051669637001726,0.396569921231233,7.508456935294433,9.739756198772408,4.770992924842531,-9.435306189134272,-6.167165155323175,4.342433979569847,-5.863492247364191,-4.701994921318024,-8.440360630310725,6.327324034910411,9.263679216755332,2.855437420022408,-0.3481301181688945,-7.612002035306299,-3.5266753533248396,3.5298998745202965,3.498843755998289,-7.141731062545341,-2.7483634886912247,-6.127089813144899,6.5919953000892875,-3.7720232143245047,-6.028053279911157,7.53331479078555,7.074141996302576,0.7056522301814283,8.482332327206443,0.19300447686313227,-8.091211345437797,-5.265489239064157,0.8910058644425902,6.497121468887443,-0.48080961819211154,-9.927850383601655,5.823526121241622,-9.003932971692256,2.5431528497135893,-4.3709253832444075,-2.701061641097305,-1.1041523230438894,-9.80112252065296,-2.7454181549631897,4.449500450735503,-3.1771667167212767],"split_indices":[5,3,4,15,17,16,5,17,7,3,10,1,7,7,0,10,0,11,16,7,15,2,9,3,3,0,0,0,0,0,16,14,14,0,17,12,0,3,0,0,6,11,16,0,4,12,10,9,8,11,0,0,8,0,0,7,0,0,7,0,2,6,1,0,0,14,0,0,5,13,1,0,2,0,6,13,2,0,3,0,0,0,0,2,2,0,13,0,1,0,2,14,6,0,0,0,0,4,0,1,8,0,0,0,10,0,0,0,3,0,0,6,0,0,0,2,0,0,0,0,0,16,17,14,0,0,0,0,0,0,0,16,0,0,0,0,0,0,9,0,0,12,0,0,0,0,0,0,0,3,14,0,0,0,0,0,0,0,0],"sum_hessian":[0.0,0.0,0.0,0.0,0.0,0.0,0.0,0.0,0.0,0.0,0.0,0.0,0.0,0.0,0.0,0.0,0.0,0.0,0.0,0.0,0.0,0.0,0.0,0.0,0.0,0.0,0.0,0.0,0.0,0.0,0.0,0.0,0.0,0.0,0.0,0.0,0.0,0.0,0.0,0.0,0.0,0.0,0.0,0.0,0.0,0.0,0.0,0.0,0.0,0.0,0.0,0.0,0.0,0.0,0.0,0.0,0.0,0.0,0.0,0.0,0.0,0.0,0.0,0.0,0.0,0.0,0.0,0.0,0.0,0.0,0.0,0.0,0.0,0.0,0.0,0.0,0.0,0.0,0.0,0.0,0.0,0.0,0.0,0.0,0.0,0.0,0.0,0.0,0.0,0.0,0.0,0.0,0.0,0.0,0.0,0.0,0.0,0.0,0.0,0.0,0.0,0.0,0.0,0.0,0.0,0.0,0.0,0.0,0.0,0.0,0.0,0.0,0.0,0.0,0.0,0.0,0.0,0.0,0.0,0.0,0.0,0.0,0.0,0.0,0.0,0.0,0.0,0.0,0.0,0.0,0.0,0.0,0.0,0.0,0.0,0.0,0.0,0.0,0.0,0.0,0.0,0.0,0.0,0.0,0.0,0.0,0.0,0.0,0.0,0.0,0.0,0.0,0.0,0.0,0.0,0.0,0.0,0.0,0.0],"tree_param":{"num_deleted":"0","num_feature":"18","num_nodes":"159","size_leaf_vector":"0"}},{"base_weights":[0.0,0.0,0.0,0.0,0.0,0.0,0.0,0.0,0.0,0.0,0.0,0.0,0.0,0.0,0.0,0.0,0.0,0.0,0.0,0.0,0.0,0.0,0.0,0.0,0.0,0.0,0.0,0.0,0.0,0.0,0.0,0.0,0.0,0.0,0.0,0.0,0.0,0.0,0.0,0.0,0.0,0.0,0.0,0.0,0.0,0.0,0.0,0.0,0.0,0.0,0.0,0.0,0.0,0.0,0.0,0.0,0.0,0.0,0.0,0.0,0.0,0.0,0.0,0.0,0.0,0.0,0.0,0.0,0.0,0.0,0.0,0.0,0.0,0.0,0.0,0.0,0.0,0.0,0.0,0.0,0.0,0.0,0.0],"categories":[],"categories_nodes":[],"categories_segments":[],"categories_sizes":[],"default_left":[false,false,false,false,false,false,false,false,false,false,false,false,false,false,false,false,false,false,false,false,false,false,false,false,false,false,false,false,false,false,false,false,false,false,false,false,false,false,false,false,false,false,false,false,false,false,false,false,false,false,false,false,false,false,false,false,false,false,false,false,false,false,false,false,false,false,false,false,false,false,false,false,false,false,false,false,false,false,false,false,false,false,false],"id":3,"left_children":[1,3,5,-1,7,9,11,13,-1,15,-1,17,19,21,23,-1,25,-1,27,29,31,33,-1,-1,35,-1,-1,37,39,-1,-1,41,43,45,-1,-1,47,-1,-1,49,-1,51,53,55,-1,57,59,-1,-1,61,63,-1,65,67,-1,-1,-1,69,-1,-1,71,-1,-1,-1,-1,73,75,77,79,-1,81,-1,-1,-1,-1,-1,-1,-1,-1,-1,-1,-1,-1],"loss_changes":[0.0,0.0,0.0,0.0,0.0,0.0,0.0,0.0,0.0,0.0,0.0,0.0,0.0,0.0,0.0,0.0,0.0,0.0,0.0,0.0,0.0,0.0,0.0,0.0,0.0,0.0,0.0,0.0,0.0,0.0,0.0,0.0,0.0,0.0,0.0,0.0,0.0,0.0,0.0,0.0,0.0,0.0,0.0,0.0,0.0,0.0,0.0,0.0,0.0,0.0,0.0,0.0,0.0,0.0,0.0,0.0,0.0,0.0,0.0,0.0,0.0,0.0,0.0,0.0,0.0,0.0,0.0,0.0,0.0,0.0,0.0,0.0,0.0,0.0,0.0,0.0,0.0,0.0,0.0,0.0,0.0,0.0,0.0],"parents":[2147483647,0,0,1,1,2,2,4,4,5,5,6,6,7,7,9,9,11,11,12,12,13,13,14,14,16,16,18,18,19,19,20,20,21,21,24,24,27,27,28,28,31,31,32,32,33,33,36,36,39,39,41,41,42,42,43,43,45,45,46,46,49,49,50,50,52,52,53,53,57,57,60,60,65,65,66,66,67,67,68,68,70,70],"right_children":[2,4,6,-1,8,10,12,14,-1,16,-1,18,20,22,24,-1,26,-1,28,30,32,34,-1,-1,36,-1,-1,38,40,-1,-1,42,44,46,-1,-1,48,-1,-1,50,-1,52,54,56,-1,58,60,-1,-1,62,64,-1,66,68,-1,-1,-1,70,-1,-1,72,-1,-1,-1,-1,74,76,78,80,-1,82,-1,-1,-1,-1,-1,-1,-1,-1,-1,-1,-1,-1],"split_conditions":[8.849494770953225,-5.702664860623314,9.95030679424461,8.63554653544363,-1.775186177148294,1.177242085269599,-2.0335297771187566,-2.220609920489789,7.664650548619537,-7.258045256764797,6.907939502210407,-8.812614468650674,-9.836434536973742,-4.993272424875115,-9.220014092528807,-5.734891377336186,-3.8570902543426167,-8.319525146485706,-9.988963483765264,-0.5117836524736603,-1.168677656506313,-7.979254464169753,6.589727755725715,-3.313706578422032,0.8685153346031615,8.26960738067449,-6.554938460207316,4.615166931945369,-2.3123602712267166,8.222231000303658,-6.273964309704896,-5.338641597436431,-5.173709251547386,-2.924879547182978,-5.2842308935100215,5.935647350059622,3.407398757985751,-2.2811586405087194,3.8254698152182076,7.758608796216379,8.549858054625115,-8.6184591198616,-1.4951132333529777,-0.5804708878691329,6.250448382368209,7.291697557992713,-8.386967097701177,-5.533075831139841,3.9523773773705244,0.5642007488464014,-8.931474077541845,-8.3575460798024,-6.865420346682058,0.8895072328815878,-7.761452276484203,-2.446113740158731,6.708798800348621,7.962752147011372,-0.1228699919417302,6.086988390464889,4.892368636819544,-8.982239512735084,9.64976774367219,8.108967315125305,5.006458401066009,-5.289603993039122,-6.09753549894804,3.242807584316381,-6.509798763578038,7.673881829911174,4.527727458047252,-9.530908077130333,-4.02224752286563,-7.081357357310134,0.5650255350309763,6.697179084995867,-3.070392614688089,-9.727986096323132,-7.236151341595643,7.152147205854387,-6.9296009647271966,-3.2148157159230273,7.114582479704428],"split_indices":[9,8,0,0,7,13,11,16,0,3,0,5,9,4,0,0,3,0,1,7,5,9,0,0,8,0,0,13,14,0,0,9,11,17,0,0,13,0,0,12,0,6,7,12,0,12,3,0,0,13,13,0,11,3,0,0,0,8,0,0,0,0,0,0,0,5,14,1,14,0,0,0,0,0,0,0,0,0,0,0,0,0,0],"sum_hessian":[0.0,0.0,0.0,0.0,0.0,0.0,0.0,0.0,0.0,0.0,0.0,0.0,0.0,0.0,0.0,0.0,0.0,0.0,0.0,0.0,0.0,0.0,0.0,0.0,0.0,0.0,0.0,0.0,0.0,0.0,0.0,0.0,0.0,0.0,0.0,0.0,0.0,0.0,0.0,0.0,0.0,0.0,0.0,0.0,0.0,0.0,0.0,0.0,0.0,0.0,0.0,0.0,0.0,0.0,0.0,0.0,0.0,0.0,0.0,0.0,0.0,0.0,0.0,0.0,0.0,0.0,0.0,0.0,0.0,0.0,0.0,0.0,0.0,0.0,0.0,0.0,0.0,0.0,0.0,0.0,0.0,0.0,0.0],"tree_param":{"num_deleted":"0","num_feature":"18","num_nodes":"83","size_leaf_vector":"0"}}]},"name":"gbtree"},"learner_model_param":{"base_score":"5E-1","num_class":"0","num_feature":"18"},"objective":{"name":"reg:squarederror","reg_loss_param":{"scale_pos_weight":"1"}}},"version":[1,4,0]}