{"learner":{"attributes":{},"feature_types":["float","float","float","float","float","float","float","float","float","float","float","float","float","float","float","float","float","float"],"gradient_booster":{"model":{"gbtree_model_param":{"num_trees":"4","size_leaf_vector":"0"},"tree_info":[0,0,0,0],"trees":[{"base_weights":[0.0,0.0,0.0,0.0,0.0,0.0,0.0,0.0,0.0,0.0,0.0,0.0,0.0,0.0,0.0,0.0,0.0,0.0,0.0,0.0,0.0,0.0,0.0,0.0,0.0,0.0,0.0,0.0,0.0,0.0,0.0,0.0,0.0,0.0,0.0,0.0,0.0,0.0,0.0,0.0,0.0,0.0,0.0,0.0,0.0,0.0,0.0,0.0,0.0,0.0,0.0,0.0,0.0,0.0,0.0,0.0,0.0,0.0,0.0,0.0,0.0,0.0,0.0,0.0,0.0,0.0,0.0,0.0,0.0],"categories":[],"categories_nodes":[],"categories_segments":[],"categories_sizes":[],"default_left":[false,false,false,false,false,false,false,false,false,false,false,false,false,false,false,false,false,false,false,false,false,false,false,false,false,false,false,false,false,false,false,false,false,false,false,false,false,false,false,false,false,false,false,false,false,false,false,false,false,false,false,false,false,false,false,false,false,false,false,false,false,false,false,false,false,false,false,false,false],"id":0,"left_children":[1,3,5,7,9,11,13,-1,15,17,19,21,-1,23,25,27,-1,29,-1,31,33,-1,35,37,39,-1,41,-1,43,-1,45,-1,-1,-1,47,-1,-1,49,51,53,55,57,-1,-1,-1,-1,59,-1,-1,-1,-1,61,-1,-1,63,-1,-1,65,-1,-1,-1,-1,67,-1,-1,-1,-1,-1,-1],"loss_changes":[0.0,0.0,0.0,0.0,0.0,0.0,0.0,0.0,0.0,0.0,0.0,0.0,0.0,0.0,0.0,0.0,0.0,0.0,0.0,0.0,0.0,0.0,0.0,0.0,0.0,0.0,0.0,0.0,0.0,0.0,0.0,0.0,0.0,0.0,0.0,0.0,0.0,0.0,0.0,0.0,0.0,0.0,0.0,0.0,0.0,0.0,0.0,0.0,0.0,0.0,0.0,0.0,0.0,0.0,0.0,0.0,0.0,0.0,0.0,0.0,0.0,0.0,0.0,0.0,0.0,0.0,0.0,0.0,0.0],"parents":[2147483647,0,0,1,1,2,2,3,3,4,4,5,5,6,6,8,8,9,9,10,10,11,11,13,13,14,14,15,15,17,17,19,19,20,20,22,22,23,23,24,24,26,26,28,28,30,30,34,34,37,37,38,38,39,39,40,40,41,41,46,46,51,51,54,54,57,57,62,62],"right_children":[2,4,6,8,10,12,14,-1,16,18,20,22,-1,24,26,28,-1,30,-1,32,34,-1,36,38,40,-1,42,-1,44,-1,46,-1,-1,-1,48,-1,-1,50,52,54,56,58,-1,-1,-1,-1,60,-1,-1,-1,-1,62,-1,-1,64,-1,-1,66,-1,-1,-1,-1,68,-1,-1,-1,-1,-1,-1],"split_conditions":[1.048813601476473,-2.7521834455156764,8.076602471800804,-2.048330237890191,5.33332858038216,9.129591796270915,2.700483215052129,0.6164779478027977,-7.078159780803986,-9.04002628089603,3.978939960235266,-8.965201653606428,-4.991106428803942,1.471237905427916,-0.07763025976706572,-2.811617751560874,-6.7164801693830025,1.245783884722231,9.863726962213594,2.1994577355956206,5.050950442629157,6.434651968732329,-2.8400258513995773,-4.542948183007836,-1.059045139210653,-3.514514182583767,-4.636570464758673,3.9126097084239593,6.109499913013401,-4.746309003419222,-2.8014954841412685,6.899481957387646,2.3775926228732516,2.6451952049766945,4.511485142616404,1.187678958588453,6.635976109559934,2.2566554836431365,-8.027893643733831,6.060668500145155,2.647343888035037,7.393594524302024,-3.213115073798636,-9.912258862541888,-7.128584488068013,9.552063320252746,-9.792547928381644,-7.126190418292406,3.8167098717779187,1.3163652815886184,-3.6581128823676234,6.2433967358103395,2.9596911030562527,6.89181605922062,1.7657851882843012,1.0330933811626686,-5.753016111732116,-3.1388364849080155,-9.282298219506664,2.322317787590764,-6.186183759827453,5.026908957904466,3.225015299778578,-7.250034648823231,0.45671725273878927,-3.4156700552956476,1.3905988278335446,1.2689116809918453,-3.5994073881303192],"split_indices":[15,12,4,15,16,7,2,0,6,8,13,0,0,8,7,11,0,2,0,10,5,0,16,17,16,0,17,0,16,0,5,0,0,0,13,0,0,13,3,11,3,5,0,0,0,0,0,0,0,0,0,0,0,0,10,0,0,17,0,0,0,0,15,0,0,0,0,0,0],"sum_hessian":[0.0,0.0,0.0,0.0,0.0,0.0,0.0,0.0,0.0,0.0,0.0,0.0,0.0,0.0,0.0,0.0,0.0,0.0,0.0,0.0,0.0,0.0,0.0,0.0,0.0,0.0,0.0,0.0,0.0,0.0,0.0,0.0,0.0,0.0,0.0,0.0,0.0,0.0,0.0,0.0,0.0,0.0,0.0,0.0,0.0,0.0,0.0,0.0,0.0,0.0,0.0,0.0,0.0,0.0,0.0,0.0,0.0,0.0,0.0,0.0,0.0,0.0,0.0,0.0,0.0,0.0,0.0,0.0,0.0],"tree_param":{"num_deleted":"0","num_feature":"18","num_nodes":"69","size_leaf_vector":"0"}},{"base_weights":[0.0,0.0,0.0,0.0,0.0,0.0,0.0,0.0,0.0,0.0,0.0,0.0,0.0,0.0,0.0,0.0,0.0,0.0,0.0,0.0,0.0,0.0,0.0,0.0,0.0,0.0,0.0,0.0,0.0,0.0,0.0,0.0,0.0,0.0,0.0,0.0,0.0,0.0,0.0,0.0,0.0,0.0,0.0,0.0,0.0,0.0,0.0,0.0,0.0,0.0,0.0,0.0,0.0,0.0,0.0,0.0,0.0,0.0,0.0,0.0,0.0,0.0,0.0,0.0,0.0,0.0,0.0,0.0,0.0,0.0,0.0,0.0,0.0,0.0,0.0,0.0,0.0,0.0,0.0,0.0,0.0,0.0,0.0,0.0,0.0,0.0,0.0],"categories":[],"categories_nodes":[],"categories_segments":[],"categories_sizes":[],"default_left":[false,false,false,false,false,false,false,false,false,false,false,false,false,false,false,false,false,false,false,false,false,false,false,false,false,false,false,false,false,false,false,false,false,false,false,false,false,false,false,false,false,false,false,false,false,false,false,false,false,false,false,false,false,false,false,false,false,false,false,false,false,false,false,false,false,false,false,false,false,false,false,false,false,false,false,false,false,false,false,false,false,false,false,false,false,false,false],"id":1,"left_children":[1,3,5,7,9,11,13,15,17,19,21,-1,-1,23,25,27,-1,29,-1,-1,-1,-1,31,33,35,37,39,-1,41,-1,-1,-1,43,45,-1,47,-1,-1,-1,49,-1,51,53,-1,55,-1,57,59,-1,-1,-1,-1,61,-1,-1,63,65,-1,67,69,71,-1,-1,73,-1,-1,-1,-1,75,-1,77,79,81,-1,-1,83,-1,85,-1,-1,-1,-1,-1,-1,-1,-1,-1],"loss_changes":[0.0,0.0,0.0,0.0,0.0,0.0,0.0,0.0,0.0,0.0,0.0,0.0,0.0,0.0,0.0,0.0,0.0,0.0,0.0,0.0,0.0,0.0,0.0,0.0,0.0,0.0,0.0,0.0,0.0,0.0,0.0,0.0,0.0,0.0,0.0,0.0,0.0,0.0,0.0,0.0,0.0,0.0,0.0,0.0,0.0,0.0,0.0,0.0,0.0,0.0,0.0,0.0,0.0,0.0,0.0,0.0,0.0,0.0,0.0,0.0,0.0,0.0,0.0,0.0,0.0,0.0,0.0,0.0,0.0,0.0,0.0,0.0,0.0,0.0,0.0,0.0,0.0,0.0,0.0,0.0,0.0,0.0,0.0,0.0,0.0,0.0,0.0],"parents":[2147483647,0,0,1,1,2,2,3,3,4,4,5,5,6,6,7,7,8,8,9,9,10,10,13,13,14,14,15,15,17,17,22,22,23,23,24,24,25,25,26,26,28,28,32,32,33,33,35,35,39,39,41,41,42,42,44,44,46,46,47,47,52,52,55,55,56,56,58,58,59,59,60,60,63,63,68,68,70,70,71,71,72,72,75,75,77,77],"right_children":[2,4,6,8,10,12,14,16,18,20,22,-1,-1,24,26,28,-1,30,-1,-1,-1,-1,32,34,36,38,40,-1,42,-1,-1,-1,44,46,-1,48,-1,-1,-1,50,-1,52,54,-1,56,-1,58,60,-1,-1,-1,-1,62,-1,-1,64,66,-1,68,70,72,-1,-1,74,-1,-1,-1,-1,76,-1,78,80,82,-1,-1,84,-1,86,-1,-1,-1,-1,-1,-1,-1,-1,-1],"split_conditions":[-6.018916016214305,5.688270965790775,-3.3907963009662287,-4.220902880691266,-2.4937720732417565,-8.525562210954044,1.6211698986410426,8.987601758411575,0.22046370656244996,5.061742833588859,-0.2769560909987856,7.467841241764869,-0.5296859312641384,-2.4298888765442683,-5.13443521883047,-8.568237875241545,-8.719519021731726,-8.472762824337568,3.9984950450380836,5.172074243455603,-7.050017807251466,-6.490836049766765,-6.467191314888751,-9.66204963260068,-6.774700381368113,-5.61576464932948,9.78148694142654,-7.947194049101471,2.4446864777177773,6.103919691335051,-2.0057011561144824,-1.0648602723811678,-7.945853352762815,-5.365141713681072,-7.070651574799124,-8.310622136402728,-2.9414165447794627,7.844903388099681,-4.574199453427125,9.65684357824928,-6.579795320279102,2.9924163382237428,1.6851823393259746,6.679106795247524,4.78003253543001,2.272825368185112,-5.621017013689784,8.429398967999347,-1.4062038860204105,-0.7324553699886422,7.3616610493420005,9.522156785401592,2.251177486159426,-8.386200578996007,3.5883304694546183,-2.602608445311148,-2.213627760185153,4.684618794447548,-0.9558357969300246,0.3675343530486508,1.4028918875911565,-4.662173669385023,0.018209383183185324,0.2398505255178982,-2.6453158517893103,4.753556141992192,3.6456515511127243,-0.19577011257015897,-4.848769499949518,-6.257658234152106,-8.925716912009905,-6.231186787374309,5.862853733113729,-2.682549459829774,3.214598173488783,5.321571896687246,4.025825993582838,-9.980517910779396,6.1807238842443475,-2.744563331062241,9.495283742267482,2.9596788185001657,-1.4161449500629644,4.9703763537777785,8.07168233409866,1.3672173427981011,-5.310223692826891],"split_indices":[10,15,2,17,15,3,0,0,5,15,7,0,0,14,17,2,0,6,0,0,0,0,1,15,11,10,16,0,10,0,0,0,6,17,0,13,0,0,0,17,0,7,0,0,7,0,15,5,0,0,0,0,0,0,0,2,13,0,8,1,15,0,0,8,0,0,0,0,5,0,14,4,6,0,0,9,0,3,0,0,0,0,0,0,0,0,0],"sum_hessian":[0.0,0.0,0.0,0.0,0.0,0.0,0.0,0.0,0.0,0.0,0.0,0.0,0.0,0.0,0.0,0.0,0.0,0.0,0.0,0.0,0.0,0.0,0.0,0.0,0.0,0.0,0.0,0.0,0.0,0.0,0.0,0.0,0.0,0.0,0.0,0.0,0.0,0.0,0.0,0.0,0.0,0.0,0.0,0.0,0.0,0.0,0.0,0.0,0.0,0.0,0.0,0.0,0.0,0.0,0.0,0.0,0.0,0.0,0.0,0.0,0.0,0.0,0.0,0.0,0.0,0.0,0.0,0.0,0.0,0.0,0.0,0.0,0.0,0.0,0.0,0.0,0.0,0.0,0.0,0.0,0.0,0.0,0.0,0.0,0.0,0.0,0.0],"tree_param":{"num_deleted":"0","num_feature":"18","num_nodes":"87","size_leaf_vector":"0"}},{"base_weights":[0.0,0.0,0.0,0.0,0.0,0.0,0.0,0.0,0.0,0.0,0.0,0.0,0.0,0.0,0.0,0.0,0.0,0.0,0.0,0.0,0.0,0.0,0.0,0.0,0.0,0.0,0.0,0.0,0.0,0.0,0.0,0.0,0.0,0.0,0.0,0.0,0.0,0.0,0.0,0.0,0.0,0.0,0.0,0.0,0.0,0.0,0.0,0.0,0.0,0.0,0.0,0.0,0.0,0.0,0.0,0.0,0.0,0.0,0.0,0.0,0.0,0.0,0.0],"categories":[],"categories_nodes":[],"categories_segments":[],"categories_sizes":[],"default_left":[false,false,false,false,false,false,false,false,false,false,false,false,false,false,false,false,false,false,false,false,false,false,false,false,false,false,false,false,false,false,false,false,false,false,false,false,false,false,false,false,false,false,false,false,false,false,false,false,false,false,false,false,false,false,false,false,false,false,false,false,false,false,false],"id":2,"left_children":[1,3,5,-1,7,9,11,13,15,17,19,21,-1,-1,-1,23,-1,25,-1,27,29,31,-1,33,35,-1,37,-1,-1,-1,39,41,43,-1,-1,45,47,-1,-1,-1,-1,49,-1,51,-1,-1,53,-1,-1,-1,-1,-1,55,57,-1,-1,59,-1,61,-1,-1,-1,-1],"loss_changes":[0.0,0.0,0.0,0.0,0.0,0.0,0.0,0.0,0.0,0.0,0.0,0.0,0.0,0.0,0.0,0.0,0.0,0.0,0.0,0.0,0.0,0.0,0.0,0.0,0.0,0.0,0.0,0.0,0.0,0.0,0.0,0.0,0.0,0.0,0.0,0.0,0.0,0.0,0.0,0.0,0.0,0.0,0.0,0.0,0.0,0.0,0.0,0.0,0.0,0.0,0.0,0.0,0.0,0.0,0.0,0.0,0.0,0.0,0.0,0.0,0.0,0.0,0.0],"parents":[2147483647,0,0,1,1,2,2,4,4,5,5,6,6,7,7,8,8,9,9,10,10,11,11,15,15,17,17,19,19,20,20,21,21,23,23,24,24,26,26,30,30,31,31,32,32,35,35,36,36,41,41,43,43,46,46,52,52,53,53,56,56,58,58],"right_children":[2,4,6,-1,8,10,12,14,16,18,20,22,-1,-1,-1,24,-1,26,-1,28,30,32,-1,34,36,-1,38,-1,-1,-1,40,42,44,-1,-1,46,48,-1,-1,-1,-1,50,-1,52,-1,-1,54,-1,-1,-1,-1,-1,56,58,-1,-1,60,-1,62,-1,-1,-1,-1],"split_conditions":[-0.28202173865898317,-1.2577571523895887,-6.538674824669002,2.5060321169637785,0.9223907197760397,-0.17769954340031724,-3.981916459767194,9.51208128641424,8.275517732418848,8.993154878313568,4.174351227005051,-9.13063385939154,7.339035651873765,9.028903384056438,6.616447475867723,7.111439114868659,9.144293598665168,8.145058226403904,3.9493104145548923,0.1483248135806452,5.925023265861864,8.782753673400304,2.0652416127265294,-0.33948988565679805,-9.234450947363802,6.984405147297771,-3.400415882869976,-3.3140232323274352,9.021018133960343,7.5303802613940185,-1.3070720450071889,7.140858293698923,1.6840129517703097,-8.754666746711095,-2.972065903824241,2.458188943142032,0.030822952260516345,8.177958252000249,7.329918267586592,2.5784289057537517,8.622369342866442,-8.120819512271776,9.040220173457971,1.4849738932752299,4.767757244280624,-8.595417140711259,7.149125040118939,4.9786347990223145,2.30643857242055,5.129681049046011,5.062606168114613,-2.423858827146951,3.052045178224814,6.6879128559568635,5.37071211736853,-8.755585613595542,8.356157230989684,7.027914963676885,-5.342932275823605,-5.317586479401691,1.5341353864771197,9.668513237379877,-5.305379625271126],"split_indices":[3,14,9,0,6,9,7,9,17,9,16,0,0,0,0,0,0,9,0,14,2,14,0,17,1,0,5,0,0,0,13,0,7,0,0,7,9,0,0,0,0,16,0,8,0,0,2,0,0,0,0,0,5,14,0,0,2,0,3,0,0,0,0],"sum_hessian":[0.0,0.0,0.0,0.0,0.0,0.0,0.0,0.0,0.0,0.0,0.0,0.0,0.0,0.0,0.0,0.0,0.0,0.0,0.0,0.0,0.0,0.0,0.0,0.0,0.0,0.0,0.0,0.0,0.0,0.0,0.0,0.0,0.0,0.0,0.0,0.0,0.0,0.0,0.0,0.0,0.0,0.0,0.0,0.0,0.0,0.0,0.0,0.0,0.0,0.0,0.0,0.0,0.0,0.0,0.0,0.0,0.0,0.0,0.0,0.0,0.0,0.0,0.0],"tree_param":{"num_deleted":"0","num_feature":"18","num_nodes":"63","size_leaf_vector":"0"}},{"base_weights":[0.0,0.0,0.0,0.0,0.0,0.0,0.0,0.0,0.0,0.0,0.0,0.0,0.0,0.0,0.0,0.0,0.0,0.0,0.0,0.0,0.0,0.0,0.0,0.0,0.0,0.0,0.0,0.0,0.0,0.0,0.0,0.0,0.0,0.0,0.0,0.0,0.0,0.0,0.0,0.0,0.0,0.0,0.0,0.0,0.0,0.0,0.0,0.0,0.0,0.0,0.0,0.0,0.0,0.0,0.0,0.0,0.0,0.0,0.0,0.0,0.0,0.0,0.0,0.0,0.0,0.0,0.0],"categories":[],"categories_nodes":[],"categories_segments":[],"categories_sizes":[],"default_left":[false,false,false,false,false,false,false,false,false,false,false,false,false,false,false,false,false,false,false,false,false,false,false,false,false,false,false,false,false,false,false,false,false,false,false,false,false,false,false,false,false,false,false,false,false,false,false,false,false,false,false,false,false,false,false,false,false,false,false,false,false,false,false,false,false,false,false],"id":3,"left_children":[1,3,5,7,-1,9,11,13,15,17,-1,19,-1,21,23,25,27,-1,29,31,-1,-1,33,-1,35,37,-1,39,41,-1,-1,43,45,-1,-1,47,-1,-1,-1,49,-1,51,-1,-1,53,55,57,-1,-1,-1,59,-1,-1,-1,-1,61,-1,63,-1,-1,65,-1,-1,-1,-1,-1,-1],"loss_changes":[0.0,0.0,0.0,0.0,0.0,0.0,0.0,0.0,0.0,0.0,0.0,0.0,0.0,0.0,0.0,0.0,0.0,0.0,0.0,0.0,0.0,0.0,0.0,0.0,0.0,0.0,0.0,0.0,0.0,0.0,0.0,0.0,0.0,0.0,0.0,0.0,0.0,0.0,0.0,0.0,0.0,0.0,0.0,0.0,0.0,0.0,0.0,0.0,0.0,0.0,0.0,0.0,0.0,0.0,0.0,0.0,0.0,0.0,0.0,0.0,0.0,0.0,0.0,0.0,0.0,0.0,0.0],"parents":[2147483647,0,0,1,1,2,2,3,3,5,5,6,6,7,7,8,8,9,9,11,11,13,13,14,14,15,15,16,16,18,18,19,19,22,22,24,24,25,25,27,27,28,28,31,31,32,32,35,35,39,39,41,41,44,44,45,45,46,46,50,50,55,55,57,57,60,60],"right_children":[2,4,6,8,-1,10,12,14,16,18,-1,20,-1,22,24,26,28,-1,30,32,-1,-1,34,-1,36,38,-1,40,42,-1,-1,44,46,-1,-1,48,-1,-1,-1,50,-1,52,-1,-1,54,56,58,-1,-1,-1,60,-1,-1,-1,-1,62,-1,64,-1,-1,66,-1,-1,-1,-1,-1,-1],"split_conditions":[8.073518819959425,8.049304306292214,-2.7547945701012297,-1.2233283418285925,-7.535511303822707,-3.959349579518154,1.0849434310690782,-4.718952520896641,-3.309633493803715,-1.2840712962070668,-1.6653122994009912,-5.605967268278683,-7.304679906729754,7.817148133134506,-4.683123609057756,-4.899721988686537,0.3146433972506557,7.923464153811469,5.152892089683565,2.129306736773094,5.191541592958561,-0.22799757299914525,1.4363096003633267,-9.530788285545896,9.233917617583913,1.5548563127512072,-2.6909216616112968,-3.8592521647183258,9.319168542194959,9.646572657529894,5.842456708529905,9.868678528606104,5.179005339112372,-3.6940858799528185,8.428011409891603,8.171308818950472,-8.404870082375396,-2.2087761635076584,-6.957570562611124,4.271735517424505,-3.2452366341921604,8.139646930646101,3.849213824568933,-7.6732585512692655,-8.892391892204682,-7.399912098276203,-8.177191397986359,3.0907124846539773,-8.964073097769129,-1.558179178791594,-2.679107405896576,-5.291049401109499,-6.595261977825601,8.564163913061048,-7.805611758383747,-5.812441001659142,6.3318086354270555,-1.981800488221694,1.22775746731541,-7.540191339016751,-6.313281899396017,1.3525111766268623,3.468763410452576,5.783204779182194,9.558470124995122,6.022144372140737,7.233776729018054],"split_indices":[15,1,10,1,0,9,17,6,1,16,0,0,0,0,1,13,17,0,11,11,0,0,2,0,11,15,0,5,15,0,0,12,17,0,0,5,0,0,0,4,0,10,0,0,11,13,7,0,0,0,4,0,0,0,0,10,0,13,0,0,11,0,0,0,0,0,0],"sum_hessian":[0.0,0.0,0.0,0.0,0.0,0.0,0.0,0.0,0.0,0.0,0.0,0.0,0.0,0.0,0.0,0.0,0.0,0.0,0.0,0.0,0.0,0.0,0.0,0.0,0.0,0.0,0.0,0.0,0.0,0.0,0.0,0.0,0.0,0.0,0.0,0.0,0.0,0.0,0.0,0.0,0.0,0.0,0.0,0.0,0.0,0.0,0.0,0.0,0.0,0.0,0.0,0.0,0.0,0.0,0.0,0.0,0.0,0.0,0.0,0.0,0.0,0.0,0.0,0.0,0.0,0.0,0.0],"tree_param":{"num_deleted":"0","num_feature":"18","num_nodes":"67","size_leaf_vector":"0"}}]},"name":"gbtree"},"learner_model_param":{"base_score":"5E-1","num_class":"0","num_feature":"18"},"objective":{"name":"reg:squarederror","reg_loss_param":{"scale_pos_weight":"1"}}},"version":[1,4,0]}