{"learner":{"attributes":{},"feature_types":["float","float","float","float","float","float"],"gradient_booster":{"model":{"gbtree_model_param":{"num_trees":"4","size_leaf_vector":"0"},"tree_info":[0,0,0,0],"trees":[{"base_weights":[0.0,0.0,0.0,0.0,0.0,0.0,0.0,0.0,0.0,0.0,0.0,0.0,0.0,0.0,0.0,0.0,0.0,0.0,0.0,0.0,0.0,0.0,0.0,0.0,0.0,0.0,0.0,0.0,0.0,0.0,0.0,0.0,0.0,0.0,0.0,0.0,0.0,0.0,0.0,0.0,0.0,0.0,0.0,0.0,0.0,0.0,0.0,0.0,0.0,0.0,0.0,0.0,0.0,0.0,0.0,0.0,0.0,0.0,0.0,0.0,0.0,0.0,0.0,0.0,0.0,0.0,0.0,0.0,0.0,0.0,0.0,0.0,0.0,0.0,0.0,0.0,0.0],"categories":[],"categories_nodes":[],"categories_segments":[],"categories_sizes":[],"default_left":[false,false,false,false,false,false,false,false,false,false,false,false,false,false,false,false,false,false,false,false,false,false,false,false,false,false,false,false,false,false,false,false,false,false,false,false,false,false,false,false,false,false,false,false,false,false,false,false,false,false,false,false,false,false,false,false,false,false,false,false,false,false,false,false,false,false,false,false,false,false,false,false,false,false,false,false,false],"id":0,"left_children":[1,3,5,-1,7,9,11,13,15,17,19,21,-1,23,-1,25,-1,27,29,-1,31,-1,33,-1,35,-1,37,39,41,43,-1,45,47,-1,49,-1,51,53,-1,55,-1,-1,-1,-1,-1,-1,-1,-1,-1,-1,-1,57,-1,59,61,-1,-1,63,65,67,-1,69,-1,71,-1,73,-1,75,-1,-1,-1,-1,-1,-1,-1,-1,-1],"loss_changes":[0.0,0.0,0.0,0.0,0.0,0.0,0.0,0.0,0.0,0.0,0.0,0.0,0.0,0.0,0.0,0.0,0.0,0.0,0.0,0.0,0.0,0.0,0.0,0.0,0.0,0.0,0.0,0.0,0.0,0.0,0.0,0.0,0.0,0.0,0.0,0.0,0.0,0.0,0.0,0.0,0.0,0.0,0.0,0.0,0.0,0.0,0.0,0.0,0.0,0.0,0.0,0.0,0.0,0.0,0.0,0.0,0.0,0.0,0.0,0.0,0.0,0.0,0.0,0.0,0.0,0.0,0.0,0.0,0.0,0.0,0.0,0.0,0.0,0.0,0.0,0.0,0.0],"parents":[2147483647,0,0,1,1,2,2,4,4,5,5,6,6,7,7,8,8,9,9,10,10,11,11,13,13,15,15,17,17,18,18,20,20,22,22,24,24,26,26,27,27,28,28,29,29,31,31,32,32,34,34,36,36,37,37,39,39,51,51,53,53,54,54,57,57,58,58,59,59,61,61,63,63,65,65,67,67],"right_children":[2,4,6,-1,8,10,12,14,16,18,20,22,-1,24,-1,26,-1,28,30,-1,32,-1,34,-1,36,-1,38,40,42,44,-1,46,48,-1,50,-1,52,54,-1,56,-1,-1,-1,-1,-1,-1,-1,-1,-1,-1,-1,58,-1,60,62,-1,-1,64,66,68,-1,70,-1,72,-1,74,-1,76,-1,-1,-1,-1,-1,-1,-1,-1,-1],"split_conditions":[4.980620967126788,9.262920339619885,-5.9775741341121975,-9.720103233441487,-8.10725736836253,5.819273730286586,8.002509206124195,2.2915587531637307,3.3715400694880096,8.837911479950023,6.726882928705457,-2.1804785611536257,9.25535568547932,-9.87734872932098,-9.464707516719564,-6.816202225341362,6.029644392693857,-5.581674853020203,-9.031758931936448,0.27944303687201355,-6.87360231761188,-1.3624007198870665,-1.0705597151281836,-2.760575327841072,-6.05536799613202,2.715501643502309,-0.8530482691493511,-2.6615573503063636,6.01426108216706,1.6060581288081544,9.683543972522578,-4.991171650322236,0.8788757865840537,-0.7577833744908204,-9.996247247036468,9.392411178386162,-8.64380604450201,1.346762267071382,-7.647431899779903,-6.804666779968972,6.754392650602462,-3.446448516695513,-8.90690805724729,6.8956385445383575,-5.712978723455261,9.820754920639342,-2.8312071886410495,9.028366603072076,-5.341245292008553,-3.641899740721634,7.609149063584496,-9.188216315780956,4.90012310970868,6.896278158379761,-1.1394135522131936,6.001316853591611,8.377056258029349,-6.307482877593101,-6.013027984661576,-5.3623185049923086,-4.244505812545354,-8.599278053002088,-9.555960244973727,-1.3227612854381317,-0.9805287270502312,7.203260984713445,-4.659021971420222,0.956330665048327,-3.6306338834820275,5.635894171561866,-4.849952342446938,-8.245855734495096,9.884889458945448,4.611828531631108,-6.4093217533611995,6.9107047646761295,-1.8948701856566412],"split_indices":[3,4,0,0,2,4,1,3,0,0,5,0,0,4,0,2,0,0,2,0,1,0,0,0,0,0,1,3,3,0,0,3,2,0,5,0,5,0,0,4,0,0,0,0,0,0,0,0,0,0,0,5,0,1,3,0,0,0,5,5,0,2,0,2,0,2,0,5,0,0,0,0,0,0,0,0,0],"sum_hessian":[0.0,0.0,0.0,0.0,0.0,0.0,0.0,0.0,0.0,0.0,0.0,0.0,0.0,0.0,0.0,0.0,0.0,0.0,0.0,0.0,0.0,0.0,0.0,0.0,0.0,0.0,0.0,0.0,0.0,0.0,0.0,0.0,0.0,0.0,0.0,0.0,0.0,0.0,0.0,0.0,0.0,0.0,0.0,0.0,0.0,0.0,0.0,0.0,0.0,0.0,0.0,0.0,0.0,0.0,0.0,0.0,0.0,0.0,0.0,0.0,0.0,0.0,0.0,0.0,0.0,0.0,0.0,0.0,0.0,0.0,0.0,0.0,0.0,0.0,0.0,0.0,0.0],"tree_param":{"num_deleted":"0","num_feature":"6","num_nodes":"77","size_leaf_vector":"0"}},{"base_weights":[0.0,0.0,0.0,0.0,0.0,0.0,0.0,0.0,0.0,0.0,0.0,0.0,0.0,0.0,0.0,0.0,0.0,0.0,0.0,0.0,0.0,0.0,0.0,0.0,0.0,0.0,0.0,0.0,0.0,0.0,0.0,0.0,0.0,0.0,0.0,0.0,0.0,0.0,0.0,0.0,0.0,0.0,0.0,0.0,0.0,0.0,0.0,0.0,0.0,0.0,0.0,0.0,0.0,0.0,0.0,0.0,0.0,0.0,0.0,0.0,0.0,0.0,0.0,0.0,0.0,0.0,0.0,0.0,0.0,0.0,0.0,0.0,0.0,0.0,0.0,0.0,0.0,0.0,0.0,0.0,0.0,0.0,0.0,0.0,0.0,0.0,0.0,0.0,0.0,0.0,0.0,0.0,0.0,0.0,0.0,0.0,0.0,0.0,0.0,0.0,0.0,0.0,0.0,0.0,0.0,0.0,0.0,0.0,0.0],"categories":[],"categories_nodes":[],"categories_segments":[],"categories_sizes":[],"default_left":[false,false,false,false,false,false,false,false,false,false,false,false,false,false,false,false,false,false,false,false,false,false,false,false,false,false,false,false,false,false,false,false,false,false,false,false,false,false,false,false,false,false,false,false,false,false,false,false,false,false,false,false,false,false,false,false,false,false,false,false,false,false,false,false,false,false,false,false,false,false,false,false,false,false,false,false,false,false,false,false,false,false,false,false,false,false,false,false,false,false,false,false,false,false,false,false,false,false,false,false,false,false,false,false,false,false,false,false,false],"id":1,"left_children":[1,3,5,7,9,11,13,-1,15,17,19,21,23,25,-1,27,-1,-1,29,31,33,35,37,39,-1,41,43,-1,-1,45,47,-1,49,51,-1,53,55,-1,57,59,61,63,-1,-1,-1,65,67,-1,69,-1,-1,-1,71,-1,-1,73,75,77,-1,-1,79,81,-1,83,-1,-1,-1,-1,85,87,-1,-1,89,-1,-1,91,-1,-1,-1,-1,-1,93,-1,-1,95,97,-1,-1,99,-1,-1,101,-1,103,-1,-1,-1,-1,105,-1,107,-1,-1,-1,-1,-1,-1,-1,-1],"loss_changes":[0.0,0.0,0.0,0.0,0.0,0.0,0.0,0.0,0.0,0.0,0.0,0.0,0.0,0.0,0.0,0.0,0.0,0.0,0.0,0.0,0.0,0.0,0.0,0.0,0.0,0.0,0.0,0.0,0.0,0.0,0.0,0.0,0.0,0.0,0.0,0.0,0.0,0.0,0.0,0.0,0.0,0.0,0.0,0.0,0.0,0.0,0.0,0.0,0.0,0.0,0.0,0.0,0.0,0.0,0.0,0.0,0.0,0.0,0.0,0.0,0.0,0.0,0.0,0.0,0.0,0.0,0.0,0.0,0.0,0.0,0.0,0.0,0.0,0.0,0.0,0.0,0.0,0.0,0.0,0.0,0.0,0.0,0.0,0.0,0.0,0.0,0.0,0.0,0.0,0.0,0.0,0.0,0.0,0.0,0.0,0.0,0.0,0.0,0.0,0.0,0.0,0.0,0.0,0.0,0.0,0.0,0.0,0.0,0.0],"parents":[2147483647,0,0,1,1,2,2,3,3,4,4,5,5,6,6,8,8,9,9,10,10,11,11,12,12,13,13,15,15,18,18,19,19,20,20,21,21,22,22,23,23,25,25,26,26,29,29,30,30,32,32,33,33,35,35,36,36,38,38,39,39,40,40,41,41,45,45,46,46,48,48,52,52,55,55,56,56,57,57,60,60,61,61,63,63,68,68,69,69,72,72,75,75,81,81,84,84,85,85,88,88,91,91,93,93,98,98,100,100],"right_children":[2,4,6,8,10,12,14,-1,16,18,20,22,24,26,-1,28,-1,-1,30,32,34,36,38,40,-1,42,44,-1,-1,46,48,-1,50,52,-1,54,56,-1,58,60,62,64,-1,-1,-1,66,68,-1,70,-1,-1,-1,72,-1,-1,74,76,78,-1,-1,80,82,-1,84,-1,-1,-1,-1,86,88,-1,-1,90,-1,-1,92,-1,-1,-1,-1,-1,94,-1,-1,96,98,-1,-1,100,-1,-1,102,-1,104,-1,-1,-1,-1,106,-1,108,-1,-1,-1,-1,-1,-1,-1,-1],"split_conditions":[-0.5820599084478495,-5.1820099027103135,-1.3337999760526902,1.0576006925012145,4.113351673382921,6.062665723927154,-8.088289843092898,1.6038238115092405,1.2196783232878161,-0.16265965368587842,4.171720588221355,7.833199782939463,-2.266847197633714,-0.3819365941514068,-9.474912565106901,9.374547329746342,-0.2027032844028671,-3.9700663373479195,-2.8807181992135913,-0.9790195086350284,9.476688176795982,-2.0811980077343257,5.508652129652132,6.2837798551275945,0.023048717018108178,8.381497359218827,2.4125673952498374,7.406019510011092,-6.11709403939237,8.911669915401841,-9.20678491980834,-3.2700846297639954,-8.563383872522522,8.350838264110358,1.9237214031905374,9.612139888723256,9.249309471115868,-8.97629638263593,3.935191459019414,-5.253441569515457,5.866833612993963,-2.0287462939105225,8.725608868871038,5.234315294388425,6.732989421285978,-1.2248944118175142,-2.6098527981193644,4.997365694639731,2.2168201788774375,4.205339149487697,-5.4847584738377355,-9.466600317521987,6.556512414168132,8.899632061569207,-7.0530055402804805,3.6788971219171884,-9.721308828843092,6.872098160352898,3.489592568056567,-3.669687678214614,-5.821682024628436,-4.046640304538148,-8.452368013986536,0.5309348893274173,-6.765252004378032,9.286057658589751,-9.822133962854062,-3.2718086230977192,3.6538384886798703,7.167259776702291,-6.310228826989766,-0.03225289743247117,-5.479815798777485,-0.748678202429252,-8.282158880517898,4.087897862284329,1.557561308217963,-7.011531568911802,-5.704326524866951,2.851671518706784,7.352218277331616,-0.19940219261836312,6.523538388125598,-4.33869406349229,2.5606174837082847,6.6289973796985855,-9.97569848594422,-7.216842904214398,-4.615952061521361,6.42318268611637,6.746516468298196,-5.964996107588875,2.998091786565398,-4.8649223318733545,1.022691382750784,1.5084829838336056,0.30458349847478594,1.9457883333467212,-6.763424428800899,2.1762091340894596,8.836119441001173,-0.7067202667796177,7.131687265244405,7.507192246260647,9.57828272731367,-0.6452823284883848,-7.6850254194122325,-1.1946437177737597,-7.427142485432883],"split_indices":[5,1,0,3,1,1,0,0,4,5,3,3,2,5,0,0,0,0,3,1,0,4,2,0,0,1,3,0,0,5,2,0,2,3,0,5,5,0,0,0,2,5,0,0,0,3,0,0,2,0,0,0,0,0,0,2,1,3,0,0,5,5,0,2,0,0,0,0,3,2,0,0,5,0,0,2,0,0,0,0,0,0,0,0,0,0,0,0,4,0,0,3,0,0,0,0,0,0,0,0,0,0,0,0,0,0,0,0,0],"sum_hessian":[0.0,0.0,0.0,0.0,0.0,0.0,0.0,0.0,0.0,0.0,0.0,0.0,0.0,0.0,0.0,0.0,0.0,0.0,0.0,0.0,0.0,0.0,0.0,0.0,0.0,0.0,0.0,0.0,0.0,0.0,0.0,0.0,0.0,0.0,0.0,0.0,0.0,0.0,0.0,0.0,0.0,0.0,0.0,0.0,0.0,0.0,0.0,0.0,0.0,0.0,0.0,0.0,0.0,0.0,0.0,0.0,0.0,0.0,0.0,0.0,0.0,0.0,0.0,0.0,0.0,0.0,0.0,0.0,0.0,0.0,0.0,0.0,0.0,0.0,0.0,0.0,0.0,0.0,0.0,0.0,0.0,0.0,0.0,0.0,0.0,0.0,0.0,0.0,0.0,0.0,0.0,0.0,0.0,0.0,0.0,0.0,0.0,0.0,0.0,0.0,0.0,0.0,0.0,0.0,0.0,0.0,0.0,0.0,0.0],"tree_param":{"num_deleted":"0","num_feature":"6","num_nodes":"109","size_leaf_vector":"0"}},{"base_weights":[0.0,0.0,0.0,0.0,0.0,0.0,0.0,0.0,0.0,0.0,0.0,0.0,0.0,0.0,0.0,0.0,0.0,0.0,0.0,0.0,0.0,0.0,0.0,0.0,0.0,0.0,0.0,0.0,0.0,0.0,0.0,0.0,0.0,0.0,0.0,0.0,0.0,0.0,0.0,0.0,0.0,0.0,0.0,0.0,0.0,0.0,0.0,0.0,0.0,0.0,0.0,0.0,0.0,0.0,0.0],"categories":[],"categories_nodes":[],"categories_segments":[],"categories_sizes":[],"default_left":[false,false,false,false,false,false,false,false,false,false,false,false,false,false,false,false,false,false,false,false,false,false,false,false,false,false,false,false,false,false,false,false,false,false,false,false,false,false,false,false,false,false,false,false,false,false,false,false,false,false,false,false,false,false,false],"id":2,"left_children":[1,3,5,7,9,-1,-1,11,-1,-1,13,15,17,-1,19,21,23,25,27,29,-1,31,-1,33,-1,35,-1,-1,37,-1,39,-1,-1,41,-1,-1,-1,43,-1,45,-1,-1,47,49,-1,51,53,-1,-1,-1,-1,-1,-1,-1,-1],"loss_changes":[0.0,0.0,0.0,0.0,0.0,0.0,0.0,0.0,0.0,0.0,0.0,0.0,0.0,0.0,0.0,0.0,0.0,0.0,0.0,0.0,0.0,0.0,0.0,0.0,0.0,0.0,0.0,0.0,0.0,0.0,0.0,0.0,0.0,0.0,0.0,0.0,0.0,0.0,0.0,0.0,0.0,0.0,0.0,0.0,0.0,0.0,0.0,0.0,0.0,0.0,0.0,0.0,0.0,0.0,0.0],"parents":[2147483647,0,0,1,1,2,2,3,3,4,4,7,7,10,10,11,11,12,12,14,14,15,15,16,16,17,17,18,18,19,19,21,21,23,23,25,25,28,28,30,30,33,33,37,37,39,39,42,42,43,43,45,45,46,46],"right_children":[2,4,6,8,10,-1,-1,12,-1,-1,14,16,18,-1,20,22,24,26,28,30,-1,32,-1,34,-1,36,-1,-1,38,-1,40,-1,-1,42,-1,-1,-1,44,-1,46,-1,-1,48,50,-1,52,54,-1,-1,-1,-1,-1,-1,-1,-1],"split_conditions":[-3.996481571184349,6.242088196767096,-5.436058167884087,-9.7617320839955,4.126607575094724,9.034963651831212,-1.7513677076250822,4.659387123691442,8.115561284036108,6.23752341645924,-7.900691042037692,1.8371958363830423,-7.91733804354687,8.738819801085938,0.7459405021188381,2.0322960412488733,6.041041044494442,5.904993283988727,7.3352806883464154,-3.8338290075038515,-4.384408459329675,-1.7040104810655183,-2.688858025237656,9.900888041767754,-0.2224984187031307,-2.3251045847879217,-6.5051054171210785,4.696577569776032,-2.517393957544355,9.694263675308218,-0.39779201564814315,3.4711068444541144,-3.8153256280922045,-8.850778632265369,-0.03372296770836769,7.341411809604963,8.498793004535937,5.448897530502768,-8.7072529098831,5.698919478091556,-9.98372850563672,-7.339478719043324,3.7198392454390152,-7.5169684282416895,4.736876497591915,8.316477903550275,-6.962848209097126,-3.948483772186907,9.840246967220224,0.6601737329632034,-8.168913534660689,-5.387220182274262,-0.8059722742454252,8.10915829211503,7.483336098785664],"split_indices":[3,5,1,3,5,0,0,3,0,0,5,4,2,0,5,4,3,0,4,5,0,1,0,2,0,4,0,0,0,0,2,0,0,0,0,0,0,3,0,5,0,0,1,4,0,1,2,0,0,0,0,0,0,0,0],"sum_hessian":[0.0,0.0,0.0,0.0,0.0,0.0,0.0,0.0,0.0,0.0,0.0,0.0,0.0,0.0,0.0,0.0,0.0,0.0,0.0,0.0,0.0,0.0,0.0,0.0,0.0,0.0,0.0,0.0,0.0,0.0,0.0,0.0,0.0,0.0,0.0,0.0,0.0,0.0,0.0,0.0,0.0,0.0,0.0,0.0,0.0,0.0,0.0,0.0,0.0,0.0,0.0,0.0,0.0,0.0,0.0],"tree_param":{"num_deleted":"0","num_feature":"6","num_nodes":"55","size_leaf_vector":"0"}},{"base_weights":[0.0,0.0,0.0,0.0,0.0,0.0,0.0,0.0,0.0,0.0,0.0,0.0,0.0,0.0,0.0,0.0,0.0,0.0,0.0,0.0,0.0,0.0,0.0,0.0,0.0,0.0,0.0,0.0,0.0,0.0,0.0,0.0,0.0,0.0,0.0,0.0,0.0,0.0,0.0,0.0,0.0,0.0,0.0,0.0,0.0,0.0,0.0,0.0,0.0,0.0,0.0,0.0,0.0,0.0,0.0,0.0,0.0,0.0,0.0,0.0,0.0,0.0,0.0,0.0,0.0,0.0,0.0,0.0,0.0,0.0,0.0,0.0,0.0,0.0,0.0,0.0,0.0,0.0,0.0,0.0,0.0,0.0,0.0,0.0,0.0,0.0,0.0,0.0,0.0,0.0,0.0,0.0,0.0,0.0,0.0,0.0,0.0],"categories":[],"categories_nodes":[],"categories_segments":[],"categories_sizes":[],"default_left":[false,false,false,false,false,false,false,false,false,false,false,false,false,false,false,false,false,false,false,false,false,false,false,false,false,false,false,false,false,false,false,false,false,false,false,false,false,false,false,false,false,false,false,false,false,false,false,false,false,false,false,false,false,false,false,false,false,false,false,false,false,false,false,false,false,false,false,false,false,false,false,false,false,false,false,false,false,false,false,false,false,false,false,false,false,false,false,false,false,false,false,false,false,false,false,false,false],"id":3,"left_children":[1,3,5,7,9,11,13,15,17,19,21,23,25,-1,27,-1,29,-1,31,33,35,-1,37,39,-1,41,43,-1,45,47,-1,49,-1,51,53,-1,55,-1,-1,-1,-1,57,-1,-1,59,61,63,-1,-1,-1,-1,65,-1,67,69,71,-1,73,-1,-1,-1,-1,-1,-1,75,-1,77,-1,79,-1,81,-1,83,-1,-1,85,-1,87,-1,-1,89,-1,-1,-1,-1,91,-1,-1,-1,93,-1,95,-1,-1,-1,-1,-1],"loss_changes":[0.0,0.0,0.0,0.0,0.0,0.0,0.0,0.0,0.0,0.0,0.0,0.0,0.0,0.0,0.0,0.0,0.0,0.0,0.0,0.0,0.0,0.0,0.0,0.0,0.0,0.0,0.0,0.0,0.0,0.0,0.0,0.0,0.0,0.0,0.0,0.0,0.0,0.0,0.0,0.0,0.0,0.0,0.0,0.0,0.0,0.0,0.0,0.0,0.0,0.0,0.0,0.0,0.0,0.0,0.0,0.0,0.0,0.0,0.0,0.0,0.0,0.0,0.0,0.0,0.0,0.0,0.0,0.0,0.0,0.0,0.0,0.0,0.0,0.0,0.0,0.0,0.0,0.0,0.0,0.0,0.0,0.0,0.0,0.0,0.0,0.0,0.0,0.0,0.0,0.0,0.0,0.0,0.0,0.0,0.0,0.0,0.0],"parents":[2147483647,0,0,1,1,2,2,3,3,4,4,5,5,6,6,7,7,8,8,9,9,10,10,11,11,12,12,14,14,16,16,18,18,19,19,20,20,22,22,23,23,25,25,26,26,28,28,29,29,31,31,33,33,34,34,36,36,41,41,44,44,45,45,46,46,51,51,53,53,54,54,55,55,57,57,64,64,66,66,68,68,70,70,72,72,75,75,77,77,80,80,85,85,89,89,91,91],"right_children":[2,4,6,8,10,12,14,16,18,20,22,24,26,-1,28,-1,30,-1,32,34,36,-1,38,40,-1,42,44,-1,46,48,-1,50,-1,52,54,-1,56,-1,-1,-1,-1,58,-1,-1,60,62,64,-1,-1,-1,-1,66,-1,68,70,72,-1,74,-1,-1,-1,-1,-1,-1,76,-1,78,-1,80,-1,82,-1,84,-1,-1,86,-1,88,-1,-1,90,-1,-1,-1,-1,92,-1,-1,-1,94,-1,96,-1,-1,-1,-1,-1],"split_conditions":[1.5418510924321502,5.873894147623972,0.6746733779610423,-9.2044065050794,7.778995178490341,-0.5765274093045409,5.705364721463397,7.823225254859782,-9.143236394483734,-7.312492366923896,-1.908922841332366,2.351126584603019,5.948676746475394,2.891082859686417,1.8048584846233702,4.833841493228832,-7.555802528469193,2.3962789205326125,3.3511997982678565,1.1124357183918132,-2.160747927197675,-5.268701374465065,7.0411168382980485,8.302544823747454,-6.242343557025716,8.95778420265254,-6.497052452569541,0.25481628956411306,-6.309168390928299,-9.269292382287288,-7.0663435701836566,5.777383046901857,-2.1942578108209023,-4.246829928896789,7.274849158969541,-9.780102704522738,9.534987524779503,8.688071877029763,-8.765019709896807,-1.5073429709955928,-1.762411655015221,7.981444816565755,3.7499947863884824,-3.093247936181843,-2.4741588473779554,-3.92953714248425,-9.54463627027848,0.23398331626181346,0.2635897790665336,5.436733727435186,-2.785194363731634,-0.27816312445230373,5.912974932251071,0.5789588053970451,-1.7184088623204143,8.160820924668997,7.520916637033903,1.4486607960245212,-8.794207880948655,9.229770507620032,-4.4404469884047515,-0.8582223783430454,5.885881854434212,-9.224429956148658,-5.60338869332368,-0.7821951248290411,-5.959117912161548,5.345146226945465,-6.387458662411391,9.03306183579187,3.7737248556883447,-4.115460704618979,8.343822378346996,-2.5325551530373875,3.9697992793562804,-2.800290151355189,-6.626163956960656,-4.09047131481188,-1.2514815157990924,-5.628294568945518,5.488793106778067,5.483735591205594,-1.9048617642895014,-7.375029957063528,-1.8246813382895368,7.712129095959185,-1.3028537759090835,-7.389318695326852,-3.0806146960241696,-6.690125465652439,6.429517023835526,-6.61389003926303,-8.089370196539292,6.956541037168332,5.521126717467874,-9.819365028428246,5.504185197584185],"split_indices":[1,4,2,1,2,0,5,4,4,3,1,3,4,0,2,0,5,0,2,0,0,0,3,4,0,0,5,0,0,4,0,2,0,3,1,0,3,0,0,0,0,1,0,0,4,2,3,0,0,0,0,4,0,1,4,3,0,3,0,0,0,0,0,0,0,0,5,0,5,0,1,0,0,0,0,3,0,2,0,0,4,0,0,0,0,2,0,0,0,2,0,3,0,0,0,0,0],"sum_hessian":[0.0,0.0,0.0,0.0,0.0,0.0,0.0,0.0,0.0,0.0,0.0,0.0,0.0,0.0,0.0,0.0,0.0,0.0,0.0,0.0,0.0,0.0,0.0,0.0,0.0,0.0,0.0,0.0,0.0,0.0,0.0,0.0,0.0,0.0,0.0,0.0,0.0,0.0,0.0,0.0,0.0,0.0,0.0,0.0,0.0,0.0,0.0,0.0,0.0,0.0,0.0,0.0,0.0,0.0,0.0,0.0,0.0,0.0,0.0,0.0,0.0,0.0,0.0,0.0,0.0,0.0,0.0,0.0,0.0,0.0,0.0,0.0,0.0,0.0,0.0,0.0,0.0,0.0,0.0,0.0,0.0,0.0,0.0,0.0,0.0,0.0,0.0,0.0,0.0,0.0,0.0,0.0,0.0,0.0,0.0,0.0,0.0],"tree_param":{"num_deleted":"0","num_feature":"6","num_nodes":"97","size_leaf_vector":"0"}}]},"name":"gbtree"},"learner_model_param":{"base_score":"5E-1","num_class":"0","num_feature":"6"},"objective":{"name":"reg:squarederror","reg_loss_param":{"scale_pos_weight":"1"}}},"version":[1,4,0]}