{"learner":{"attributes":{},"feature_types":["float","float","float","float","float","float","float","float"],"gradient_booster":{"model":{"gbtree_model_param":{"num_trees":"4","size_leaf_vector":"0"},"tree_info":[0,0,0,0],"trees":[{"base_weights":[0.0,0.0,0.0,0.0,0.0,0.0,0.0,0.0,0.0,0.0,0.0,0.0,0.0,0.0,0.0,0.0,0.0,0.0,0.0,0.0,0.0,0.0,0.0,0.0,0.0,0.0,0.0,0.0,0.0,0.0,0.0,0.0,0.0,0.0,0.0,0.0,0.0,0.0,0.0,0.0,0.0,0.0,0.0,0.0,0.0,0.0,0.0,0.0,0.0,0.0,0.0,0.0,0.0,0.0,0.0,0.0,0.0,0.0,0.0,0.0,0.0,0.0,0.0,0.0,0.0,0.0,0.0,0.0,0.0,0.0,0.0,0.0,0.0,0.0,0.0,0.0,0.0,0.0,0.0,0.0,0.0,0.0,0.0,0.0,0.0,0.0,0.0,0.0,0.0,0.0,0.0,0.0,0.0,0.0,0.0,0.0,0.0,0.0,0.0,0.0,0.0,0.0,0.0,0.0,0.0,0.0,0.0,0.0,0.0,0.0,0.0,0.0,0.0,0.0,0.0,0.0,0.0,0.0,0.0,0.0,0.0,0.0,0.0,0.0,0.0,0.0,0.0,0.0,0.0,0.0,0.0,0.0,0.0],"categories":[],"categories_nodes":[],"categories_segments":[],"categories_sizes":[],"default_left":[false,false,false,false,false,false,false,false,false,false,false,false,false,false,false,false,false,false,false,false,false,false,false,false,false,false,false,false,false,false,false,false,false,false,false,false,false,false,false,false,false,false,false,false,false,false,false,false,false,false,false,false,false,false,false,false,false,false,false,false,false,false,false,false,false,false,false,false,false,false,false,false,false,false,false,false,false,false,false,false,false,false,false,false,false,false,false,false,false,false,false,false,false,false,false,false,false,false,false,false,false,false,false,false,false,false,false,false,false,false,false,false,false,false,false,false,false,false,false,false,false,false,false,false,false,false,false,false,false,false,false,false,false],"id":0,"left_children":[1,3,5,7,9,11,13,15,17,19,21,23,25,27,29,31,33,35,37,-1,39,41,-1,-1,43,-1,45,47,49,51,53,-1,55,-1,-1,-1,-1,57,59,61,63,-1,65,-1,-1,67,-1,69,71,73,-1,-1,-1,75,77,79,-1,-1,81,-1,83,-1,-1,-1,85,87,-1,-1,-1,89,-1,91,-1,93,95,97,99,101,-1,103,105,107,-1,-1,-1,-1,-1,-1,109,-1,-1,111,113,-1,-1,115,-1,117,119,-1,-1,-1,-1,121,-1,-1,-1,-1,-1,-1,-1,-1,123,125,-1,-1,127,-1,-1,-1,-1,129,-1,-1,-1,-1,131,-1,-1,-1,-1,-1,-1],"loss_changes":[0.0,0.0,0.0,0.0,0.0,0.0,0.0,0.0,0.0,0.0,0.0,0.0,0.0,0.0,0.0,0.0,0.0,0.0,0.0,0.0,0.0,0.0,0.0,0.0,0.0,0.0,0.0,0.0,0.0,0.0,0.0,0.0,0.0,0.0,0.0,0.0,0.0,0.0,0.0,0.0,0.0,0.0,0.0,0.0,0.0,0.0,0.0,0.0,0.0,0.0,0.0,0.0,0.0,0.0,0.0,0.0,0.0,0.0,0.0,0.0,0.0,0.0,0.0,0.0,0.0,0.0,0.0,0.0,0.0,0.0,0.0,0.0,0.0,0.0,0.0,0.0,0.0,0.0,0.0,0.0,0.0,0.0,0.0,0.0,0.0,0.0,0.0,0.0,0.0,0.0,0.0,0.0,0.0,0.0,0.0,0.0,0.0,0.0,0.0,0.0,0.0,0.0,0.0,0.0,0.0,0.0,0.0,0.0,0.0,0.0,0.0,0.0,0.0,0.0,0.0,0.0,0.0,0.0,0.0,0.0,0.0,0.0,0.0,0.0,0.0,0.0,0.0,0.0,0.0,0.0,0.0,0.0,0.0],"parents":[2147483647,0,0,1,1,2,2,3,3,4,4,5,5,6,6,7,7,8,8,9,9,10,10,11,11,12,12,13,13,14,14,15,15,16,16,17,17,18,18,20,20,21,21,24,24,26,26,27,27,28,28,29,29,30,30,32,32,37,37,38,38,39,39,40,40,42,42,45,45,47,47,48,48,49,49,53,53,54,54,55,55,58,58,60,60,64,64,65,65,69,69,71,71,73,73,74,74,75,75,76,76,77,77,79,79,80,80,81,81,88,88,91,91,92,92,95,95,97,97,98,98,103,103,112,112,113,113,116,116,121,121,126,126],"right_children":[2,4,6,8,10,12,14,16,18,20,22,24,26,28,30,32,34,36,38,-1,40,42,-1,-1,44,-1,46,48,50,52,54,-1,56,-1,-1,-1,-1,58,60,62,64,-1,66,-1,-1,68,-1,70,72,74,-1,-1,-1,76,78,80,-1,-1,82,-1,84,-1,-1,-1,86,88,-1,-1,-1,90,-1,92,-1,94,96,98,100,102,-1,104,106,108,-1,-1,-1,-1,-1,-1,110,-1,-1,112,114,-1,-1,116,-1,118,120,-1,-1,-1,-1,122,-1,-1,-1,-1,-1,-1,-1,-1,124,126,-1,-1,128,-1,-1,-1,-1,130,-1,-1,-1,-1,132,-1,-1,-1,-1,-1,-1],"split_conditions":[4.281655076504192,2.6398111378682305,-6.330533338904035,3.9374136593776132,-1.87070413214167,-7.5023657557576815,9.08787139748912,4.705314389674726,6.812893418472214,4.038336314730298,-6.883678164208005,-4.0727390869964974,5.320150349820468,-6.605100714112591,-5.613604722202046,-5.057068617912937,2.986950074943561,9.315738879706252,7.687323534300845,-1.8653494543321543,6.672243482968046,8.492916618741077,-6.80973378411012,-5.685783334204081,0.5706075888053306,1.719654963728365,8.091434034550403,2.9517993355060472,-4.483553239606123,4.452724184650073,-6.601548926034829,-6.331727435841296,-7.279217228068168,4.964632073046928,-2.1882834557549558,-3.4359434056382785,1.2525417926082802,0.7512712962962613,-4.207445589950005,-5.858305491252032,-5.116423621778804,0.8581221448010794,2.9397174628489253,-7.52835773926774,7.632911905810932,1.9837374367804124,-1.928737980603131,5.022013882574139,-8.96973757226867,-9.398111368660036,5.447391658854892,-8.209668742074529,-6.130555589074626,-8.142633585924187,8.214530175987438,-3.1023766128276273,-5.767270390422579,2.8561402564053786,3.3125948311487967,-3.7115930406611515,-1.9878997710374922,-1.4836254805631182,-8.863212438739511,7.308750641657472,7.403660855261556,-3.5151570720039524,-1.7452803257775482,-2.2519776668257876,-8.380662255950746,7.148918694630812,2.3187943661179684,6.330551238111248,-8.692185360477716,2.994031917676576,-7.180980748440225,2.531652596922962,-9.648522073909538,8.698402546145786,0.06361476729681925,-0.8896187123509414,6.418361190084131,7.248139033098006,-9.157379425552461,0.6773856328052652,-9.36887188453363,-2.7116941654060414,0.8236399150745157,-8.400410496720292,9.745087245557354,-3.111155330434439,-1.0054776927105777,9.989467467605952,5.941980339359398,9.003161786515335,8.23875253993193,2.271713625703949,-1.2454823541866062,-5.194484197322135,8.149005381943645,5.389991159941916,3.7375981065741897,-5.6960314352318235,2.790609787511226,-3.785892297651773,-2.8640923337779984,-5.618167722127871,-3.57423977682342,-3.0518093822499868,-4.767144440119307,-7.395074884811157,9.59039653421247,1.7905482853919317,-5.987917202585898,2.8166458334390594,0.16943583954875407,4.364942406031737,0.5661846565378106,7.266834733975799,8.059052426029286,7.41533073030897,0.12030376032678802,-8.28249922006421,-0.5792592566800092,6.90749387426051,3.3499430472345217,-1.4422750532193582,3.0314569517990275,-1.3888651318533825,-4.967303687071141,-1.9297274518977616,9.21491319206821,8.312589842531594,-7.522804836912963],"split_indices":[3,6,0,0,5,0,7,2,2,2,5,2,3,2,1,3,7,3,2,0,3,1,0,0,1,0,0,4,5,4,4,0,5,0,0,0,0,7,5,7,0,0,1,0,0,0,0,3,1,7,0,0,0,1,4,4,0,0,7,0,3,0,0,0,6,3,0,0,0,3,0,0,0,3,1,3,4,5,0,7,6,6,0,0,0,0,0,0,3,0,0,2,0,0,0,0,0,7,5,0,0,0,0,4,0,0,0,0,0,0,0,0,2,7,0,0,4,0,0,0,0,7,0,0,0,0,0,0,0,0,0,0,0],"sum_hessian":[0.0,0.0,0.0,0.0,0.0,0.0,0.0,0.0,0.0,0.0,0.0,0.0,0.0,0.0,0.0,0.0,0.0,0.0,0.0,0.0,0.0,0.0,0.0,0.0,0.0,0.0,0.0,0.0,0.0,0.0,0.0,0.0,0.0,0.0,0.0,0.0,0.0,0.0,0.0,0.0,0.0,0.0,0.0,0.0,0.0,0.0,0.0,0.0,0.0,0.0,0.0,0.0,0.0,0.0,0.0,0.0,0.0,0.0,0.0,0.0,0.0,0.0,0.0,0.0,0.0,0.0,0.0,0.0,0.0,0.0,0.0,0.0,0.0,0.0,0.0,0.0,0.0,0.0,0.0,0.0,0.0,0.0,0.0,0.0,0.0,0.0,0.0,0.0,0.0,0.0,0.0,0.0,0.0,0.0,0.0,0.0,0.0,0.0,0.0,0.0,0.0,0.0,0.0,0.0,0.0,0.0,0.0,0.0,0.0,0.0,0.0,0.0,0.0,0.0,0.0,0.0,0.0,0.0,0.0,0.0,0.0,0.0,0.0,0.0,0.0,0.0,0.0,0.0,0.0,0.0,0.0,0.0,0.0],"tree_param":{"num_deleted":"0","num_feature":"8","num_nodes":"133","size_leaf_vector":"0"}},{"base_weights":[0.0,0.0,0.0,0.0,0.0,0.0,0.0,0.0,0.0,0.0,0.0,0.0,0.0,0.0,0.0,0.0,0.0,0.0,0.0,0.0,0.0,0.0,0.0,0.0,0.0,0.0,0.0,0.0,0.0,0.0,0.0,0.0,0.0,0.0,0.0,0.0,0.0,0.0,0.0,0.0,0.0,0.0,0.0,0.0,0.0,0.0,0.0,0.0,0.0,0.0,0.0,0.0,0.0,0.0,0.0,0.0,0.0,0.0,0.0,0.0,0.0,0.0,0.0,0.0,0.0,0.0,0.0,0.0,0.0,0.0,0.0,0.0,0.0,0.0,0.0,0.0,0.0,0.0,0.0,0.0,0.0,0.0,0.0,0.0,0.0,0.0,0.0,0.0,0.0,0.0,0.0,0.0,0.0,0.0,0.0,0.0,0.0,0.0,0.0,0.0,0.0,0.0,0.0,0.0,0.0,0.0,0.0,0.0,0.0,0.0,0.0,0.0,0.0,0.0,0.0,0.0,0.0,0.0,0.0,0.0,0.0,0.0,0.0,0.0,0.0,0.0,0.0],"categories":[],"categories_nodes":[],"categories_segments":[],"categories_sizes":[],"default_left":[false,false,false,false,false,false,false,false,false,false,false,false,false,false,false,false,false,false,false,false,false,false,false,false,false,false,false,false,false,false,false,false,false,false,false,false,false,false,false,false,false,false,false,false,false,false,false,false,false,false,false,false,false,false,false,false,false,false,false,false,false,false,false,false,false,false,false,false,false,false,false,false,false,false,false,false,false,false,false,false,false,false,false,false,false,false,false,false,false,false,false,false,false,false,false,false,false,false,false,false,false,false,false,false,false,false,false,false,false,false,false,false,false,false,false,false,false,false,false,false,false,false,false,false,false,false,false],"id":1,"left_children":[1,3,5,7,9,11,13,15,17,-1,19,21,-1,23,25,27,-1,29,31,33,35,37,39,41,43,45,-1,47,-1,-1,49,-1,51,53,55,-1,57,59,61,63,-1,65,-1,-1,-1,-1,67,69,-1,-1,-1,-1,-1,-1,71,73,-1,75,-1,77,79,-1,-1,81,83,85,-1,87,-1,89,-1,91,93,-1,-1,-1,-1,95,-1,-1,-1,-1,97,-1,-1,99,101,103,105,-1,-1,-1,107,109,-1,-1,-1,-1,-1,-1,-1,111,-1,-1,113,-1,115,117,119,-1,-1,121,-1,123,-1,125,-1,-1,-1,-1,-1,-1,-1,-1,-1,-1,-1],"loss_changes":[0.0,0.0,0.0,0.0,0.0,0.0,0.0,0.0,0.0,0.0,0.0,0.0,0.0,0.0,0.0,0.0,0.0,0.0,0.0,0.0,0.0,0.0,0.0,0.0,0.0,0.0,0.0,0.0,0.0,0.0,0.0,0.0,0.0,0.0,0.0,0.0,0.0,0.0,0.0,0.0,0.0,0.0,0.0,0.0,0.0,0.0,0.0,0.0,0.0,0.0,0.0,0.0,0.0,0.0,0.0,0.0,0.0,0.0,0.0,0.0,0.0,0.0,0.0,0.0,0.0,0.0,0.0,0.0,0.0,0.0,0.0,0.0,0.0,0.0,0.0,0.0,0.0,0.0,0.0,0.0,0.0,0.0,0.0,0.0,0.0,0.0,0.0,0.0,0.0,0.0,0.0,0.0,0.0,0.0,0.0,0.0,0.0,0.0,0.0,0.0,0.0,0.0,0.0,0.0,0.0,0.0,0.0,0.0,0.0,0.0,0.0,0.0,0.0,0.0,0.0,0.0,0.0,0.0,0.0,0.0,0.0,0.0,0.0,0.0,0.0,0.0,0.0],"parents":[2147483647,0,0,1,1,2,2,3,3,4,4,5,5,6,6,7,7,8,8,10,10,11,11,13,13,14,14,15,15,17,17,18,18,19,19,20,20,21,21,22,22,23,23,24,24,25,25,27,27,30,30,32,32,33,33,34,34,36,36,37,37,38,38,39,39,41,41,46,46,47,47,54,54,55,55,57,57,59,59,60,60,63,63,64,64,65,65,67,67,69,69,71,71,72,72,77,77,82,82,85,85,86,86,87,87,88,88,92,92,93,93,101,101,104,104,106,106,107,107,108,108,111,111,113,113,115,115],"right_children":[2,4,6,8,10,12,14,16,18,-1,20,22,-1,24,26,28,-1,30,32,34,36,38,40,42,44,46,-1,48,-1,-1,50,-1,52,54,56,-1,58,60,62,64,-1,66,-1,-1,-1,-1,68,70,-1,-1,-1,-1,-1,-1,72,74,-1,76,-1,78,80,-1,-1,82,84,86,-1,88,-1,90,-1,92,94,-1,-1,-1,-1,96,-1,-1,-1,-1,98,-1,-1,100,102,104,106,-1,-1,-1,108,110,-1,-1,-1,-1,-1,-1,-1,112,-1,-1,114,-1,116,118,120,-1,-1,122,-1,124,-1,126,-1,-1,-1,-1,-1,-1,-1,-1,-1,-1,-1],"split_conditions":[-3.3798214582994213,-2.3395552925978738,3.381809168874806,-8.217493788442795,-4.901953607057251,-1.9511379576039527,2.7880893021585607,3.985137741402804,-5.198059890666741,-4.818138918040432,9.346765329668774,-3.1957953281116334,-7.594925035207528,-3.0494231277019814,9.698868563436843,1.1483597249941813,1.6335746666649946,-3.4617316372992804,6.45333544247751,-8.05637814990172,-0.7220710131064294,-8.289063320727427,8.274756148132393,-5.625050167817533,1.119967215117656,-0.9836814147005573,3.383254590656442,6.01188430747667,2.872458540948868,3.935796274045881,4.461686544973304,-4.874879703055118,-6.911713977201794,6.894227776414713,0.6832844663805755,6.0286959275987755,-6.335316156724995,9.042945906698122,-4.409873558923883,3.4676735515445074,-7.084337175569474,8.940711015886926,3.2513982017370857,-8.850888636956613,-0.20548958888252855,0.8508313657995163,-0.006167843842396437,3.2244479941538557,6.000938146026968,6.465741987179275,-7.963585481381758,8.70860444282447,-2.078332287107207,0.20813306686722832,6.8293907379464756,6.272783600372037,-6.698579880412973,0.5750424706728623,8.4647526465149,-8.667349540272875,-0.888410524923362,-4.113449522312543,-6.825047292090662,6.088351469246859,-9.506469775891176,-5.15998182414837,2.2785978274995813,9.300765123882691,-2.4098879443940904,9.897628999340995,8.237073700961574,-6.94306595554947,9.406824144359252,-3.3129869960357885,-9.74920670145923,-2.585129245149261,-6.992370177127245,8.774360096193416,1.917014799052673,-4.913597224699865,7.984298670920946,-0.34047044612870714,8.891825882588044,-3.6846779413683812,-0.5440561764020408,1.6080195254455987,-6.607420146175744,2.4347184852719757,5.4305427582202555,6.334785350497885,-4.010926978773812,7.769525958032325,-3.935127566072836,-8.045015825784727,-2.639861877947852,-5.643808804545858,8.711147684115236,-8.137359778326136,-2.1133444216620587,-5.894213887717333,1.8008428105078984,2.7918423349666526,-6.774943058461679,9.864132123116121,8.484593868512228,-3.6198379551119286,1.6044866796574624,0.23731090860968962,7.417406521193321,8.895600687469248,7.3649269821857,1.530790303965734,2.282311351445834,-2.2996557857160616,9.280157407032174,-5.594645052698785,-1.9177376526272454,3.3651548489796106,-7.754045338534631,4.628667415526442,-1.328472247326225,3.3076954878206184,0.03682359884535913,-2.7311861424808566,-3.43301719305183,-9.626617605940176,0.6871012481988146],"split_indices":[3,5,0,3,7,6,6,0,7,0,4,1,0,4,7,1,0,6,2,3,4,3,6,2,6,0,0,1,0,0,3,0,4,7,7,0,2,0,3,7,0,4,0,0,0,0,5,7,0,0,0,0,0,0,0,2,0,1,0,0,6,0,0,2,6,2,0,3,0,3,0,2,2,0,0,0,0,0,0,0,0,0,4,0,0,3,1,5,5,0,0,0,3,1,0,0,0,0,0,0,0,6,0,0,4,0,4,6,4,0,0,2,0,6,0,4,0,0,0,0,0,0,0,0,0,0,0],"sum_hessian":[0.0,0.0,0.0,0.0,0.0,0.0,0.0,0.0,0.0,0.0,0.0,0.0,0.0,0.0,0.0,0.0,0.0,0.0,0.0,0.0,0.0,0.0,0.0,0.0,0.0,0.0,0.0,0.0,0.0,0.0,0.0,0.0,0.0,0.0,0.0,0.0,0.0,0.0,0.0,0.0,0.0,0.0,0.0,0.0,0.0,0.0,0.0,0.0,0.0,0.0,0.0,0.0,0.0,0.0,0.0,0.0,0.0,0.0,0.0,0.0,0.0,0.0,0.0,0.0,0.0,0.0,0.0,0.0,0.0,0.0,0.0,0.0,0.0,0.0,0.0,0.0,0.0,0.0,0.0,0.0,0.0,0.0,0.0,0.0,0.0,0.0,0.0,0.0,0.0,0.0,0.0,0.0,0.0,0.0,0.0,0.0,0.0,0.0,0.0,0.0,0.0,0.0,0.0,0.0,0.0,0.0,0.0,0.0,0.0,0.0,0.0,0.0,0.0,0.0,0.0,0.0,0.0,0.0,0.0,0.0,0.0,0.0,0.0,0.0,0.0,0.0,0.0],"tree_param":{"num_deleted":"0","num_feature":"8","num_nodes":"127","size_leaf_vector":"0"}},{"base_weights":[0.0,0.0,0.0,0.0,0.0,0.0,0.0,0.0,0.0,0.0,0.0,0.0,0.0,0.0,0.0,0.0,0.0,0.0,0.0,0.0,0.0,0.0,0.0,0.0,0.0,0.0,0.0,0.0,0.0,0.0,0.0,0.0,0.0,0.0,0.0,0.0,0.0,0.0,0.0,0.0,0.0,0.0,0.0,0.0,0.0,0.0,0.0,0.0,0.0,0.0,0.0,0.0,0.0,0.0,0.0,0.0,0.0,0.0,0.0,0.0,0.0,0.0,0.0,0.0,0.0,0.0,0.0,0.0,0.0,0.0,0.0,0.0,0.0,0.0,0.0,0.0,0.0,0.0,0.0,0.0,0.0,0.0,0.0,0.0,0.0,0.0,0.0,0.0,0.0,0.0,0.0],"categories":[],"categories_nodes":[],"categories_segments":[],"categories_sizes":[],"default_left":[false,false,false,false,false,false,false,false,false,false,false,false,false,false,false,false,false,false,false,false,false,false,false,false,false,false,false,false,false,false,false,false,false,false,false,false,false,false,false,false,false,false,false,false,false,false,false,false,false,false,false,false,false,false,false,false,false,false,false,false,false,false,false,false,false,false,false,false,false,false,false,false,false,false,false,false,false,false,false,false,false,false,false,false,false,false,false,false,false,false,false],"id":2,"left_children":[1,3,5,7,9,11,13,15,17,-1,19,-1,21,23,-1,25,27,29,-1,31,-1,33,35,37,-1,-1,-1,39,41,43,45,47,49,-1,51,53,-1,55,-1,57,59,-1,-1,61,-1,-1,63,65,67,69,-1,-1,-1,71,-1,73,-1,-1,-1,-1,-1,-1,-1,-1,75,-1,77,-1,-1,-1,79,-1,-1,81,83,-1,85,-1,-1,-1,87,-1,-1,-1,-1,-1,-1,89,-1,-1,-1],"loss_changes":[0.0,0.0,0.0,0.0,0.0,0.0,0.0,0.0,0.0,0.0,0.0,0.0,0.0,0.0,0.0,0.0,0.0,0.0,0.0,0.0,0.0,0.0,0.0,0.0,0.0,0.0,0.0,0.0,0.0,0.0,0.0,0.0,0.0,0.0,0.0,0.0,0.0,0.0,0.0,0.0,0.0,0.0,0.0,0.0,0.0,0.0,0.0,0.0,0.0,0.0,0.0,0.0,0.0,0.0,0.0,0.0,0.0,0.0,0.0,0.0,0.0,0.0,0.0,0.0,0.0,0.0,0.0,0.0,0.0,0.0,0.0,0.0,0.0,0.0,0.0,0.0,0.0,0.0,0.0,0.0,0.0,0.0,0.0,0.0,0.0,0.0,0.0,0.0,0.0,0.0,0.0],"parents":[2147483647,0,0,1,1,2,2,3,3,4,4,5,5,6,6,7,7,8,8,10,10,12,12,13,13,15,15,16,16,17,17,19,19,21,21,22,22,23,23,27,27,28,28,29,29,30,30,31,31,32,32,34,34,35,35,37,37,39,39,40,40,43,43,46,46,47,47,48,48,49,49,53,53,55,55,64,64,66,66,70,70,73,73,74,74,76,76,80,80,87,87],"right_children":[2,4,6,8,10,12,14,16,18,-1,20,-1,22,24,-1,26,28,30,-1,32,-1,34,36,38,-1,-1,-1,40,42,44,46,48,50,-1,52,54,-1,56,-1,58,60,-1,-1,62,-1,-1,64,66,68,70,-1,-1,-1,72,-1,74,-1,-1,-1,-1,-1,-1,-1,-1,76,-1,78,-1,-1,-1,80,-1,-1,82,84,-1,86,-1,-1,-1,88,-1,-1,-1,-1,-1,-1,90,-1,-1,-1],"split_conditions":[-0.03744999522893977,-3.944614938281262,-6.444628085665998,-7.879004729400358,-6.530042708779779,-8.559330652741282,4.726525085335073,5.764758015347196,-2.795532794691466,-2.0389240074843764,-7.198026420810518,8.847567459649575,4.196156938238957,0.09774834019342826,-5.103396470375555,-7.337128864561483,-2.9298948331150783,3.121261852214259,-8.556593861591569,-5.502594016764319,4.5531168032309495,-7.778302512765455,5.545648489656621,-4.056346649408207,-1.2771410532294212,-2.2741059037917113,0.18325562505946635,-5.75483401969754,-0.7258899529864582,3.2020522967551273,-9.090121948671756,-3.789951259373635,-0.10031471651021029,6.579873405768421,-1.0513358426125539,7.324889327284158,-7.773462403751028,2.233992551925576,-0.037389933352372395,5.032094711621307,4.944855521159305,9.854676928381714,4.550602229974654,-6.800180768684692,-3.9026429852964153,0.5586228785237672,9.699765654889958,1.966675808095932,-7.289899905849596,4.052124941876498,-3.2115712721383316,-0.2788577401763277,0.9744528565836426,-8.38372967020546,-5.412086241456996,-9.07335979226515,1.2858439243300008,0.033364613477584015,3.9059912977695728,0.8769233089799826,-0.0695933545214018,6.814107506654874,6.964702386145923,0.907444340166057,6.218063961479604,7.396620774534622,-6.290071834933059,1.9955381215875256,-9.243369552925072,-5.064460141586274,-3.8818101249436037,-7.968497682908618,9.681777405199586,6.372181382702543,2.0830393870311603,1.304757638636156,-6.534263696377993,7.435054853181555,-4.407351139241574,-9.806149181369658,0.6123459023126738,5.993586791943425,9.573630728961739,0.4897418072045756,7.677729622074423,-8.064675909870312,-7.901854306263935,-3.1575062992641065,-2.02633757534489,4.829538228613423,1.7845316074249595],"split_indices":[2,6,4,7,4,0,5,5,6,0,0,0,3,3,0,2,7,6,0,5,0,6,4,1,0,0,0,5,4,6,4,2,5,0,2,1,0,3,0,4,7,0,0,0,0,0,1,0,0,3,0,0,0,0,0,4,0,0,0,0,0,0,0,0,6,0,1,0,0,0,1,0,0,5,1,0,4,0,0,0,4,0,0,0,0,0,0,3,0,0,0],"sum_hessian":[0.0,0.0,0.0,0.0,0.0,0.0,0.0,0.0,0.0,0.0,0.0,0.0,0.0,0.0,0.0,0.0,0.0,0.0,0.0,0.0,0.0,0.0,0.0,0.0,0.0,0.0,0.0,0.0,0.0,0.0,0.0,0.0,0.0,0.0,0.0,0.0,0.0,0.0,0.0,0.0,0.0,0.0,0.0,0.0,0.0,0.0,0.0,0.0,0.0,0.0,0.0,0.0,0.0,0.0,0.0,0.0,0.0,0.0,0.0,0.0,0.0,0.0,0.0,0.0,0.0,0.0,0.0,0.0,0.0,0.0,0.0,0.0,0.0,0.0,0.0,0.0,0.0,0.0,0.0,0.0,0.0,0.0,0.0,0.0,0.0,0.0,0.0,0.0,0.0,0.0,0.0],"tree_param":{"num_deleted":"0","num_feature":"8","num_nodes":"91","size_leaf_vector":"0"}},{"base_weights":[0.0,0.0,0.0,0.0,0.0,0.0,0.0,0.0,0.0,0.0,0.0,0.0,0.0,0.0,0.0,0.0,0.0,0.0,0.0,0.0,0.0,0.0,0.0,0.0,0.0,0.0,0.0,0.0,0.0,0.0,0.0,0.0,0.0,0.0,0.0,0.0,0.0,0.0,0.0,0.0,0.0,0.0,0.0,0.0,0.0,0.0,0.0,0.0,0.0,0.0,0.0,0.0,0.0,0.0,0.0,0.0,0.0,0.0,0.0,0.0,0.0,0.0,0.0,0.0,0.0,0.0,0.0,0.0,0.0,0.0,0.0,0.0,0.0,0.0,0.0,0.0,0.0,0.0,0.0,0.0,0.0,0.0,0.0,0.0,0.0,0.0,0.0],"categories":[],"categories_nodes":[],"categories_segments":[],"categories_sizes":[],"default_left":[false,false,false,false,false,false,false,false,false,false,false,false,false,false,false,false,false,false,false,false,false,false,false,false,false,false,false,false,false,false,false,false,false,false,false,false,false,false,false,false,false,false,false,false,false,false,false,false,false,false,false,false,false,false,false,false,false,false,false,false,false,false,false,false,false,false,false,false,false,false,false,false,false,false,false,false,false,false,false,false,false,false,false,false,false,false,false],"id":3,"left_children":[1,3,5,7,9,11,13,-1,15,17,19,-1,21,23,-1,25,27,-1,29,-1,31,33,-1,35,37,-1,-1,39,41,43,45,47,-1,49,-1,51,53,55,-1,-1,57,-1,-1,59,61,-1,63,65,67,-1,69,-1,-1,-1,-1,71,-1,-1,73,75,-1,-1,-1,77,-1,79,81,-1,-1,-1,-1,-1,-1,83,-1,-1,-1,-1,-1,-1,85,-1,-1,-1,-1,-1,-1],"loss_changes":[0.0,0.0,0.0,0.0,0.0,0.0,0.0,0.0,0.0,0.0,0.0,0.0,0.0,0.0,0.0,0.0,0.0,0.0,0.0,0.0,0.0,0.0,0.0,0.0,0.0,0.0,0.0,0.0,0.0,0.0,0.0,0.0,0.0,0.0,0.0,0.0,0.0,0.0,0.0,0.0,0.0,0.0,0.0,0.0,0.0,0.0,0.0,0.0,0.0,0.0,0.0,0.0,0.0,0.0,0.0,0.0,0.0,0.0,0.0,0.0,0.0,0.0,0.0,0.0,0.0,0.0,0.0,0.0,0.0,0.0,0.0,0.0,0.0,0.0,0.0,0.0,0.0,0.0,0.0,0.0,0.0,0.0,0.0,0.0,0.0,0.0,0.0],"parents":[2147483647,0,0,1,1,2,2,3,3,4,4,5,5,6,6,8,8,9,9,10,10,12,12,13,13,15,15,16,16,18,18,20,20,21,21,23,23,24,24,27,27,28,28,29,29,30,30,31,31,33,33,35,35,36,36,37,37,40,40,43,43,44,44,46,46,47,47,48,48,50,50,55,55,58,58,59,59,63,63,65,65,66,66,73,73,80,80],"right_children":[2,4,6,8,10,12,14,-1,16,18,20,-1,22,24,-1,26,28,-1,30,-1,32,34,-1,36,38,-1,-1,40,42,44,46,48,-1,50,-1,52,54,56,-1,-1,58,-1,-1,60,62,-1,64,66,68,-1,70,-1,-1,-1,-1,72,-1,-1,74,76,-1,-1,-1,78,-1,80,82,-1,-1,-1,-1,-1,-1,84,-1,-1,-1,-1,-1,-1,86,-1,-1,-1,-1,-1,-1],"split_conditions":[3.3595299878727083,7.941353141677407,7.698998643021721,5.890868736409246,-7.08288101564629,8.70176168962939,8.194734184643899,6.5801000991033085,2.80305647518845,8.023575365170405,-3.85275568665522,-1.8595175804681077,-1.2892640131421018,-5.0892923522862485,6.131510524718294,-9.473360811583449,8.497332824839468,6.00912453835689,3.16007863738864,-1.867189364217289,3.32945702524054,0.19758200155494876,6.0582218864643025,4.928840069235392,-9.405371690498487,6.14313790435504,3.3397190077444634,6.054275427145953,2.483351834451806,-3.162259968459722,-9.90712728508345,1.6017559929959742,-2.6921200576183626,8.984483428024163,-6.043362027877254,-2.433342354857743,1.7030313529078462,7.05406594247345,-7.817300071974479,9.668781964428394,-0.5119297234746263,-9.305286290890248,-8.873146374393793,-0.583091859083364,-5.005819112295827,-1.8191156935577233,-3.6968276076757203,8.200013578831076,7.765158348811518,5.276846860444813,3.1604000397606598,-2.684901226624503,-5.020934969472423,-9.41044862738035,4.170925806336523,-7.446564720484629,2.3153778989701053,-4.499742593879804,-8.542701449946176,4.788253425488529,2.639822712272789,-2.5753220709214153,5.065725420059046,3.2154366898264364,-2.444694140498144,-8.784841088730797,6.636552197734321,4.334740008782681,0.7972158789826604,-3.5055022691103996,-1.4750163709000077,7.965402350808006,-6.968609930571681,9.616063124752035,-7.007797622128707,-8.021466293961938,5.403819425975378,4.019411986439671,8.33977753346434,-5.882840609174253,8.692697200287363,3.7890609356216327,1.1384757376182577,-9.711483293343688,-6.375268485988878,-1.3120692716068447,7.040612878203749],"split_indices":[0,4,7,2,2,0,5,0,6,7,7,0,2,4,0,0,1,0,1,0,5,3,0,2,0,0,0,0,5,5,7,0,0,7,0,3,1,2,0,0,2,0,0,6,5,0,4,7,4,0,1,0,0,0,0,4,0,0,5,3,0,0,0,4,0,5,5,0,0,0,0,0,0,0,0,0,0,0,0,0,3,0,0,0,0,0,0],"sum_hessian":[0.0,0.0,0.0,0.0,0.0,0.0,0.0,0.0,0.0,0.0,0.0,0.0,0.0,0.0,0.0,0.0,0.0,0.0,0.0,0.0,0.0,0.0,0.0,0.0,0.0,0.0,0.0,0.0,0.0,0.0,0.0,0.0,0.0,0.0,0.0,0.0,0.0,0.0,0.0,0.0,0.0,0.0,0.0,0.0,0.0,0.0,0.0,0.0,0.0,0.0,0.0,0.0,0.0,0.0,0.0,0.0,0.0,0.0,0.0,0.0,0.0,0.0,0.0,0.0,0.0,0.0,0.0,0.0,0.0,0.0,0.0,0.0,0.0,0.0,0.0,0.0,0.0,0.0,0.0,0.0,0.0,0.0,0.0,0.0,0.0,0.0,0.0],"tree_param":{"num_deleted":"0","num_feature":"8","num_nodes":"87","size_leaf_vector":"0"}}]},"name":"gbtree"},"learner_model_param":{"base_score":"5E-1","num_class":"0","num_feature":"8"},"objective":{"name":"reg:squarederror","reg_loss_param":{"scale_pos_weight":"1"}}},"version":[1,4,0]}