{"learner":{"attributes":{},"feature_types":["float"],"gradient_booster":{"model":{"gbtree_model_param":{"num_trees":"4","size_leaf_vector":"0"},"tree_info":[0,0,0,0],"trees":[{"base_weights":[0.0,0.0,0.0,0.0,0.0,0.0,0.0,0.0,0.0,0.0,0.0,0.0,0.0,0.0,0.0,0.0,0.0,0.0,0.0,0.0,0.0,0.0,0.0,0.0,0.0,0.0,0.0,0.0,0.0,0.0,0.0,0.0,0.0,0.0,0.0,0.0,0.0,0.0,0.0,0.0,0.0,0.0,0.0,0.0,0.0,0.0,0.0,0.0,0.0,0.0,0.0,0.0,0.0,0.0,0.0,0.0,0.0,0.0,0.0,0.0,0.0,0.0,0.0,0.0,0.0,0.0,0.0,0.0,0.0,0.0,0.0,0.0,0.0,0.0,0.0,0.0,0.0,0.0,0.0,0.0,0.0,0.0,0.0,0.0,0.0,0.0,0.0,0.0,0.0,0.0,0.0,0.0,0.0,0.0,0.0,0.0,0.0,0.0,0.0,0.0,0.0,0.0,0.0,0.0,0.0,0.0,0.0,0.0,0.0,0.0,0.0],"categories":[],"categories_nodes":[],"categories_segments":[],"categories_sizes":[],"default_left":[false,false,false,false,false,false,false,false,false,false,false,false,false,false,false,false,false,false,false,false,false,false,false,false,false,false,false,false,false,false,false,false,false,false,false,false,false,false,false,false,false,false,false,false,false,false,false,false,false,false,false,false,false,false,false,false,false,false,false,false,false,false,false,false,false,false,false,false,false,false,false,false,false,false,false,false,false,false,false,false,false,false,false,false,false,false,false,false,false,false,false,false,false,false,false,false,false,false,false,false,false,false,false,false,false,false,false,false,false,false,false],"id":0,"left_children":[1,3,5,7,9,11,13,-1,15,-1,17,19,21,-1,23,25,27,29,-1,31,-1,-1,33,35,37,39,-1,41,43,45,-1,-1,-1,47,-1,-1,49,51,53,-1,-1,-1,-1,55,57,59,61,63,65,67,-1,-1,-1,69,-1,71,-1,-1,-1,73,75,77,79,81,-1,83,-1,85,87,89,91,-1,-1,-1,-1,-1,-1,93,-1,-1,-1,-1,-1,-1,-1,95,97,-1,99,101,103,105,-1,-1,-1,-1,-1,-1,107,-1,-1,109,-1,-1,-1,-1,-1,-1,-1,-1,-1],"loss_changes":[0.0,0.0,0.0,0.0,0.0,0.0,0.0,0.0,0.0,0.0,0.0,0.0,0.0,0.0,0.0,0.0,0.0,0.0,0.0,0.0,0.0,0.0,0.0,0.0,0.0,0.0,0.0,0.0,0.0,0.0,0.0,0.0,0.0,0.0,0.0,0.0,0.0,0.0,0.0,0.0,0.0,0.0,0.0,0.0,0.0,0.0,0.0,0.0,0.0,0.0,0.0,0.0,0.0,0.0,0.0,0.0,0.0,0.0,0.0,0.0,0.0,0.0,0.0,0.0,0.0,0.0,0.0,0.0,0.0,0.0,0.0,0.0,0.0,0.0,0.0,0.0,0.0,0.0,0.0,0.0,0.0,0.0,0.0,0.0,0.0,0.0,0.0,0.0,0.0,0.0,0.0,0.0,0.0,0.0,0.0,0.0,0.0,0.0,0.0,0.0,0.0,0.0,0.0,0.0,0.0,0.0,0.0,0.0,0.0,0.0,0.0],"parents":[2147483647,0,0,1,1,2,2,3,3,4,4,5,5,6,6,8,8,10,10,11,11,12,12,14,14,15,15,16,16,17,17,19,19,22,22,23,23,24,24,25,25,27,27,28,28,29,29,33,33,36,36,37,37,38,38,43,43,44,44,45,45,46,46,47,47,48,48,49,49,53,53,55,55,59,59,60,60,61,61,62,62,63,63,65,65,67,67,68,68,69,69,70,70,77,77,85,85,86,86,88,88,89,89,90,90,91,91,98,98,101,101],"right_children":[2,4,6,8,10,12,14,-1,16,-1,18,20,22,-1,24,26,28,30,-1,32,-1,-1,34,36,38,40,-1,42,44,46,-1,-1,-1,48,-1,-1,50,52,54,-1,-1,-1,-1,56,58,60,62,64,66,68,-1,-1,-1,70,-1,72,-1,-1,-1,74,76,78,80,82,-1,84,-1,86,88,90,92,-1,-1,-1,-1,-1,-1,94,-1,-1,-1,-1,-1,-1,-1,96,98,-1,100,102,104,106,-1,-1,-1,-1,-1,-1,108,-1,-1,110,-1,-1,-1,-1,-1,-1,-1,-1,-1],"split_conditions":[5.917474110381566,-2.21840345601242,-9.913388254501363,-2.4595959789217527,7.477326848253028,-1.0755165971323137,6.3751783415806,-0.28419938398862854,3.7135451571362985,2.03434435537684,7.708818461748628,-6.912296010963277,-6.83753369459714,-2.2000908535699972,3.9985679224962425,8.318316619680882,1.6183656877952366,4.5838913021490395,5.203144510980737,-6.335222097005257,2.236255506483321,9.758376420454809,-8.883783718305098,-3.2564916757786486,4.952115171561825,5.668274147222023,-0.16007535753978708,5.140703634911336,-7.125680453690104,0.6084641509855722,2.732717608937545,-5.2684845333909855,-3.282941138698149,1.2756446286815155,8.577469060371435,1.1166942698815419,9.369448791586311,2.0848607345245185,-3.5830731259348116,0.17444898388482244,8.484188020476292,4.628382582765623,-6.3422915994913405,-1.3377450091690246,6.476542252647743,-7.164997487518313,7.654381013813786,3.8678153520640954,-8.809199593076702,-7.45028278212213,0.8362820198301808,-1.8926916111260468,2.145758406200539,-0.5263678199903588,0.4301180694241662,-6.267152718483954,0.18064831410502435,1.0150011837278825,8.009711205035458,8.61548694884226,-7.54549888701294,-2.8893656831506833,3.239571367271223,4.008080250452453,-8.59685815351328,7.529190156044191,-6.225004566951505,-4.377556406589461,2.080046228592746,3.1809892589841855,5.235515810527227,-7.18648672693449,-5.51559232864392,-3.4620454876069795,9.357313905670935,-9.203425947721964,-0.36319817603667737,-5.039719813003068,8.9516202918159,8.85867905139067,6.568505183729695,-8.856989128617846,-7.404214373692286,8.818670020747732,-0.907797817522134,-2.422973040909028,-1.5742480541718322,5.41864052748755,-8.152423660019249,-7.455723275912082,9.236753516313236,-9.971704808425104,-3.5637475819400315,-1.8396767362863322,-2.7572444161880663,-9.68082959782334,7.850757799756014,5.064020000758827,9.461990848211205,7.403404766122065,-2.613381767810397,1.5151212944011938,-5.339372918167888,1.8681953820658652,-7.259750882184682,8.810716235939825,9.477184463288232,-4.230385621897383,-0.1292210321673899,9.928645606789527,-4.24107465784366],"split_indices":[0,0,0,0,0,0,0,0,0,0,0,0,0,0,0,0,0,0,0,0,0,0,0,0,0,0,0,0,0,0,0,0,0,0,0,0,0,0,0,0,0,0,0,0,0,0,0,0,0,0,0,0,0,0,0,0,0,0,0,0,0,0,0,0,0,0,0,0,0,0,0,0,0,0,0,0,0,0,0,0,0,0,0,0,0,0,0,0,0,0,0,0,0,0,0,0,0,0,0,0,0,0,0,0,0,0,0,0,0,0,0],"sum_hessian":[0.0,0.0,0.0,0.0,0.0,0.0,0.0,0.0,0.0,0.0,0.0,0.0,0.0,0.0,0.0,0.0,0.0,0.0,0.0,0.0,0.0,0.0,0.0,0.0,0.0,0.0,0.0,0.0,0.0,0.0,0.0,0.0,0.0,0.0,0.0,0.0,0.0,0.0,0.0,0.0,0.0,0.0,0.0,0.0,0.0,0.0,0.0,0.0,0.0,0.0,0.0,0.0,0.0,0.0,0.0,0.0,0.0,0.0,0.0,0.0,0.0,0.0,0.0,0.0,0.0,0.0,0.0,0.0,0.0,0.0,0.0,0.0,0.0,0.0,0.0,0.0,0.0,0.0,0.0,0.0,0.0,0.0,0.0,0.0,0.0,0.0,0.0,0.0,0.0,0.0,0.0,0.0,0.0,0.0,0.0,0.0,0.0,0.0,0.0,0.0,0.0,0.0,0.0,0.0,0.0,0.0,0.0,0.0,0.0,0.0,0.0],"tree_param":{"num_deleted":"0","num_feature":"1","num_nodes":"111","size_leaf_vector":"0"}},{"base_weights":[0.0,0.0,0.0,0.0,0.0,0.0,0.0,0.0,0.0,0.0,0.0,0.0,0.0,0.0,0.0,0.0,0.0,0.0,0.0,0.0,0.0,0.0,0.0,0.0,0.0,0.0,0.0,0.0,0.0,0.0,0.0,0.0,0.0,0.0,0.0,0.0,0.0,0.0,0.0,0.0,0.0,0.0,0.0,0.0,0.0,0.0,0.0,0.0,0.0,0.0,0.0,0.0,0.0,0.0,0.0,0.0,0.0,0.0,0.0,0.0,0.0],"categories":[],"categories_nodes":[],"categories_segments":[],"categories_sizes":[],"default_left":[false,false,false,false,false,false,false,false,false,false,false,false,false,false,false,false,false,false,false,false,false,false,false,false,false,false,false,false,false,false,false,false,false,false,false,false,false,false,false,false,false,false,false,false,false,false,false,false,false,false,false,false,false,false,false,false,false,false,false,false,false],"id":1,"left_children":[1,3,5,7,9,-1,11,13,-1,15,17,19,21,23,25,-1,-1,27,29,31,-1,-1,-1,-1,33,-1,-1,35,-1,-1,-1,37,-1,39,-1,41,-1,43,45,-1,47,-1,49,51,-1,-1,53,-1,-1,-1,-1,-1,-1,55,57,-1,59,-1,-1,-1,-1],"loss_changes":[0.0,0.0,0.0,0.0,0.0,0.0,0.0,0.0,0.0,0.0,0.0,0.0,0.0,0.0,0.0,0.0,0.0,0.0,0.0,0.0,0.0,0.0,0.0,0.0,0.0,0.0,0.0,0.0,0.0,0.0,0.0,0.0,0.0,0.0,0.0,0.0,0.0,0.0,0.0,0.0,0.0,0.0,0.0,0.0,0.0,0.0,0.0,0.0,0.0,0.0,0.0,0.0,0.0,0.0,0.0,0.0,0.0,0.0,0.0,0.0,0.0],"parents":[2147483647,0,0,1,1,2,2,3,3,4,4,6,6,7,7,9,9,10,10,11,11,12,12,13,13,14,14,17,17,18,18,19,19,24,24,27,27,31,31,33,33,35,35,37,37,38,38,40,40,42,42,43,43,46,46,53,53,54,54,56,56],"right_children":[2,4,6,8,10,-1,12,14,-1,16,18,20,22,24,26,-1,-1,28,30,32,-1,-1,-1,-1,34,-1,-1,36,-1,-1,-1,38,-1,40,-1,42,-1,44,46,-1,48,-1,50,52,-1,-1,54,-1,-1,-1,-1,-1,-1,56,58,-1,60,-1,-1,-1,-1],"split_conditions":[5.851645368575827,6.099484924400468,-6.703790975202406,0.4656900217773732,5.9599962375847575,2.451285831518435,1.3518151561365137,2.9808217631780227,-8.639157675039344,9.913698349736034,1.8158721432115605,2.7291761753644543,5.648787237337903,7.652621534801089,8.924637819490453,0.7028248708348244,7.466457524674869,-5.830852147385407,1.0487016459143756,-6.412723875586439,-4.883629685022429,5.250176681023323,-0.15210894530421015,-5.94622858761318,-7.663448384698812,-6.926763980294794,-9.347162586311757,4.237848573652043,1.9299585522581424,-8.82645353899728,-9.414558187599386,7.512460616099126,-4.968858349148194,3.54344782080177,3.943517558161677,8.543487367470426,-4.863650512439987,2.219589754865545,7.152687672906577,-9.804918788149296,-9.77160981272605,-6.626800629752747,7.585123826550834,7.042792256412909,-1.2952752376967265,8.951349775654393,3.540688427658825,8.544538227688495,2.937405806153187,0.5602607007229228,-3.5170622718982,1.9733474476560708,2.8403626640909927,-3.5133388126558662,0.9983723086252603,0.9715479866756365,5.292361996232955,-9.971623114684412,-5.169054332817776,-2.3678886215823667,9.18138370889928],"split_indices":[0,0,0,0,0,0,0,0,0,0,0,0,0,0,0,0,0,0,0,0,0,0,0,0,0,0,0,0,0,0,0,0,0,0,0,0,0,0,0,0,0,0,0,0,0,0,0,0,0,0,0,0,0,0,0,0,0,0,0,0,0],"sum_hessian":[0.0,0.0,0.0,0.0,0.0,0.0,0.0,0.0,0.0,0.0,0.0,0.0,0.0,0.0,0.0,0.0,0.0,0.0,0.0,0.0,0.0,0.0,0.0,0.0,0.0,0.0,0.0,0.0,0.0,0.0,0.0,0.0,0.0,0.0,0.0,0.0,0.0,0.0,0.0,0.0,0.0,0.0,0.0,0.0,0.0,0.0,0.0,0.0,0.0,0.0,0.0,0.0,0.0,0.0,0.0,0.0,0.0,0.0,0.0,0.0,0.0],"tree_param":{"num_deleted":"0","num_feature":"1","num_nodes":"61","size_leaf_vector":"0"}},{"base_weights":[0.0,0.0,0.0,0.0,0.0,0.0,0.0,0.0,0.0,0.0,0.0,0.0,0.0,0.0,0.0,0.0,0.0,0.0,0.0,0.0,0.0,0.0,0.0,0.0,0.0,0.0,0.0,0.0,0.0,0.0,0.0,0.0,0.0,0.0,0.0,0.0,0.0,0.0,0.0,0.0,0.0,0.0,0.0,0.0,0.0,0.0,0.0,0.0,0.0,0.0,0.0,0.0,0.0,0.0,0.0,0.0,0.0,0.0,0.0,0.0,0.0,0.0,0.0,0.0,0.0,0.0,0.0,0.0,0.0,0.0,0.0,0.0,0.0,0.0,0.0,0.0,0.0,0.0,0.0,0.0,0.0,0.0,0.0,0.0,0.0,0.0,0.0,0.0,0.0,0.0,0.0,0.0,0.0,0.0,0.0,0.0,0.0,0.0,0.0,0.0,0.0,0.0,0.0,0.0,0.0,0.0,0.0,0.0,0.0,0.0,0.0,0.0,0.0,0.0,0.0,0.0,0.0,0.0,0.0,0.0,0.0,0.0,0.0,0.0,0.0,0.0,0.0,0.0,0.0,0.0,0.0,0.0,0.0,0.0,0.0,0.0,0.0,0.0,0.0,0.0,0.0,0.0,0.0,0.0,0.0,0.0,0.0,0.0,0.0,0.0,0.0,0.0,0.0,0.0,0.0,0.0,0.0,0.0,0.0],"categories":[],"categories_nodes":[],"categories_segments":[],"categories_sizes":[],"default_left":[false,false,false,false,false,false,false,false,false,false,false,false,false,false,false,false,false,false,false,false,false,false,false,false,false,false,false,false,false,false,false,false,false,false,false,false,false,false,false,false,false,false,false,false,false,false,false,false,false,false,false,false,false,false,false,false,false,false,false,false,false,false,false,false,false,false,false,false,false,false,false,false,false,false,false,false,false,false,false,false,false,false,false,false,false,false,false,false,false,false,false,false,false,false,false,false,false,false,false,false,false,false,false,false,false,false,false,false,false,false,false,false,false,false,false,false,false,false,false,false,false,false,false,false,false,false,false,false,false,false,false,false,false,false,false,false,false,false,false,false,false,false,false,false,false,false,false,false,false,false,false,false,false,false,false,false,false,false,false],"id":2,"left_children":[1,3,5,7,9,11,13,15,17,19,21,23,25,27,29,31,33,35,37,39,41,43,-1,-1,45,-1,47,49,51,53,55,57,-1,-1,59,-1,61,63,65,67,69,-1,-1,71,-1,73,-1,75,77,79,81,-1,83,85,87,89,-1,-1,91,-1,93,95,-1,97,99,101,103,105,-1,107,-1,109,-1,-1,-1,-1,-1,-1,-1,-1,111,-1,-1,-1,113,-1,-1,115,117,-1,-1,-1,-1,-1,119,121,-1,-1,123,-1,-1,-1,-1,125,127,-1,129,131,-1,-1,133,-1,-1,135,-1,137,-1,139,141,143,-1,-1,-1,-1,-1,-1,-1,-1,-1,-1,145,147,-1,-1,-1,-1,-1,149,-1,-1,151,153,-1,155,-1,-1,-1,-1,-1,-1,-1,-1,-1,-1,157,-1,-1,-1,-1],"loss_changes":[0.0,0.0,0.0,0.0,0.0,0.0,0.0,0.0,0.0,0.0,0.0,0.0,0.0,0.0,0.0,0.0,0.0,0.0,0.0,0.0,0.0,0.0,0.0,0.0,0.0,0.0,0.0,0.0,0.0,0.0,0.0,0.0,0.0,0.0,0.0,0.0,0.0,0.0,0.0,0.0,0.0,0.0,0.0,0.0,0.0,0.0,0.0,0.0,0.0,0.0,0.0,0.0,0.0,0.0,0.0,0.0,0.0,0.0,0.0,0.0,0.0,0.0,0.0,0.0,0.0,0.0,0.0,0.0,0.0,0.0,0.0,0.0,0.0,0.0,0.0,0.0,0.0,0.0,0.0,0.0,0.0,0.0,0.0,0.0,0.0,0.0,0.0,0.0,0.0,0.0,0.0,0.0,0.0,0.0,0.0,0.0,0.0,0.0,0.0,0.0,0.0,0.0,0.0,0.0,0.0,0.0,0.0,0.0,0.0,0.0,0.0,0.0,0.0,0.0,0.0,0.0,0.0,0.0,0.0,0.0,0.0,0.0,0.0,0.0,0.0,0.0,0.0,0.0,0.0,0.0,0.0,0.0,0.0,0.0,0.0,0.0,0.0,0.0,0.0,0.0,0.0,0.0,0.0,0.0,0.0,0.0,0.0,0.0,0.0,0.0,0.0,0.0,0.0,0.0,0.0,0.0,0.0,0.0,0.0],"parents":[2147483647,0,0,1,1,2,2,3,3,4,4,5,5,6,6,7,7,8,8,9,9,10,10,11,11,12,12,13,13,14,14,15,15,16,16,17,17,18,18,19,19,20,20,21,21,24,24,26,26,27,27,28,28,29,29,30,30,31,31,34,34,36,36,37,37,38,38,39,39,40,40,43,43,45,45,47,47,48,48,49,49,50,50,52,52,53,53,54,54,55,55,58,58,60,60,61,61,63,63,64,64,65,65,66,66,67,67,69,69,71,71,80,80,84,84,87,87,88,88,94,94,95,95,98,98,103,103,104,104,106,106,107,107,110,110,113,113,115,115,117,117,118,118,119,119,130,130,131,131,137,137,140,140,141,141,143,143,154,154],"right_children":[2,4,6,8,10,12,14,16,18,20,22,24,26,28,30,32,34,36,38,40,42,44,-1,-1,46,-1,48,50,52,54,56,58,-1,-1,60,-1,62,64,66,68,70,-1,-1,72,-1,74,-1,76,78,80,82,-1,84,86,88,90,-1,-1,92,-1,94,96,-1,98,100,102,104,106,-1,108,-1,110,-1,-1,-1,-1,-1,-1,-1,-1,112,-1,-1,-1,114,-1,-1,116,118,-1,-1,-1,-1,-1,120,122,-1,-1,124,-1,-1,-1,-1,126,128,-1,130,132,-1,-1,134,-1,-1,136,-1,138,-1,140,142,144,-1,-1,-1,-1,-1,-1,-1,-1,-1,-1,146,148,-1,-1,-1,-1,-1,150,-1,-1,152,154,-1,156,-1,-1,-1,-1,-1,-1,-1,-1,-1,-1,158,-1,-1,-1,-1],"split_conditions":[7.261847205445907,2.350391554986178,2.8096221938478916,2.9129783184280633,2.3736219636558697,7.41985893948296,-6.716996768000062,0.470088530749484,3.567062877912843,1.9773537755057085,-2.715380871720563,-8.948701746341257,2.9988464425436767,5.070965296987001,1.7427454861456475,-6.297241000967884,5.388870802243373,-6.8814951099524455,-9.708693155637238,-1.53455537827762,-0.6096773773443793,7.176281824975966,1.6158016767735344,6.33602990639271,-3.3001329629928158,9.601052387267103,-4.36573108888739,2.7591435162895213,9.850802401181959,4.2908278035408305,7.817637110198451,4.163939353203084,-7.510179397507711,-4.613811728340633,7.009405920449602,0.1389256562407386,6.1274053711216645,3.085134391641107,1.3054931511084344,-2.9837126415085518,-8.150961498423701,-1.3119370564915442,6.484390328001982,2.106247174743716,-8.667118392361465,-5.292013929652274,-7.614807751917897,3.145049165409418,4.2430852314301415,-4.8578012566121975,-9.211400505418075,7.86390945439512,-2.7887575879036124,-6.379658856434613,9.323396775772238,-7.931229687971771,-9.862712688186729,-9.38974546906856,7.915402694594768,-7.7333533771492755,-9.985427261805372,8.648005867841,-4.560124695667555,-9.222298197818883,7.938912302261048,-5.02669668479229,-4.767812245447479,-5.277653995326502,-5.830129988000718,-5.391147571537504,-4.508462391320949,-4.441393343991793,1.2993790725544514,-0.07886229745532347,7.670898744549859,-8.591060733821436,-2.901912348340991,-8.40489248140926,5.544615261033012,5.599751294052414,-4.906874115706847,-8.744068556419762,-0.5209048164688372,-8.992961150982367,-2.337120832522947,-0.7408856904552046,-0.41535422639368136,1.4148909313630185,-4.033711421235627,-2.936830747063345,9.188104622861562,9.243311004372782,2.2451454585243287,4.245708872004386,-7.993720861420324,-3.032676168687404,9.675950442117578,-8.762839601283106,-6.113408476074245,9.448991439132943,-8.212115659131236,-8.189912395560315,-0.7238137459146969,8.43494578208621,-2.5963611444290313,-0.8498692976650375,2.3936323717105257,-6.345181230415808,1.625997118279237,3.371219816563883,-1.6205110516672168,1.8158268289923463,1.3025059875966996,-3.536787845686389,-3.7727825911624837,-7.783733768518404,6.308843441213575,-4.4470754735795905,-2.3698305483330087,-3.0334170167711303,-5.429817747929476,-1.7093732062292748,-2.5415153714790204,4.731496409845992,2.4268788885597754,-9.013268953185312,-6.66006310039168,0.9943709684699087,5.390771237891652,1.8726222412238513,3.7193919488257503,-9.269619553658682,-7.207828039739821,-0.7401541347444791,2.400420771196716,9.157361422868988,6.81405935929709,2.3552662846776364,-8.888588563588439,-6.438894272433506,-6.060846724022541,7.591035849527842,1.7292623439138133,-0.4103586123052061,-8.614947084780303,-4.944874717146318,1.5968218100989713,6.732326540637104,0.4629842277847036,3.155906268587758,-5.788150934062133,0.31441247202883815,-4.012923880970165,6.870000513910391,7.951800123217268,7.54616182263187,-6.150308645449771,0.49739894093540826,-2.6185247435151453],"split_indices":[0,0,0,0,0,0,0,0,0,0,0,0,0,0,0,0,0,0,0,0,0,0,0,0,0,0,0,0,0,0,0,0,0,0,0,0,0,0,0,0,0,0,0,0,0,0,0,0,0,0,0,0,0,0,0,0,0,0,0,0,0,0,0,0,0,0,0,0,0,0,0,0,0,0,0,0,0,0,0,0,0,0,0,0,0,0,0,0,0,0,0,0,0,0,0,0,0,0,0,0,0,0,0,0,0,0,0,0,0,0,0,0,0,0,0,0,0,0,0,0,0,0,0,0,0,0,0,0,0,0,0,0,0,0,0,0,0,0,0,0,0,0,0,0,0,0,0,0,0,0,0,0,0,0,0,0,0,0,0],"sum_hessian":[0.0,0.0,0.0,0.0,0.0,0.0,0.0,0.0,0.0,0.0,0.0,0.0,0.0,0.0,0.0,0.0,0.0,0.0,0.0,0.0,0.0,0.0,0.0,0.0,0.0,0.0,0.0,0.0,0.0,0.0,0.0,0.0,0.0,0.0,0.0,0.0,0.0,0.0,0.0,0.0,0.0,0.0,0.0,0.0,0.0,0.0,0.0,0.0,0.0,0.0,0.0,0.0,0.0,0.0,0.0,0.0,0.0,0.0,0.0,0.0,0.0,0.0,0.0,0.0,0.0,0.0,0.0,0.0,0.0,0.0,0.0,0.0,0.0,0.0,0.0,0.0,0.0,0.0,0.0,0.0,0.0,0.0,0.0,0.0,0.0,0.0,0.0,0.0,0.0,0.0,0.0,0.0,0.0,0.0,0.0,0.0,0.0,0.0,0.0,0.0,0.0,0.0,0.0,0.0,0.0,0.0,0.0,0.0,0.0,0.0,0.0,0.0,0.0,0.0,0.0,0.0,0.0,0.0,0.0,0.0,0.0,0.0,0.0,0.0,0.0,0.0,0.0,0.0,0.0,0.0,0.0,0.0,0.0,0.0,0.0,0.0,0.0,0.0,0.0,0.0,0.0,0.0,0.0,0.0,0.0,0.0,0.0,0.0,0.0,0.0,0.0,0.0,0.0,0.0,0.0,0.0,0.0,0.0,0.0],"tree_param":{"num_deleted":"0","num_feature":"1","num_nodes":"159","size_leaf_vector":"0"}},{"base_weights":[0.0,0.0,0.0,0.0,0.0,0.0,0.0,0.0,0.0,0.0,0.0,0.0,0.0,0.0,0.0,0.0,0.0,0.0,0.0,0.0,0.0,0.0,0.0,0.0,0.0,0.0,0.0,0.0,0.0,0.0,0.0,0.0,0.0,0.0,0.0,0.0,0.0,0.0,0.0,0.0,0.0,0.0,0.0,0.0,0.0,0.0,0.0,0.0,0.0,0.0,0.0,0.0,0.0,0.0,0.0,0.0,0.0,0.0,0.0,0.0,0.0,0.0,0.0,0.0,0.0,0.0,0.0,0.0,0.0,0.0,0.0,0.0,0.0,0.0,0.0,0.0,0.0],"categories":[],"categories_nodes":[],"categories_segments":[],"categories_sizes":[],"default_left":[false,false,false,false,false,false,false,false,false,false,false,false,false,false,false,false,false,false,false,false,false,false,false,false,false,false,false,false,false,false,false,false,false,false,false,false,false,false,false,false,false,false,false,false,false,false,false,false,false,false,false,false,false,false,false,false,false,false,false,false,false,false,false,false,false,false,false,false,false,false,false,false,false,false,false,false,false],"id":3,"left_children":[1,3,5,7,9,11,-1,-1,13,-1,15,17,-1,19,21,23,25,27,29,31,33,-1,35,37,-1,-1,-1,39,-1,-1,41,43,45,-1,47,49,51,53,-1,-1,-1,-1,55,-1,-1,-1,-1,-1,57,59,61,63,65,67,-1,-1,-1,-1,69,-1,-1,-1,-1,71,-1,-1,-1,73,-1,75,-1,-1,-1,-1,-1,-1,-1],"loss_changes":[0.0,0.0,0.0,0.0,0.0,0.0,0.0,0.0,0.0,0.0,0.0,0.0,0.0,0.0,0.0,0.0,0.0,0.0,0.0,0.0,0.0,0.0,0.0,0.0,0.0,0.0,0.0,0.0,0.0,0.0,0.0,0.0,0.0,0.0,0.0,0.0,0.0,0.0,0.0,0.0,0.0,0.0,0.0,0.0,0.0,0.0,0.0,0.0,0.0,0.0,0.0,0.0,0.0,0.0,0.0,0.0,0.0,0.0,0.0,0.0,0.0,0.0,0.0,0.0,0.0,0.0,0.0,0.0,0.0,0.0,0.0,0.0,0.0,0.0,0.0,0.0,0.0],"parents":[2147483647,0,0,1,1,2,2,3,3,4,4,5,5,8,8,10,10,11,11,13,13,14,14,15,15,16,16,17,17,18,18,19,19,20,20,22,22,23,23,27,27,30,30,31,31,32,32,34,34,35,35,36,36,37,37,42,42,48,48,49,49,50,50,51,51,52,52,53,53,58,58,63,63,67,67,69,69],"right_children":[2,4,6,8,10,12,-1,-1,14,-1,16,18,-1,20,22,24,26,28,30,32,34,-1,36,38,-1,-1,-1,40,-1,-1,42,44,46,-1,48,50,52,54,-1,-1,-1,-1,56,-1,-1,-1,-1,-1,58,60,62,64,66,68,-1,-1,-1,-1,70,-1,-1,-1,-1,72,-1,-1,-1,74,-1,76,-1,-1,-1,-1,-1,-1,-1],"split_conditions":[-4.033307620117554,3.1349784542852728,-4.761515788990485,-2.1334677065603422,-1.5945874067578725,4.184934876288754,2.74391039365927,-0.7863521657257824,-4.237648744275285,8.565066108644427,7.403288437225356,2.594919460186045,-1.6132366659606205,6.510960780841209,-8.412818128462565,6.7794990950667895,-8.02328571186084,-1.8903791857164016,-2.6945308575208653,2.873552368586596,9.67607619629391,9.770028797484606,-4.1546742165553665,-7.666359916873763,-1.519003085249544,-1.1562455142395969,8.67094733936954,-5.1560334197961595,5.675255074761898,2.731889070787979,0.22157429116080607,-1.0498349709716202,-9.931372390952077,8.494769231151771,8.283955834184646,3.2741590564972896,-1.4367970330860658,8.23113669714365,-0.04587012083752029,-6.121960133678817,-0.25512265465294526,-6.688142569998042,-3.855985292018307,4.036739436890574,4.310815619566423,8.126627838649167,-6.8468272839518525,3.862378169243911,5.808110474062591,7.398643308022077,-0.14338602810538958,0.07114759062223186,4.748300688714846,-8.003742239412428,-7.512406446677339,3.4407297574465456,-7.059473619769893,-3.8705192949651828,7.512550861490055,-8.398958219129685,-2.3291720330675787,6.661393300052467,9.236881144138998,2.300857894487569,0.639210343974213,-8.559474128328032,-9.846776471794458,7.7124450511186495,-9.226535086220652,-5.300716587436111,-5.462038259612348,-3.1637923057949546,-5.705768107589056,2.551496637603524,9.268237657941135,-0.4841172634798081,0.8792044432230988],"split_indices":[0,0,0,0,0,0,0,0,0,0,0,0,0,0,0,0,0,0,0,0,0,0,0,0,0,0,0,0,0,0,0,0,0,0,0,0,0,0,0,0,0,0,0,0,0,0,0,0,0,0,0,0,0,0,0,0,0,0,0,0,0,0,0,0,0,0,0,0,0,0,0,0,0,0,0,0,0],"sum_hessian":[0.0,0.0,0.0,0.0,0.0,0.0,0.0,0.0,0.0,0.0,0.0,0.0,0.0,0.0,0.0,0.0,0.0,0.0,0.0,0.0,0.0,0.0,0.0,0.0,0.0,0.0,0.0,0.0,0.0,0.0,0.0,0.0,0.0,0.0,0.0,0.0,0.0,0.0,0.0,0.0,0.0,0.0,0.0,0.0,0.0,0.0,0.0,0.0,0.0,0.0,0.0,0.0,0.0,0.0,0.0,0.0,0.0,0.0,0.0,0.0,0.0,0.0,0.0,0.0,0.0,0.0,0.0,0.0,0.0,0.0,0.0,0.0,0.0,0.0,0.0,0.0,0.0],"tree_param":{"num_deleted":"0","num_feature":"1","num_nodes":"77","size_leaf_vector":"0"}}]},"name":"gbtree"},"learner_model_param":{"base_score":"5E-1","num_class":"0","num_feature":"1"},"objective":{"name":"reg:squarederror","reg_loss_param":{"scale_pos_weight":"1"}}},"version":[1,4,0]}