{"learner":{"attributes":{},"feature_types":["float","float","float"],"gradient_booster":{"model":{"gbtree_model_param":{"num_trees":"4","size_leaf_vector":"0"},"tree_info":[0,0,0,0],"trees":[{"base_weights":[0.0,0.0,0.0,0.0,0.0,0.0,0.0,0.0,0.0,0.0,0.0,0.0,0.0,0.0,0.0,0.0,0.0,0.0,0.0,0.0,0.0,0.0,0.0,0.0,0.0,0.0,0.0,0.0,0.0,0.0,0.0,0.0,0.0,0.0,0.0,0.0,0.0,0.0,0.0,0.0,0.0,0.0,0.0,0.0,0.0,0.0,0.0,0.0,0.0,0.0,0.0,0.0,0.0,0.0,0.0,0.0,0.0,0.0,0.0,0.0,0.0,0.0,0.0,0.0,0.0,0.0,0.0,0.0,0.0,0.0,0.0,0.0,0.0,0.0,0.0,0.0,0.0,0.0,0.0,0.0,0.0,0.0,0.0,0.0,0.0,0.0,0.0,0.0,0.0,0.0,0.0,0.0,0.0,0.0,0.0,0.0,0.0,0.0,0.0,0.0,0.0,0.0,0.0,0.0,0.0,0.0,0.0,0.0,0.0,0.0,0.0,0.0,0.0,0.0,0.0,0.0,0.0,0.0,0.0,0.0,0.0,0.0,0.0,0.0,0.0,0.0,0.0,0.0,0.0,0.0,0.0,0.0,0.0],"categories":[],"categories_nodes":[],"categories_segments":[],"categories_sizes":[],"default_left":[false,false,false,false,false,false,false,false,false,false,false,false,false,false,false,false,false,false,false,false,false,false,false,false,false,false,false,false,false,false,false,false,false,false,false,false,false,false,false,false,false,false,false,false,false,false,false,false,false,false,false,false,false,false,false,false,false,false,false,false,false,false,false,false,false,false,false,false,false,false,false,false,false,false,false,false,false,false,false,false,false,false,false,false,false,false,false,false,false,false,false,false,false,false,false,false,false,false,false,false,false,false,false,false,false,false,false,false,false,false,false,false,false,false,false,false,false,false,false,false,false,false,false,false,false,false,false,false,false,false,false,false,false],"id":0,"left_children":[1,3,5,7,9,11,13,15,17,-1,19,-1,21,23,25,-1,27,29,31,33,35,37,-1,-1,39,41,43,-1,-1,45,-1,47,49,-1,-1,-1,-1,51,53,55,57,59,-1,-1,61,63,65,-1,-1,-1,67,-1,69,71,73,75,-1,77,79,-1,81,83,85,-1,87,-1,-1,89,91,-1,-1,93,-1,-1,95,-1,97,-1,99,101,103,105,107,-1,-1,109,-1,-1,-1,111,-1,-1,-1,113,-1,-1,-1,115,-1,117,-1,-1,119,-1,-1,121,123,-1,125,-1,-1,-1,-1,-1,-1,127,129,-1,-1,-1,131,-1,-1,-1,-1,-1,-1,-1,-1,-1,-1,-1,-1],"loss_changes":[0.0,0.0,0.0,0.0,0.0,0.0,0.0,0.0,0.0,0.0,0.0,0.0,0.0,0.0,0.0,0.0,0.0,0.0,0.0,0.0,0.0,0.0,0.0,0.0,0.0,0.0,0.0,0.0,0.0,0.0,0.0,0.0,0.0,0.0,0.0,0.0,0.0,0.0,0.0,0.0,0.0,0.0,0.0,0.0,0.0,0.0,0.0,0.0,0.0,0.0,0.0,0.0,0.0,0.0,0.0,0.0,0.0,0.0,0.0,0.0,0.0,0.0,0.0,0.0,0.0,0.0,0.0,0.0,0.0,0.0,0.0,0.0,0.0,0.0,0.0,0.0,0.0,0.0,0.0,0.0,0.0,0.0,0.0,0.0,0.0,0.0,0.0,0.0,0.0,0.0,0.0,0.0,0.0,0.0,0.0,0.0,0.0,0.0,0.0,0.0,0.0,0.0,0.0,0.0,0.0,0.0,0.0,0.0,0.0,0.0,0.0,0.0,0.0,0.0,0.0,0.0,0.0,0.0,0.0,0.0,0.0,0.0,0.0,0.0,0.0,0.0,0.0,0.0,0.0,0.0,0.0,0.0,0.0],"parents":[2147483647,0,0,1,1,2,2,3,3,4,4,5,5,6,6,7,7,8,8,10,10,12,12,13,13,14,14,16,16,17,17,18,18,19,19,20,20,21,21,24,24,25,25,26,26,29,29,31,31,32,32,37,37,38,38,39,39,40,40,41,41,44,44,45,45,46,46,50,50,52,52,53,53,54,54,55,55,57,57,58,58,60,60,61,61,62,62,64,64,67,67,68,68,71,71,74,74,76,76,78,78,79,79,80,80,81,81,82,82,85,85,89,89,93,93,97,97,99,99,102,102,105,105,106,106,108,108,115,115,116,116,120,120],"right_children":[2,4,6,8,10,12,14,16,18,-1,20,-1,22,24,26,-1,28,30,32,34,36,38,-1,-1,40,42,44,-1,-1,46,-1,48,50,-1,-1,-1,-1,52,54,56,58,60,-1,-1,62,64,66,-1,-1,-1,68,-1,70,72,74,76,-1,78,80,-1,82,84,86,-1,88,-1,-1,90,92,-1,-1,94,-1,-1,96,-1,98,-1,100,102,104,106,108,-1,-1,110,-1,-1,-1,112,-1,-1,-1,114,-1,-1,-1,116,-1,118,-1,-1,120,-1,-1,122,124,-1,126,-1,-1,-1,-1,-1,-1,128,130,-1,-1,-1,132,-1,-1,-1,-1,-1,-1,-1,-1,-1,-1,-1,-1],"split_conditions":[5.405141756441843,-1.9648911297053289,-4.028636641807733,6.814503795012207,-7.71874880831643,9.148882005814695,-7.268222825908133,0.2061946136495898,0.20866829468843306,-1.2392941941136932,-5.916352599616352,6.125854834158751,-6.030357432679535,3.206457996600749,-5.021729202120478,-4.1865685408209465,-4.032177061349376,8.966337021667986,0.2868532983463563,5.579786923592881,4.609059445622876,-0.2670597566251214,-3.8848638976155563,-8.165058283452527,0.743889350148665,-1.3421798156846592,7.424511831351911,3.7730245643069633,6.7680392017369755,-8.607780474811008,-0.0028202954210883036,9.658613821698392,-0.17687455547148367,5.923523487749694,-2.2399787351245406,-5.483028630385405,9.122536465710276,7.263568530956462,-4.474029517517391,-6.828092430032969,-8.291290384562258,-1.9859165508144443,7.822404476561189,1.0420604402769733,0.014380635011484344,6.999827269185168,-7.326711976462374,9.419408466692513,-1.520306717674183,5.351024183244883,-9.127551328308943,-1.0525468237378597,2.3119880392942385,7.506951236643037,-2.280725142562689,0.9048322075217712,-9.036406527218677,8.254162009644922,7.6369651053247125,-9.272615757205442,-1.771060598888841,-4.699678581994275,-2.933685180317833,0.6306695606945372,-8.454750822512192,5.534458445071362,8.708465778424824,6.109915761288935,-1.594729325504563,3.4710019247234705,-9.068920102563283,-4.683282014756425,-1.1380718282663356,8.313846564129928,-2.748854331788686,8.191033856936862,6.031650161253811,7.983373455241306,2.5267363460883967,-1.3563308676248358,-4.34772847105299,4.928763894021573,-2.6230349489133875,1.6058779991874914,1.51798051519755,8.823094901407579,-6.08148564640338,-9.124776287452846,0.29752510453937475,-3.4398144029430604,-9.035509777932562,5.192240219481281,8.286115833883578,3.422874286222859,9.07935700111667,-5.072223871370566,-1.1778186617194617,7.136752418815298,-8.787351566217701,1.9677105738051797,5.768868911371774,-4.146408185474075,-1.069208336905362,3.511577261037491,1.197655877943438,-5.683547171693191,0.033048146180302496,-4.576475533222995,8.735024184351381,-6.360948548961364,7.000069414079885,-2.3583541310115876,2.0003604754733573,3.180884942963276,4.0074988518616745,1.226829410170314,7.091833900404406,2.418224535392646,-7.871055991380646,-8.578800781647805,-6.072112923147426,2.420061605735013,-4.098353812964329,5.077021422127503,4.715888537641057,9.949984867107297,1.8039137455804415,9.02925356104532,-1.1346712725753143,-1.1466726429955685,0.7478619563146172,8.378728329327,8.284942851949452],"split_indices":[1,2,0,2,0,2,1,2,2,0,2,0,0,0,2,0,1,0,2,0,1,2,0,0,1,0,2,0,0,0,0,1,2,0,0,0,0,0,1,2,0,2,0,0,1,0,2,0,0,0,0,0,1,1,2,0,0,2,2,0,2,0,2,0,1,0,0,1,1,0,0,1,0,0,1,0,2,0,0,1,2,0,1,0,0,2,0,0,0,1,0,0,0,1,0,0,0,0,0,0,0,0,1,0,0,0,1,0,2,0,0,0,0,0,0,0,0,0,0,0,0,0,0,0,0,0,0,0,0,0,0,0,0],"sum_hessian":[0.0,0.0,0.0,0.0,0.0,0.0,0.0,0.0,0.0,0.0,0.0,0.0,0.0,0.0,0.0,0.0,0.0,0.0,0.0,0.0,0.0,0.0,0.0,0.0,0.0,0.0,0.0,0.0,0.0,0.0,0.0,0.0,0.0,0.0,0.0,0.0,0.0,0.0,0.0,0.0,0.0,0.0,0.0,0.0,0.0,0.0,0.0,0.0,0.0,0.0,0.0,0.0,0.0,0.0,0.0,0.0,0.0,0.0,0.0,0.0,0.0,0.0,0.0,0.0,0.0,0.0,0.0,0.0,0.0,0.0,0.0,0.0,0.0,0.0,0.0,0.0,0.0,0.0,0.0,0.0,0.0,0.0,0.0,0.0,0.0,0.0,0.0,0.0,0.0,0.0,0.0,0.0,0.0,0.0,0.0,0.0,0.0,0.0,0.0,0.0,0.0,0.0,0.0,0.0,0.0,0.0,0.0,0.0,0.0,0.0,0.0,0.0,0.0,0.0,0.0,0.0,0.0,0.0,0.0,0.0,0.0,0.0,0.0,0.0,0.0,0.0,0.0,0.0,0.0,0.0,0.0,0.0,0.0],"tree_param":{"num_deleted":"0","num_feature":"3","num_nodes":"133","size_leaf_vector":"0"}},{"base_weights":[0.0,0.0,0.0,0.0,0.0,0.0,0.0,0.0,0.0,0.0,0.0,0.0,0.0,0.0,0.0,0.0,0.0,0.0,0.0,0.0,0.0,0.0,0.0,0.0,0.0,0.0,0.0,0.0,0.0,0.0,0.0,0.0,0.0,0.0,0.0,0.0,0.0,0.0,0.0,0.0,0.0,0.0,0.0,0.0,0.0,0.0,0.0,0.0,0.0,0.0,0.0,0.0,0.0,0.0,0.0,0.0,0.0,0.0,0.0,0.0,0.0,0.0,0.0,0.0,0.0,0.0,0.0,0.0,0.0,0.0,0.0,0.0,0.0,0.0,0.0,0.0,0.0,0.0,0.0,0.0,0.0,0.0,0.0,0.0,0.0,0.0,0.0,0.0,0.0,0.0,0.0,0.0,0.0,0.0,0.0,0.0,0.0,0.0,0.0,0.0,0.0,0.0,0.0,0.0,0.0,0.0,0.0,0.0,0.0,0.0,0.0,0.0,0.0,0.0,0.0,0.0,0.0,0.0,0.0,0.0,0.0,0.0,0.0,0.0,0.0,0.0,0.0,0.0,0.0,0.0,0.0,0.0,0.0,0.0,0.0,0.0,0.0,0.0,0.0,0.0,0.0,0.0,0.0,0.0,0.0],"categories":[],"categories_nodes":[],"categories_segments":[],"categories_sizes":[],"default_left":[false,false,false,false,false,false,false,false,false,false,false,false,false,false,false,false,false,false,false,false,false,false,false,false,false,false,false,false,false,false,false,false,false,false,false,false,false,false,false,false,false,false,false,false,false,false,false,false,false,false,false,false,false,false,false,false,false,false,false,false,false,false,false,false,false,false,false,false,false,false,false,false,false,false,false,false,false,false,false,false,false,false,false,false,false,false,false,false,false,false,false,false,false,false,false,false,false,false,false,false,false,false,false,false,false,false,false,false,false,false,false,false,false,false,false,false,false,false,false,false,false,false,false,false,false,false,false,false,false,false,false,false,false,false,false,false,false,false,false,false,false,false,false,false,false],"id":1,"left_children":[1,3,5,7,9,11,13,15,17,19,-1,21,23,25,27,-1,29,31,33,35,37,39,41,43,45,47,-1,49,51,53,-1,-1,55,-1,57,59,-1,61,63,65,67,69,71,73,-1,75,77,79,81,-1,83,-1,-1,85,-1,-1,87,89,91,-1,93,95,97,-1,-1,-1,99,-1,101,103,105,-1,-1,-1,-1,107,-1,109,-1,111,-1,-1,-1,113,115,-1,-1,-1,-1,-1,-1,117,119,-1,-1,121,123,-1,-1,-1,-1,-1,-1,-1,-1,-1,-1,-1,-1,125,-1,127,-1,129,-1,-1,-1,-1,-1,-1,131,133,135,137,-1,139,-1,141,-1,-1,-1,-1,-1,-1,-1,143,-1,-1,-1,-1,-1,-1,-1,-1,-1],"loss_changes":[0.0,0.0,0.0,0.0,0.0,0.0,0.0,0.0,0.0,0.0,0.0,0.0,0.0,0.0,0.0,0.0,0.0,0.0,0.0,0.0,0.0,0.0,0.0,0.0,0.0,0.0,0.0,0.0,0.0,0.0,0.0,0.0,0.0,0.0,0.0,0.0,0.0,0.0,0.0,0.0,0.0,0.0,0.0,0.0,0.0,0.0,0.0,0.0,0.0,0.0,0.0,0.0,0.0,0.0,0.0,0.0,0.0,0.0,0.0,0.0,0.0,0.0,0.0,0.0,0.0,0.0,0.0,0.0,0.0,0.0,0.0,0.0,0.0,0.0,0.0,0.0,0.0,0.0,0.0,0.0,0.0,0.0,0.0,0.0,0.0,0.0,0.0,0.0,0.0,0.0,0.0,0.0,0.0,0.0,0.0,0.0,0.0,0.0,0.0,0.0,0.0,0.0,0.0,0.0,0.0,0.0,0.0,0.0,0.0,0.0,0.0,0.0,0.0,0.0,0.0,0.0,0.0,0.0,0.0,0.0,0.0,0.0,0.0,0.0,0.0,0.0,0.0,0.0,0.0,0.0,0.0,0.0,0.0,0.0,0.0,0.0,0.0,0.0,0.0,0.0,0.0,0.0,0.0,0.0,0.0],"parents":[2147483647,0,0,1,1,2,2,3,3,4,4,5,5,6,6,7,7,8,8,9,9,11,11,12,12,13,13,14,14,16,16,17,17,18,18,19,19,20,20,21,21,22,22,23,23,24,24,25,25,27,27,28,28,29,29,32,32,34,34,35,35,37,37,38,38,39,39,40,40,41,41,42,42,43,43,45,45,46,46,47,47,48,48,50,50,53,53,56,56,57,57,58,58,60,60,61,61,62,62,66,66,68,68,69,69,70,70,75,75,77,77,79,79,83,83,84,84,91,91,92,92,95,95,96,96,109,109,111,111,113,113,120,120,121,121,122,122,123,123,125,125,127,127,135,135],"right_children":[2,4,6,8,10,12,14,16,18,20,-1,22,24,26,28,-1,30,32,34,36,38,40,42,44,46,48,-1,50,52,54,-1,-1,56,-1,58,60,-1,62,64,66,68,70,72,74,-1,76,78,80,82,-1,84,-1,-1,86,-1,-1,88,90,92,-1,94,96,98,-1,-1,-1,100,-1,102,104,106,-1,-1,-1,-1,108,-1,110,-1,112,-1,-1,-1,114,116,-1,-1,-1,-1,-1,-1,118,120,-1,-1,122,124,-1,-1,-1,-1,-1,-1,-1,-1,-1,-1,-1,-1,126,-1,128,-1,130,-1,-1,-1,-1,-1,-1,132,134,136,138,-1,140,-1,142,-1,-1,-1,-1,-1,-1,-1,144,-1,-1,-1,-1,-1,-1,-1,-1,-1],"split_conditions":[-1.001447832929415,5.861094723109293,3.410987689972698,-4.394563989870726,5.476324789564179,0.4404090921831063,2.9146378935189112,3.6692106140245695,8.413311047634593,1.9815110470198167,3.6806971728094613,-7.388852151663894,0.439311583888518,8.960238689230088,4.950010584158683,0.27239979454181373,-1.0141437504444752,3.117045023450615,-9.183714366547866,5.151339941519373,9.130001974113611,-2.496792830831909,7.018782658950887,3.705721803403364,3.686203960664427,7.685215424979091,2.0165263813270684,-7.275067360889358,-5.677622214277698,7.788197020387855,8.0747870398006,-6.11628537364032,8.94031863762305,-0.437921234897523,7.41270304454374,2.894905877948915,-1.3079159404951444,8.956810201000302,4.0834017070733974,-8.43621832631716,-1.6761851162211663,5.958772561602375,3.051778802284673,-7.08700627007227,-6.587033403637681,8.636526990105722,-0.42953254105607286,1.7124394852137357,-3.629471511609732,3.8263548519189445,-7.4234837933266125,7.120407412031987,-2.859937579388415,3.674178529274341,8.807347015260092,-2.4567537818747702,-6.556068939387597,-2.592085295840687,-1.7777201386824455,8.67132065568794,7.546907179837749,-7.928557853648707,8.683156288082685,7.0572155312433225,4.231220301661116,-5.231484478731843,1.0782034025328322,-3.811073014442239,9.475658850711334,-3.2846706684569043,-3.2421105081868724,7.995655337995938,-5.752059099597804,8.53562443427844,4.819111494833173,-4.735645094591169,6.78905038741939,-4.926157378555783,-1.9806289533857235,-6.006839201626056,6.916307931879103,-7.878905583667614,8.242196103616713,5.296458818515346,-6.61324382497911,-1.468520819800899,-9.273634524952735,6.052174127536759,-9.905780932484543,-7.078624330189977,-6.442723931015021,-0.45371465143189127,8.783811987644654,0.48518880012434096,4.783448337815948,-0.267169338108296,-3.16313395170825,4.297161616692062,-5.898849785419823,-5.799581684013063,-8.187234470012527,5.802889277205187,6.549658000867517,6.1477331143254474,7.910069198626243,9.898871794575228,9.57105019330941,7.746847176822573,8.088974282840372,0.11279891339582448,-0.886223681288044,0.5833328245978961,-7.5663933738077755,-1.5790977108935902,-4.4741346061327025,-7.547823171070901,-1.9371120791205243,7.210167391732977,-7.151808366588622,3.704303005158563,1.2932101431263696,-7.886997400763709,1.355048480327536,8.596813070543085,2.4884620548060497,-1.94480739506208,9.308935596298696,-6.743568992432845,-5.650386460625963,-7.747389820290778,-2.8421924847992575,-1.9038598521358825,-7.407593101911716,1.6990031912936914,5.364466310527586,-6.398152306450555,-1.6634533475403828,6.487591346898011,3.096094024993052,2.400515593506544,0.4767769029192479,-8.075012292251289,-7.3329880887185315,3.098415146874906,7.530855212312655],"split_indices":[1,2,1,2,2,0,0,0,0,1,0,1,2,2,1,0,1,0,2,1,2,0,1,2,2,1,0,1,2,2,0,0,2,0,2,0,0,1,1,0,2,2,2,2,0,2,2,2,1,0,0,0,0,1,0,0,0,0,0,0,2,2,0,0,0,0,0,0,1,0,0,0,0,0,0,1,0,0,0,0,0,0,0,1,0,0,0,0,0,0,0,0,0,0,0,1,2,0,0,0,0,0,0,0,0,0,0,0,0,2,0,1,0,0,0,0,0,0,0,0,0,2,2,0,0,2,0,0,0,0,0,0,0,0,0,1,0,0,0,0,0,0,0,0,0],"sum_hessian":[0.0,0.0,0.0,0.0,0.0,0.0,0.0,0.0,0.0,0.0,0.0,0.0,0.0,0.0,0.0,0.0,0.0,0.0,0.0,0.0,0.0,0.0,0.0,0.0,0.0,0.0,0.0,0.0,0.0,0.0,0.0,0.0,0.0,0.0,0.0,0.0,0.0,0.0,0.0,0.0,0.0,0.0,0.0,0.0,0.0,0.0,0.0,0.0,0.0,0.0,0.0,0.0,0.0,0.0,0.0,0.0,0.0,0.0,0.0,0.0,0.0,0.0,0.0,0.0,0.0,0.0,0.0,0.0,0.0,0.0,0.0,0.0,0.0,0.0,0.0,0.0,0.0,0.0,0.0,0.0,0.0,0.0,0.0,0.0,0.0,0.0,0.0,0.0,0.0,0.0,0.0,0.0,0.0,0.0,0.0,0.0,0.0,0.0,0.0,0.0,0.0,0.0,0.0,0.0,0.0,0.0,0.0,0.0,0.0,0.0,0.0,0.0,0.0,0.0,0.0,0.0,0.0,0.0,0.0,0.0,0.0,0.0,0.0,0.0,0.0,0.0,0.0,0.0,0.0,0.0,0.0,0.0,0.0,0.0,0.0,0.0,0.0,0.0,0.0,0.0,0.0,0.0,0.0,0.0,0.0],"tree_param":{"num_deleted":"0","num_feature":"3","num_nodes":"145","size_leaf_vector":"0"}},{"base_weights":[0.0,0.0,0.0,0.0,0.0,0.0,0.0,0.0,0.0,0.0,0.0,0.0,0.0,0.0,0.0,0.0,0.0,0.0,0.0,0.0,0.0,0.0,0.0,0.0,0.0,0.0,0.0,0.0,0.0,0.0,0.0,0.0,0.0,0.0,0.0,0.0,0.0,0.0,0.0,0.0,0.0,0.0,0.0,0.0,0.0,0.0,0.0,0.0,0.0,0.0,0.0,0.0,0.0,0.0,0.0,0.0,0.0,0.0,0.0,0.0,0.0,0.0,0.0,0.0,0.0,0.0,0.0,0.0,0.0,0.0,0.0,0.0,0.0,0.0,0.0,0.0,0.0,0.0,0.0,0.0,0.0,0.0,0.0,0.0,0.0,0.0,0.0,0.0,0.0,0.0,0.0,0.0,0.0,0.0,0.0,0.0,0.0,0.0,0.0,0.0,0.0,0.0,0.0,0.0,0.0,0.0,0.0,0.0,0.0,0.0,0.0,0.0,0.0,0.0,0.0,0.0,0.0,0.0,0.0,0.0,0.0,0.0,0.0,0.0,0.0,0.0,0.0,0.0,0.0,0.0,0.0,0.0,0.0],"categories":[],"categories_nodes":[],"categories_segments":[],"categories_sizes":[],"default_left":[false,false,false,false,false,false,false,false,false,false,false,false,false,false,false,false,false,false,false,false,false,false,false,false,false,false,false,false,false,false,false,false,false,false,false,false,false,false,false,false,false,false,false,false,false,false,false,false,false,false,false,false,false,false,false,false,false,false,false,false,false,false,false,false,false,false,false,false,false,false,false,false,false,false,false,false,false,false,false,false,false,false,false,false,false,false,false,false,false,false,false,false,false,false,false,false,false,false,false,false,false,false,false,false,false,false,false,false,false,false,false,false,false,false,false,false,false,false,false,false,false,false,false,false,false,false,false,false,false,false,false,false,false],"id":2,"left_children":[1,3,5,7,9,11,13,15,17,19,-1,21,23,25,27,29,-1,31,-1,33,35,37,39,41,43,45,47,49,51,53,55,57,59,61,-1,-1,63,65,67,-1,69,71,73,75,77,79,-1,-1,-1,81,-1,83,85,-1,-1,87,89,-1,-1,91,-1,93,-1,-1,95,97,-1,-1,99,-1,-1,-1,-1,101,-1,103,-1,-1,105,-1,107,-1,109,-1,-1,111,113,-1,-1,-1,-1,115,-1,-1,-1,-1,-1,117,-1,-1,-1,-1,-1,-1,119,-1,-1,-1,-1,-1,-1,-1,121,-1,-1,123,125,-1,-1,127,-1,-1,-1,129,-1,-1,131,-1,-1,-1,-1,-1,-1],"loss_changes":[0.0,0.0,0.0,0.0,0.0,0.0,0.0,0.0,0.0,0.0,0.0,0.0,0.0,0.0,0.0,0.0,0.0,0.0,0.0,0.0,0.0,0.0,0.0,0.0,0.0,0.0,0.0,0.0,0.0,0.0,0.0,0.0,0.0,0.0,0.0,0.0,0.0,0.0,0.0,0.0,0.0,0.0,0.0,0.0,0.0,0.0,0.0,0.0,0.0,0.0,0.0,0.0,0.0,0.0,0.0,0.0,0.0,0.0,0.0,0.0,0.0,0.0,0.0,0.0,0.0,0.0,0.0,0.0,0.0,0.0,0.0,0.0,0.0,0.0,0.0,0.0,0.0,0.0,0.0,0.0,0.0,0.0,0.0,0.0,0.0,0.0,0.0,0.0,0.0,0.0,0.0,0.0,0.0,0.0,0.0,0.0,0.0,0.0,0.0,0.0,0.0,0.0,0.0,0.0,0.0,0.0,0.0,0.0,0.0,0.0,0.0,0.0,0.0,0.0,0.0,0.0,0.0,0.0,0.0,0.0,0.0,0.0,0.0,0.0,0.0,0.0,0.0,0.0,0.0,0.0,0.0,0.0,0.0],"parents":[2147483647,0,0,1,1,2,2,3,3,4,4,5,5,6,6,7,7,8,8,9,9,11,11,12,12,13,13,14,14,15,15,17,17,19,19,20,20,21,21,22,22,23,23,24,24,25,25,26,26,27,27,28,28,29,29,30,30,31,31,32,32,33,33,36,36,37,37,38,38,40,40,41,41,42,42,43,43,44,44,45,45,49,49,51,51,52,52,55,55,56,56,59,59,61,61,64,64,65,65,68,68,73,73,75,75,78,78,80,80,82,82,85,85,86,86,91,91,97,97,104,104,112,112,115,115,116,116,119,119,123,123,126,126],"right_children":[2,4,6,8,10,12,14,16,18,20,-1,22,24,26,28,30,-1,32,-1,34,36,38,40,42,44,46,48,50,52,54,56,58,60,62,-1,-1,64,66,68,-1,70,72,74,76,78,80,-1,-1,-1,82,-1,84,86,-1,-1,88,90,-1,-1,92,-1,94,-1,-1,96,98,-1,-1,100,-1,-1,-1,-1,102,-1,104,-1,-1,106,-1,108,-1,110,-1,-1,112,114,-1,-1,-1,-1,116,-1,-1,-1,-1,-1,118,-1,-1,-1,-1,-1,-1,120,-1,-1,-1,-1,-1,-1,-1,122,-1,-1,124,126,-1,-1,128,-1,-1,-1,130,-1,-1,132,-1,-1,-1,-1,-1,-1],"split_conditions":[0.7816800808668027,6.252226610145435,5.003513105558632,-1.4156659661889321,0.22841650385609036,-0.3379134482310704,-3.295343070609018,7.802045714386246,-6.2265358527078565,8.310201416154097,7.157079162874325,-4.05324243707036,-2.9613240011653765,8.163401040573643,-1.7619438366645408,-4.7678549107903585,-5.628449804355026,4.589563899717291,-7.487813511421464,-3.557473603300508,4.705365788499069,-9.084426816278725,4.822150917689989,9.359166693069017,2.320955924218268,2.617249051802368,5.3898351430859215,6.348762162784773,-1.115841970530525,-3.0556681330702586,-4.8188354122868615,7.092213101417645,-5.4676604228924806,4.8780729574407715,-3.5584671627899764,-1.3550425190678954,0.29910884605783217,-7.780717988453093,-7.679469348217634,3.654329118083524,-9.051531878279553,4.613248061040803,-2.744094791351312,3.906543649531457,-6.75640676971538,7.66237438087472,5.843157690740652,-4.0680861399265424,9.727161959078508,3.97956093170313,-2.770361814674562,-7.448408864725408,-4.630488873806852,-4.367208577799823,-3.971182642612943,-1.8846105964820588,-2.9090577219909965,4.286278726838402,-9.340704299457098,8.771777615908828,4.149094108902425,-9.1302248196335,-0.4607200425884468,-0.9442143684136735,-6.014810856194108,-0.06739707729271416,-8.9117124937681,-4.282042701150651,7.051730033969395,7.246277131915683,-5.807848841034135,6.331906892195644,3.5613470182996547,2.8222193698076676,8.568917686788918,9.084288838199136,-0.09801124939835582,-1.5120152196368135,9.985339390847798,-7.133126989933424,1.259347040118099,4.431182468459621,-9.095495040151881,9.782470398179282,1.0170057528269218,-9.816967319109741,3.967289152949295,-5.867283728190795,3.781673982043065,-1.1685466231417525,-8.626779330231962,-6.89419187678197,9.799674579915617,3.7129902351342565,-5.555380441782391,-5.874213226934536,1.2316750338639615,-8.11368548366553,-6.042259480084594,7.429332971836693,-8.475674846910008,-6.7989679855383365,1.1280761612692594,-4.758886277745187,2.027247033379725,-4.852196181853898,3.316930549170607,0.28069943499246186,-1.0937666305919276,6.334215650830927,2.29458918799056,-8.105888203310013,0.3016469785839604,-9.296628770731164,6.67044036581953,-7.5819966331257245,-3.3643810079836474,-0.8320585976287269,6.371537904448761,0.7179637278303233,9.136307317038142,-5.269728083937948,-9.520552377660426,-3.3960186771760528,4.413157169450233,-9.38009549753204,-7.3599345907839115,-5.79912936653489,-7.038806695553084,5.451244570532266,-8.544035572631739,4.913694924394887,-3.6428990050249235],"split_indices":[0,2,2,2,2,2,2,1,0,1,0,1,2,2,2,1,0,1,0,1,2,1,1,1,1,1,1,2,0,2,2,1,0,1,0,0,2,2,2,0,1,0,1,0,2,0,0,0,0,1,0,2,0,0,0,1,2,0,0,2,0,2,0,0,2,1,0,0,2,0,0,0,0,1,0,0,0,0,0,0,2,0,0,0,0,2,1,0,0,0,0,0,0,0,0,0,0,1,0,0,0,0,0,0,2,0,0,0,0,0,0,0,2,0,0,0,1,0,0,2,0,0,0,2,0,0,1,0,0,0,0,0,0],"sum_hessian":[0.0,0.0,0.0,0.0,0.0,0.0,0.0,0.0,0.0,0.0,0.0,0.0,0.0,0.0,0.0,0.0,0.0,0.0,0.0,0.0,0.0,0.0,0.0,0.0,0.0,0.0,0.0,0.0,0.0,0.0,0.0,0.0,0.0,0.0,0.0,0.0,0.0,0.0,0.0,0.0,0.0,0.0,0.0,0.0,0.0,0.0,0.0,0.0,0.0,0.0,0.0,0.0,0.0,0.0,0.0,0.0,0.0,0.0,0.0,0.0,0.0,0.0,0.0,0.0,0.0,0.0,0.0,0.0,0.0,0.0,0.0,0.0,0.0,0.0,0.0,0.0,0.0,0.0,0.0,0.0,0.0,0.0,0.0,0.0,0.0,0.0,0.0,0.0,0.0,0.0,0.0,0.0,0.0,0.0,0.0,0.0,0.0,0.0,0.0,0.0,0.0,0.0,0.0,0.0,0.0,0.0,0.0,0.0,0.0,0.0,0.0,0.0,0.0,0.0,0.0,0.0,0.0,0.0,0.0,0.0,0.0,0.0,0.0,0.0,0.0,0.0,0.0,0.0,0.0,0.0,0.0,0.0,0.0],"tree_param":{"num_deleted":"0","num_feature":"3","num_nodes":"133","size_leaf_vector":"0"}},{"base_weights":[0.0,0.0,0.0,0.0,0.0,0.0,0.0,0.0,0.0,0.0,0.0,0.0,0.0,0.0,0.0,0.0,0.0,0.0,0.0,0.0,0.0,0.0,0.0,0.0,0.0,0.0,0.0,0.0,0.0,0.0,0.0,0.0,0.0,0.0,0.0,0.0,0.0,0.0,0.0,0.0,0.0,0.0,0.0,0.0,0.0,0.0,0.0,0.0,0.0,0.0,0.0,0.0,0.0,0.0,0.0,0.0,0.0,0.0,0.0,0.0,0.0,0.0,0.0,0.0,0.0,0.0,0.0,0.0,0.0,0.0,0.0,0.0,0.0,0.0,0.0,0.0,0.0,0.0,0.0,0.0,0.0,0.0,0.0,0.0,0.0,0.0,0.0,0.0,0.0,0.0,0.0,0.0,0.0,0.0,0.0,0.0,0.0,0.0,0.0,0.0,0.0,0.0,0.0,0.0,0.0,0.0,0.0,0.0,0.0,0.0,0.0],"categories":[],"categories_nodes":[],"categories_segments":[],"categories_sizes":[],"default_left":[false,false,false,false,false,false,false,false,false,false,false,false,false,false,false,false,false,false,false,false,false,false,false,false,false,false,false,false,false,false,false,false,false,false,false,false,false,false,false,false,false,false,false,false,false,false,false,false,false,false,false,false,false,false,false,false,false,false,false,false,false,false,false,false,false,false,false,false,false,false,false,false,false,false,false,false,false,false,false,false,false,false,false,false,false,false,false,false,false,false,false,false,false,false,false,false,false,false,false,false,false,false,false,false,false,false,false,false,false,false,false],"id":3,"left_children":[1,3,5,7,9,11,-1,13,15,17,19,-1,21,23,25,27,-1,29,31,33,35,37,39,41,43,-1,45,47,-1,49,-1,-1,51,-1,53,55,-1,-1,-1,57,59,-1,-1,61,63,-1,65,67,69,-1,71,-1,-1,73,-1,75,77,-1,-1,79,81,83,-1,85,87,-1,89,-1,-1,-1,91,-1,-1,93,95,-1,-1,-1,-1,-1,-1,97,99,-1,101,103,105,-1,-1,-1,-1,-1,-1,-1,-1,-1,-1,-1,-1,-1,107,-1,-1,-1,109,-1,-1,-1,-1,-1,-1],"loss_changes":[0.0,0.0,0.0,0.0,0.0,0.0,0.0,0.0,0.0,0.0,0.0,0.0,0.0,0.0,0.0,0.0,0.0,0.0,0.0,0.0,0.0,0.0,0.0,0.0,0.0,0.0,0.0,0.0,0.0,0.0,0.0,0.0,0.0,0.0,0.0,0.0,0.0,0.0,0.0,0.0,0.0,0.0,0.0,0.0,0.0,0.0,0.0,0.0,0.0,0.0,0.0,0.0,0.0,0.0,0.0,0.0,0.0,0.0,0.0,0.0,0.0,0.0,0.0,0.0,0.0,0.0,0.0,0.0,0.0,0.0,0.0,0.0,0.0,0.0,0.0,0.0,0.0,0.0,0.0,0.0,0.0,0.0,0.0,0.0,0.0,0.0,0.0,0.0,0.0,0.0,0.0,0.0,0.0,0.0,0.0,0.0,0.0,0.0,0.0,0.0,0.0,0.0,0.0,0.0,0.0,0.0,0.0,0.0,0.0,0.0,0.0],"parents":[2147483647,0,0,1,1,2,2,3,3,4,4,5,5,7,7,8,8,9,9,10,10,12,12,13,13,14,14,15,15,17,17,18,18,19,19,20,20,21,21,22,22,23,23,24,24,26,26,27,27,29,29,32,32,34,34,35,35,39,39,40,40,43,43,44,44,46,46,47,47,48,48,50,50,53,53,55,55,56,56,59,59,60,60,61,61,63,63,64,64,66,66,70,70,73,73,74,74,81,81,82,82,84,84,85,85,86,86,100,100,104,104],"right_children":[2,4,6,8,10,12,-1,14,16,18,20,-1,22,24,26,28,-1,30,32,34,36,38,40,42,44,-1,46,48,-1,50,-1,-1,52,-1,54,56,-1,-1,-1,58,60,-1,-1,62,64,-1,66,68,70,-1,72,-1,-1,74,-1,76,78,-1,-1,80,82,84,-1,86,88,-1,90,-1,-1,-1,92,-1,-1,94,96,-1,-1,-1,-1,-1,-1,98,100,-1,102,104,106,-1,-1,-1,-1,-1,-1,-1,-1,-1,-1,-1,-1,-1,108,-1,-1,-1,110,-1,-1,-1,-1,-1,-1],"split_conditions":[4.935675574664531,-9.808427064258048,-3.8579178565732466,6.892647383209251,1.702181546075911,-8.653152320037698,-9.437712518119683,-9.779177252342036,-6.802961824919404,7.657827979843379,-7.703214081216743,-8.328353447826224,-7.268196221134521,-9.887013548972224,-5.360972148739917,6.623698565977033,5.486974831577342,-4.637035473280137,7.419584669487154,8.032080511412868,8.10288916334368,-5.554297851188858,-9.720458951390109,8.181818520504049,2.821606785689779,5.943031925066794,-3.763041199622574,-7.671021604844302,-4.88531653928195,-7.836114287827228,8.849747552818364,-6.0198180038270355,2.843610369436039,4.825003777959381,6.380558790409982,-7.450817217096709,8.922494083419465,9.734092180148682,1.0018509766233574,-3.1765395904345333,-6.3182546154275965,-0.635281936257039,0.009681611286360692,-7.978978478267365,7.545376953130411,7.489061173288814,-7.349525297768884,9.573230698407023,-7.244260032459673,-6.603844220625472,6.134572812546505,2.913802799630105,2.174722501054106,0.6569533795311688,-6.144740359310684,9.09030955271622,-1.8042273899172105,-4.57381837786519,1.6292550906284617,-1.830727386132459,6.3382658940981,6.233848937634523,-5.145519258521537,-0.11352582715833215,0.8062063677176301,8.566641390007302,1.5772734259779,-8.431211931688392,-5.7748565283788516,-7.679826675324622,-1.4647765052102777,4.863114496402783,-3.7396199607126155,6.847501815269432,7.6224287165923315,-5.4266699975133745,-3.10796939464176,-7.200147629596108,-6.672391462123876,-1.8964270313017355,7.891345991432747,-1.9289012824830465,-5.330109951534134,9.421964577178016,-9.824007869246717,-2.749401861348595,0.008640155416026474,0.5381645825185828,3.007451801058167,-6.273457134741362,-4.721818837716604,-6.410096243806091,-9.910284612602437,-6.215495096044272,6.019292225616489,7.306543358856345,2.8207804449670313,8.224001483287768,-1.774783964361463,9.999862380511622,-2.958792201814119,7.850462822674885,4.700668986507077,6.3446500093877205,4.193356720240143,8.055739081974423,8.54875738426167,-0.4977591885113153,7.7445410575035964,-2.8680293370281102,-7.0411060274954815],"split_indices":[2,1,2,0,1,0,0,0,2,0,0,0,0,0,1,0,0,0,1,2,1,1,1,1,1,0,0,2,0,2,0,0,0,0,2,2,0,0,0,2,2,0,0,0,2,0,1,1,0,0,0,0,0,0,0,2,1,0,0,0,1,1,0,1,1,0,0,0,0,0,0,0,0,2,0,0,0,0,0,0,0,0,1,0,0,0,2,0,0,0,0,0,0,0,0,0,0,0,0,0,2,0,0,0,0,0,0,0,0,0,0],"sum_hessian":[0.0,0.0,0.0,0.0,0.0,0.0,0.0,0.0,0.0,0.0,0.0,0.0,0.0,0.0,0.0,0.0,0.0,0.0,0.0,0.0,0.0,0.0,0.0,0.0,0.0,0.0,0.0,0.0,0.0,0.0,0.0,0.0,0.0,0.0,0.0,0.0,0.0,0.0,0.0,0.0,0.0,0.0,0.0,0.0,0.0,0.0,0.0,0.0,0.0,0.0,0.0,0.0,0.0,0.0,0.0,0.0,0.0,0.0,0.0,0.0,0.0,0.0,0.0,0.0,0.0,0.0,0.0,0.0,0.0,0.0,0.0,0.0,0.0,0.0,0.0,0.0,0.0,0.0,0.0,0.0,0.0,0.0,0.0,0.0,0.0,0.0,0.0,0.0,0.0,0.0,0.0,0.0,0.0,0.0,0.0,0.0,0.0,0.0,0.0,0.0,0.0,0.0,0.0,0.0,0.0,0.0,0.0,0.0,0.0,0.0,0.0],"tree_param":{"num_deleted":"0","num_feature":"3","num_nodes":"111","size_leaf_vector":"0"}}]},"name":"gbtree"},"learner_model_param":{"base_score":"5E-1","num_class":"0","num_feature":"3"},"objective":{"name":"reg:squarederror","reg_loss_param":{"scale_pos_weight":"1"}}},"version":[1,4,0]}