{"learner":{"attributes":{},"feature_types":["float","float","float","float","float","float","float","float","float","float","float","float","float","float","float","float"],"gradient_booster":{"model":{"gbtree_model_param":{"num_trees":"4","size_leaf_vector":"0"},"tree_info":[0,0,0,0],"trees":[{"base_weights":[0.0,0.0,0.0,0.0,0.0,0.0,0.0,0.0,0.0,0.0,0.0,0.0,0.0,0.0,0.0,0.0,0.0,0.0,0.0,0.0,0.0,0.0,0.0,0.0,0.0,0.0,0.0,0.0,0.0,0.0,0.0,0.0,0.0,0.0,0.0,0.0,0.0,0.0,0.0,0.0,0.0,0.0,0.0,0.0,0.0,0.0,0.0,0.0,0.0,0.0,0.0,0.0,0.0,0.0,0.0,0.0,0.0,0.0,0.0,0.0,0.0,0.0,0.0,0.0,0.0,0.0,0.0,0.0,0.0,0.0,0.0,0.0,0.0,0.0,0.0,0.0,0.0],"categories":[],"categories_nodes":[],"categories_segments":[],"categories_sizes":[],"default_left":[false,false,false,false,false,false,false,false,false,false,false,false,false,false,false,false,false,false,false,false,false,false,false,false,false,false,false,false,false,false,false,false,false,false,false,false,false,false,false,false,false,false,false,false,false,false,false,false,false,false,false,false,false,false,false,false,false,false,false,false,false,false,false,false,false,false,false,false,false,false,false,false,false,false,false,false,false],"id":0,"left_children":[1,3,5,7,9,11,13,15,-1,17,19,21,23,25,-1,-1,-1,27,-1,29,31,-1,-1,33,35,-1,-1,37,39,41,43,45,-1,-1,47,-1,49,51,-1,53,-1,55,-1,57,-1,-1,-1,59,-1,61,-1,63,-1,-1,-1,-1,65,-1,67,-1,-1,-1,69,-1,71,-1,-1,-1,73,-1,75,-1,-1,-1,-1,-1,-1],"loss_changes":[0.0,0.0,0.0,0.0,0.0,0.0,0.0,0.0,0.0,0.0,0.0,0.0,0.0,0.0,0.0,0.0,0.0,0.0,0.0,0.0,0.0,0.0,0.0,0.0,0.0,0.0,0.0,0.0,0.0,0.0,0.0,0.0,0.0,0.0,0.0,0.0,0.0,0.0,0.0,0.0,0.0,0.0,0.0,0.0,0.0,0.0,0.0,0.0,0.0,0.0,0.0,0.0,0.0,0.0,0.0,0.0,0.0,0.0,0.0,0.0,0.0,0.0,0.0,0.0,0.0,0.0,0.0,0.0,0.0,0.0,0.0,0.0,0.0,0.0,0.0,0.0,0.0],"parents":[2147483647,0,0,1,1,2,2,3,3,4,4,5,5,6,6,7,7,9,9,10,10,11,11,12,12,13,13,17,17,19,19,20,20,23,23,24,24,27,27,28,28,29,29,30,30,31,31,34,34,36,36,37,37,39,39,41,41,43,43,47,47,49,49,51,51,56,56,58,58,62,62,64,64,68,68,70,70],"right_children":[2,4,6,8,10,12,14,16,-1,18,20,22,24,26,-1,-1,-1,28,-1,30,32,-1,-1,34,36,-1,-1,38,40,42,44,46,-1,-1,48,-1,50,52,-1,54,-1,56,-1,58,-1,-1,-1,60,-1,62,-1,64,-1,-1,-1,-1,66,-1,68,-1,-1,-1,70,-1,72,-1,-1,-1,74,-1,76,-1,-1,-1,-1,-1,-1],"split_conditions":[3.429327135617248,0.07328307059753314,-3.622994299716222,-1.9930172231300034,-7.589737566477874,6.109786374765001,-9.09511138254993,7.077553344069646,-0.7813713297335205,4.999967756830582,3.4844413595062367,-2.075065371501317,0.5509952679467229,-5.741083681016493,-5.369410582990844,-5.4990175691929615,5.573618480168257,-6.120790342865219,-2.9884007942392286,-9.06333376764795,3.9351115726194195,3.8547253201808296,7.947133045685536,-6.936449810409262,8.11517536722953,2.442501820164079,-1.2240578825282036,-3.504686569314025,2.5694969534001704,-1.3057422228589246,2.8292440795535008,-2.325097681285097,6.01033984788954,6.0187545234965185,7.029907528909359,8.085329702347032,-2.5073920157289233,4.791466960337683,5.073750791581178,-4.5013020644344435,7.876073606220615,-9.493304141257035,-3.3536953917195342,5.989239645864242,0.498659821576684,0.3085692230011752,-6.192345115745244,-4.496752191178416,1.04765912018118,7.033863783610425,0.9474346867855861,9.804721772853341,6.964448442700672,-5.866730197342465,2.0109972562197935,-9.079011661962433,-1.3241187147554072,3.5027201255829237,-1.2788930536609673,-0.7447350063750307,7.943119724906865,6.304527349648993,-0.04870946676401999,5.694465581727927,4.907438604896896,-0.46310974446967457,-1.8245436151754042,-9.723307280075767,6.689769839027505,5.719163462101008,9.113989069447012,5.90631279559118,4.534649375074597,7.906959037709086,3.3511519833461545,-8.621179148709308,-3.6507026508068465],"split_indices":[6,14,1,7,0,11,5,5,0,12,0,4,6,9,0,0,0,1,0,1,5,0,0,5,10,0,0,5,0,15,1,13,0,0,10,0,8,11,0,15,0,8,0,11,0,0,0,11,0,15,0,3,0,0,0,0,7,0,14,0,0,0,5,0,2,0,0,0,5,0,12,0,0,0,0,0,0],"sum_hessian":[0.0,0.0,0.0,0.0,0.0,0.0,0.0,0.0,0.0,0.0,0.0,0.0,0.0,0.0,0.0,0.0,0.0,0.0,0.0,0.0,0.0,0.0,0.0,0.0,0.0,0.0,0.0,0.0,0.0,0.0,0.0,0.0,0.0,0.0,0.0,0.0,0.0,0.0,0.0,0.0,0.0,0.0,0.0,0.0,0.0,0.0,0.0,0.0,0.0,0.0,0.0,0.0,0.0,0.0,0.0,0.0,0.0,0.0,0.0,0.0,0.0,0.0,0.0,0.0,0.0,0.0,0.0,0.0,0.0,0.0,0.0,0.0,0.0,0.0,0.0,0.0,0.0],"tree_param":{"num_deleted":"0","num_feature":"16","num_nodes":"77","size_leaf_vector":"0"}},{"base_weights":[0.0,0.0,0.0,0.0,0.0,0.0,0.0,0.0,0.0,0.0,0.0,0.0,0.0,0.0,0.0,0.0,0.0,0.0,0.0,0.0,0.0,0.0,0.0,0.0,0.0,0.0,0.0,0.0,0.0,0.0,0.0,0.0,0.0,0.0,0.0,0.0,0.0,0.0,0.0,0.0,0.0,0.0,0.0,0.0,0.0,0.0,0.0,0.0,0.0,0.0,0.0,0.0,0.0,0.0,0.0,0.0,0.0,0.0,0.0,0.0,0.0,0.0,0.0,0.0,0.0,0.0,0.0,0.0,0.0,0.0,0.0,0.0,0.0,0.0,0.0,0.0,0.0,0.0,0.0,0.0,0.0,0.0,0.0,0.0,0.0,0.0,0.0,0.0,0.0,0.0,0.0,0.0,0.0,0.0,0.0,0.0,0.0,0.0,0.0,0.0,0.0,0.0,0.0,0.0,0.0,0.0,0.0,0.0,0.0,0.0,0.0,0.0,0.0,0.0,0.0,0.0,0.0],"categories":[],"categories_nodes":[],"categories_segments":[],"categories_sizes":[],"default_left":[false,false,false,false,false,false,false,false,false,false,false,false,false,false,false,false,false,false,false,false,false,false,false,false,false,false,false,false,false,false,false,false,false,false,false,false,false,false,false,false,false,false,false,false,false,false,false,false,false,false,false,false,false,false,false,false,false,false,false,false,false,false,false,false,false,false,false,false,false,false,false,false,false,false,false,false,false,false,false,false,false,false,false,false,false,false,false,false,false,false,false,false,false,false,false,false,false,false,false,false,false,false,false,false,false,false,false,false,false,false,false,false,false,false,false,false,false],"id":1,"left_children":[1,3,5,7,9,11,13,15,17,19,-1,-1,21,-1,23,25,-1,-1,27,29,31,33,35,37,39,41,-1,43,45,47,49,51,-1,53,55,57,-1,-1,59,-1,61,63,65,67,69,71,-1,-1,73,-1,-1,75,77,79,81,-1,-1,83,-1,85,87,89,91,-1,-1,93,-1,95,-1,-1,-1,-1,-1,-1,-1,97,-1,99,-1,-1,101,103,105,-1,-1,107,109,-1,-1,111,-1,-1,-1,-1,-1,-1,-1,-1,-1,-1,-1,-1,-1,113,115,-1,-1,-1,-1,-1,-1,-1,-1,-1,-1,-1,-1],"loss_changes":[0.0,0.0,0.0,0.0,0.0,0.0,0.0,0.0,0.0,0.0,0.0,0.0,0.0,0.0,0.0,0.0,0.0,0.0,0.0,0.0,0.0,0.0,0.0,0.0,0.0,0.0,0.0,0.0,0.0,0.0,0.0,0.0,0.0,0.0,0.0,0.0,0.0,0.0,0.0,0.0,0.0,0.0,0.0,0.0,0.0,0.0,0.0,0.0,0.0,0.0,0.0,0.0,0.0,0.0,0.0,0.0,0.0,0.0,0.0,0.0,0.0,0.0,0.0,0.0,0.0,0.0,0.0,0.0,0.0,0.0,0.0,0.0,0.0,0.0,0.0,0.0,0.0,0.0,0.0,0.0,0.0,0.0,0.0,0.0,0.0,0.0,0.0,0.0,0.0,0.0,0.0,0.0,0.0,0.0,0.0,0.0,0.0,0.0,0.0,0.0,0.0,0.0,0.0,0.0,0.0,0.0,0.0,0.0,0.0,0.0,0.0,0.0,0.0,0.0,0.0,0.0,0.0],"parents":[2147483647,0,0,1,1,2,2,3,3,4,4,5,5,6,6,7,7,8,8,9,9,12,12,14,14,15,15,18,18,19,19,20,20,21,21,22,22,23,23,24,24,25,25,27,27,28,28,29,29,30,30,31,31,33,33,34,34,35,35,38,38,40,40,41,41,42,42,43,43,44,44,45,45,48,48,51,51,52,52,53,53,54,54,57,57,59,59,60,60,61,61,62,62,65,65,67,67,75,75,77,77,80,80,81,81,82,82,85,85,86,86,89,89,103,103,104,104],"right_children":[2,4,6,8,10,12,14,16,18,20,-1,-1,22,-1,24,26,-1,-1,28,30,32,34,36,38,40,42,-1,44,46,48,50,52,-1,54,56,58,-1,-1,60,-1,62,64,66,68,70,72,-1,-1,74,-1,-1,76,78,80,82,-1,-1,84,-1,86,88,90,92,-1,-1,94,-1,96,-1,-1,-1,-1,-1,-1,-1,98,-1,100,-1,-1,102,104,106,-1,-1,108,110,-1,-1,112,-1,-1,-1,-1,-1,-1,-1,-1,-1,-1,-1,-1,-1,114,116,-1,-1,-1,-1,-1,-1,-1,-1,-1,-1,-1,-1],"split_conditions":[-4.828476273156075,-4.634239880204132,7.193279099838424,8.796764235776902,-7.619299467357726,5.405588192182773,-8.82575394733894,-5.790154503324207,2.7312373166871566,-7.282586103789665,1.0887879897871482,-7.958054854096341,-8.632875975993086,6.2254673666148435,0.13542244047141772,3.515636879050481,8.734130636154088,-2.4277169169759603,6.7971090578032936,-9.357457350153089,9.725358363476339,-3.6955889706823832,0.8273330870126934,-3.9983252102715863,4.0482025922354286,8.750813009312346,0.6594955835357279,-4.978605243136415,4.6728910890851,2.601132435992408,5.829993569887709,-1.0942954502812867,9.337775956089189,-5.885500513111921,-4.067718732178114,6.122799602697828,-0.21739881798330885,-0.9830694978420027,-7.394119283830667,8.480973433878365,9.57557165337412,-8.198227330648782,-9.2134933733097,-7.279327379108053,1.6485652578014598,9.639313171989048,1.0951257294907801,-9.868059028114372,-0.49531155706021224,-9.285113845280067,4.491133210029121,7.277514041289027,1.3802456912465608,5.074822105922891,0.6783444422638478,9.166434167582082,9.071161726778087,9.242041315429933,7.117275469295134,-5.796134427886668,-9.43062878302933,0.15451377587937287,-0.199404524555014,5.316949673655067,-7.2686681419027925,-7.584835987076714,3.7427241997611844,9.852474429694176,0.14978419484533667,-9.499175908756108,9.421772422520398,-4.78478804503336,-1.8403606293755566,-5.336273498203199,4.4114622366078855,-0.7644450889643579,6.641030187419133,-3.2346165303331205,-9.79873525928596,-7.4235716685224995,-7.22488406199697,-5.347890735288081,8.694332941355611,-8.879965626730911,3.621769628166767,7.9073847442683665,-2.3036177556357096,-4.109344015223231,4.490092845238509,8.53072189265323,6.435253968489739,-2.3668197448404484,-2.199882195681477,-8.606256081200305,-2.423056375889683,-2.3146885077164967,-8.322825750283457,-1.5246031254819137,-1.57467291662587,-3.0355955396614434,-5.630741840779624,3.4537352195275837,8.136548652742675,-4.905306583390465,9.66948664591559,-9.813947443410365,-8.227769031836312,-0.9546279640114808,-1.3784656707841023,4.789798070823013,-5.8941285368237715,8.658047603161112,-5.551987165955002,-7.96827185618503,1.6883976039172275,-1.7301430757547482,3.1038600415026494],"split_indices":[10,11,4,5,0,2,15,2,10,14,0,0,9,0,15,7,0,0,14,2,2,6,4,10,5,3,0,15,1,13,11,11,0,8,2,3,0,0,2,0,4,8,13,11,10,8,0,0,3,0,0,14,0,4,7,0,0,13,0,10,5,8,11,0,0,14,0,0,0,0,0,0,0,0,0,8,0,13,0,0,1,3,12,0,0,2,5,0,0,10,0,0,0,0,0,0,0,0,0,0,0,0,0,9,11,0,0,0,0,0,0,0,0,0,0,0,0],"sum_hessian":[0.0,0.0,0.0,0.0,0.0,0.0,0.0,0.0,0.0,0.0,0.0,0.0,0.0,0.0,0.0,0.0,0.0,0.0,0.0,0.0,0.0,0.0,0.0,0.0,0.0,0.0,0.0,0.0,0.0,0.0,0.0,0.0,0.0,0.0,0.0,0.0,0.0,0.0,0.0,0.0,0.0,0.0,0.0,0.0,0.0,0.0,0.0,0.0,0.0,0.0,0.0,0.0,0.0,0.0,0.0,0.0,0.0,0.0,0.0,0.0,0.0,0.0,0.0,0.0,0.0,0.0,0.0,0.0,0.0,0.0,0.0,0.0,0.0,0.0,0.0,0.0,0.0,0.0,0.0,0.0,0.0,0.0,0.0,0.0,0.0,0.0,0.0,0.0,0.0,0.0,0.0,0.0,0.0,0.0,0.0,0.0,0.0,0.0,0.0,0.0,0.0,0.0,0.0,0.0,0.0,0.0,0.0,0.0,0.0,0.0,0.0,0.0,0.0,0.0,0.0,0.0,0.0],"tree_param":{"num_deleted":"0","num_feature":"16","num_nodes":"117","size_leaf_vector":"0"}},{"base_weights":[0.0,0.0,0.0,0.0,0.0,0.0,0.0,0.0,0.0,0.0,0.0,0.0,0.0,0.0,0.0,0.0,0.0,0.0,0.0,0.0,0.0,0.0,0.0,0.0,0.0,0.0,0.0,0.0,0.0,0.0,0.0,0.0,0.0,0.0,0.0,0.0,0.0,0.0,0.0,0.0,0.0,0.0,0.0,0.0,0.0,0.0,0.0,0.0,0.0,0.0,0.0,0.0,0.0,0.0,0.0,0.0,0.0,0.0,0.0,0.0,0.0,0.0,0.0,0.0,0.0,0.0,0.0,0.0,0.0,0.0,0.0,0.0,0.0,0.0,0.0,0.0,0.0,0.0,0.0,0.0,0.0,0.0,0.0,0.0,0.0,0.0,0.0,0.0,0.0,0.0,0.0,0.0,0.0,0.0,0.0,0.0,0.0,0.0,0.0,0.0,0.0,0.0,0.0,0.0,0.0,0.0,0.0,0.0,0.0],"categories":[],"categories_nodes":[],"categories_segments":[],"categories_sizes":[],"default_left":[false,false,false,false,false,false,false,false,false,false,false,false,false,false,false,false,false,false,false,false,false,false,false,false,false,false,false,false,false,false,false,false,false,false,false,false,false,false,false,false,false,false,false,false,false,false,false,false,false,false,false,false,false,false,false,false,false,false,false,false,false,false,false,false,false,false,false,false,false,false,false,false,false,false,false,false,false,false,false,false,false,false,false,false,false,false,false,false,false,false,false,false,false,false,false,false,false,false,false,false,false,false,false,false,false,false,false,false,false],"id":2,"left_children":[1,3,5,7,9,11,13,15,17,19,-1,21,-1,23,-1,-1,-1,25,27,29,31,33,-1,-1,35,37,39,-1,41,43,45,47,49,51,-1,-1,-1,-1,-1,-1,53,-1,55,57,59,61,-1,63,-1,65,-1,67,-1,69,71,73,-1,75,77,79,81,83,85,-1,-1,87,-1,-1,89,-1,-1,-1,-1,-1,91,93,95,-1,-1,-1,97,-1,-1,99,101,-1,-1,103,-1,-1,-1,-1,-1,-1,-1,105,-1,-1,-1,107,-1,-1,-1,-1,-1,-1,-1,-1,-1],"loss_changes":[0.0,0.0,0.0,0.0,0.0,0.0,0.0,0.0,0.0,0.0,0.0,0.0,0.0,0.0,0.0,0.0,0.0,0.0,0.0,0.0,0.0,0.0,0.0,0.0,0.0,0.0,0.0,0.0,0.0,0.0,0.0,0.0,0.0,0.0,0.0,0.0,0.0,0.0,0.0,0.0,0.0,0.0,0.0,0.0,0.0,0.0,0.0,0.0,0.0,0.0,0.0,0.0,0.0,0.0,0.0,0.0,0.0,0.0,0.0,0.0,0.0,0.0,0.0,0.0,0.0,0.0,0.0,0.0,0.0,0.0,0.0,0.0,0.0,0.0,0.0,0.0,0.0,0.0,0.0,0.0,0.0,0.0,0.0,0.0,0.0,0.0,0.0,0.0,0.0,0.0,0.0,0.0,0.0,0.0,0.0,0.0,0.0,0.0,0.0,0.0,0.0,0.0,0.0,0.0,0.0,0.0,0.0,0.0,0.0],"parents":[2147483647,0,0,1,1,2,2,3,3,4,4,5,5,6,6,7,7,8,8,9,9,11,11,13,13,17,17,18,18,19,19,20,20,21,21,24,24,25,25,26,26,28,28,29,29,30,30,31,31,32,32,33,33,40,40,42,42,43,43,44,44,45,45,47,47,49,49,51,51,53,53,54,54,55,55,57,57,58,58,59,59,60,60,61,61,62,62,65,65,68,68,74,74,75,75,76,76,80,80,83,83,84,84,87,87,95,95,99,99],"right_children":[2,4,6,8,10,12,14,16,18,20,-1,22,-1,24,-1,-1,-1,26,28,30,32,34,-1,-1,36,38,40,-1,42,44,46,48,50,52,-1,-1,-1,-1,-1,-1,54,-1,56,58,60,62,-1,64,-1,66,-1,68,-1,70,72,74,-1,76,78,80,82,84,86,-1,-1,88,-1,-1,90,-1,-1,-1,-1,-1,92,94,96,-1,-1,-1,98,-1,-1,100,102,-1,-1,104,-1,-1,-1,-1,-1,-1,-1,106,-1,-1,-1,108,-1,-1,-1,-1,-1,-1,-1,-1,-1],"split_conditions":[4.50141832662478,6.1169697269821555,-6.120951609085722,-2.7875748753362872,5.489791361964215,-1.7835442427297252,3.5387567812547047,1.5120892101258328,-5.89160404492611,9.188480019781366,6.868370007653571,-6.309099152881863,5.68982775519499,-5.418556857131551,6.35915503858628,8.16646978823027,-5.873343765545428,-6.127129901055756,4.253603931012446,2.062717166571165,-6.515230967468559,3.2411291170945447,2.0814879394798407,-5.055631427239878,8.507774719777057,-9.34979892302245,9.579531195175043,9.144538884989053,3.1810694187638067,8.235359002643431,-9.068249829499408,-5.868573338985908,-7.437248946195297,-5.697372307962634,-3.9822936003869325,-3.6789032937414294,4.069691933779334,0.5155479378739862,-9.004303622008305,6.422694681257106,-6.123103657244682,-7.712001954105621,7.050796967593989,5.716406563360081,5.184462058547233,-6.191473760856006,-6.890648381668989,8.552043607634772,-0.33883520657078847,8.569164760588272,-7.287478487428576,-4.208989738706754,8.09026106552001,-2.201685632502123,-4.625377861092634,-6.8356520468933555,-7.843340530519656,-7.382773234403298,7.313295135121464,-6.701165613956586,9.072554119104389,-9.422357838944663,2.244887425831303,-5.166597098621963,-5.478067169662182,6.1191352326782535,6.649009669251601,-8.532539555061264,-7.20815690337699,-1.326716635778375,-2.365939102904365,-5.34637077734706,-9.147870392704732,-6.610345210410764,2.1528065276945227,-3.706729754807954,-3.493013539321554,-6.415343166080175,2.283191329836585,5.79653896379039,-1.5426884844157236,-4.870302796214671,3.9922235135002726,2.7286200794172792,2.913195344485647,6.417528255767181,3.070318600304688,2.183797386847658,-6.480240825778974,0.5482295203637033,2.4430911678328258,-6.513156190073184,6.381609480327231,5.475238604382653,9.782396519762116,6.552770043623109,6.520737552536563,7.18600204022799,-7.767602657299782,-7.043843932050812,-3.9425447849142046,7.023433517912039,3.6619519619210976,-0.3337247005801043,-9.636628113352616,-5.292328817607136,-4.0581434100034395,5.538901895576348,4.750165705410893],"split_indices":[15,10,9,10,0,11,8,1,3,6,0,12,0,0,0,0,0,6,3,10,13,10,0,0,6,13,10,0,1,10,8,13,7,11,0,0,0,0,0,0,1,0,5,14,4,15,0,14,0,0,0,4,0,5,13,0,0,5,1,6,15,1,6,0,0,1,0,0,4,0,0,0,0,0,14,12,1,0,0,0,14,0,0,10,10,0,0,13,0,0,0,0,0,0,0,13,0,0,0,4,0,0,0,0,0,0,0,0,0],"sum_hessian":[0.0,0.0,0.0,0.0,0.0,0.0,0.0,0.0,0.0,0.0,0.0,0.0,0.0,0.0,0.0,0.0,0.0,0.0,0.0,0.0,0.0,0.0,0.0,0.0,0.0,0.0,0.0,0.0,0.0,0.0,0.0,0.0,0.0,0.0,0.0,0.0,0.0,0.0,0.0,0.0,0.0,0.0,0.0,0.0,0.0,0.0,0.0,0.0,0.0,0.0,0.0,0.0,0.0,0.0,0.0,0.0,0.0,0.0,0.0,0.0,0.0,0.0,0.0,0.0,0.0,0.0,0.0,0.0,0.0,0.0,0.0,0.0,0.0,0.0,0.0,0.0,0.0,0.0,0.0,0.0,0.0,0.0,0.0,0.0,0.0,0.0,0.0,0.0,0.0,0.0,0.0,0.0,0.0,0.0,0.0,0.0,0.0,0.0,0.0,0.0,0.0,0.0,0.0,0.0,0.0,0.0,0.0,0.0,0.0],"tree_param":{"num_deleted":"0","num_feature":"16","num_nodes":"109","size_leaf_vector":"0"}},{"base_weights":[0.0,0.0,0.0,0.0,0.0,0.0,0.0,0.0,0.0,0.0,0.0,0.0,0.0,0.0,0.0,0.0,0.0,0.0,0.0,0.0,0.0,0.0,0.0,0.0,0.0,0.0,0.0,0.0,0.0,0.0,0.0,0.0,0.0,0.0,0.0,0.0,0.0,0.0,0.0,0.0,0.0,0.0,0.0,0.0,0.0,0.0,0.0,0.0,0.0,0.0,0.0,0.0,0.0,0.0,0.0,0.0,0.0,0.0,0.0,0.0,0.0,0.0,0.0,0.0,0.0,0.0,0.0,0.0,0.0],"categories":[],"categories_nodes":[],"categories_segments":[],"categories_sizes":[],"default_left":[false,false,false,false,false,false,false,false,false,false,false,false,false,false,false,false,false,false,false,false,false,false,false,false,false,false,false,false,false,false,false,false,false,false,false,false,false,false,false,false,false,false,false,false,false,false,false,false,false,false,false,false,false,false,false,false,false,false,false,false,false,false,false,false,false,false,false,false,false],"id":3,"left_children":[1,3,5,-1,7,9,-1,11,13,15,17,-1,19,21,23,25,-1,-1,-1,27,29,31,-1,33,35,37,-1,39,41,43,45,-1,47,-1,-1,49,-1,51,-1,53,-1,-1,55,57,-1,-1,-1,-1,-1,59,61,63,-1,-1,-1,-1,-1,-1,-1,-1,-1,-1,65,-1,67,-1,-1,-1,-1],"loss_changes":[0.0,0.0,0.0,0.0,0.0,0.0,0.0,0.0,0.0,0.0,0.0,0.0,0.0,0.0,0.0,0.0,0.0,0.0,0.0,0.0,0.0,0.0,0.0,0.0,0.0,0.0,0.0,0.0,0.0,0.0,0.0,0.0,0.0,0.0,0.0,0.0,0.0,0.0,0.0,0.0,0.0,0.0,0.0,0.0,0.0,0.0,0.0,0.0,0.0,0.0,0.0,0.0,0.0,0.0,0.0,0.0,0.0,0.0,0.0,0.0,0.0,0.0,0.0,0.0,0.0,0.0,0.0,0.0,0.0],"parents":[2147483647,0,0,1,1,2,2,4,4,5,5,7,7,8,8,9,9,10,10,12,12,13,13,14,14,15,15,19,19,20,20,21,21,23,23,24,24,25,25,27,27,28,28,29,29,30,30,32,32,35,35,37,37,39,39,42,42,43,43,49,49,50,50,51,51,62,62,64,64],"right_children":[2,4,6,-1,8,10,-1,12,14,16,18,-1,20,22,24,26,-1,-1,-1,28,30,32,-1,34,36,38,-1,40,42,44,46,-1,48,-1,-1,50,-1,52,-1,54,-1,-1,56,58,-1,-1,-1,-1,-1,60,62,64,-1,-1,-1,-1,-1,-1,-1,-1,-1,-1,66,-1,68,-1,-1,-1,-1],"split_conditions":[-4.351695350638401,1.3971294529507112,-3.8065283827842595,6.080078200911185,-6.183772199329235,-3.9681853014831088,0.9219196962406642,4.516677038022653,-2.6583251991261694,-4.800415247281805,-3.1669788195996293,1.5522589599057195,-3.9403018474079508,1.6386777662583611,-2.7832695651711967,-2.677996426542345,4.664568849911836,-8.606713283517779,9.198507107362893,0.8170594536344904,-7.072702853874734,7.044441857383774,-7.526711798876015,-4.46301112528125,0.6465579117417626,9.700123558292361,3.9564575846072625,6.072741494878201,8.137760074854736,-7.862153646154474,-5.555752559805322,-0.12360718223058598,1.8278729411817825,-8.252761753078104,1.006270525268194,-6.163027082041106,9.636014298207375,3.54256111727549,6.238692616320705,-6.652783371396698,4.178658148983077,3.5445216340791212,-6.794878821389841,-1.5709421203923366,2.7087912766159192,-2.7914090190799046,-3.175557396184077,-4.759743543271982,0.3780003428917098,-5.763919950196672,-9.524589062233382,-2.967725442498943,-7.119703220772596,-5.193057506395038,6.336595984095947,-1.5452547089310062,-5.379482363687115,1.0033391140836727,2.5431053179858303,2.5109087756883035,-3.3833026046854613,-9.850476519047215,-1.3189045628994975,-2.11443372784014,7.810754026944171,0.813422643779516,4.676287565341383,-9.84717487746282,-1.270384787495768],"split_indices":[2,11,0,0,14,9,0,2,8,5,5,0,11,14,8,8,0,0,0,9,12,9,0,7,3,9,0,1,8,8,14,0,4,0,0,8,0,0,0,14,0,0,10,10,0,0,0,0,0,14,5,7,0,0,0,0,0,0,0,0,0,0,7,0,14,0,0,0,0],"sum_hessian":[0.0,0.0,0.0,0.0,0.0,0.0,0.0,0.0,0.0,0.0,0.0,0.0,0.0,0.0,0.0,0.0,0.0,0.0,0.0,0.0,0.0,0.0,0.0,0.0,0.0,0.0,0.0,0.0,0.0,0.0,0.0,0.0,0.0,0.0,0.0,0.0,0.0,0.0,0.0,0.0,0.0,0.0,0.0,0.0,0.0,0.0,0.0,0.0,0.0,0.0,0.0,0.0,0.0,0.0,0.0,0.0,0.0,0.0,0.0,0.0,0.0,0.0,0.0,0.0,0.0,0.0,0.0,0.0,0.0],"tree_param":{"num_deleted":"0","num_feature":"16","num_nodes":"69","size_leaf_vector":"0"}}]},"name":"gbtree"},"learner_model_param":{"base_score":"5E-1","num_class":"0","num_feature":"16"},"objective":{"name":"reg:squarederror","reg_loss_param":{"scale_pos_weight":"1"}}},"version":[1,4,0]}