{"learner":{"attributes":{},"feature_types":["float","float","float","float","float","float","float","float","float","float","float","float","float"],"gradient_booster":{"model":{"gbtree_model_param":{"num_trees":"4","size_leaf_vector":"0"},"tree_info":[0,0,0,0],"trees":[{"base_weights":[0.0,0.0,0.0,0.0,0.0,0.0,0.0,0.0,0.0,0.0,0.0,0.0,0.0,0.0,0.0,0.0,0.0,0.0,0.0,0.0,0.0,0.0,0.0,0.0,0.0,0.0,0.0,0.0,0.0,0.0,0.0,0.0,0.0,0.0,0.0,0.0,0.0,0.0,0.0,0.0,0.0,0.0,0.0,0.0,0.0,0.0,0.0,0.0,0.0,0.0,0.0,0.0,0.0,0.0,0.0,0.0,0.0,0.0,0.0,0.0,0.0,0.0,0.0,0.0,0.0,0.0,0.0,0.0,0.0,0.0,0.0,0.0,0.0,0.0,0.0,0.0,0.0,0.0,0.0,0.0,0.0,0.0,0.0,0.0,0.0,0.0,0.0,0.0,0.0,0.0,0.0,0.0,0.0,0.0,0.0,0.0,0.0,0.0,0.0,0.0,0.0,0.0,0.0,0.0,0.0,0.0,0.0,0.0,0.0,0.0,0.0,0.0,0.0,0.0,0.0,0.0,0.0,0.0,0.0,0.0,0.0,0.0,0.0,0.0,0.0,0.0,0.0,0.0,0.0,0.0,0.0,0.0,0.0,0.0,0.0,0.0,0.0,0.0,0.0,0.0,0.0,0.0,0.0,0.0,0.0,0.0,0.0,0.0,0.0,0.0,0.0,0.0,0.0,0.0,0.0,0.0,0.0,0.0,0.0,0.0,0.0,0.0,0.0,0.0,0.0,0.0,0.0,0.0,0.0,0.0,0.0,0.0,0.0,0.0,0.0,0.0,0.0,0.0,0.0,0.0,0.0,0.0,0.0],"categories":[],"categories_nodes":[],"categories_segments":[],"categories_sizes":[],"default_left":[false,false,false,false,false,false,false,false,false,false,false,false,false,false,false,false,false,false,false,false,false,false,false,false,false,false,false,false,false,false,false,false,false,false,false,false,false,false,false,false,false,false,false,false,false,false,false,false,false,false,false,false,false,false,false,false,false,false,false,false,false,false,false,false,false,false,false,false,false,false,false,false,false,false,false,false,false,false,false,false,false,false,false,false,false,false,false,false,false,false,false,false,false,false,false,false,false,false,false,false,false,false,false,false,false,false,false,false,false,false,false,false,false,false,false,false,false,false,false,false,false,false,false,false,false,false,false,false,false,false,false,false,false,false,false,false,false,false,false,false,false,false,false,false,false,false,false,false,false,false,false,false,false,false,false,false,false,false,false,false,false,false,false,false,false,false,false,false,false,false,false,false,false,false,false,false,false,false,false,false,false,false,false],"id":0,"left_children":[1,3,5,7,9,11,-1,13,15,17,19,21,23,25,-1,27,29,31,33,35,-1,37,39,41,43,45,47,49,51,53,55,-1,57,59,-1,61,63,65,67,69,71,-1,73,75,77,79,-1,-1,-1,81,83,85,-1,87,89,91,93,95,-1,97,-1,-1,99,101,103,105,-1,-1,107,-1,109,-1,-1,111,113,115,117,119,-1,-1,-1,-1,-1,-1,-1,121,-1,-1,-1,-1,-1,-1,-1,-1,123,125,-1,-1,-1,-1,127,129,-1,131,-1,133,135,-1,137,-1,-1,139,-1,141,143,-1,-1,-1,145,147,149,-1,-1,151,-1,-1,-1,153,-1,155,157,-1,159,-1,161,-1,-1,-1,-1,-1,163,-1,-1,165,-1,-1,-1,167,169,-1,171,-1,-1,-1,173,-1,-1,-1,-1,-1,-1,175,-1,-1,177,179,-1,181,-1,-1,-1,-1,-1,-1,-1,-1,-1,-1,-1,-1,-1,-1,-1],"loss_changes":[0.0,0.0,0.0,0.0,0.0,0.0,0.0,0.0,0.0,0.0,0.0,0.0,0.0,0.0,0.0,0.0,0.0,0.0,0.0,0.0,0.0,0.0,0.0,0.0,0.0,0.0,0.0,0.0,0.0,0.0,0.0,0.0,0.0,0.0,0.0,0.0,0.0,0.0,0.0,0.0,0.0,0.0,0.0,0.0,0.0,0.0,0.0,0.0,0.0,0.0,0.0,0.0,0.0,0.0,0.0,0.0,0.0,0.0,0.0,0.0,0.0,0.0,0.0,0.0,0.0,0.0,0.0,0.0,0.0,0.0,0.0,0.0,0.0,0.0,0.0,0.0,0.0,0.0,0.0,0.0,0.0,0.0,0.0,0.0,0.0,0.0,0.0,0.0,0.0,0.0,0.0,0.0,0.0,0.0,0.0,0.0,0.0,0.0,0.0,0.0,0.0,0.0,0.0,0.0,0.0,0.0,0.0,0.0,0.0,0.0,0.0,0.0,0.0,0.0,0.0,0.0,0.0,0.0,0.0,0.0,0.0,0.0,0.0,0.0,0.0,0.0,0.0,0.0,0.0,0.0,0.0,0.0,0.0,0.0,0.0,0.0,0.0,0.0,0.0,0.0,0.0,0.0,0.0,0.0,0.0,0.0,0.0,0.0,0.0,0.0,0.0,0.0,0.0,0.0,0.0,0.0,0.0,0.0,0.0,0.0,0.0,0.0,0.0,0.0,0.0,0.0,0.0,0.0,0.0,0.0,0.0,0.0,0.0,0.0,0.0,0.0,0.0,0.0,0.0,0.0,0.0,0.0,0.0],"parents":[2147483647,0,0,1,1,2,2,3,3,4,4,5,5,7,7,8,8,9,9,10,10,11,11,12,12,13,13,15,15,16,16,17,17,18,18,19,19,21,21,22,22,23,23,24,24,25,25,26,26,27,27,28,28,29,29,30,30,32,32,33,33,35,35,36,36,37,37,38,38,39,39,40,40,42,42,43,43,44,44,45,45,49,49,50,50,51,51,53,53,54,54,55,55,56,56,57,57,59,59,62,62,63,63,64,64,65,65,68,68,70,70,73,73,74,74,75,75,76,76,77,77,85,85,94,94,95,95,100,100,101,101,103,103,105,105,106,106,108,108,111,111,113,113,114,114,118,118,119,119,120,120,123,123,127,127,129,129,130,130,132,132,134,134,140,140,143,143,147,147,148,148,150,150,154,154,161,161,164,164,165,165,167,167],"right_children":[2,4,6,8,10,12,-1,14,16,18,20,22,24,26,-1,28,30,32,34,36,-1,38,40,42,44,46,48,50,52,54,56,-1,58,60,-1,62,64,66,68,70,72,-1,74,76,78,80,-1,-1,-1,82,84,86,-1,88,90,92,94,96,-1,98,-1,-1,100,102,104,106,-1,-1,108,-1,110,-1,-1,112,114,116,118,120,-1,-1,-1,-1,-1,-1,-1,122,-1,-1,-1,-1,-1,-1,-1,-1,124,126,-1,-1,-1,-1,128,130,-1,132,-1,134,136,-1,138,-1,-1,140,-1,142,144,-1,-1,-1,146,148,150,-1,-1,152,-1,-1,-1,154,-1,156,158,-1,160,-1,162,-1,-1,-1,-1,-1,164,-1,-1,166,-1,-1,-1,168,170,-1,172,-1,-1,-1,174,-1,-1,-1,-1,-1,-1,176,-1,-1,178,180,-1,182,-1,-1,-1,-1,-1,-1,-1,-1,-1,-1,-1,-1,-1,-1,-1],"split_conditions":[-1.2636010652093184,3.5239549386956845,0.5014218586952204,3.71886135872953,5.719222299764704,6.692767738623999,-3.479973987592791,9.799174534069081,4.357327232471228,-4.259581170861041,-7.527139431674474,9.413991941600578,-0.4627289640049188,9.743386013804816,6.0107012387270515,-4.737658849116217,-5.147242789397895,0.034199347195119856,-8.833504076959326,-5.368040965886791,-5.79766427817014,-2.1511585374873903,-1.3542694901528236,-9.875518949595529,-5.590842793775251,-9.297611263024422,-8.374529256088106,-1.9442329159570022,-1.3743648705232232,-3.6177943232675114,-7.917497594012183,-5.237328505119944,7.568991696270359,-8.383112614861997,4.506084304622098,7.123937008090422,-2.977481532389861,7.021787883807068,-4.711225195497837,-1.9906948425835598,1.1718108166244985,-4.795042599950044,4.63766548870996,8.631396154034505,-1.1578926421229276,7.6904757125603105,-3.9365045521466495,0.9200969356809132,2.1599844685803085,8.286577118939206,4.980521980524397,-4.066828179587039,-5.281799677442517,1.7695195325714828,-6.5464311671416,-4.241708734217812,7.832360134634065,-1.116719463109657,-1.7436785242301358,0.051962489935901246,-2.2516009051140387,-0.28233163425223573,3.313682038358653,2.821844060004583,-6.957041822959164,2.7864101414121656,-3.059114410186343,-8.938656218475831,2.35639553648042,-5.210945560252985,-0.681101099069398,1.1473992066323966,6.8942131552015695,-1.7079519621444632,8.897611639361727,5.590065761756248,-8.082289004971976,5.183026056569284,1.0740905184347422,-0.1651984503092443,2.5481839079178847,-3.2381056153633283,-0.8530865252385542,3.724039764554238,-3.748117723850747,-7.3661539659296364,-2.366649959833892,9.157709648971043,-3.0448953664229492,-7.560172743107762,-1.0802386903790886,4.907617133684955,-2.9363255329740774,-0.8744517753554266,8.712530282833761,-5.5919170776220515,8.787753411104887,2.106001460198023,-9.587299572287101,-6.127489042288649,7.841518043493615,-5.254737922391495,-8.18892942453887,6.806056049248202,8.808502578593377,6.751720806749468,6.998066751595246,-1.4617482172557512,-6.242023928901489,-5.477483242809924,-6.978207701390244,7.5126980122741,3.1485325204971293,3.3388363211297936,9.317687048470638,8.612828499768767,-6.316480009436569,8.952807570400022,6.881871477091444,0.8823572240053839,-9.452874366683231,-4.24376919287546,-9.829727853663382,-3.6561615284261952,-1.0700290722139911,6.588025821095513,-1.7242360468376905,-7.145413173970967,-4.862134332391548,-6.492098409086381,-9.818118250619616,4.058724246666706,6.911185552906517,4.819949916223331,-7.463457049175644,-7.741634366915242,5.913468266114727,-0.030020960008560138,6.580903019831915,-1.3522184815260712,5.319098030060765,-5.8025894348673415,3.9258103349725317,8.629328576248085,9.247302209335182,-8.821127010127409,2.4859542667389825,0.1721521242042563,-4.643358135843007,-0.0176059264089794,-8.478095569853348,-2.555761138585294,8.0548909286195,-0.4855058495571978,4.911313130563366,0.9685286879324106,-2.728711753612214,6.7761317719403955,5.839645035424159,-8.589537831738514,-8.781874601087942,6.322412324264128,-1.655120278258691,-1.9346136715415199,2.2643663292603335,1.494635354570164,-8.79148466498036,-9.042166348485255,-1.1027466330259532,2.4085110763028013,2.2651852817169154,0.8498751086369438,-0.9842957106927663,0.6077143613407987,-9.740534304761889,3.5385097579816254,-4.098472662846463,5.58801242821219,3.9315805785684432,8.372789117305242,-7.599494823711815,2.8232002592083774,4.599033143309805],"split_indices":[3,1,11,7,7,4,0,1,10,7,1,11,3,10,0,2,12,9,8,6,0,10,9,6,6,9,12,1,5,9,9,0,7,1,0,10,8,3,3,0,12,0,7,10,0,6,0,0,0,1,3,7,0,0,0,8,0,7,0,8,0,0,11,1,3,10,0,0,5,0,11,0,0,1,8,12,9,8,0,0,0,0,0,0,0,4,0,0,0,0,0,0,0,0,5,5,0,0,0,0,12,3,0,7,0,11,4,0,6,0,0,5,0,4,5,0,0,0,4,4,12,0,0,0,0,0,0,1,0,9,7,0,9,0,5,0,0,0,0,0,9,0,0,8,0,0,0,7,5,0,10,0,0,0,1,0,0,0,0,0,0,0,0,0,5,5,0,11,0,0,0,0,0,0,0,0,0,0,0,0,0,0,0],"sum_hessian":[0.0,0.0,0.0,0.0,0.0,0.0,0.0,0.0,0.0,0.0,0.0,0.0,0.0,0.0,0.0,0.0,0.0,0.0,0.0,0.0,0.0,0.0,0.0,0.0,0.0,0.0,0.0,0.0,0.0,0.0,0.0,0.0,0.0,0.0,0.0,0.0,0.0,0.0,0.0,0.0,0.0,0.0,0.0,0.0,0.0,0.0,0.0,0.0,0.0,0.0,0.0,0.0,0.0,0.0,0.0,0.0,0.0,0.0,0.0,0.0,0.0,0.0,0.0,0.0,0.0,0.0,0.0,0.0,0.0,0.0,0.0,0.0,0.0,0.0,0.0,0.0,0.0,0.0,0.0,0.0,0.0,0.0,0.0,0.0,0.0,0.0,0.0,0.0,0.0,0.0,0.0,0.0,0.0,0.0,0.0,0.0,0.0,0.0,0.0,0.0,0.0,0.0,0.0,0.0,0.0,0.0,0.0,0.0,0.0,0.0,0.0,0.0,0.0,0.0,0.0,0.0,0.0,0.0,0.0,0.0,0.0,0.0,0.0,0.0,0.0,0.0,0.0,0.0,0.0,0.0,0.0,0.0,0.0,0.0,0.0,0.0,0.0,0.0,0.0,0.0,0.0,0.0,0.0,0.0,0.0,0.0,0.0,0.0,0.0,0.0,0.0,0.0,0.0,0.0,0.0,0.0,0.0,0.0,0.0,0.0,0.0,0.0,0.0,0.0,0.0,0.0,0.0,0.0,0.0,0.0,0.0,0.0,0.0,0.0,0.0,0.0,0.0,0.0,0.0,0.0,0.0,0.0,0.0],"tree_param":{"num_deleted":"0","num_feature":"13","num_nodes":"183","size_leaf_vector":"0"}},{"base_weights":[0.0,0.0,0.0,0.0,0.0,0.0,0.0,0.0,0.0,0.0,0.0,0.0,0.0,0.0,0.0,0.0,0.0,0.0,0.0,0.0,0.0,0.0,0.0,0.0,0.0,0.0,0.0,0.0,0.0,0.0,0.0,0.0,0.0,0.0,0.0,0.0,0.0,0.0,0.0,0.0,0.0,0.0,0.0,0.0,0.0,0.0,0.0,0.0,0.0,0.0,0.0,0.0,0.0,0.0,0.0,0.0,0.0,0.0,0.0,0.0,0.0,0.0,0.0,0.0,0.0,0.0,0.0,0.0,0.0,0.0,0.0,0.0,0.0,0.0,0.0,0.0,0.0,0.0,0.0,0.0,0.0,0.0,0.0,0.0,0.0,0.0,0.0,0.0,0.0,0.0,0.0,0.0,0.0,0.0,0.0,0.0,0.0,0.0,0.0,0.0,0.0,0.0,0.0,0.0,0.0,0.0,0.0,0.0,0.0,0.0,0.0,0.0,0.0,0.0,0.0,0.0,0.0,0.0,0.0,0.0,0.0,0.0,0.0,0.0,0.0,0.0,0.0,0.0,0.0,0.0,0.0,0.0,0.0,0.0,0.0,0.0,0.0,0.0,0.0,0.0,0.0,0.0,0.0,0.0,0.0,0.0,0.0,0.0,0.0,0.0,0.0,0.0,0.0,0.0,0.0,0.0,0.0,0.0,0.0,0.0,0.0,0.0,0.0,0.0,0.0,0.0,0.0,0.0,0.0,0.0,0.0,0.0,0.0,0.0,0.0],"categories":[],"categories_nodes":[],"categories_segments":[],"categories_sizes":[],"default_left":[false,false,false,false,false,false,false,false,false,false,false,false,false,false,false,false,false,false,false,false,false,false,false,false,false,false,false,false,false,false,false,false,false,false,false,false,false,false,false,false,false,false,false,false,false,false,false,false,false,false,false,false,false,false,false,false,false,false,false,false,false,false,false,false,false,false,false,false,false,false,false,false,false,false,false,false,false,false,false,false,false,false,false,false,false,false,false,false,false,false,false,false,false,false,false,false,false,false,false,false,false,false,false,false,false,false,false,false,false,false,false,false,false,false,false,false,false,false,false,false,false,false,false,false,false,false,false,false,false,false,false,false,false,false,false,false,false,false,false,false,false,false,false,false,false,false,false,false,false,false,false,false,false,false,false,false,false,false,false,false,false,false,false,false,false,false,false,false,false,false,false,false,false,false,false],"id":1,"left_children":[1,3,5,7,9,11,13,15,17,19,21,23,25,27,29,-1,31,-1,33,35,37,39,41,43,45,-1,47,49,51,53,55,57,-1,59,-1,61,63,65,67,-1,69,71,73,75,77,-1,79,-1,81,-1,-1,-1,83,85,-1,87,89,-1,91,93,95,97,99,101,-1,-1,-1,-1,-1,-1,103,-1,105,-1,107,109,-1,111,113,-1,-1,115,-1,-1,-1,117,119,-1,-1,121,-1,123,-1,-1,125,-1,-1,127,-1,-1,-1,129,-1,131,-1,133,135,137,139,141,-1,143,-1,145,-1,-1,147,-1,-1,-1,-1,-1,149,-1,-1,-1,-1,151,153,-1,-1,-1,155,-1,-1,157,-1,159,161,163,-1,-1,-1,-1,-1,-1,165,-1,167,-1,-1,-1,-1,-1,169,-1,-1,-1,-1,-1,-1,171,173,-1,-1,-1,-1,-1,-1,-1,-1,-1,-1,-1,-1],"loss_changes":[0.0,0.0,0.0,0.0,0.0,0.0,0.0,0.0,0.0,0.0,0.0,0.0,0.0,0.0,0.0,0.0,0.0,0.0,0.0,0.0,0.0,0.0,0.0,0.0,0.0,0.0,0.0,0.0,0.0,0.0,0.0,0.0,0.0,0.0,0.0,0.0,0.0,0.0,0.0,0.0,0.0,0.0,0.0,0.0,0.0,0.0,0.0,0.0,0.0,0.0,0.0,0.0,0.0,0.0,0.0,0.0,0.0,0.0,0.0,0.0,0.0,0.0,0.0,0.0,0.0,0.0,0.0,0.0,0.0,0.0,0.0,0.0,0.0,0.0,0.0,0.0,0.0,0.0,0.0,0.0,0.0,0.0,0.0,0.0,0.0,0.0,0.0,0.0,0.0,0.0,0.0,0.0,0.0,0.0,0.0,0.0,0.0,0.0,0.0,0.0,0.0,0.0,0.0,0.0,0.0,0.0,0.0,0.0,0.0,0.0,0.0,0.0,0.0,0.0,0.0,0.0,0.0,0.0,0.0,0.0,0.0,0.0,0.0,0.0,0.0,0.0,0.0,0.0,0.0,0.0,0.0,0.0,0.0,0.0,0.0,0.0,0.0,0.0,0.0,0.0,0.0,0.0,0.0,0.0,0.0,0.0,0.0,0.0,0.0,0.0,0.0,0.0,0.0,0.0,0.0,0.0,0.0,0.0,0.0,0.0,0.0,0.0,0.0,0.0,0.0,0.0,0.0,0.0,0.0,0.0,0.0,0.0,0.0,0.0,0.0],"parents":[2147483647,0,0,1,1,2,2,3,3,4,4,5,5,6,6,7,7,8,8,9,9,10,10,11,11,12,12,13,13,14,14,16,16,18,18,19,19,20,20,21,21,22,22,23,23,24,24,26,26,27,27,28,28,29,29,30,30,31,31,33,33,35,35,36,36,37,37,38,38,40,40,41,41,42,42,43,43,44,44,46,46,48,48,52,52,53,53,55,55,56,56,58,58,59,59,60,60,61,61,62,62,63,63,70,70,72,72,74,74,75,75,77,77,78,78,81,81,85,85,86,86,89,89,91,91,94,94,97,97,101,101,103,103,105,105,106,106,107,107,108,108,109,109,111,111,113,113,116,116,122,122,127,127,128,128,132,132,135,135,137,137,138,138,139,139,146,146,148,148,154,154,161,161,162,162],"right_children":[2,4,6,8,10,12,14,16,18,20,22,24,26,28,30,-1,32,-1,34,36,38,40,42,44,46,-1,48,50,52,54,56,58,-1,60,-1,62,64,66,68,-1,70,72,74,76,78,-1,80,-1,82,-1,-1,-1,84,86,-1,88,90,-1,92,94,96,98,100,102,-1,-1,-1,-1,-1,-1,104,-1,106,-1,108,110,-1,112,114,-1,-1,116,-1,-1,-1,118,120,-1,-1,122,-1,124,-1,-1,126,-1,-1,128,-1,-1,-1,130,-1,132,-1,134,136,138,140,142,-1,144,-1,146,-1,-1,148,-1,-1,-1,-1,-1,150,-1,-1,-1,-1,152,154,-1,-1,-1,156,-1,-1,158,-1,160,162,164,-1,-1,-1,-1,-1,-1,166,-1,168,-1,-1,-1,-1,-1,170,-1,-1,-1,-1,-1,-1,172,174,-1,-1,-1,-1,-1,-1,-1,-1,-1,-1,-1,-1],"split_conditions":[-0.9595614245570161,-0.1013227795328806,-4.706871813588817,1.8395687312890452,-3.4798437924433356,2.4457323635301726,9.131649018721088,3.8332790907439502,3.51789292307258,-5.904496530273409,4.231458963800545,-9.05821040569129,7.2357154042254095,-3.2776550511047287,-3.0355753968501737,9.415453066945474,9.642094867477756,-3.0190102839221797,-8.331806309825943,6.916754126885767,-6.313701200103911,9.939546313875788,-6.869113253770032,-7.311434603956197,-9.231334300280631,2.3812381406755776,6.846606048866551,0.18981554815242596,5.719621069062505,-7.763348209081552,3.131972059351064,8.827411775801906,1.20436043417266,2.3517977772161522,-5.68785253037703,4.937336031122534,-1.8875094174521863,-8.652151874627318,0.7980943905705544,-3.968920439019179,2.791385899429258,-4.365060308025043,-8.358833037432827,2.860348267074537,4.637394075970558,-9.65290089981933,-6.718506905056611,-4.692239645020553,-9.744802405938591,-4.248890394282765,-3.5393940529651786,8.880631828110161,7.108100907892652,6.716317638920128,-2.8928096123034672,9.220795699391381,9.904293084330895,-3.7321235550410545,5.303638412302902,-7.733306570833699,-1.1816107636193003,7.922022410640331,9.9553714376035,-5.530062983323799,1.029541593122973,-5.372304514900412,9.171822413608549,-0.6444488763350371,-1.9642031855502644,3.0622442212286636,4.465769951054597,-3.842938939532897,-5.915986417800989,-2.9811911683408283,7.224466318800573,-1.8793812845391908,0.43406042409022305,-8.809787413914082,1.144191352300144,-8.13701570181005,3.1707213919365014,-1.9801798770322172,-7.533400873525818,-6.357850346992059,6.3398961395601425,-1.119648659161843,3.8816336223401535,-9.470695722661567,-1.8439254748435694,1.4540094369835828,-8.929501557031351,3.2877790498831594,3.032322876668106,1.6295670529584587,-5.425017545015676,-4.015983036547258,2.983990734629405,2.303256549255675,-1.556807268623487,-5.682155758079584,9.783329307573311,8.48194658723634,-8.851195146365196,5.3179350717722755,5.1247080048950835,3.2449883914005753,-6.298301193399482,9.882426384879157,-5.1562354443171,-2.529923801688625,1.5674121369747134,7.016127905375097,-3.875515707689809,-2.399677842463616,-7.443434900249127,2.5247309246447074,6.249126594439836,6.77852521852725,2.6704178034561323,0.6820328433013891,1.999301913014758,9.553171870368956,2.204500281789743,2.33099420525555,0.4942702443029141,3.6699432726860497,-7.288949677955419,-6.981762780479263,-3.5501506950154127,2.2907441762407252,8.654400130596468,9.787786091628277,-9.692363342745427,3.6310035347847087,-5.141792409394989,-8.413534144613047,-0.8079027111339396,-4.228482872981263,-0.23286003035832614,0.7784889688743064,2.7511060196051833,-2.467090898011026,0.5614231695272132,-3.0528482472366205,-4.593206011202135,-4.983604104204872,-1.590308714313517,0.7563265268626136,3.1807253340546904,-3.941741877319327,7.853040550070073,8.41310899899094,-5.886402719576275,0.45309119137632337,-8.241936862258255,9.772175185710662,1.3708762277481092,5.36346515883276,-0.6853503366097886,7.828088004294379,-7.78581967254047,5.148149815001359,0.7020254851995329,-1.2231545547230986,3.580873980546638,0.5780507139967472,7.484417128484171,-4.156698355215943,-5.557163320029651,9.290722685346818,5.547076554392007,-4.602463006600704,-8.37485678050328,6.764478350610016,-4.846946707614874],"split_indices":[9,1,9,5,9,12,6,0,0,6,9,3,3,6,0,0,2,0,7,4,11,3,10,11,5,0,11,5,10,8,8,6,0,5,0,3,0,7,1,0,2,3,3,6,8,0,11,0,0,0,0,0,6,11,0,10,11,0,3,0,10,4,3,1,0,0,0,0,0,0,12,0,3,0,0,7,0,9,12,0,0,9,0,0,0,7,2,0,0,0,0,1,0,0,6,0,0,0,0,0,0,11,0,10,0,0,4,5,2,4,0,1,0,4,0,0,4,0,0,0,0,0,9,0,0,0,0,2,11,0,0,0,12,0,0,2,0,3,3,8,0,0,0,0,0,0,5,0,5,0,0,0,0,0,8,0,0,0,0,0,0,4,10,0,0,0,0,0,0,0,0,0,0,0,0],"sum_hessian":[0.0,0.0,0.0,0.0,0.0,0.0,0.0,0.0,0.0,0.0,0.0,0.0,0.0,0.0,0.0,0.0,0.0,0.0,0.0,0.0,0.0,0.0,0.0,0.0,0.0,0.0,0.0,0.0,0.0,0.0,0.0,0.0,0.0,0.0,0.0,0.0,0.0,0.0,0.0,0.0,0.0,0.0,0.0,0.0,0.0,0.0,0.0,0.0,0.0,0.0,0.0,0.0,0.0,0.0,0.0,0.0,0.0,0.0,0.0,0.0,0.0,0.0,0.0,0.0,0.0,0.0,0.0,0.0,0.0,0.0,0.0,0.0,0.0,0.0,0.0,0.0,0.0,0.0,0.0,0.0,0.0,0.0,0.0,0.0,0.0,0.0,0.0,0.0,0.0,0.0,0.0,0.0,0.0,0.0,0.0,0.0,0.0,0.0,0.0,0.0,0.0,0.0,0.0,0.0,0.0,0.0,0.0,0.0,0.0,0.0,0.0,0.0,0.0,0.0,0.0,0.0,0.0,0.0,0.0,0.0,0.0,0.0,0.0,0.0,0.0,0.0,0.0,0.0,0.0,0.0,0.0,0.0,0.0,0.0,0.0,0.0,0.0,0.0,0.0,0.0,0.0,0.0,0.0,0.0,0.0,0.0,0.0,0.0,0.0,0.0,0.0,0.0,0.0,0.0,0.0,0.0,0.0,0.0,0.0,0.0,0.0,0.0,0.0,0.0,0.0,0.0,0.0,0.0,0.0,0.0,0.0,0.0,0.0,0.0,0.0],"tree_param":{"num_deleted":"0","num_feature":"13","num_nodes":"175","size_leaf_vector":"0"}},{"base_weights":[0.0,0.0,0.0,0.0,0.0,0.0,0.0,0.0,0.0,0.0,0.0,0.0,0.0,0.0,0.0,0.0,0.0,0.0,0.0,0.0,0.0,0.0,0.0,0.0,0.0,0.0,0.0,0.0,0.0,0.0,0.0,0.0,0.0,0.0,0.0,0.0,0.0,0.0,0.0,0.0,0.0,0.0,0.0,0.0,0.0,0.0,0.0,0.0,0.0,0.0,0.0,0.0,0.0,0.0,0.0,0.0,0.0,0.0,0.0,0.0,0.0,0.0,0.0,0.0,0.0,0.0,0.0,0.0,0.0,0.0,0.0,0.0,0.0,0.0,0.0,0.0,0.0,0.0,0.0,0.0,0.0,0.0,0.0,0.0,0.0,0.0,0.0,0.0,0.0,0.0,0.0,0.0,0.0,0.0,0.0,0.0,0.0,0.0,0.0,0.0,0.0,0.0,0.0,0.0,0.0,0.0,0.0,0.0,0.0,0.0,0.0,0.0,0.0,0.0,0.0,0.0,0.0,0.0,0.0,0.0,0.0,0.0,0.0,0.0,0.0,0.0,0.0,0.0,0.0,0.0,0.0,0.0,0.0,0.0,0.0,0.0,0.0,0.0,0.0,0.0,0.0,0.0,0.0,0.0,0.0,0.0,0.0,0.0,0.0,0.0,0.0,0.0,0.0,0.0,0.0,0.0,0.0,0.0,0.0,0.0,0.0,0.0,0.0,0.0,0.0,0.0,0.0,0.0,0.0],"categories":[],"categories_nodes":[],"categories_segments":[],"categories_sizes":[],"default_left":[false,false,false,false,false,false,false,false,false,false,false,false,false,false,false,false,false,false,false,false,false,false,false,false,false,false,false,false,false,false,false,false,false,false,false,false,false,false,false,false,false,false,false,false,false,false,false,false,false,false,false,false,false,false,false,false,false,false,false,false,false,false,false,false,false,false,false,false,false,false,false,false,false,false,false,false,false,false,false,false,false,false,false,false,false,false,false,false,false,false,false,false,false,false,false,false,false,false,false,false,false,false,false,false,false,false,false,false,false,false,false,false,false,false,false,false,false,false,false,false,false,false,false,false,false,false,false,false,false,false,false,false,false,false,false,false,false,false,false,false,false,false,false,false,false,false,false,false,false,false,false,false,false,false,false,false,false,false,false,false,false,false,false,false,false,false,false,false,false],"id":2,"left_children":[1,3,5,7,9,11,13,15,17,19,21,-1,23,25,27,29,31,33,-1,35,37,-1,-1,39,41,43,45,47,49,51,53,-1,55,57,59,61,-1,63,-1,65,-1,-1,67,69,-1,-1,-1,-1,71,-1,73,75,77,79,-1,81,83,85,87,89,-1,91,93,95,-1,-1,-1,97,-1,-1,99,-1,101,103,-1,-1,105,-1,107,109,-1,-1,111,-1,-1,113,-1,115,-1,-1,117,119,-1,-1,121,-1,-1,123,125,-1,-1,127,-1,-1,-1,-1,-1,-1,129,-1,-1,-1,131,-1,133,135,-1,-1,137,-1,139,141,143,145,147,149,151,153,155,-1,-1,-1,-1,-1,157,-1,-1,-1,-1,-1,-1,-1,-1,-1,-1,159,-1,-1,-1,-1,161,163,-1,165,167,-1,-1,-1,-1,-1,-1,-1,-1,-1,-1,-1,-1,-1,-1],"loss_changes":[0.0,0.0,0.0,0.0,0.0,0.0,0.0,0.0,0.0,0.0,0.0,0.0,0.0,0.0,0.0,0.0,0.0,0.0,0.0,0.0,0.0,0.0,0.0,0.0,0.0,0.0,0.0,0.0,0.0,0.0,0.0,0.0,0.0,0.0,0.0,0.0,0.0,0.0,0.0,0.0,0.0,0.0,0.0,0.0,0.0,0.0,0.0,0.0,0.0,0.0,0.0,0.0,0.0,0.0,0.0,0.0,0.0,0.0,0.0,0.0,0.0,0.0,0.0,0.0,0.0,0.0,0.0,0.0,0.0,0.0,0.0,0.0,0.0,0.0,0.0,0.0,0.0,0.0,0.0,0.0,0.0,0.0,0.0,0.0,0.0,0.0,0.0,0.0,0.0,0.0,0.0,0.0,0.0,0.0,0.0,0.0,0.0,0.0,0.0,0.0,0.0,0.0,0.0,0.0,0.0,0.0,0.0,0.0,0.0,0.0,0.0,0.0,0.0,0.0,0.0,0.0,0.0,0.0,0.0,0.0,0.0,0.0,0.0,0.0,0.0,0.0,0.0,0.0,0.0,0.0,0.0,0.0,0.0,0.0,0.0,0.0,0.0,0.0,0.0,0.0,0.0,0.0,0.0,0.0,0.0,0.0,0.0,0.0,0.0,0.0,0.0,0.0,0.0,0.0,0.0,0.0,0.0,0.0,0.0,0.0,0.0,0.0,0.0,0.0,0.0,0.0,0.0,0.0,0.0],"parents":[2147483647,0,0,1,1,2,2,3,3,4,4,5,5,6,6,7,7,8,8,9,9,10,10,12,12,13,13,14,14,15,15,16,16,17,17,19,19,20,20,23,23,24,24,25,25,26,26,27,27,28,28,29,29,30,30,32,32,33,33,34,34,35,35,37,37,39,39,42,42,43,43,48,48,50,50,51,51,52,52,53,53,55,55,56,56,57,57,58,58,59,59,61,61,62,62,63,63,67,67,70,70,72,72,73,73,76,76,78,78,79,79,82,82,85,85,87,87,90,90,91,91,94,94,97,97,98,98,101,101,108,108,112,112,114,114,115,115,118,118,120,120,121,121,122,122,123,123,124,124,125,125,126,126,127,127,128,128,134,134,145,145,150,150,151,151,153,153,154,154],"right_children":[2,4,6,8,10,12,14,16,18,20,22,-1,24,26,28,30,32,34,-1,36,38,-1,-1,40,42,44,46,48,50,52,54,-1,56,58,60,62,-1,64,-1,66,-1,-1,68,70,-1,-1,-1,-1,72,-1,74,76,78,80,-1,82,84,86,88,90,-1,92,94,96,-1,-1,-1,98,-1,-1,100,-1,102,104,-1,-1,106,-1,108,110,-1,-1,112,-1,-1,114,-1,116,-1,-1,118,120,-1,-1,122,-1,-1,124,126,-1,-1,128,-1,-1,-1,-1,-1,-1,130,-1,-1,-1,132,-1,134,136,-1,-1,138,-1,140,142,144,146,148,150,152,154,156,-1,-1,-1,-1,-1,158,-1,-1,-1,-1,-1,-1,-1,-1,-1,-1,160,-1,-1,-1,-1,162,164,-1,166,168,-1,-1,-1,-1,-1,-1,-1,-1,-1,-1,-1,-1,-1,-1],"split_conditions":[-4.580844428952905,-3.9313166278158453,-1.2631540313643228,3.1339240509738193,-4.663271289691097,8.099388687531398,-2.0824190732013452,-5.735761942610816,5.969752552689728,-5.079474694271077,3.664333089149018,-3.583466429730395,-3.506912594738391,5.19479159506008,0.6580866799945362,6.0128240321909345,3.7826975159924103,3.403990988899988,-0.8877402276985595,-1.208932885513633,-4.254537627421856,7.011037395811599,3.305903924606861,1.5324666099125483,6.65668308256372,7.371580910213076,9.571744453762282,-7.1634290702486645,0.9670346421704128,-2.5585895906311276,8.676386541865906,-2.342360425106989,-1.0193981605680733,-4.7902842941909505,0.15375538501124453,-2.632549198939226,8.093554685246428,3.8320144361790938,-8.826821725687639,8.007265902189822,-9.287400808535695,-2.7612135195426184,-5.169031810818305,4.228694785206802,8.686716703531602,-1.304499834720719,7.855709795275558,5.087849873888203,-8.524445301085255,9.326084002835227,8.86810089498487,2.711571121482537,4.79297233725765,7.5456827192777745,4.093264816773193,-2.4194409808491173,-2.95274891023028,-7.0656666664831675,9.232891380633305,-3.5021198792583466,1.5336068781930816,3.367753991146918,5.000749708538981,-9.283696586518388,6.810402190709894,7.15658171799214,1.3237289695451189,3.6318551383039566,7.466790064398541,-1.4101817544537791,-2.2421158280505153,1.3657208589389072,-0.003083547894762617,-4.808740195565612,2.694504298991532,5.819209788524233,-2.423595831058716,2.7114305741007065,4.096373142317747,8.265969118257793,5.3457895461201765,4.321399945203503,-1.6731330803562336,4.885428245508589,5.856076414951463,-8.346051572123889,8.618625800821786,-1.5514234340224409,-1.1339643528762586,0.3364607115105329,4.513916383633653,-2.0864818502213236,3.30517723865513,-9.001897231859685,3.4082314681618637,-4.998128527740614,2.2268530782883396,-8.188680307162405,-2.4766128549066293,-0.7559010592016158,3.972648019022003,-1.7809540828524018,2.317065622420799,8.960274921174346,-7.664739843689524,-3.921952658500376,3.1134595287533138,-5.482379329186527,9.446808653879494,2.2403474359757336,1.7276079689554393,-8.788583690927537,1.4730087197915225,2.637361935173585,-7.83784638688977,5.9044421621079675,0.8055515986420545,-9.609192099196541,-8.853210577361681,-6.539741642478338,-8.718659617875911,2.2495809391673216,5.2773331130612995,-8.38708996818326,8.745029691493912,4.067677670962514,1.0828300121154477,4.291237558285118,7.581861821729653,-1.6334293829818698,-8.439012081478479,1.2687890852189874,0.9668297371745638,4.0261984018169255,6.004293251492193,-9.24764543330938,9.527367497674234,-3.4368820222502308,-4.430179790146985,-1.6370890494317756,-4.695395890246347,-4.239302487743969,3.567867835659298,-9.102782748900555,-6.306903361110022,9.25169064279929,-7.576004259553032,5.796101904882372,-1.5282573843285174,0.03706247963485154,-9.044864734671698,-2.1634625362294857,-7.303796758344591,1.7673054476547847,-0.6448203067677909,-2.561244770488882,7.983174217522738,-9.443900530873563,-5.002126451315641,-0.46795876122072144,1.035103088436923,-6.480970435265116,7.690892496937728,-0.5513218115035166,-2.0660978532293637,2.1629518770113147,8.936254104123648,-0.1421984981472697,-7.8574727428905415],"split_indices":[8,7,7,9,5,8,10,5,0,11,8,0,8,0,0,4,6,12,0,12,11,0,0,11,8,10,3,2,0,6,11,0,1,0,5,11,0,5,0,1,0,0,0,5,0,0,0,0,11,0,2,3,10,2,0,0,8,11,6,11,0,12,12,6,0,0,0,1,0,0,12,0,6,6,0,0,11,0,11,5,0,0,4,0,0,11,0,11,0,0,12,2,0,0,2,0,0,3,0,0,0,10,0,0,0,0,0,0,12,0,0,0,12,0,3,9,0,0,2,0,8,5,1,12,1,11,4,3,4,0,0,0,0,0,5,0,0,0,0,0,0,0,0,0,0,7,0,0,0,0,11,1,0,3,8,0,0,0,0,0,0,0,0,0,0,0,0,0,0],"sum_hessian":[0.0,0.0,0.0,0.0,0.0,0.0,0.0,0.0,0.0,0.0,0.0,0.0,0.0,0.0,0.0,0.0,0.0,0.0,0.0,0.0,0.0,0.0,0.0,0.0,0.0,0.0,0.0,0.0,0.0,0.0,0.0,0.0,0.0,0.0,0.0,0.0,0.0,0.0,0.0,0.0,0.0,0.0,0.0,0.0,0.0,0.0,0.0,0.0,0.0,0.0,0.0,0.0,0.0,0.0,0.0,0.0,0.0,0.0,0.0,0.0,0.0,0.0,0.0,0.0,0.0,0.0,0.0,0.0,0.0,0.0,0.0,0.0,0.0,0.0,0.0,0.0,0.0,0.0,0.0,0.0,0.0,0.0,0.0,0.0,0.0,0.0,0.0,0.0,0.0,0.0,0.0,0.0,0.0,0.0,0.0,0.0,0.0,0.0,0.0,0.0,0.0,0.0,0.0,0.0,0.0,0.0,0.0,0.0,0.0,0.0,0.0,0.0,0.0,0.0,0.0,0.0,0.0,0.0,0.0,0.0,0.0,0.0,0.0,0.0,0.0,0.0,0.0,0.0,0.0,0.0,0.0,0.0,0.0,0.0,0.0,0.0,0.0,0.0,0.0,0.0,0.0,0.0,0.0,0.0,0.0,0.0,0.0,0.0,0.0,0.0,0.0,0.0,0.0,0.0,0.0,0.0,0.0,0.0,0.0,0.0,0.0,0.0,0.0,0.0,0.0,0.0,0.0,0.0,0.0],"tree_param":{"num_deleted":"0","num_feature":"13","num_nodes":"169","size_leaf_vector":"0"}},{"base_weights":[0.0,0.0,0.0,0.0,0.0,0.0,0.0,0.0,0.0,0.0,0.0,0.0,0.0,0.0,0.0,0.0,0.0,0.0,0.0,0.0,0.0,0.0,0.0,0.0,0.0,0.0,0.0,0.0,0.0,0.0,0.0,0.0,0.0,0.0,0.0,0.0,0.0,0.0,0.0,0.0,0.0,0.0,0.0,0.0,0.0,0.0,0.0,0.0,0.0,0.0,0.0,0.0,0.0,0.0,0.0,0.0,0.0,0.0,0.0,0.0,0.0,0.0,0.0,0.0,0.0,0.0,0.0,0.0,0.0,0.0,0.0,0.0,0.0,0.0,0.0,0.0,0.0,0.0,0.0,0.0,0.0,0.0,0.0,0.0,0.0,0.0,0.0,0.0,0.0,0.0,0.0,0.0,0.0,0.0,0.0,0.0,0.0,0.0,0.0,0.0,0.0,0.0,0.0,0.0,0.0,0.0,0.0,0.0,0.0],"categories":[],"categories_nodes":[],"categories_segments":[],"categories_sizes":[],"default_left":[false,false,false,false,false,false,false,false,false,false,false,false,false,false,false,false,false,false,false,false,false,false,false,false,false,false,false,false,false,false,false,false,false,false,false,false,false,false,false,false,false,false,false,false,false,false,false,false,false,false,false,false,false,false,false,false,false,false,false,false,false,false,false,false,false,false,false,false,false,false,false,false,false,false,false,false,false,false,false,false,false,false,false,false,false,false,false,false,false,false,false,false,false,false,false,false,false,false,false,false,false,false,false,false,false,false,false,false,false],"id":3,"left_children":[1,3,5,7,9,11,13,15,17,-1,19,21,23,25,-1,27,29,31,33,35,37,39,41,-1,43,45,-1,47,-1,49,-1,-1,-1,51,-1,-1,-1,53,55,-1,57,59,61,-1,63,65,-1,67,69,-1,-1,71,-1,73,75,77,-1,-1,79,-1,-1,-1,-1,-1,-1,81,-1,-1,83,85,-1,87,89,91,93,-1,-1,-1,-1,-1,-1,-1,-1,-1,-1,-1,-1,95,97,-1,99,101,-1,103,-1,-1,-1,-1,-1,-1,-1,105,107,-1,-1,-1,-1,-1,-1],"loss_changes":[0.0,0.0,0.0,0.0,0.0,0.0,0.0,0.0,0.0,0.0,0.0,0.0,0.0,0.0,0.0,0.0,0.0,0.0,0.0,0.0,0.0,0.0,0.0,0.0,0.0,0.0,0.0,0.0,0.0,0.0,0.0,0.0,0.0,0.0,0.0,0.0,0.0,0.0,0.0,0.0,0.0,0.0,0.0,0.0,0.0,0.0,0.0,0.0,0.0,0.0,0.0,0.0,0.0,0.0,0.0,0.0,0.0,0.0,0.0,0.0,0.0,0.0,0.0,0.0,0.0,0.0,0.0,0.0,0.0,0.0,0.0,0.0,0.0,0.0,0.0,0.0,0.0,0.0,0.0,0.0,0.0,0.0,0.0,0.0,0.0,0.0,0.0,0.0,0.0,0.0,0.0,0.0,0.0,0.0,0.0,0.0,0.0,0.0,0.0,0.0,0.0,0.0,0.0,0.0,0.0,0.0,0.0,0.0,0.0],"parents":[2147483647,0,0,1,1,2,2,3,3,4,4,5,5,6,6,7,7,8,8,10,10,11,11,12,12,13,13,15,15,16,16,17,17,18,18,19,19,20,20,21,21,22,22,24,24,25,25,27,27,29,29,33,33,37,37,38,38,40,40,41,41,42,42,44,44,45,45,47,47,48,48,51,51,53,53,54,54,55,55,58,58,65,65,68,68,69,69,71,71,72,72,73,73,74,74,87,87,88,88,90,90,91,91,93,93,101,101,102,102],"right_children":[2,4,6,8,10,12,14,16,18,-1,20,22,24,26,-1,28,30,32,34,36,38,40,42,-1,44,46,-1,48,-1,50,-1,-1,-1,52,-1,-1,-1,54,56,-1,58,60,62,-1,64,66,-1,68,70,-1,-1,72,-1,74,76,78,-1,-1,80,-1,-1,-1,-1,-1,-1,82,-1,-1,84,86,-1,88,90,92,94,-1,-1,-1,-1,-1,-1,-1,-1,-1,-1,-1,-1,96,98,-1,100,102,-1,104,-1,-1,-1,-1,-1,-1,-1,106,108,-1,-1,-1,-1,-1,-1],"split_conditions":[7.750387240032897,9.049711200476615,-8.046876856161063,2.71885806875623,4.902121682432913,-4.034242774145426,0.8028892964526548,2.456030254833708,6.524916614126919,2.2103184463526695,5.269239271357007,1.7242006325561015,-3.768413950543401,6.255788429327403,9.712646916018251,-2.0635553034905465,7.901249301654492,-4.5518353218977055,-6.002233830007819,7.102798614599635,-8.315274611750734,4.16884213884585,-5.061471545294133,-7.995329108854748,1.9341738378838365,-9.638769650984576,8.849275648258342,5.40559683171832,-7.6381835614365645,8.65719243303808,-0.7562877806740325,-2.497276218178013,7.030741704583832,-7.708816783733059,-7.616464928443779,-7.539336746837138,1.4215580902828489,2.8365245877097127,9.620337094781753,-5.318562926225904,-9.759064412484246,7.894849257547026,9.005388072162617,-6.084735123705043,-9.85785706805065,0.1371263070098685,9.864228669479072,-6.749529543656509,-3.7255877477304935,-6.293458929900975,-2.4330697236208305,0.09136260260253692,-3.2095848030903458,-0.9984915025857575,8.191786891041097,-7.3425274060386005,-1.6842080822286007,6.679985639484119,-9.199893844333971,-8.122873288719136,6.790662467225054,0.6781463644888888,-1.9955514899318025,0.06595120791497067,-7.962524555129329,3.3413363316637863,3.70601778743821,0.3353349784184996,-0.4866836241398449,9.519844493561632,8.659982239960922,2.251453774443597,-8.350556230218993,3.8004904172499625,-5.519676931737072,-3.2919381665800094,-4.588857519183539,-1.6311071489339408,-2.2778983795401633,8.108874572328773,-2.0923712112796578,-1.0338524054795482,4.798186203817814,-6.268815444421137,-9.343970349074871,9.887553397776728,8.473470192775231,7.599566012785427,-0.5268239817240357,7.249891536157989,3.9102948820945294,5.878559411937726,-4.493606991964568,8.332312534132733,8.575376887095437,9.668680118726215,2.6608371510585798,-4.13502968608587,1.6348871281762314,9.672065220870131,-1.0082219901588996,-8.8831830494433,-3.1081963674949584,-8.383136322410646,4.405610370365878,3.5695930349047984,9.522221401899255,-6.334281600538135,-7.767887755617802],"split_indices":[9,0,2,7,0,9,0,7,4,0,5,5,0,7,0,9,8,6,8,4,6,11,10,0,3,9,0,9,0,11,0,0,0,2,0,0,0,11,1,0,11,7,3,0,4,10,0,11,11,0,0,12,0,3,4,4,0,0,4,0,0,0,0,0,0,11,0,0,4,0,0,3,4,11,11,0,0,0,0,0,0,0,0,0,0,0,0,8,9,0,5,6,0,11,0,0,0,0,0,0,0,4,1,0,0,0,0,0,0],"sum_hessian":[0.0,0.0,0.0,0.0,0.0,0.0,0.0,0.0,0.0,0.0,0.0,0.0,0.0,0.0,0.0,0.0,0.0,0.0,0.0,0.0,0.0,0.0,0.0,0.0,0.0,0.0,0.0,0.0,0.0,0.0,0.0,0.0,0.0,0.0,0.0,0.0,0.0,0.0,0.0,0.0,0.0,0.0,0.0,0.0,0.0,0.0,0.0,0.0,0.0,0.0,0.0,0.0,0.0,0.0,0.0,0.0,0.0,0.0,0.0,0.0,0.0,0.0,0.0,0.0,0.0,0.0,0.0,0.0,0.0,0.0,0.0,0.0,0.0,0.0,0.0,0.0,0.0,0.0,0.0,0.0,0.0,0.0,0.0,0.0,0.0,0.0,0.0,0.0,0.0,0.0,0.0,0.0,0.0,0.0,0.0,0.0,0.0,0.0,0.0,0.0,0.0,0.0,0.0,0.0,0.0,0.0,0.0,0.0,0.0],"tree_param":{"num_deleted":"0","num_feature":"13","num_nodes":"109","size_leaf_vector":"0"}}]},"name":"gbtree"},"learner_model_param":{"base_score":"5E-1","num_class":"0","num_feature":"13"},"objective":{"name":"reg:squarederror","reg_loss_param":{"scale_pos_weight":"1"}}},"version":[1,4,0]}