{"learner":{"attributes":{},"feature_types":["float","float","float","float","float","float","float","float","float","float","float","float","float","float","float"],"gradient_booster":{"model":{"gbtree_model_param":{"num_trees":"4","size_leaf_vector":"0"},"tree_info":[0,0,0,0],"trees":[{"base_weights":[0.0,0.0,0.0,0.0,0.0,0.0,0.0,0.0,0.0,0.0,0.0,0.0,0.0,0.0,0.0,0.0,0.0,0.0,0.0,0.0,0.0,0.0,0.0,0.0,0.0,0.0,0.0,0.0,0.0,0.0,0.0,0.0,0.0,0.0,0.0,0.0,0.0,0.0,0.0,0.0,0.0,0.0,0.0,0.0,0.0,0.0,0.0,0.0,0.0,0.0,0.0,0.0,0.0,0.0,0.0,0.0,0.0,0.0,0.0,0.0,0.0,0.0,0.0,0.0,0.0,0.0,0.0,0.0,0.0,0.0,0.0,0.0,0.0,0.0,0.0,0.0,0.0,0.0,0.0,0.0,0.0,0.0,0.0,0.0,0.0,0.0,0.0,0.0,0.0,0.0,0.0,0.0,0.0,0.0,0.0,0.0,0.0,0.0,0.0,0.0,0.0,0.0,0.0,0.0,0.0,0.0,0.0,0.0,0.0],"categories":[],"categories_nodes":[],"categories_segments":[],"categories_sizes":[],"default_left":[false,false,false,false,false,false,false,false,false,false,false,false,false,false,false,false,false,false,false,false,false,false,false,false,false,false,false,false,false,false,false,false,false,false,false,false,false,false,false,false,false,false,false,false,false,false,false,false,false,false,false,false,false,false,false,false,false,false,false,false,false,false,false,false,false,false,false,false,false,false,false,false,false,false,false,false,false,false,false,false,false,false,false,false,false,false,false,false,false,false,false,false,false,false,false,false,false,false,false,false,false,false,false,false,false,false,false,false,false],"id":0,"left_children":[1,3,5,7,9,11,13,15,17,19,21,-1,-1,23,-1,25,27,29,31,33,35,-1,37,39,41,43,-1,-1,45,-1,-1,47,49,-1,51,53,55,57,59,-1,-1,-1,61,-1,63,-1,-1,-1,65,67,-1,-1,69,71,73,75,-1,-1,-1,-1,77,-1,-1,-1,-1,79,81,-1,-1,83,-1,85,87,89,91,-1,93,-1,-1,-1,95,97,-1,-1,99,-1,101,103,-1,-1,-1,105,-1,-1,-1,-1,-1,-1,-1,-1,-1,107,-1,-1,-1,-1,-1,-1,-1],"loss_changes":[0.0,0.0,0.0,0.0,0.0,0.0,0.0,0.0,0.0,0.0,0.0,0.0,0.0,0.0,0.0,0.0,0.0,0.0,0.0,0.0,0.0,0.0,0.0,0.0,0.0,0.0,0.0,0.0,0.0,0.0,0.0,0.0,0.0,0.0,0.0,0.0,0.0,0.0,0.0,0.0,0.0,0.0,0.0,0.0,0.0,0.0,0.0,0.0,0.0,0.0,0.0,0.0,0.0,0.0,0.0,0.0,0.0,0.0,0.0,0.0,0.0,0.0,0.0,0.0,0.0,0.0,0.0,0.0,0.0,0.0,0.0,0.0,0.0,0.0,0.0,0.0,0.0,0.0,0.0,0.0,0.0,0.0,0.0,0.0,0.0,0.0,0.0,0.0,0.0,0.0,0.0,0.0,0.0,0.0,0.0,0.0,0.0,0.0,0.0,0.0,0.0,0.0,0.0,0.0,0.0,0.0,0.0,0.0,0.0],"parents":[2147483647,0,0,1,1,2,2,3,3,4,4,5,5,6,6,7,7,8,8,9,9,10,10,13,13,15,15,16,16,17,17,18,18,19,19,20,20,22,22,23,23,24,24,25,25,28,28,31,31,32,32,34,34,35,35,36,36,37,37,38,38,42,42,44,44,48,48,49,49,52,52,53,53,54,54,55,55,60,60,65,65,66,66,69,69,71,71,72,72,73,73,74,74,76,76,80,80,81,81,84,84,86,86,87,87,91,91,101,101],"right_children":[2,4,6,8,10,12,14,16,18,20,22,-1,-1,24,-1,26,28,30,32,34,36,-1,38,40,42,44,-1,-1,46,-1,-1,48,50,-1,52,54,56,58,60,-1,-1,-1,62,-1,64,-1,-1,-1,66,68,-1,-1,70,72,74,76,-1,-1,-1,-1,78,-1,-1,-1,-1,80,82,-1,-1,84,-1,86,88,90,92,-1,94,-1,-1,-1,96,98,-1,-1,100,-1,102,104,-1,-1,-1,106,-1,-1,-1,-1,-1,-1,-1,-1,-1,108,-1,-1,-1,-1,-1,-1,-1],"split_conditions":[-3.0688164629520784,8.639361257368126,3.8887000816690573,-1.9162612734487379,-1.4009254669689106,6.5780891275867575,-2.2225027591520785,2.247619112137615,-3.70254604866763,-2.9842810390515258,2.242209748751801,2.6853475439146024,-9.95267260585441,-2.4998551093010315,-4.360110676558668,2.479415933486136,-1.0367024685590298,-5.993234582847849,-9.727955084956783,2.0407738839009486,-2.5015172096495597,3.180190472605137,-3.40054992887287,5.290017154068956,2.6273105132471937,-2.4701435039825856,1.7480442598049617,-7.710572982896235,4.944477916039482,-5.616759461715874,8.603271726452139,5.495497923567662,-8.599102864400201,-0.9520651743960933,3.6258748631000977,4.39314733258524,-1.0984765760402517,-4.306233929633665,-4.327991351592196,7.93366131278303,-3.786977994073637,9.562338456977582,3.0433119596604854,8.91918319020073,7.9247734150185245,-6.351804814529944,-3.905506836536114,-3.5859644111947837,8.397825116201155,1.4915879008569952,0.11539218328521628,6.254013122423178,3.30550666619712,0.8686092677146959,-3.0271973446028273,3.3175524406175825,8.180259677883747,3.2888139585040435,0.23139501814782015,-9.974421425603447,5.636341048350415,-0.2946803482832472,-3.8013295011425443,3.9522171980123755,-4.986277341369009,-6.028257704497086,-6.461576255193079,4.493876546635363,6.187093870280815,8.347158237423976,4.847220499743708,-6.594234623145191,1.419656982387572,6.063431960102786,0.37960865340998673,4.70205581665647,7.740952872411206,3.177037083663066,2.557712155938571,-4.494814899252254,-7.867844967313491,1.1834941357599789,-1.3117054872853444,-1.9686875637391186,-6.799927729869456,-0.7396644045803509,2.5307481739380897,-2.5271413352034235,-3.0034915342018884,6.925499183104385,4.151432824671517,-7.573573368059919,-4.870661802726327,2.7179408936676825,-5.224592843599175,4.6763744885596825,5.704854666644712,-2.6636001253078687,-1.467581807214696,-9.831318042451194,2.0085964157038028,3.5022318406547477,4.261145686460273,1.3424034494684474,7.284941883059425,3.4563569985488503,-9.62167626632372,0.6053310038272883,9.686697739503398],"split_indices":[2,7,5,10,0,11,10,3,14,2,1,0,0,9,0,8,10,4,1,13,4,0,3,14,9,4,0,0,4,0,0,1,13,0,9,6,12,5,0,0,0,0,4,0,12,0,0,0,4,9,0,0,5,2,3,13,0,0,0,0,0,0,0,0,0,14,12,0,0,1,0,7,12,12,9,0,0,0,0,0,3,9,0,0,12,0,1,3,0,0,0,9,0,0,0,0,0,0,0,0,0,3,0,0,0,0,0,0,0],"sum_hessian":[0.0,0.0,0.0,0.0,0.0,0.0,0.0,0.0,0.0,0.0,0.0,0.0,0.0,0.0,0.0,0.0,0.0,0.0,0.0,0.0,0.0,0.0,0.0,0.0,0.0,0.0,0.0,0.0,0.0,0.0,0.0,0.0,0.0,0.0,0.0,0.0,0.0,0.0,0.0,0.0,0.0,0.0,0.0,0.0,0.0,0.0,0.0,0.0,0.0,0.0,0.0,0.0,0.0,0.0,0.0,0.0,0.0,0.0,0.0,0.0,0.0,0.0,0.0,0.0,0.0,0.0,0.0,0.0,0.0,0.0,0.0,0.0,0.0,0.0,0.0,0.0,0.0,0.0,0.0,0.0,0.0,0.0,0.0,0.0,0.0,0.0,0.0,0.0,0.0,0.0,0.0,0.0,0.0,0.0,0.0,0.0,0.0,0.0,0.0,0.0,0.0,0.0,0.0,0.0,0.0,0.0,0.0,0.0,0.0],"tree_param":{"num_deleted":"0","num_feature":"15","num_nodes":"109","size_leaf_vector":"0"}},{"base_weights":[0.0,0.0,0.0,0.0,0.0,0.0,0.0,0.0,0.0,0.0,0.0,0.0,0.0,0.0,0.0,0.0,0.0,0.0,0.0,0.0,0.0,0.0,0.0,0.0,0.0,0.0,0.0,0.0,0.0,0.0,0.0,0.0,0.0,0.0,0.0,0.0,0.0,0.0,0.0,0.0,0.0,0.0,0.0,0.0,0.0,0.0,0.0,0.0,0.0,0.0,0.0,0.0,0.0,0.0,0.0,0.0,0.0,0.0,0.0,0.0,0.0,0.0,0.0,0.0,0.0,0.0,0.0,0.0,0.0,0.0,0.0,0.0,0.0,0.0,0.0,0.0,0.0,0.0,0.0,0.0,0.0,0.0,0.0,0.0,0.0,0.0,0.0,0.0,0.0,0.0,0.0,0.0,0.0,0.0,0.0,0.0,0.0,0.0,0.0,0.0,0.0,0.0,0.0,0.0,0.0,0.0,0.0,0.0,0.0,0.0,0.0,0.0,0.0,0.0,0.0,0.0,0.0,0.0,0.0,0.0,0.0,0.0,0.0,0.0,0.0,0.0,0.0,0.0,0.0,0.0,0.0,0.0,0.0,0.0,0.0],"categories":[],"categories_nodes":[],"categories_segments":[],"categories_sizes":[],"default_left":[false,false,false,false,false,false,false,false,false,false,false,false,false,false,false,false,false,false,false,false,false,false,false,false,false,false,false,false,false,false,false,false,false,false,false,false,false,false,false,false,false,false,false,false,false,false,false,false,false,false,false,false,false,false,false,false,false,false,false,false,false,false,false,false,false,false,false,false,false,false,false,false,false,false,false,false,false,false,false,false,false,false,false,false,false,false,false,false,false,false,false,false,false,false,false,false,false,false,false,false,false,false,false,false,false,false,false,false,false,false,false,false,false,false,false,false,false,false,false,false,false,false,false,false,false,false,false,false,false,false,false,false,false,false,false],"id":1,"left_children":[1,3,5,7,9,11,13,15,17,19,21,23,25,-1,27,29,31,33,35,37,39,41,43,45,47,49,51,53,-1,-1,55,-1,-1,-1,-1,57,59,-1,-1,61,-1,63,65,67,-1,69,-1,71,73,75,-1,-1,77,-1,79,-1,-1,-1,81,83,-1,85,-1,87,89,91,-1,-1,-1,93,95,-1,97,99,-1,101,-1,103,-1,105,107,-1,109,111,-1,113,-1,-1,-1,-1,-1,-1,115,117,119,-1,-1,-1,-1,121,-1,-1,123,-1,-1,-1,-1,-1,-1,-1,-1,125,-1,-1,-1,127,129,-1,131,-1,-1,-1,-1,-1,133,-1,-1,-1,-1,-1,-1,-1,-1,-1,-1],"loss_changes":[0.0,0.0,0.0,0.0,0.0,0.0,0.0,0.0,0.0,0.0,0.0,0.0,0.0,0.0,0.0,0.0,0.0,0.0,0.0,0.0,0.0,0.0,0.0,0.0,0.0,0.0,0.0,0.0,0.0,0.0,0.0,0.0,0.0,0.0,0.0,0.0,0.0,0.0,0.0,0.0,0.0,0.0,0.0,0.0,0.0,0.0,0.0,0.0,0.0,0.0,0.0,0.0,0.0,0.0,0.0,0.0,0.0,0.0,0.0,0.0,0.0,0.0,0.0,0.0,0.0,0.0,0.0,0.0,0.0,0.0,0.0,0.0,0.0,0.0,0.0,0.0,0.0,0.0,0.0,0.0,0.0,0.0,0.0,0.0,0.0,0.0,0.0,0.0,0.0,0.0,0.0,0.0,0.0,0.0,0.0,0.0,0.0,0.0,0.0,0.0,0.0,0.0,0.0,0.0,0.0,0.0,0.0,0.0,0.0,0.0,0.0,0.0,0.0,0.0,0.0,0.0,0.0,0.0,0.0,0.0,0.0,0.0,0.0,0.0,0.0,0.0,0.0,0.0,0.0,0.0,0.0,0.0,0.0,0.0,0.0],"parents":[2147483647,0,0,1,1,2,2,3,3,4,4,5,5,6,6,7,7,8,8,9,9,10,10,11,11,12,12,14,14,15,15,16,16,17,17,18,18,19,19,20,20,21,21,22,22,23,23,24,24,25,25,26,26,27,27,30,30,35,35,36,36,39,39,41,41,42,42,43,43,45,45,47,47,48,48,49,49,52,52,54,54,58,58,59,59,61,61,63,63,64,64,65,65,69,69,70,70,72,72,73,73,75,75,77,77,79,79,80,80,82,82,83,83,85,85,92,92,93,93,94,94,99,99,102,102,111,111,115,115,116,116,118,118,124,124],"right_children":[2,4,6,8,10,12,14,16,18,20,22,24,26,-1,28,30,32,34,36,38,40,42,44,46,48,50,52,54,-1,-1,56,-1,-1,-1,-1,58,60,-1,-1,62,-1,64,66,68,-1,70,-1,72,74,76,-1,-1,78,-1,80,-1,-1,-1,82,84,-1,86,-1,88,90,92,-1,-1,-1,94,96,-1,98,100,-1,102,-1,104,-1,106,108,-1,110,112,-1,114,-1,-1,-1,-1,-1,-1,116,118,120,-1,-1,-1,-1,122,-1,-1,124,-1,-1,-1,-1,-1,-1,-1,-1,126,-1,-1,-1,128,130,-1,132,-1,-1,-1,-1,-1,134,-1,-1,-1,-1,-1,-1,-1,-1,-1,-1],"split_conditions":[-7.7408694861403635,5.3932369063055425,5.819038792360079,-8.33601394476463,1.1669042146448394,1.6464356592803568,-1.3340865930502233,3.0824803790547524,7.28323664918911,6.7943015837468295,3.561951205452498,2.6032400531624074,0.7251129835677954,1.8012574812494737,-6.449823548726045,-2.641371493450409,7.607006928195528,7.277742924398382,-1.8446755483258173,-5.953822209002334,-7.811856564084395,5.774788391269253,7.601380290395021,7.3326980861193505,8.058058400254094,6.951489680126816,-3.5260666822797866,3.16230621833245,-7.7986983478761465,-6.540152939560904,-9.348647066536287,-8.858301066227142,1.963820459167973,8.97244916853273,0.20285697780323986,-8.16435713007574,0.43197089250726783,4.2723935730820894,9.747686499863391,9.057521235194365,-1.7918870157427236,-9.084716838305871,8.66472774089435,-6.134181129568145,-6.809028712557872,3.361489301702509,4.373608626666277,-4.272974779681827,2.9463572513097613,1.8389984216189035,9.154210222633633,-4.711489125499927,5.298140080696811,4.872280199051936,-0.18582948869935478,1.0300978852503828,9.07239608490428,-1.8029966734264775,6.722959642390684,-4.706763201554898,9.689979123916608,7.308876373730577,-4.7659606921354305,9.91389665198956,2.701817902177977,7.624142539532844,-3.5282578193215066,7.452376872544633,7.098032320971008,4.557679890009235,8.03842861982896,7.698254319425782,-4.930839456067563,3.94746597521468,-1.4988444927300364,-0.8801810272719575,-9.624360782043192,-4.791968228336691,6.743649867518769,-7.3856461031751,7.915573753927262,-4.5332949170885595,-1.4480044125524199,7.582321992129131,-2.0988153278946466,-2.497169370439183,3.1400129623557778,-4.0152851432515835,-8.006574926464172,2.1830705944430093,9.394054579146768,-6.2620655033027415,-3.9353117720904374,2.1459719491523632,1.8306717872290417,-9.60425531160672,-2.630194097351657,5.224093910185587,5.183657182528032,-1.6099664588603453,8.996544998574834,6.74581786208136,6.5630601235641315,-5.849532781905483,1.6663647224009015,-8.467884324856419,8.196529795048473,-9.654513123490908,8.417311098909583,0.6060152786455415,-6.355314655019238,5.363776044926009,9.255830113913003,2.470464956915162,-7.8963906443715075,0.027274468637031646,-2.242374707051324,8.642743799913298,3.412973325817827,-2.1449730861440024,1.7222366444577624,3.1996354441605455,1.6059985175569231,-2.869627828916512,-9.151853946528682,0.3973940166709333,1.2138668834673396,7.5215455384413765,9.306761241946152,3.4734590680864272,-5.776569319066584,-0.66562147447722,-8.789392774902325,4.922843729062468,3.973967404349107],"split_indices":[2,0,6,1,13,14,13,5,9,2,8,8,4,0,8,1,4,6,10,6,3,0,4,2,2,1,5,12,0,0,8,0,0,0,0,7,7,0,0,14,0,1,12,5,0,5,0,7,8,7,0,0,10,0,11,0,0,0,9,10,0,7,0,3,0,14,0,0,0,6,5,0,5,6,0,9,0,14,0,12,1,0,4,4,0,1,0,0,0,0,0,0,2,4,14,0,0,0,0,11,0,0,1,0,0,0,0,0,0,0,0,1,0,0,0,12,14,0,0,0,0,0,0,0,8,0,0,0,0,0,0,0,0,0,0],"sum_hessian":[0.0,0.0,0.0,0.0,0.0,0.0,0.0,0.0,0.0,0.0,0.0,0.0,0.0,0.0,0.0,0.0,0.0,0.0,0.0,0.0,0.0,0.0,0.0,0.0,0.0,0.0,0.0,0.0,0.0,0.0,0.0,0.0,0.0,0.0,0.0,0.0,0.0,0.0,0.0,0.0,0.0,0.0,0.0,0.0,0.0,0.0,0.0,0.0,0.0,0.0,0.0,0.0,0.0,0.0,0.0,0.0,0.0,0.0,0.0,0.0,0.0,0.0,0.0,0.0,0.0,0.0,0.0,0.0,0.0,0.0,0.0,0.0,0.0,0.0,0.0,0.0,0.0,0.0,0.0,0.0,0.0,0.0,0.0,0.0,0.0,0.0,0.0,0.0,0.0,0.0,0.0,0.0,0.0,0.0,0.0,0.0,0.0,0.0,0.0,0.0,0.0,0.0,0.0,0.0,0.0,0.0,0.0,0.0,0.0,0.0,0.0,0.0,0.0,0.0,0.0,0.0,0.0,0.0,0.0,0.0,0.0,0.0,0.0,0.0,0.0,0.0,0.0,0.0,0.0,0.0,0.0,0.0,0.0,0.0,0.0],"tree_param":{"num_deleted":"0","num_feature":"15","num_nodes":"135","size_leaf_vector":"0"}},{"base_weights":[0.0,0.0,0.0,0.0,0.0,0.0,0.0,0.0,0.0,0.0,0.0,0.0,0.0,0.0,0.0,0.0,0.0,0.0,0.0,0.0,0.0,0.0,0.0,0.0,0.0,0.0,0.0,0.0,0.0,0.0,0.0,0.0,0.0,0.0,0.0,0.0,0.0,0.0,0.0,0.0,0.0,0.0,0.0,0.0,0.0,0.0,0.0,0.0,0.0,0.0,0.0,0.0,0.0,0.0,0.0,0.0,0.0,0.0,0.0,0.0,0.0,0.0,0.0,0.0,0.0,0.0,0.0,0.0,0.0,0.0,0.0,0.0,0.0,0.0,0.0,0.0,0.0,0.0,0.0,0.0,0.0,0.0,0.0,0.0,0.0,0.0,0.0,0.0,0.0,0.0,0.0,0.0,0.0,0.0,0.0,0.0,0.0,0.0,0.0,0.0,0.0,0.0,0.0,0.0,0.0,0.0,0.0],"categories":[],"categories_nodes":[],"categories_segments":[],"categories_sizes":[],"default_left":[false,false,false,false,false,false,false,false,false,false,false,false,false,false,false,false,false,false,false,false,false,false,false,false,false,false,false,false,false,false,false,false,false,false,false,false,false,false,false,false,false,false,false,false,false,false,false,false,false,false,false,false,false,false,false,false,false,false,false,false,false,false,false,false,false,false,false,false,false,false,false,false,false,false,false,false,false,false,false,false,false,false,false,false,false,false,false,false,false,false,false,false,false,false,false,false,false,false,false,false,false,false,false,false,false,false,false],"id":2,"left_children":[1,3,5,7,9,11,13,15,17,-1,19,21,23,25,27,29,31,33,-1,-1,35,37,-1,-1,-1,39,-1,-1,41,43,45,47,-1,49,51,53,55,57,-1,59,-1,-1,61,-1,-1,63,-1,65,67,-1,-1,69,-1,71,-1,-1,73,75,77,79,81,83,-1,85,-1,-1,87,89,-1,-1,-1,91,-1,-1,-1,93,-1,-1,-1,-1,-1,-1,-1,95,-1,-1,97,99,101,-1,103,-1,-1,-1,-1,-1,-1,-1,-1,-1,-1,-1,-1,-1,105,-1,-1],"loss_changes":[0.0,0.0,0.0,0.0,0.0,0.0,0.0,0.0,0.0,0.0,0.0,0.0,0.0,0.0,0.0,0.0,0.0,0.0,0.0,0.0,0.0,0.0,0.0,0.0,0.0,0.0,0.0,0.0,0.0,0.0,0.0,0.0,0.0,0.0,0.0,0.0,0.0,0.0,0.0,0.0,0.0,0.0,0.0,0.0,0.0,0.0,0.0,0.0,0.0,0.0,0.0,0.0,0.0,0.0,0.0,0.0,0.0,0.0,0.0,0.0,0.0,0.0,0.0,0.0,0.0,0.0,0.0,0.0,0.0,0.0,0.0,0.0,0.0,0.0,0.0,0.0,0.0,0.0,0.0,0.0,0.0,0.0,0.0,0.0,0.0,0.0,0.0,0.0,0.0,0.0,0.0,0.0,0.0,0.0,0.0,0.0,0.0,0.0,0.0,0.0,0.0,0.0,0.0,0.0,0.0,0.0,0.0],"parents":[2147483647,0,0,1,1,2,2,3,3,4,4,5,5,6,6,7,7,8,8,10,10,11,11,12,12,13,13,14,14,15,15,16,16,17,17,20,20,21,21,25,25,28,28,29,29,30,30,31,31,33,33,34,34,35,35,36,36,37,37,39,39,42,42,45,45,47,47,48,48,51,51,53,53,56,56,57,57,58,58,59,59,60,60,61,61,63,63,66,66,67,67,71,71,75,75,83,83,86,86,87,87,88,88,90,90,104,104],"right_children":[2,4,6,8,10,12,14,16,18,-1,20,22,24,26,28,30,32,34,-1,-1,36,38,-1,-1,-1,40,-1,-1,42,44,46,48,-1,50,52,54,56,58,-1,60,-1,-1,62,-1,-1,64,-1,66,68,-1,-1,70,-1,72,-1,-1,74,76,78,80,82,84,-1,86,-1,-1,88,90,-1,-1,-1,92,-1,-1,-1,94,-1,-1,-1,-1,-1,-1,-1,96,-1,-1,98,100,102,-1,104,-1,-1,-1,-1,-1,-1,-1,-1,-1,-1,-1,-1,-1,106,-1,-1],"split_conditions":[4.5594126249929,3.2324715498886043,-5.858285526483126,1.1295524784965156,9.383764547879853,7.123377314822019,7.895112657815034,5.906638001244733,3.8177983198371592,4.613616142629141,-0.057275154896299085,-2.990825908224495,1.9036263269026055,-9.05994802609909,5.418085422682594,-5.6099718974097215,-9.95979266254099,3.710824099559261,5.0700334524984285,-0.6157951490112996,3.928407230776095,4.752860161874825,2.3865536534540777,-5.022141431067673,8.572711200250435,-8.430857687656758,-5.46519170494668,8.838032851338188,2.963417064649869,3.7443165617755074,-1.4657867941771698,8.34340931295118,-2.9902061864528573,-6.153837800159135,-5.253853321774903,3.1958512006843733,-4.686163924173261,2.8633162423013676,2.317053548373755,-3.7381342008777283,-5.095390686472419,-9.804463731630374,7.828488621704704,-9.671648461598018,1.9710743135740945,-8.452913809333326,-0.5460938254475529,6.775947471566454,-1.541181998762708,-4.258149145338744,-6.257743818046536,6.578531904369179,-9.452803883295033,-1.3426029502622079,5.603394815325068,5.475860818069602,2.824535092265135,-7.740165087906178,-1.047929039672832,8.234034484119935,9.517517093716446,-2.372219355319407,-0.8364211446090835,1.7565293608116246,0.13799797358418253,1.112010219448635,2.7254810034542682,-3.3708822199728683,2.1229533018826086,1.4912044593710068,6.125423079696734,8.935632897049576,7.16175022618954,-1.6283452115519896,7.123506649062431,-1.7861170857078204,-3.8189513601310647,5.915099169914777,-5.8607063778391275,-5.366113806744648,-7.4623656726146885,1.3438900408190886,-1.7670393836775702,-5.6161752339377955,-3.8320876457954354,2.4614112060496254,3.313882929511877,-2.34338712858996,5.690430868810417,-4.340425049725404,5.281956927430009,-3.2200039445638895,-0.4293082465537861,-2.5111164302563838,-8.796911514982384,6.028172432817858,-6.4039750147530095,3.5035001928190574,5.770409882308973,-8.117414250904195,-4.076625612405712,8.030572684344168,4.427785604342432,4.845708665211323,-3.6712185597746405,-3.8687913949936075,7.77466882124563],"split_indices":[4,11,2,6,5,8,2,6,14,0,14,11,14,14,10,2,4,4,0,0,1,8,0,0,0,3,0,0,6,7,9,14,0,9,1,2,3,13,0,11,0,0,3,0,0,11,0,1,1,0,0,2,0,0,0,0,9,6,1,11,6,3,0,0,0,0,3,3,0,0,0,1,0,0,0,13,0,0,0,0,0,0,0,14,0,0,14,10,2,0,2,0,0,0,0,0,0,0,0,0,0,0,0,0,11,0,0],"sum_hessian":[0.0,0.0,0.0,0.0,0.0,0.0,0.0,0.0,0.0,0.0,0.0,0.0,0.0,0.0,0.0,0.0,0.0,0.0,0.0,0.0,0.0,0.0,0.0,0.0,0.0,0.0,0.0,0.0,0.0,0.0,0.0,0.0,0.0,0.0,0.0,0.0,0.0,0.0,0.0,0.0,0.0,0.0,0.0,0.0,0.0,0.0,0.0,0.0,0.0,0.0,0.0,0.0,0.0,0.0,0.0,0.0,0.0,0.0,0.0,0.0,0.0,0.0,0.0,0.0,0.0,0.0,0.0,0.0,0.0,0.0,0.0,0.0,0.0,0.0,0.0,0.0,0.0,0.0,0.0,0.0,0.0,0.0,0.0,0.0,0.0,0.0,0.0,0.0,0.0,0.0,0.0,0.0,0.0,0.0,0.0,0.0,0.0,0.0,0.0,0.0,0.0,0.0,0.0,0.0,0.0,0.0,0.0],"tree_param":{"num_deleted":"0","num_feature":"15","num_nodes":"107","size_leaf_vector":"0"}},{"base_weights":[0.0,0.0,0.0,0.0,0.0,0.0,0.0,0.0,0.0,0.0,0.0,0.0,0.0,0.0,0.0,0.0,0.0,0.0,0.0,0.0,0.0,0.0,0.0,0.0,0.0,0.0,0.0,0.0,0.0,0.0,0.0,0.0,0.0,0.0,0.0,0.0,0.0,0.0,0.0,0.0,0.0,0.0,0.0,0.0,0.0,0.0,0.0,0.0,0.0,0.0,0.0,0.0,0.0,0.0,0.0,0.0,0.0,0.0,0.0,0.0,0.0,0.0,0.0,0.0,0.0,0.0,0.0,0.0,0.0,0.0,0.0,0.0,0.0,0.0,0.0,0.0,0.0,0.0,0.0,0.0,0.0,0.0,0.0,0.0,0.0,0.0,0.0,0.0,0.0],"categories":[],"categories_nodes":[],"categories_segments":[],"categories_sizes":[],"default_left":[false,false,false,false,false,false,false,false,false,false,false,false,false,false,false,false,false,false,false,false,false,false,false,false,false,false,false,false,false,false,false,false,false,false,false,false,false,false,false,false,false,false,false,false,false,false,false,false,false,false,false,false,false,false,false,false,false,false,false,false,false,false,false,false,false,false,false,false,false,false,false,false,false,false,false,false,false,false,false,false,false,false,false,false,false,false,false,false,false],"id":3,"left_children":[1,3,5,7,9,11,13,15,17,19,21,-1,23,25,27,29,31,-1,33,35,-1,-1,37,39,41,-1,43,45,47,49,51,-1,-1,53,-1,55,-1,-1,-1,57,59,61,-1,-1,63,-1,-1,-1,-1,65,67,69,71,-1,73,-1,-1,-1,-1,-1,-1,-1,75,-1,-1,-1,77,-1,-1,-1,-1,-1,-1,-1,-1,79,81,-1,83,-1,-1,-1,85,-1,-1,87,-1,-1,-1],"loss_changes":[0.0,0.0,0.0,0.0,0.0,0.0,0.0,0.0,0.0,0.0,0.0,0.0,0.0,0.0,0.0,0.0,0.0,0.0,0.0,0.0,0.0,0.0,0.0,0.0,0.0,0.0,0.0,0.0,0.0,0.0,0.0,0.0,0.0,0.0,0.0,0.0,0.0,0.0,0.0,0.0,0.0,0.0,0.0,0.0,0.0,0.0,0.0,0.0,0.0,0.0,0.0,0.0,0.0,0.0,0.0,0.0,0.0,0.0,0.0,0.0,0.0,0.0,0.0,0.0,0.0,0.0,0.0,0.0,0.0,0.0,0.0,0.0,0.0,0.0,0.0,0.0,0.0,0.0,0.0,0.0,0.0,0.0,0.0,0.0,0.0,0.0,0.0,0.0,0.0],"parents":[2147483647,0,0,1,1,2,2,3,3,4,4,5,5,6,6,7,7,8,8,9,9,10,10,12,12,13,13,14,14,15,15,16,16,18,18,19,19,22,22,23,23,24,24,26,26,27,27,28,28,29,29,30,30,33,33,35,35,39,39,40,40,41,41,44,44,49,49,50,50,51,51,52,52,54,54,62,62,66,66,75,75,76,76,78,78,82,82,85,85],"right_children":[2,4,6,8,10,12,14,16,18,20,22,-1,24,26,28,30,32,-1,34,36,-1,-1,38,40,42,-1,44,46,48,50,52,-1,-1,54,-1,56,-1,-1,-1,58,60,62,-1,-1,64,-1,-1,-1,-1,66,68,70,72,-1,74,-1,-1,-1,-1,-1,-1,-1,76,-1,-1,-1,78,-1,-1,-1,-1,-1,-1,-1,-1,80,82,-1,84,-1,-1,-1,86,-1,-1,88,-1,-1,-1],"split_conditions":[7.252263743109623,0.8983119474771062,-7.764775294663462,0.6783474634479276,-7.173072047235376,-4.655494829981332,-8.188725966813493,-7.274890330207484,8.751059518099055,2.063256930474699,-2.038889248101821,3.2203271437414482,-7.995958009136175,5.403781085732415,3.5237527591495095,-2.745103574151443,3.4956992793007906,1.8930729070083512,7.3680632387589355,-5.462598606300021,1.7004542123696975,7.487893280515905,3.4349067352766216,-2.643208610268603,2.399797941341429,-3.6515450190641063,-8.362791900101858,-6.222828142133975,-5.54649643557169,5.840204720743552,-2.2513924588421643,-3.326766746319211,0.8902998222446374,7.196657151764725,3.855610537257242,3.016736722192242,4.621519634231529,-2.303073611710957,-5.034243907018556,-6.037700361086887,0.026493277294585837,1.549707167485133,-9.784161803704237,0.4125794151562179,-5.655403926142388,-4.781051949065182,5.740651624263496,4.812242827266676,4.970715941784745,-6.396980318699594,3.4416878263192796,1.2677661932857127,8.536505470305414,-0.37834401261024553,3.8491328756506284,8.131984876568403,-9.486043769354584,9.478166742648128,1.1342868941407165,-1.2215385401430918,-5.600690963747457,1.1323442433841464,3.00931958356294,9.415067974736793,-9.544119571720648,0.05284813706205327,-9.72233815503808,-8.798157433143153,5.463896376896411,-5.849436023830592,-5.466567976768649,-5.089400991596725,-6.097738744595645,-1.9904401406683085,3.58982628206347,1.3036383918527932,-2.1239797474664623,8.90743266254513,-2.03733680181524,-3.6370907153141276,5.37974288358517,1.0151913273733868,0.9647935914927039,6.03361503197894,9.665805170355867,-4.806807372884036,3.629010088276347,3.0472985821710203,5.652887072263059],"split_indices":[10,14,7,0,6,2,7,13,12,4,8,0,14,6,1,2,6,0,4,10,0,0,8,1,14,0,8,13,8,9,12,0,0,11,0,13,0,0,0,3,5,9,0,0,11,0,0,0,0,6,12,10,5,0,13,0,0,0,0,0,0,0,8,0,0,0,9,0,0,0,0,0,0,0,0,2,3,0,10,0,0,0,6,0,0,3,0,0,0],"sum_hessian":[0.0,0.0,0.0,0.0,0.0,0.0,0.0,0.0,0.0,0.0,0.0,0.0,0.0,0.0,0.0,0.0,0.0,0.0,0.0,0.0,0.0,0.0,0.0,0.0,0.0,0.0,0.0,0.0,0.0,0.0,0.0,0.0,0.0,0.0,0.0,0.0,0.0,0.0,0.0,0.0,0.0,0.0,0.0,0.0,0.0,0.0,0.0,0.0,0.0,0.0,0.0,0.0,0.0,0.0,0.0,0.0,0.0,0.0,0.0,0.0,0.0,0.0,0.0,0.0,0.0,0.0,0.0,0.0,0.0,0.0,0.0,0.0,0.0,0.0,0.0,0.0,0.0,0.0,0.0,0.0,0.0,0.0,0.0,0.0,0.0,0.0,0.0,0.0,0.0],"tree_param":{"num_deleted":"0","num_feature":"15","num_nodes":"89","size_leaf_vector":"0"}}]},"name":"gbtree"},"learner_model_param":{"base_score":"5E-1","num_class":"0","num_feature":"15"},"objective":{"name":"reg:squarederror","reg_loss_param":{"scale_pos_weight":"1"}}},"version":[1,4,0]}