{"learner":{"attributes":{},"feature_types":["float","float","float","float","float","float","float","float","float","float","float","float","float","float","float"],"gradient_booster":{"model":{"gbtree_model_param":{"num_trees":"4","size_leaf_vector":"0"},"tree_info":[0,0,0,0],"trees":[{"base_weights":[0.0,0.0,0.0,0.0,0.0,0.0,0.0,0.0,0.0,0.0,0.0,0.0,0.0,0.0,0.0,0.0,0.0,0.0,0.0,0.0,0.0,0.0,0.0,0.0,0.0,0.0,0.0,0.0,0.0,0.0,0.0,0.0,0.0,0.0,0.0,0.0,0.0,0.0,0.0,0.0,0.0,0.0,0.0,0.0,0.0,0.0,0.0,0.0,0.0,0.0,0.0,0.0,0.0,0.0,0.0,0.0,0.0,0.0,0.0,0.0,0.0,0.0,0.0,0.0,0.0,0.0,0.0,0.0,0.0,0.0,0.0,0.0,0.0,0.0,0.0,0.0,0.0,0.0,0.0,0.0,0.0,0.0,0.0,0.0,0.0,0.0,0.0,0.0,0.0],"categories":[],"categories_nodes":[],"categories_segments":[],"categories_sizes":[],"default_left":[false,false,false,false,false,false,false,false,false,false,false,false,false,false,false,false,false,false,false,false,false,false,false,false,false,false,false,false,false,false,false,false,false,false,false,false,false,false,false,false,false,false,false,false,false,false,false,false,false,false,false,false,false,false,false,false,false,false,false,false,false,false,false,false,false,false,false,false,false,false,false,false,false,false,false,false,false,false,false,false,false,false,false,false,false,false,false,false,false],"id":0,"left_children":[1,3,5,7,9,-1,11,13,15,17,19,21,23,25,27,29,-1,-1,-1,31,33,35,-1,37,-1,-1,39,41,43,45,47,-1,49,-1,-1,51,53,-1,-1,55,57,59,61,-1,-1,-1,-1,63,-1,65,-1,-1,67,69,71,-1,-1,-1,-1,-1,73,75,-1,-1,-1,-1,77,-1,-1,-1,79,-1,-1,81,-1,-1,-1,83,-1,85,-1,87,-1,-1,-1,-1,-1,-1,-1],"loss_changes":[0.0,0.0,0.0,0.0,0.0,0.0,0.0,0.0,0.0,0.0,0.0,0.0,0.0,0.0,0.0,0.0,0.0,0.0,0.0,0.0,0.0,0.0,0.0,0.0,0.0,0.0,0.0,0.0,0.0,0.0,0.0,0.0,0.0,0.0,0.0,0.0,0.0,0.0,0.0,0.0,0.0,0.0,0.0,0.0,0.0,0.0,0.0,0.0,0.0,0.0,0.0,0.0,0.0,0.0,0.0,0.0,0.0,0.0,0.0,0.0,0.0,0.0,0.0,0.0,0.0,0.0,0.0,0.0,0.0,0.0,0.0,0.0,0.0,0.0,0.0,0.0,0.0,0.0,0.0,0.0,0.0,0.0,0.0,0.0,0.0,0.0,0.0,0.0,0.0],"parents":[2147483647,0,0,1,1,2,2,3,3,4,4,6,6,7,7,8,8,9,9,10,10,11,11,12,12,13,13,14,14,15,15,19,19,20,20,21,21,23,23,26,26,27,27,28,28,29,29,30,30,32,32,35,35,36,36,39,39,40,40,41,41,42,42,47,47,49,49,52,52,53,53,54,54,60,60,61,61,66,66,70,70,73,73,77,77,79,79,81,81],"right_children":[2,4,6,8,10,-1,12,14,16,18,20,22,24,26,28,30,-1,-1,-1,32,34,36,-1,38,-1,-1,40,42,44,46,48,-1,50,-1,-1,52,54,-1,-1,56,58,60,62,-1,-1,-1,-1,64,-1,66,-1,-1,68,70,72,-1,-1,-1,-1,-1,74,76,-1,-1,-1,-1,78,-1,-1,-1,80,-1,-1,82,-1,-1,-1,84,-1,86,-1,88,-1,-1,-1,-1,-1,-1,-1],"split_conditions":[-2.4199168205027863,4.900237745271003,9.084604625555578,6.648747300513069,-9.411337744549932,1.46192654757556,6.848532463022341,4.558838584210852,-2.3375489124291704,-1.884755634904396,-2.8870665570176737,9.785205995729623,-8.08666006896155,-5.899560168654765,8.114471277605524,-2.2827524821419285,3.756022230209977,-6.6374618458414325,0.6852597951559343,-3.226188026852423,2.2042000589305317,-1.4679014477442358,-5.543540128515022,8.278194750024461,-6.30923327274828,8.798176806247916,7.519767448539451,-5.701415705694823,5.990682475060638,-3.5760120257498755,4.043746015377467,3.862141734194566,8.322645871085992,4.809402759868799,4.8404394134701825,5.8431015659790475,8.405207848512525,7.373696309778179,-8.473595940503532,6.637036647196233,-0.3608726996667446,-5.270435004741113,7.67401432055372,5.579642766487517,6.564102074996551,-0.8480211454589242,9.97237529659435,6.392781202505347,6.404815072053516,9.992343943441057,2.0610239108355124,0.5379318640299129,-1.2370007811677208,-4.2322636119641155,0.942856414692752,-0.01391801821163341,9.720197791728648,-8.425397490710818,-6.838976810692561,9.91087560193964,2.06828419678658,-1.708768068869528,4.710426543957295,1.9346521931681178,2.8647863729228735,-7.715155906514304,2.88629241847347,-2.591298286231938,2.7757333577250485,-9.839420567733088,-1.4183336084047262,-9.526813304828032,1.164525137418904,9.027186138745837,3.547055250120044,5.074176615613165,-8.859841819972257,-0.31585670375093144,2.126640439009515,-8.105220782530834,4.989863382154102,-7.822825854168529,7.775237836615894,-4.55032981296114,-2.352734644352533,4.9997886827566695,-5.783053823148627,4.31763756353309,-4.695511743625125],"split_indices":[11,4,12,7,11,0,5,11,13,13,2,4,0,2,9,4,0,0,0,6,2,5,0,6,0,0,9,9,0,4,3,0,7,0,0,9,7,0,0,0,8,14,3,0,0,0,0,12,0,0,0,0,14,5,1,0,0,0,0,0,5,10,0,0,0,0,1,0,0,0,2,0,0,9,0,0,0,12,0,8,0,0,0,0,0,0,0,0,0],"sum_hessian":[0.0,0.0,0.0,0.0,0.0,0.0,0.0,0.0,0.0,0.0,0.0,0.0,0.0,0.0,0.0,0.0,0.0,0.0,0.0,0.0,0.0,0.0,0.0,0.0,0.0,0.0,0.0,0.0,0.0,0.0,0.0,0.0,0.0,0.0,0.0,0.0,0.0,0.0,0.0,0.0,0.0,0.0,0.0,0.0,0.0,0.0,0.0,0.0,0.0,0.0,0.0,0.0,0.0,0.0,0.0,0.0,0.0,0.0,0.0,0.0,0.0,0.0,0.0,0.0,0.0,0.0,0.0,0.0,0.0,0.0,0.0,0.0,0.0,0.0,0.0,0.0,0.0,0.0,0.0,0.0,0.0,0.0,0.0,0.0,0.0,0.0,0.0,0.0,0.0],"tree_param":{"num_deleted":"0","num_feature":"15","num_nodes":"89","size_leaf_vector":"0"}},{"base_weights":[0.0,0.0,0.0,0.0,0.0,0.0,0.0,0.0,0.0,0.0,0.0,0.0,0.0,0.0,0.0,0.0,0.0,0.0,0.0,0.0,0.0,0.0,0.0,0.0,0.0,0.0,0.0,0.0,0.0,0.0,0.0,0.0,0.0,0.0,0.0,0.0,0.0,0.0,0.0,0.0,0.0,0.0,0.0,0.0,0.0,0.0,0.0,0.0,0.0,0.0,0.0,0.0,0.0,0.0,0.0,0.0,0.0,0.0,0.0,0.0,0.0,0.0,0.0,0.0,0.0,0.0,0.0,0.0,0.0,0.0,0.0,0.0,0.0,0.0,0.0,0.0,0.0],"categories":[],"categories_nodes":[],"categories_segments":[],"categories_sizes":[],"default_left":[false,false,false,false,false,false,false,false,false,false,false,false,false,false,false,false,false,false,false,false,false,false,false,false,false,false,false,false,false,false,false,false,false,false,false,false,false,false,false,false,false,false,false,false,false,false,false,false,false,false,false,false,false,false,false,false,false,false,false,false,false,false,false,false,false,false,false,false,false,false,false,false,false,false,false,false,false],"id":1,"left_children":[1,3,5,-1,-1,7,9,-1,11,13,-1,15,17,-1,19,21,-1,23,25,27,29,31,-1,33,-1,35,37,39,41,43,45,-1,-1,-1,-1,47,-1,49,51,-1,53,-1,55,57,59,-1,-1,61,63,-1,65,-1,-1,-1,-1,-1,67,-1,69,71,-1,-1,73,-1,-1,75,-1,-1,-1,-1,-1,-1,-1,-1,-1,-1,-1],"loss_changes":[0.0,0.0,0.0,0.0,0.0,0.0,0.0,0.0,0.0,0.0,0.0,0.0,0.0,0.0,0.0,0.0,0.0,0.0,0.0,0.0,0.0,0.0,0.0,0.0,0.0,0.0,0.0,0.0,0.0,0.0,0.0,0.0,0.0,0.0,0.0,0.0,0.0,0.0,0.0,0.0,0.0,0.0,0.0,0.0,0.0,0.0,0.0,0.0,0.0,0.0,0.0,0.0,0.0,0.0,0.0,0.0,0.0,0.0,0.0,0.0,0.0,0.0,0.0,0.0,0.0,0.0,0.0,0.0,0.0,0.0,0.0,0.0,0.0,0.0,0.0,0.0,0.0],"parents":[2147483647,0,0,1,1,2,2,5,5,6,6,8,8,9,9,11,11,12,12,14,14,15,15,17,17,18,18,19,19,20,20,21,21,23,23,25,25,26,26,27,27,28,28,29,29,30,30,35,35,37,37,38,38,40,40,42,42,43,43,44,44,47,47,48,48,50,50,56,56,58,58,59,59,62,62,65,65],"right_children":[2,4,6,-1,-1,8,10,-1,12,14,-1,16,18,-1,20,22,-1,24,26,28,30,32,-1,34,-1,36,38,40,42,44,46,-1,-1,-1,-1,48,-1,50,52,-1,54,-1,56,58,60,-1,-1,62,64,-1,66,-1,-1,-1,-1,-1,68,-1,70,72,-1,-1,74,-1,-1,76,-1,-1,-1,-1,-1,-1,-1,-1,-1,-1,-1],"split_conditions":[8.867491319342278,5.612954648529257,3.402293940995065,-9.684000266167127,-2.320015151470301,-3.0150385019328363,0.4245324673598958,1.6860381193162706,-4.643659252544251,7.547587206186542,2.5856605639189887,-1.7737452489300782,7.679723510375865,-5.514147235989176,5.773885030891307,-0.8138890881911856,8.678790000436795,1.9249006078311748,4.143608838228834,-8.746952383555834,-8.579757961179116,-7.828949248219528,-3.0274971211807795,-9.254287916146831,-5.192800119842035,-2.996962991510123,-9.930259571813675,-7.825711990881446,-6.187010731070557,-3.5915750793051195,1.4719526343736948,-0.7012466249184133,5.421271207798327,-7.098699234974305,6.286170831613202,-6.70951755555761,-6.091675167422749,-2.4949028589771727,-9.087418773353264,8.526408470223728,-0.3898820556563791,7.112239578839365,9.510761733490952,5.854119209874986,7.302970177862903,-7.461311618996206,-0.08428255888985703,3.0277272488806357,-6.276166367884644,-3.2445098531542236,0.20633912196818116,2.1889074724272852,-6.013472235899378,3.3423465566117656,4.172585664068809,9.472342284923798,7.4180152740078,1.717882336890252,-1.171383196386234,-2.165758728502217,0.020436334067603923,5.717679453856004,0.4680386380270143,9.695995494315376,-0.903993975262873,9.418894213052496,-9.848051342126016,4.144869824070355,-2.304548110672563,2.8666259331200727,5.762798407093362,-0.7371527389202619,3.8087165371688094,-8.614832813529574,7.28977316766062,8.966676542575257,-7.153964998663831],"split_indices":[9,7,13,0,0,6,9,0,8,0,0,8,11,0,1,5,0,8,11,11,6,13,0,8,0,6,4,1,3,12,9,0,0,0,0,13,0,5,7,0,9,0,1,2,0,0,0,2,6,0,8,0,0,0,0,0,8,0,7,14,0,0,7,0,0,1,0,0,0,0,0,0,0,0,0,0,0],"sum_hessian":[0.0,0.0,0.0,0.0,0.0,0.0,0.0,0.0,0.0,0.0,0.0,0.0,0.0,0.0,0.0,0.0,0.0,0.0,0.0,0.0,0.0,0.0,0.0,0.0,0.0,0.0,0.0,0.0,0.0,0.0,0.0,0.0,0.0,0.0,0.0,0.0,0.0,0.0,0.0,0.0,0.0,0.0,0.0,0.0,0.0,0.0,0.0,0.0,0.0,0.0,0.0,0.0,0.0,0.0,0.0,0.0,0.0,0.0,0.0,0.0,0.0,0.0,0.0,0.0,0.0,0.0,0.0,0.0,0.0,0.0,0.0,0.0,0.0,0.0,0.0,0.0,0.0],"tree_param":{"num_deleted":"0","num_feature":"15","num_nodes":"77","size_leaf_vector":"0"}},{"base_weights":[0.0,0.0,0.0,0.0,0.0,0.0,0.0,0.0,0.0,0.0,0.0,0.0,0.0,0.0,0.0,0.0,0.0,0.0,0.0,0.0,0.0,0.0,0.0,0.0,0.0,0.0,0.0,0.0,0.0,0.0,0.0,0.0,0.0,0.0,0.0,0.0,0.0,0.0,0.0,0.0,0.0,0.0,0.0,0.0,0.0,0.0,0.0,0.0,0.0,0.0,0.0,0.0,0.0,0.0,0.0,0.0,0.0,0.0,0.0,0.0,0.0,0.0,0.0,0.0,0.0,0.0,0.0,0.0,0.0,0.0,0.0,0.0,0.0,0.0,0.0,0.0,0.0,0.0,0.0,0.0,0.0,0.0,0.0,0.0,0.0,0.0,0.0,0.0,0.0,0.0,0.0,0.0,0.0,0.0,0.0,0.0,0.0,0.0,0.0,0.0,0.0,0.0,0.0,0.0,0.0,0.0,0.0,0.0,0.0,0.0,0.0,0.0,0.0,0.0,0.0,0.0,0.0,0.0,0.0,0.0,0.0,0.0,0.0,0.0,0.0,0.0,0.0],"categories":[],"categories_nodes":[],"categories_segments":[],"categories_sizes":[],"default_left":[false,false,false,false,false,false,false,false,false,false,false,false,false,false,false,false,false,false,false,false,false,false,false,false,false,false,false,false,false,false,false,false,false,false,false,false,false,false,false,false,false,false,false,false,false,false,false,false,false,false,false,false,false,false,false,false,false,false,false,false,false,false,false,false,false,false,false,false,false,false,false,false,false,false,false,false,false,false,false,false,false,false,false,false,false,false,false,false,false,false,false,false,false,false,false,false,false,false,false,false,false,false,false,false,false,false,false,false,false,false,false,false,false,false,false,false,false,false,false,false,false,false,false,false,false,false,false],"id":2,"left_children":[1,3,5,7,9,11,13,-1,15,17,19,21,23,25,27,-1,29,-1,31,33,-1,35,37,-1,39,41,43,-1,-1,-1,45,47,49,-1,51,-1,53,-1,-1,55,57,59,-1,-1,61,63,65,-1,67,-1,69,-1,71,-1,73,75,-1,77,79,81,83,85,-1,87,-1,-1,-1,89,-1,-1,-1,91,-1,93,-1,-1,95,-1,97,-1,99,-1,101,103,-1,105,107,-1,-1,-1,109,-1,-1,-1,-1,111,-1,-1,113,-1,-1,115,-1,117,-1,119,-1,121,-1,-1,-1,123,-1,125,-1,-1,-1,-1,-1,-1,-1,-1,-1,-1,-1,-1,-1],"loss_changes":[0.0,0.0,0.0,0.0,0.0,0.0,0.0,0.0,0.0,0.0,0.0,0.0,0.0,0.0,0.0,0.0,0.0,0.0,0.0,0.0,0.0,0.0,0.0,0.0,0.0,0.0,0.0,0.0,0.0,0.0,0.0,0.0,0.0,0.0,0.0,0.0,0.0,0.0,0.0,0.0,0.0,0.0,0.0,0.0,0.0,0.0,0.0,0.0,0.0,0.0,0.0,0.0,0.0,0.0,0.0,0.0,0.0,0.0,0.0,0.0,0.0,0.0,0.0,0.0,0.0,0.0,0.0,0.0,0.0,0.0,0.0,0.0,0.0,0.0,0.0,0.0,0.0,0.0,0.0,0.0,0.0,0.0,0.0,0.0,0.0,0.0,0.0,0.0,0.0,0.0,0.0,0.0,0.0,0.0,0.0,0.0,0.0,0.0,0.0,0.0,0.0,0.0,0.0,0.0,0.0,0.0,0.0,0.0,0.0,0.0,0.0,0.0,0.0,0.0,0.0,0.0,0.0,0.0,0.0,0.0,0.0,0.0,0.0,0.0,0.0,0.0,0.0],"parents":[2147483647,0,0,1,1,2,2,3,3,4,4,5,5,6,6,8,8,9,9,10,10,11,11,12,12,13,13,14,14,16,16,18,18,19,19,21,21,22,22,24,24,25,25,26,26,30,30,31,31,32,32,34,34,36,36,39,39,40,40,41,41,44,44,45,45,46,46,48,48,50,50,52,52,54,54,55,55,57,57,58,58,59,59,60,60,61,61,63,63,67,67,71,71,73,73,76,76,78,78,80,80,82,82,83,83,85,85,86,86,90,90,95,95,98,98,101,101,103,103,105,105,107,107,111,111,113,113],"right_children":[2,4,6,8,10,12,14,-1,16,18,20,22,24,26,28,-1,30,-1,32,34,-1,36,38,-1,40,42,44,-1,-1,-1,46,48,50,-1,52,-1,54,-1,-1,56,58,60,-1,-1,62,64,66,-1,68,-1,70,-1,72,-1,74,76,-1,78,80,82,84,86,-1,88,-1,-1,-1,90,-1,-1,-1,92,-1,94,-1,-1,96,-1,98,-1,100,-1,102,104,-1,106,108,-1,-1,-1,110,-1,-1,-1,-1,112,-1,-1,114,-1,-1,116,-1,118,-1,120,-1,122,-1,-1,-1,124,-1,126,-1,-1,-1,-1,-1,-1,-1,-1,-1,-1,-1,-1,-1],"split_conditions":[8.78307002850039,8.524842146063623,-8.763379797851814,-5.952441874583271,-4.642261994744043,-0.4407538240953013,1.0048997117180054,-2.492288329839294,8.181193031113235,-0.30237105601214864,-4.020922751015616,1.8300140545090375,-8.000109407576259,8.143092273676675,-6.282435894130629,-4.200639851333172,7.784780904288027,-8.5184764753922,-4.932491562498083,-4.493548048468398,3.7072326447789727,-7.081774748548695,-9.03120650969386,-4.194195435943794,2.0437313133571156,-0.2567532689593417,7.3033149189173905,-7.499241592893897,1.951159088607719,7.381899335176488,8.460296751962087,-9.735124780404485,-4.166651985498423,0.3794097345110323,-4.110158010022921,7.914783959947393,5.9656259391373005,2.678473794269644,6.299742922824787,7.245474912303024,-7.040820909798606,-9.45217768259483,3.72433718466654,-3.946125086736134,3.207069012951001,-0.5867689486304748,-9.453970589353917,1.9317494175675147,-7.109178799963573,-3.1800597788799507,8.780758930777061,2.2887281345070214,5.701055344931875,4.962776784927193,-3.5788207797931815,0.34605968385825925,-7.021062024047379,-1.6032219300816148,5.30792097012392,-7.483792262580359,-6.098081681319055,8.493233819745718,0.7349402977997421,-3.985800074920581,-3.992386463723494,-2.3635382644070146,-1.8752275504049791,9.964069765002556,-9.621996590163207,-4.684546155650108,2.709123400466842,3.4889169085936764,2.2737570564121246,5.722322749128928,-3.160482873710775,4.43476635282474,3.605547350547214,0.8221981807890248,-7.347818759040594,6.52345371770253,5.725568157457651,5.910788163830734,-0.2780654678721586,-4.7551692665619445,5.118474397601634,5.643962964249036,-2.3439903326101765,-0.6035329610304423,6.217884177891847,2.8767587075964673,-3.4488034011167805,-8.197358189612235,6.122012966346656,-7.356810480899005,-4.174336763223484,7.924864554192457,5.418854706427316,-3.71347018496507,4.666996258995162,-8.949566905660411,0.8399957284521129,-2.8637592053074634,-4.350333333668091,3.1611662317420404,-4.204781580543847,-3.1214164815652934,-2.0423466639700782,0.6597845167625884,-7.686647535987783,-2.422331206966925,-0.6731419492247834,4.406600570941562,2.4381344778338505,5.93884426589395,5.994875300811092,6.991319014202279,-8.405124574736737,6.21306318096935,-1.6786242507794142,-7.4371118861411585,-1.1067676738696335,-5.047102917157387,7.53761350111294,-3.1580120199431914,5.132586797810188,0.6770587249524258,8.271843087266614],"split_indices":[9,4,4,8,8,7,4,0,9,2,14,1,8,2,4,0,6,0,0,11,0,7,6,0,10,2,12,0,0,0,2,6,7,0,1,0,0,0,0,13,7,12,0,0,4,9,1,0,14,0,2,0,11,0,2,11,0,8,4,11,2,10,0,9,0,0,0,0,0,0,0,10,0,4,0,0,10,0,14,0,8,0,8,8,0,2,3,0,0,0,14,0,0,0,0,14,0,0,12,0,0,8,0,5,0,4,0,2,0,0,0,10,0,2,0,0,0,0,0,0,0,0,0,0,0,0,0],"sum_hessian":[0.0,0.0,0.0,0.0,0.0,0.0,0.0,0.0,0.0,0.0,0.0,0.0,0.0,0.0,0.0,0.0,0.0,0.0,0.0,0.0,0.0,0.0,0.0,0.0,0.0,0.0,0.0,0.0,0.0,0.0,0.0,0.0,0.0,0.0,0.0,0.0,0.0,0.0,0.0,0.0,0.0,0.0,0.0,0.0,0.0,0.0,0.0,0.0,0.0,0.0,0.0,0.0,0.0,0.0,0.0,0.0,0.0,0.0,0.0,0.0,0.0,0.0,0.0,0.0,0.0,0.0,0.0,0.0,0.0,0.0,0.0,0.0,0.0,0.0,0.0,0.0,0.0,0.0,0.0,0.0,0.0,0.0,0.0,0.0,0.0,0.0,0.0,0.0,0.0,0.0,0.0,0.0,0.0,0.0,0.0,0.0,0.0,0.0,0.0,0.0,0.0,0.0,0.0,0.0,0.0,0.0,0.0,0.0,0.0,0.0,0.0,0.0,0.0,0.0,0.0,0.0,0.0,0.0,0.0,0.0,0.0,0.0,0.0,0.0,0.0,0.0,0.0],"tree_param":{"num_deleted":"0","num_feature":"15","num_nodes":"127","size_leaf_vector":"0"}},{"base_weights":[0.0,0.0,0.0,0.0,0.0,0.0,0.0,0.0,0.0,0.0,0.0,0.0,0.0,0.0,0.0,0.0,0.0,0.0,0.0,0.0,0.0,0.0,0.0,0.0,0.0,0.0,0.0,0.0,0.0,0.0,0.0,0.0,0.0,0.0,0.0,0.0,0.0,0.0,0.0,0.0,0.0,0.0,0.0,0.0,0.0,0.0,0.0,0.0,0.0,0.0,0.0,0.0,0.0,0.0,0.0,0.0,0.0,0.0,0.0,0.0,0.0,0.0,0.0,0.0,0.0,0.0,0.0,0.0,0.0,0.0,0.0],"categories":[],"categories_nodes":[],"categories_segments":[],"categories_sizes":[],"default_left":[false,false,false,false,false,false,false,false,false,false,false,false,false,false,false,false,false,false,false,false,false,false,false,false,false,false,false,false,false,false,false,false,false,false,false,false,false,false,false,false,false,false,false,false,false,false,false,false,false,false,false,false,false,false,false,false,false,false,false,false,false,false,false,false,false,false,false,false,false,false,false],"id":3,"left_children":[1,3,5,7,9,11,13,-1,15,17,19,21,23,25,27,29,-1,31,33,-1,-1,-1,-1,-1,35,37,39,41,43,-1,45,47,-1,49,51,53,-1,-1,-1,-1,55,57,59,-1,-1,-1,-1,61,63,-1,-1,-1,-1,65,-1,-1,-1,-1,-1,-1,-1,-1,-1,-1,-1,67,-1,-1,69,-1,-1],"loss_changes":[0.0,0.0,0.0,0.0,0.0,0.0,0.0,0.0,0.0,0.0,0.0,0.0,0.0,0.0,0.0,0.0,0.0,0.0,0.0,0.0,0.0,0.0,0.0,0.0,0.0,0.0,0.0,0.0,0.0,0.0,0.0,0.0,0.0,0.0,0.0,0.0,0.0,0.0,0.0,0.0,0.0,0.0,0.0,0.0,0.0,0.0,0.0,0.0,0.0,0.0,0.0,0.0,0.0,0.0,0.0,0.0,0.0,0.0,0.0,0.0,0.0,0.0,0.0,0.0,0.0,0.0,0.0,0.0,0.0,0.0,0.0],"parents":[2147483647,0,0,1,1,2,2,3,3,4,4,5,5,6,6,8,8,9,9,10,10,11,11,12,12,13,13,14,14,15,15,17,17,18,18,24,24,25,25,26,26,27,27,28,28,30,30,31,31,33,33,34,34,35,35,40,40,41,41,42,42,47,47,48,48,53,53,65,65,68,68],"right_children":[2,4,6,8,10,12,14,-1,16,18,20,22,24,26,28,30,-1,32,34,-1,-1,-1,-1,-1,36,38,40,42,44,-1,46,48,-1,50,52,54,-1,-1,-1,-1,56,58,60,-1,-1,-1,-1,62,64,-1,-1,-1,-1,66,-1,-1,-1,-1,-1,-1,-1,-1,-1,-1,-1,68,-1,-1,70,-1,-1],"split_conditions":[5.405290864250421,9.636096937188217,-2.972243934228567,8.700754130853085,-7.122611675731468,-9.247471649129578,-1.4340800476767228,-0.30700089039187084,-9.167209490546885,-9.125238944276706,6.727748964041179,6.877955003411817,-2.895418265570539,3.5587714672601827,2.8304602706763013,0.724211650563646,1.9481092467916827,4.149969221770993,9.077915437932088,9.615049356129973,-2.177953510349475,-1.3666747510509847,-2.779830373177065,-6.7003507797875965,-0.4067021948710714,2.993888621263036,-6.738975904615713,-8.345815171304181,2.1174782271181503,3.103928203780475,-7.676582324717017,5.931449404345335,-1.5049134916015277,3.099134281445137,3.7553557616601196,7.0484047728376495,-4.674146520004409,0.22215771740860646,7.0507642691024515,-0.3698364122199074,-3.824713388017786,-9.561923953405422,0.05880883889206423,6.044329090103005,-6.1211891824669715,-1.1845234708488466,-0.6348001514469797,-0.8343063397859183,-2.5976273838420285,-9.369311926986217,-3.2461279608354303,3.858738023211096,-0.52829798775646,-3.520874012775165,-4.349606963179719,9.874141750841275,5.404544133686882,2.834173416265628,2.390870062734521,9.317657277360492,6.595780388314584,2.0846257895789044,-6.854464777836679,5.047984259825855,-7.044584341412973,3.200471744518298,2.4690860842937354,-8.555179293619352,0.5719619279007553,0.9380840184718391,-7.96007268865111],"split_indices":[3,9,14,6,5,1,9,0,12,5,13,1,8,1,8,2,0,11,10,0,0,0,0,0,13,4,1,5,14,0,13,1,0,13,10,5,0,0,0,0,11,12,8,0,0,0,0,11,9,0,0,0,0,11,0,0,0,0,0,0,0,0,0,0,0,8,0,0,8,0,0],"sum_hessian":[0.0,0.0,0.0,0.0,0.0,0.0,0.0,0.0,0.0,0.0,0.0,0.0,0.0,0.0,0.0,0.0,0.0,0.0,0.0,0.0,0.0,0.0,0.0,0.0,0.0,0.0,0.0,0.0,0.0,0.0,0.0,0.0,0.0,0.0,0.0,0.0,0.0,0.0,0.0,0.0,0.0,0.0,0.0,0.0,0.0,0.0,0.0,0.0,0.0,0.0,0.0,0.0,0.0,0.0,0.0,0.0,0.0,0.0,0.0,0.0,0.0,0.0,0.0,0.0,0.0,0.0,0.0,0.0,0.0,0.0,0.0],"tree_param":{"num_deleted":"0","num_feature":"15","num_nodes":"71","size_leaf_vector":"0"}}]},"name":"gbtree"},"learner_model_param":{"base_score":"5E-1","num_class":"0","num_feature":"15"},"objective":{"name":"reg:squarederror","reg_loss_param":{"scale_pos_weight":"1"}}},"version":[1,4,0]}