{"learner":{"attributes":{},"feature_types":["float","float","float","float","float","float","float","float","float","float","float"],"gradient_booster":{"model":{"gbtree_model_param":{"num_trees":"4","size_leaf_vector":"0"},"tree_info":[0,0,0,0],"trees":[{"base_weights":[0.0,0.0,0.0,0.0,0.0,0.0,0.0,0.0,0.0,0.0,0.0,0.0,0.0,0.0,0.0,0.0,0.0,0.0,0.0,0.0,0.0,0.0,0.0,0.0,0.0,0.0,0.0,0.0,0.0,0.0,0.0,0.0,0.0,0.0,0.0,0.0,0.0,0.0,0.0,0.0,0.0,0.0,0.0,0.0,0.0,0.0,0.0,0.0,0.0,0.0,0.0,0.0,0.0,0.0,0.0,0.0,0.0,0.0,0.0,0.0,0.0,0.0,0.0,0.0,0.0,0.0,0.0,0.0,0.0,0.0,0.0,0.0,0.0,0.0,0.0,0.0,0.0,0.0,0.0],"categories":[],"categories_nodes":[],"categories_segments":[],"categories_sizes":[],"default_left":[false,false,false,false,false,false,false,false,false,false,false,false,false,false,false,false,false,false,false,false,false,false,false,false,false,false,false,false,false,false,false,false,false,false,false,false,false,false,false,false,false,false,false,false,false,false,false,false,false,false,false,false,false,false,false,false,false,false,false,false,false,false,false,false,false,false,false,false,false,false,false,false,false,false,false,false,false,false,false],"id":0,"left_children":[1,3,5,7,9,11,13,15,-1,-1,17,19,21,23,25,-1,-1,27,29,31,33,-1,35,37,39,41,43,45,-1,-1,-1,-1,47,49,51,-1,-1,-1,-1,53,55,-1,57,59,61,-1,-1,-1,-1,-1,-1,63,-1,-1,-1,-1,65,-1,-1,67,69,-1,71,-1,-1,-1,-1,73,-1,-1,75,-1,77,-1,-1,-1,-1,-1,-1],"loss_changes":[0.0,0.0,0.0,0.0,0.0,0.0,0.0,0.0,0.0,0.0,0.0,0.0,0.0,0.0,0.0,0.0,0.0,0.0,0.0,0.0,0.0,0.0,0.0,0.0,0.0,0.0,0.0,0.0,0.0,0.0,0.0,0.0,0.0,0.0,0.0,0.0,0.0,0.0,0.0,0.0,0.0,0.0,0.0,0.0,0.0,0.0,0.0,0.0,0.0,0.0,0.0,0.0,0.0,0.0,0.0,0.0,0.0,0.0,0.0,0.0,0.0,0.0,0.0,0.0,0.0,0.0,0.0,0.0,0.0,0.0,0.0,0.0,0.0,0.0,0.0,0.0,0.0,0.0,0.0],"parents":[2147483647,0,0,1,1,2,2,3,3,4,4,5,5,6,6,7,7,10,10,11,11,12,12,13,13,14,14,17,17,18,18,19,19,20,20,22,22,23,23,24,24,25,25,26,26,27,27,32,32,33,33,34,34,39,39,40,40,42,42,43,43,44,44,51,51,56,56,59,59,60,60,62,62,67,67,70,70,72,72],"right_children":[2,4,6,8,10,12,14,16,-1,-1,18,20,22,24,26,-1,-1,28,30,32,34,-1,36,38,40,42,44,46,-1,-1,-1,-1,48,50,52,-1,-1,-1,-1,54,56,-1,58,60,62,-1,-1,-1,-1,-1,-1,64,-1,-1,-1,-1,66,-1,-1,68,70,-1,72,-1,-1,-1,-1,74,-1,-1,76,-1,78,-1,-1,-1,-1,-1,-1],"split_conditions":[6.494235604889184,7.4163674815827,-1.268793621926962,-4.646352345012778,7.978864900766503,-4.196947105960376,-4.640340649313784,9.910411999374528,-6.8027108294987615,-7.975855570084829,-7.589214313010628,7.562782442046526,-4.11996799208863,7.69442280753595,4.0748481392333264,7.464184694842274,8.055034022187023,6.350462657094059,3.6179781670718043,-8.304196707865364,-6.6539902835811855,-1.8306903721086023,-5.516223323294605,-1.132986687844312,6.494761713996706,2.74021809222657,7.7090812770490444,-6.405630656903346,6.440488848001216,-3.243557235859578,-7.154909933490687,-9.04316278605505,9.610906198096696,-2.393356818738706,4.373804674552254,-6.445765592690487,8.15456360095553,-3.4482553009497003,-5.332973249854906,-5.603293519668082,-8.710874505244382,-3.2158887261548594,1.7076376816896328,8.885588436666666,6.403580269749877,-3.7128771619413445,-4.175284901133002,1.8866971550408707,0.35251763631966426,-1.1980031171505772,8.012785143518133,1.8022813484856215,1.177701569082279,-7.28746653678599,6.89800576410477,5.732070405762716,-3.795236156366439,-9.569880662260356,9.385466340013366,0.3064072702148195,-2.237720143914082,-5.863202393152046,-8.722768189837547,1.0677211245234695,-4.58002563389678,-1.4503142577470438,9.90514048891886,5.574805003362801,2.5560202496728497,8.023900187137365,-9.948590881225753,5.702548852434745,4.510633973129165,8.883583730716701,-8.393663881937425,5.715021276498224,-4.296327340288766,7.9234118556654956,6.373129689368948],"split_indices":[9,6,5,5,5,10,9,10,0,0,8,2,0,6,3,0,0,10,2,1,2,0,7,9,5,2,7,3,0,0,0,0,1,0,0,0,0,0,0,5,4,0,0,8,5,0,0,0,0,0,0,7,0,0,0,0,1,0,0,0,9,0,5,0,0,0,0,4,0,0,1,0,1,0,0,0,0,0,0],"sum_hessian":[0.0,0.0,0.0,0.0,0.0,0.0,0.0,0.0,0.0,0.0,0.0,0.0,0.0,0.0,0.0,0.0,0.0,0.0,0.0,0.0,0.0,0.0,0.0,0.0,0.0,0.0,0.0,0.0,0.0,0.0,0.0,0.0,0.0,0.0,0.0,0.0,0.0,0.0,0.0,0.0,0.0,0.0,0.0,0.0,0.0,0.0,0.0,0.0,0.0,0.0,0.0,0.0,0.0,0.0,0.0,0.0,0.0,0.0,0.0,0.0,0.0,0.0,0.0,0.0,0.0,0.0,0.0,0.0,0.0,0.0,0.0,0.0,0.0,0.0,0.0,0.0,0.0,0.0,0.0],"tree_param":{"num_deleted":"0","num_feature":"11","num_nodes":"79","size_leaf_vector":"0"}},{"base_weights":[0.0,0.0,0.0,0.0,0.0,0.0,0.0,0.0,0.0,0.0,0.0,0.0,0.0,0.0,0.0,0.0,0.0,0.0,0.0,0.0,0.0,0.0,0.0,0.0,0.0,0.0,0.0,0.0,0.0,0.0,0.0,0.0,0.0,0.0,0.0,0.0,0.0,0.0,0.0,0.0,0.0,0.0,0.0,0.0,0.0,0.0,0.0,0.0,0.0,0.0,0.0,0.0,0.0,0.0,0.0,0.0,0.0,0.0,0.0,0.0,0.0,0.0,0.0,0.0,0.0,0.0,0.0,0.0,0.0,0.0,0.0,0.0,0.0,0.0,0.0,0.0,0.0,0.0,0.0,0.0,0.0,0.0,0.0,0.0,0.0,0.0,0.0,0.0,0.0,0.0,0.0,0.0,0.0,0.0,0.0,0.0,0.0,0.0,0.0],"categories":[],"categories_nodes":[],"categories_segments":[],"categories_sizes":[],"default_left":[false,false,false,false,false,false,false,false,false,false,false,false,false,false,false,false,false,false,false,false,false,false,false,false,false,false,false,false,false,false,false,false,false,false,false,false,false,false,false,false,false,false,false,false,false,false,false,false,false,false,false,false,false,false,false,false,false,false,false,false,false,false,false,false,false,false,false,false,false,false,false,false,false,false,false,false,false,false,false,false,false,false,false,false,false,false,false,false,false,false,false,false,false,false,false,false,false,false,false],"id":1,"left_children":[1,3,5,7,9,11,13,15,17,19,21,23,25,27,29,31,-1,33,35,37,39,41,-1,43,45,47,49,-1,-1,51,-1,-1,-1,-1,-1,-1,53,-1,-1,55,-1,-1,-1,57,-1,59,61,-1,-1,-1,-1,63,-1,-1,65,67,69,-1,71,-1,73,75,77,-1,-1,-1,-1,79,81,83,85,87,-1,-1,89,-1,-1,91,-1,93,-1,-1,-1,-1,-1,-1,-1,-1,-1,-1,-1,-1,95,-1,-1,-1,97,-1,-1],"loss_changes":[0.0,0.0,0.0,0.0,0.0,0.0,0.0,0.0,0.0,0.0,0.0,0.0,0.0,0.0,0.0,0.0,0.0,0.0,0.0,0.0,0.0,0.0,0.0,0.0,0.0,0.0,0.0,0.0,0.0,0.0,0.0,0.0,0.0,0.0,0.0,0.0,0.0,0.0,0.0,0.0,0.0,0.0,0.0,0.0,0.0,0.0,0.0,0.0,0.0,0.0,0.0,0.0,0.0,0.0,0.0,0.0,0.0,0.0,0.0,0.0,0.0,0.0,0.0,0.0,0.0,0.0,0.0,0.0,0.0,0.0,0.0,0.0,0.0,0.0,0.0,0.0,0.0,0.0,0.0,0.0,0.0,0.0,0.0,0.0,0.0,0.0,0.0,0.0,0.0,0.0,0.0,0.0,0.0,0.0,0.0,0.0,0.0,0.0,0.0],"parents":[2147483647,0,0,1,1,2,2,3,3,4,4,5,5,6,6,7,7,8,8,9,9,10,10,11,11,12,12,13,13,14,14,15,15,17,17,18,18,19,19,20,20,21,21,23,23,24,24,25,25,26,26,29,29,36,36,39,39,43,43,45,45,46,46,51,51,54,54,55,55,56,56,58,58,60,60,61,61,62,62,67,67,68,68,69,69,70,70,71,71,74,74,77,77,79,79,92,92,96,96],"right_children":[2,4,6,8,10,12,14,16,18,20,22,24,26,28,30,32,-1,34,36,38,40,42,-1,44,46,48,50,-1,-1,52,-1,-1,-1,-1,-1,-1,54,-1,-1,56,-1,-1,-1,58,-1,60,62,-1,-1,-1,-1,64,-1,-1,66,68,70,-1,72,-1,74,76,78,-1,-1,-1,-1,80,82,84,86,88,-1,-1,90,-1,-1,92,-1,94,-1,-1,-1,-1,-1,-1,-1,-1,-1,-1,-1,-1,96,-1,-1,-1,98,-1,-1],"split_conditions":[-1.472166868393467,9.373296290659027,4.013283008511699,-3.8766769329576807,3.386147246425539,9.664396546604888,-8.053079126984539,-1.1213312026604765,-9.743041536858549,-3.1969395753054837,-7.481307756986864,1.8460210085855202,7.592806251552382,6.3174068768248475,-7.885216407528603,6.269095578505912,-3.1151797289012393,-7.557886889667265,4.413453042335558,-3.1837372237208106,4.856593773119634,-0.30996437184038506,-5.876537637008463,9.922287710173123,-7.991245860870704,2.9925627301472026,1.4695022043438897,4.697902244674799,-6.077964400425724,5.015815284695153,7.693188352873388,-3.6765904088871,4.774187098524287,3.6307204780733375,-4.328435634220051,-5.623800989407906,-3.209611890451505,9.02620313269372,-0.9155468254760475,9.047733226305628,-9.350419279996384,-8.984425300894205,4.356007149314818,-9.842228631573219,-1.6673622036387599,0.3734624566276672,5.804241287581606,-3.6217513578498455,4.390968456244519,-1.169951710882227,-5.507309357312104,-9.402352021911177,3.3211403884376303,-2.4319351274797842,-3.9619113850327423,-0.7895824661092057,0.8364225910788559,2.1747340471539083,9.975674672301793,-4.529322080070645,-1.6177752008037096,8.727526401977826,-2.4470644688203427,0.23067595022480525,0.6399675441405037,-8.20806554812283,-0.16150698251607842,0.6464703842465092,6.962817341259601,-9.588518571731683,-1.1987492393985253,0.9958703287766433,-0.32258393276272734,9.756465196545104,-2.2107037777453895,-6.248545402826332,4.577728110423369,8.768651421723238,-8.228942846430133,7.119519230151418,4.653156922125108,-1.8448393031577073,0.33518961113157886,3.81280263535513,-8.321652836589292,-0.5983189125044177,1.5245135683536208,8.963838351102279,9.87255808720154,3.030748506974806,8.887297534193223,-1.6625785819356373,4.9192064936784945,-6.38290200507063,-6.135840144368556,-0.7485597019634511,-3.486771798894317,1.6292450194070245,8.704144114345823],"split_indices":[1,4,10,3,8,4,6,6,7,2,3,4,10,4,9,8,0,6,9,3,0,9,0,1,2,7,6,0,0,8,0,0,0,0,0,0,5,0,0,7,0,0,0,8,0,0,8,0,0,0,0,3,0,0,6,10,2,0,3,0,2,3,9,0,0,0,0,0,10,10,5,6,0,0,2,0,0,8,0,9,0,0,0,0,0,0,0,0,0,0,0,0,0,0,0,0,6,0,0],"sum_hessian":[0.0,0.0,0.0,0.0,0.0,0.0,0.0,0.0,0.0,0.0,0.0,0.0,0.0,0.0,0.0,0.0,0.0,0.0,0.0,0.0,0.0,0.0,0.0,0.0,0.0,0.0,0.0,0.0,0.0,0.0,0.0,0.0,0.0,0.0,0.0,0.0,0.0,0.0,0.0,0.0,0.0,0.0,0.0,0.0,0.0,0.0,0.0,0.0,0.0,0.0,0.0,0.0,0.0,0.0,0.0,0.0,0.0,0.0,0.0,0.0,0.0,0.0,0.0,0.0,0.0,0.0,0.0,0.0,0.0,0.0,0.0,0.0,0.0,0.0,0.0,0.0,0.0,0.0,0.0,0.0,0.0,0.0,0.0,0.0,0.0,0.0,0.0,0.0,0.0,0.0,0.0,0.0,0.0,0.0,0.0,0.0,0.0,0.0,0.0],"tree_param":{"num_deleted":"0","num_feature":"11","num_nodes":"99","size_leaf_vector":"0"}},{"base_weights":[0.0,0.0,0.0,0.0,0.0,0.0,0.0,0.0,0.0,0.0,0.0,0.0,0.0,0.0,0.0,0.0,0.0,0.0,0.0,0.0,0.0,0.0,0.0,0.0,0.0,0.0,0.0,0.0,0.0,0.0,0.0,0.0,0.0,0.0,0.0,0.0,0.0,0.0,0.0,0.0,0.0,0.0,0.0,0.0,0.0,0.0,0.0,0.0,0.0,0.0,0.0,0.0,0.0,0.0,0.0,0.0,0.0,0.0,0.0,0.0,0.0,0.0,0.0,0.0,0.0,0.0,0.0,0.0,0.0,0.0,0.0,0.0,0.0,0.0,0.0],"categories":[],"categories_nodes":[],"categories_segments":[],"categories_sizes":[],"default_left":[false,false,false,false,false,false,false,false,false,false,false,false,false,false,false,false,false,false,false,false,false,false,false,false,false,false,false,false,false,false,false,false,false,false,false,false,false,false,false,false,false,false,false,false,false,false,false,false,false,false,false,false,false,false,false,false,false,false,false,false,false,false,false,false,false,false,false,false,false,false,false,false,false,false,false],"id":2,"left_children":[1,3,5,7,9,11,-1,13,15,-1,17,-1,19,21,23,25,27,-1,29,-1,-1,-1,31,33,35,-1,37,39,-1,41,43,45,47,-1,49,51,53,-1,-1,-1,-1,-1,55,57,-1,-1,59,61,-1,-1,-1,63,65,67,-1,-1,-1,69,-1,-1,-1,71,-1,-1,-1,-1,-1,-1,-1,-1,-1,73,-1,-1,-1],"loss_changes":[0.0,0.0,0.0,0.0,0.0,0.0,0.0,0.0,0.0,0.0,0.0,0.0,0.0,0.0,0.0,0.0,0.0,0.0,0.0,0.0,0.0,0.0,0.0,0.0,0.0,0.0,0.0,0.0,0.0,0.0,0.0,0.0,0.0,0.0,0.0,0.0,0.0,0.0,0.0,0.0,0.0,0.0,0.0,0.0,0.0,0.0,0.0,0.0,0.0,0.0,0.0,0.0,0.0,0.0,0.0,0.0,0.0,0.0,0.0,0.0,0.0,0.0,0.0,0.0,0.0,0.0,0.0,0.0,0.0,0.0,0.0,0.0,0.0,0.0,0.0],"parents":[2147483647,0,0,1,1,2,2,3,3,4,4,5,5,7,7,8,8,10,10,12,12,13,13,14,14,15,15,16,16,18,18,22,22,23,23,24,24,26,26,27,27,29,29,30,30,31,31,32,32,34,34,35,35,36,36,42,42,43,43,46,46,47,47,51,51,52,52,53,53,57,57,61,61,71,71],"right_children":[2,4,6,8,10,12,-1,14,16,-1,18,-1,20,22,24,26,28,-1,30,-1,-1,-1,32,34,36,-1,38,40,-1,42,44,46,48,-1,50,52,54,-1,-1,-1,-1,-1,56,58,-1,-1,60,62,-1,-1,-1,64,66,68,-1,-1,-1,70,-1,-1,-1,72,-1,-1,-1,-1,-1,-1,-1,-1,-1,74,-1,-1,-1],"split_conditions":[-6.0825164268312655,5.371840663353609,9.864091086470232,-6.310603502494132,-8.273744739450082,6.6928961933050815,-9.501333232822383,-3.4902085172706894,-6.6634975471074185,-5.91680122912375,-7.942495327016374,3.645310262866186,8.952843662335518,-9.051053470526472,-4.612546721391883,-6.696081371920486,-6.5537054191717505,-0.6287502611205387,5.503160264985414,-5.355648192293109,8.402637411554501,-0.711252477700425,1.2550483387318767,6.919593737316685,-1.5540050026700598,-1.318803102509289,-2.1928245965755604,9.067920482449832,1.7761299361449527,9.87804555003363,8.502407684499293,6.548107220862327,2.786243807372111,-2.630644241247719,-0.9470284152084822,-3.7570132476843456,3.015036618366304,-9.933077356046695,4.142216602149206,-1.0361343718187825,-6.198032754593127,2.562174700634422,8.243410178378141,2.7179540320968663,-9.419725559009699,2.7791292164479735,4.46238623048254,-0.21500815198838197,-3.069278518403853,2.9424806424347167,2.380453383224939,-4.820211175497989,7.044745319948117,2.6594560015938953,-9.282573552456597,9.391602727417915,3.8275124230285833,-5.955955500028572,4.122511730675431,0.4022738795798553,-3.702363040411263,-0.8706031925211857,-2.6811718976286674,-2.245052384257918,0.6717087760807239,-0.4543379399511309,-0.9493478535572368,8.973152856083406,-0.700734347537237,6.810670626897441,-2.3154341736422346,-1.6554996042294015,2.531416520695281,-8.251746532404871,-3.950935030132027],"split_indices":[9,9,1,4,3,5,0,0,6,0,7,0,9,9,10,0,4,0,6,0,0,0,0,9,0,0,0,10,0,7,5,10,8,0,1,5,4,0,0,0,0,0,6,1,0,0,5,8,0,0,0,9,0,10,0,0,0,9,0,0,0,2,0,0,0,0,0,0,0,0,0,5,0,0,0],"sum_hessian":[0.0,0.0,0.0,0.0,0.0,0.0,0.0,0.0,0.0,0.0,0.0,0.0,0.0,0.0,0.0,0.0,0.0,0.0,0.0,0.0,0.0,0.0,0.0,0.0,0.0,0.0,0.0,0.0,0.0,0.0,0.0,0.0,0.0,0.0,0.0,0.0,0.0,0.0,0.0,0.0,0.0,0.0,0.0,0.0,0.0,0.0,0.0,0.0,0.0,0.0,0.0,0.0,0.0,0.0,0.0,0.0,0.0,0.0,0.0,0.0,0.0,0.0,0.0,0.0,0.0,0.0,0.0,0.0,0.0,0.0,0.0,0.0,0.0,0.0,0.0],"tree_param":{"num_deleted":"0","num_feature":"11","num_nodes":"75","size_leaf_vector":"0"}},{"base_weights":[0.0,0.0,0.0,0.0,0.0,0.0,0.0,0.0,0.0,0.0,0.0,0.0,0.0,0.0,0.0,0.0,0.0,0.0,0.0,0.0,0.0,0.0,0.0,0.0,0.0,0.0,0.0,0.0,0.0,0.0,0.0,0.0,0.0,0.0,0.0,0.0,0.0,0.0,0.0,0.0,0.0,0.0,0.0,0.0,0.0,0.0,0.0,0.0,0.0,0.0,0.0,0.0,0.0,0.0,0.0,0.0,0.0,0.0,0.0,0.0,0.0,0.0,0.0,0.0,0.0,0.0,0.0,0.0,0.0,0.0,0.0,0.0,0.0,0.0,0.0,0.0,0.0,0.0,0.0,0.0,0.0,0.0,0.0,0.0,0.0,0.0,0.0,0.0,0.0,0.0,0.0,0.0,0.0,0.0,0.0,0.0,0.0,0.0,0.0,0.0,0.0,0.0,0.0,0.0,0.0,0.0,0.0,0.0,0.0],"categories":[],"categories_nodes":[],"categories_segments":[],"categories_sizes":[],"default_left":[false,false,false,false,false,false,false,false,false,false,false,false,false,false,false,false,false,false,false,false,false,false,false,false,false,false,false,false,false,false,false,false,false,false,false,false,false,false,false,false,false,false,false,false,false,false,false,false,false,false,false,false,false,false,false,false,false,false,false,false,false,false,false,false,false,false,false,false,false,false,false,false,false,false,false,false,false,false,false,false,false,false,false,false,false,false,false,false,false,false,false,false,false,false,false,false,false,false,false,false,false,false,false,false,false,false,false,false,false],"id":3,"left_children":[1,3,5,7,9,11,13,15,17,-1,19,21,23,25,27,29,31,-1,33,35,-1,37,39,-1,-1,-1,-1,41,43,-1,45,47,-1,49,51,-1,53,-1,-1,-1,55,57,59,61,63,65,67,-1,69,-1,-1,-1,-1,-1,71,-1,73,75,-1,77,79,81,83,-1,-1,-1,-1,-1,85,-1,-1,-1,87,89,-1,-1,91,-1,-1,-1,93,95,-1,97,-1,-1,-1,99,-1,-1,101,-1,-1,-1,-1,103,-1,105,-1,107,-1,-1,-1,-1,-1,-1,-1,-1,-1],"loss_changes":[0.0,0.0,0.0,0.0,0.0,0.0,0.0,0.0,0.0,0.0,0.0,0.0,0.0,0.0,0.0,0.0,0.0,0.0,0.0,0.0,0.0,0.0,0.0,0.0,0.0,0.0,0.0,0.0,0.0,0.0,0.0,0.0,0.0,0.0,0.0,0.0,0.0,0.0,0.0,0.0,0.0,0.0,0.0,0.0,0.0,0.0,0.0,0.0,0.0,0.0,0.0,0.0,0.0,0.0,0.0,0.0,0.0,0.0,0.0,0.0,0.0,0.0,0.0,0.0,0.0,0.0,0.0,0.0,0.0,0.0,0.0,0.0,0.0,0.0,0.0,0.0,0.0,0.0,0.0,0.0,0.0,0.0,0.0,0.0,0.0,0.0,0.0,0.0,0.0,0.0,0.0,0.0,0.0,0.0,0.0,0.0,0.0,0.0,0.0,0.0,0.0,0.0,0.0,0.0,0.0,0.0,0.0,0.0,0.0],"parents":[2147483647,0,0,1,1,2,2,3,3,4,4,5,5,6,6,7,7,8,8,10,10,11,11,12,12,13,13,14,14,15,15,16,16,18,18,19,19,21,21,22,22,27,27,28,28,30,30,31,31,33,33,34,34,36,36,40,40,41,41,42,42,43,43,44,44,45,45,46,46,48,48,54,54,56,56,57,57,59,59,60,60,61,61,62,62,68,68,72,72,73,73,76,76,80,80,81,81,83,83,87,87,90,90,95,95,97,97,99,99],"right_children":[2,4,6,8,10,12,14,16,18,-1,20,22,24,26,28,30,32,-1,34,36,-1,38,40,-1,-1,-1,-1,42,44,-1,46,48,-1,50,52,-1,54,-1,-1,-1,56,58,60,62,64,66,68,-1,70,-1,-1,-1,-1,-1,72,-1,74,76,-1,78,80,82,84,-1,-1,-1,-1,-1,86,-1,-1,-1,88,90,-1,-1,92,-1,-1,-1,94,96,-1,98,-1,-1,-1,100,-1,-1,102,-1,-1,-1,-1,104,-1,106,-1,108,-1,-1,-1,-1,-1,-1,-1,-1,-1],"split_conditions":[-9.277453907250173,7.805457515065935,-0.8053462359863239,5.3951878477695985,-2.8910493513233346,-6.309586822632255,-2.2089018955940256,5.473045927899376,-0.5930614297373147,5.873305794308978,8.461200876655983,-8.6331321449501,-4.710431773800147,-7.757397172212313,-8.008705074749134,0.4573299094422545,5.214360801673495,-3.403639239657097,-7.653024647217437,1.4755595911721002,2.9189638044133925,-6.753004465724947,2.9377586198106815,-3.487425708589278,6.977595964326831,1.856780670817077,2.3991514380126375,-9.212914507581546,0.5177511916174122,-3.296094214329891,4.292212536171959,-1.3666280492549472,2.549893765781146,-9.565041748727712,-1.313488217322984,9.047640563551532,3.880086081211175,-0.656298520307601,8.503166608269211,8.747870068447867,5.194833269058272,4.847940527001862,3.2235611152121546,8.603882968639699,8.341100956070601,-9.169004671178993,-1.9705680596803568,-3.5745665913126317,6.734073756277063,-6.6269869125018985,-3.2416698673357125,-3.4051166942328877,-6.133416697989613,-3.272908809238997,-0.8177125666825873,6.174652233926633,4.631340511168098,9.608630488276678,1.4858215809149034,-2.9353765634568774,-6.109003932218192,-9.909431267392835,-9.492308168134578,-9.391787405146367,0.11022375607847401,4.150134956584031,1.316091466841673,5.114706092708566,-0.5005476041205998,4.715566463026413,-7.320696038539497,0.286611348645307,4.430890512269714,-1.199271506826335,-2.635011748038158,-0.14475839445805327,-0.9164407144966198,1.184349019952469,2.0617858904504356,7.743977381150348,-3.0129846942706484,8.897682840567544,6.729268229148055,3.3164024479545606,3.0419292739823156,-6.921959854359447,2.6969412710622827,-7.759412185896254,-5.191685805936569,-1.6625464319376224,2.719381238530927,5.856962824185368,-9.392318965668322,-3.390159333736948,8.866998091130288,2.004889464129704,2.946446316055839,-8.42969964411628,-7.799144798009255,-1.740928848985284,-6.780071916722482,-3.3664648909166743,-9.693444780738417,3.1384651777356964,-9.670930858829525,-0.5194969626329797,-2.194630949690527,-7.774923132891143,7.703819608765372],"split_indices":[4,1,9,0,5,2,7,7,10,0,6,9,9,6,7,0,6,0,1,5,0,6,2,0,0,0,0,2,10,0,8,8,0,6,4,0,1,0,0,0,5,6,3,8,8,4,9,0,1,0,0,0,0,0,9,0,4,1,0,7,8,0,1,0,0,0,0,0,7,0,0,0,1,1,0,0,6,0,0,0,8,4,0,8,0,0,0,10,0,0,4,0,0,0,0,10,0,5,0,8,0,0,0,0,0,0,0,0,0],"sum_hessian":[0.0,0.0,0.0,0.0,0.0,0.0,0.0,0.0,0.0,0.0,0.0,0.0,0.0,0.0,0.0,0.0,0.0,0.0,0.0,0.0,0.0,0.0,0.0,0.0,0.0,0.0,0.0,0.0,0.0,0.0,0.0,0.0,0.0,0.0,0.0,0.0,0.0,0.0,0.0,0.0,0.0,0.0,0.0,0.0,0.0,0.0,0.0,0.0,0.0,0.0,0.0,0.0,0.0,0.0,0.0,0.0,0.0,0.0,0.0,0.0,0.0,0.0,0.0,0.0,0.0,0.0,0.0,0.0,0.0,0.0,0.0,0.0,0.0,0.0,0.0,0.0,0.0,0.0,0.0,0.0,0.0,0.0,0.0,0.0,0.0,0.0,0.0,0.0,0.0,0.0,0.0,0.0,0.0,0.0,0.0,0.0,0.0,0.0,0.0,0.0,0.0,0.0,0.0,0.0,0.0,0.0,0.0,0.0,0.0],"tree_param":{"num_deleted":"0","num_feature":"11","num_nodes":"109","size_leaf_vector":"0"}}]},"name":"gbtree"},"learner_model_param":{"base_score":"5E-1","num_class":"0","num_feature":"11"},"objective":{"name":"reg:squarederror","reg_loss_param":{"scale_pos_weight":"1"}}},"version":[1,4,0]}