{"learner":{"attributes":{},"feature_types":["float","float","float","float","float","float","float","float","float","float","float","float","float","float","float","float","float"],"gradient_booster":{"model":{"gbtree_model_param":{"num_trees":"4","size_leaf_vector":"0"},"tree_info":[0,0,0,0],"trees":[{"base_weights":[0.0,0.0,0.0,0.0,0.0,0.0,0.0,0.0,0.0,0.0,0.0,0.0,0.0,0.0,0.0,0.0,0.0,0.0,0.0,0.0,0.0,0.0,0.0,0.0,0.0,0.0,0.0,0.0,0.0,0.0,0.0,0.0,0.0,0.0,0.0,0.0,0.0,0.0,0.0,0.0,0.0,0.0,0.0,0.0,0.0,0.0,0.0,0.0,0.0,0.0,0.0,0.0,0.0,0.0,0.0,0.0,0.0,0.0,0.0,0.0,0.0,0.0,0.0,0.0,0.0,0.0,0.0,0.0,0.0,0.0,0.0,0.0,0.0,0.0,0.0,0.0,0.0,0.0,0.0,0.0,0.0,0.0,0.0,0.0,0.0,0.0,0.0,0.0,0.0,0.0,0.0,0.0,0.0,0.0,0.0,0.0,0.0,0.0,0.0,0.0,0.0,0.0,0.0,0.0,0.0,0.0,0.0,0.0,0.0,0.0,0.0,0.0,0.0,0.0,0.0,0.0,0.0,0.0,0.0,0.0,0.0,0.0,0.0],"categories":[],"categories_nodes":[],"categories_segments":[],"categories_sizes":[],"default_left":[false,false,false,false,false,false,false,false,false,false,false,false,false,false,false,false,false,false,false,false,false,false,false,false,false,false,false,false,false,false,false,false,false,false,false,false,false,false,false,false,false,false,false,false,false,false,false,false,false,false,false,false,false,false,false,false,false,false,false,false,false,false,false,false,false,false,false,false,false,false,false,false,false,false,false,false,false,false,false,false,false,false,false,false,false,false,false,false,false,false,false,false,false,false,false,false,false,false,false,false,false,false,false,false,false,false,false,false,false,false,false,false,false,false,false,false,false,false,false,false,false,false,false],"id":0,"left_children":[1,3,5,7,9,11,13,-1,15,17,19,21,23,25,27,-1,29,31,33,-1,-1,-1,-1,35,37,-1,-1,39,41,43,-1,45,47,49,51,53,-1,-1,55,-1,57,59,-1,-1,61,63,65,-1,-1,67,-1,-1,69,-1,71,-1,73,-1,-1,75,-1,77,-1,79,-1,81,-1,-1,83,85,87,-1,89,-1,91,93,-1,-1,-1,95,97,-1,-1,99,101,103,105,-1,107,-1,-1,109,111,-1,113,-1,-1,-1,-1,115,-1,-1,-1,-1,-1,-1,-1,-1,117,-1,-1,119,-1,121,-1,-1,-1,-1,-1,-1,-1,-1,-1],"loss_changes":[0.0,0.0,0.0,0.0,0.0,0.0,0.0,0.0,0.0,0.0,0.0,0.0,0.0,0.0,0.0,0.0,0.0,0.0,0.0,0.0,0.0,0.0,0.0,0.0,0.0,0.0,0.0,0.0,0.0,0.0,0.0,0.0,0.0,0.0,0.0,0.0,0.0,0.0,0.0,0.0,0.0,0.0,0.0,0.0,0.0,0.0,0.0,0.0,0.0,0.0,0.0,0.0,0.0,0.0,0.0,0.0,0.0,0.0,0.0,0.0,0.0,0.0,0.0,0.0,0.0,0.0,0.0,0.0,0.0,0.0,0.0,0.0,0.0,0.0,0.0,0.0,0.0,0.0,0.0,0.0,0.0,0.0,0.0,0.0,0.0,0.0,0.0,0.0,0.0,0.0,0.0,0.0,0.0,0.0,0.0,0.0,0.0,0.0,0.0,0.0,0.0,0.0,0.0,0.0,0.0,0.0,0.0,0.0,0.0,0.0,0.0,0.0,0.0,0.0,0.0,0.0,0.0,0.0,0.0,0.0,0.0,0.0,0.0],"parents":[2147483647,0,0,1,1,2,2,3,3,4,4,5,5,6,6,8,8,9,9,10,10,11,11,12,12,13,13,14,14,16,16,17,17,18,18,23,23,24,24,27,27,28,28,29,29,31,31,32,32,33,33,34,34,35,35,38,38,40,40,41,41,44,44,45,45,46,46,49,49,52,52,54,54,56,56,59,59,61,61,63,63,65,65,68,68,69,69,70,70,72,72,74,74,75,75,79,79,80,80,83,83,84,84,85,85,86,86,88,88,91,91,92,92,94,94,99,99,108,108,111,111,113,113],"right_children":[2,4,6,8,10,12,14,-1,16,18,20,22,24,26,28,-1,30,32,34,-1,-1,-1,-1,36,38,-1,-1,40,42,44,-1,46,48,50,52,54,-1,-1,56,-1,58,60,-1,-1,62,64,66,-1,-1,68,-1,-1,70,-1,72,-1,74,-1,-1,76,-1,78,-1,80,-1,82,-1,-1,84,86,88,-1,90,-1,92,94,-1,-1,-1,96,98,-1,-1,100,102,104,106,-1,108,-1,-1,110,112,-1,114,-1,-1,-1,-1,116,-1,-1,-1,-1,-1,-1,-1,-1,118,-1,-1,120,-1,122,-1,-1,-1,-1,-1,-1,-1,-1,-1],"split_conditions":[-5.905245172177694,7.16798349070077,8.666968257610119,-6.257369630325608,9.75352967294905,-8.33343554582502,5.682295922903231,8.368447767050835,0.15089183921928395,-6.864594686466372,2.3639803468173213,6.418733443503477,6.469294770357163,-8.385750373629419,6.738123071171756,9.272292653844133,9.956524672615505,-3.7559352274178437,-0.32927328823690516,-5.249770619926905,-1.0253627482773595,-9.901613097361931,-4.728491448831513,0.9072496925089055,3.6639725953918862,8.056417737458041,9.578094480506085,-7.681838301623252,-7.7876003964280045,-7.639621687082297,6.291855631630252,0.6141848655980517,-0.669216035807418,7.416191649346583,3.667024512146053,-5.57118159083659,9.000143044341904,-3.8635263867175365,7.097595571252093,4.171653801381998,1.9274469703157049,-8.753193581816276,4.37412343743917,2.1694580174937155,-7.159879966962535,2.9696718239109394,-1.424866136581084,4.491657589512011,2.3930696642581673,0.9305483215244408,0.589692788575551,-0.08574848125063639,6.312322698383305,-3.6901894871377987,-1.763844938324386,-9.025844028711644,-9.55120533658841,4.859476594626479,-2.459457179918978,7.069711864274051,9.358117041840046,-8.494605471541925,-2.2860126575571025,4.464577476235199,-1.8161518279454043,2.5956514121106817,1.1240502234949545,6.309467774481124,-6.005805347965831,5.126380012896579,-9.085180126946511,-9.012735258936926,-3.4002377088899713,-1.506652717738465,-6.033816782086415,-4.205598974170575,7.302397749905811,-2.093340921355087,-9.334949955450465,-7.135305063122118,2.875909972986255,-5.50350783188718,-6.907595335096609,1.0823713287048005,-6.8487861097072535,-9.603149226369736,0.8372544145970444,1.616461946369954,-2.2874707992551455,1.0735007333261564,0.05900908654380643,-8.559072033633779,-6.919817498539038,-9.46292573545629,-0.8472604084337192,9.44971439449889,5.689524482228139,-2.5414593608176155,8.775796886318773,0.7456223105941984,7.584387450212041,2.140956886182117,2.0149687837491648,-4.81596273880074,2.8326233718958544,4.083801844025555,6.581680019432337,-2.2520418103550064,0.17220521365019792,-9.470620235967814,-0.6429039272658521,4.38065117931556,-2.9170864242317727,-2.101688926594127,-6.78925325525034,-4.350345383337802,-7.284117134827727,4.293805099137817,-4.604550297959477,3.082272587686262,2.861055630424472,3.9338050612475186,9.549797082179289],"split_indices":[12,2,10,2,2,10,8,0,10,15,9,10,0,2,2,0,3,4,0,0,0,0,0,12,13,0,0,4,3,1,0,11,3,3,0,3,0,0,6,0,5,12,0,0,12,9,4,0,0,4,0,0,6,0,11,0,7,0,0,14,0,2,0,14,0,7,0,0,9,4,11,0,4,0,16,12,0,0,0,12,9,0,0,11,4,11,12,0,4,0,0,9,13,0,4,0,0,0,0,14,0,0,0,0,0,0,0,0,2,0,0,11,0,16,0,0,0,0,0,0,0,0,0],"sum_hessian":[0.0,0.0,0.0,0.0,0.0,0.0,0.0,0.0,0.0,0.0,0.0,0.0,0.0,0.0,0.0,0.0,0.0,0.0,0.0,0.0,0.0,0.0,0.0,0.0,0.0,0.0,0.0,0.0,0.0,0.0,0.0,0.0,0.0,0.0,0.0,0.0,0.0,0.0,0.0,0.0,0.0,0.0,0.0,0.0,0.0,0.0,0.0,0.0,0.0,0.0,0.0,0.0,0.0,0.0,0.0,0.0,0.0,0.0,0.0,0.0,0.0,0.0,0.0,0.0,0.0,0.0,0.0,0.0,0.0,0.0,0.0,0.0,0.0,0.0,0.0,0.0,0.0,0.0,0.0,0.0,0.0,0.0,0.0,0.0,0.0,0.0,0.0,0.0,0.0,0.0,0.0,0.0,0.0,0.0,0.0,0.0,0.0,0.0,0.0,0.0,0.0,0.0,0.0,0.0,0.0,0.0,0.0,0.0,0.0,0.0,0.0,0.0,0.0,0.0,0.0,0.0,0.0,0.0,0.0,0.0,0.0,0.0,0.0],"tree_param":{"num_deleted":"0","num_feature":"17","num_nodes":"123","size_leaf_vector":"0"}},{"base_weights":[0.0,0.0,0.0,0.0,0.0,0.0,0.0,0.0,0.0,0.0,0.0,0.0,0.0,0.0,0.0,0.0,0.0,0.0,0.0,0.0,0.0,0.0,0.0,0.0,0.0,0.0,0.0,0.0,0.0,0.0,0.0,0.0,0.0,0.0,0.0,0.0,0.0,0.0,0.0,0.0,0.0,0.0,0.0,0.0,0.0,0.0,0.0,0.0,0.0,0.0,0.0,0.0,0.0,0.0,0.0,0.0,0.0,0.0,0.0,0.0,0.0,0.0,0.0,0.0,0.0,0.0,0.0,0.0,0.0,0.0,0.0,0.0,0.0,0.0,0.0,0.0,0.0,0.0,0.0,0.0,0.0,0.0,0.0,0.0,0.0,0.0,0.0,0.0,0.0,0.0,0.0,0.0,0.0,0.0,0.0,0.0,0.0,0.0,0.0,0.0,0.0,0.0,0.0,0.0,0.0,0.0,0.0,0.0,0.0,0.0,0.0,0.0,0.0,0.0,0.0,0.0,0.0],"categories":[],"categories_nodes":[],"categories_segments":[],"categories_sizes":[],"default_left":[false,false,false,false,false,false,false,false,false,false,false,false,false,false,false,false,false,false,false,false,false,false,false,false,false,false,false,false,false,false,false,false,false,false,false,false,false,false,false,false,false,false,false,false,false,false,false,false,false,false,false,false,false,false,false,false,false,false,false,false,false,false,false,false,false,false,false,false,false,false,false,false,false,false,false,false,false,false,false,false,false,false,false,false,false,false,false,false,false,false,false,false,false,false,false,false,false,false,false,false,false,false,false,false,false,false,false,false,false,false,false,false,false,false,false,false,false],"id":1,"left_children":[1,3,5,7,9,11,13,15,17,-1,-1,19,21,23,25,27,29,31,33,35,37,39,-1,41,43,45,47,49,-1,-1,51,53,55,-1,-1,-1,57,59,61,-1,-1,63,65,67,-1,-1,69,71,73,-1,-1,-1,75,-1,-1,77,-1,-1,79,81,-1,-1,-1,-1,-1,83,85,-1,-1,-1,87,89,-1,91,93,95,97,-1,-1,99,101,-1,-1,-1,-1,103,105,-1,107,-1,-1,-1,-1,-1,-1,-1,-1,109,-1,-1,-1,-1,-1,111,113,-1,-1,115,-1,-1,-1,-1,-1,-1,-1,-1,-1],"loss_changes":[0.0,0.0,0.0,0.0,0.0,0.0,0.0,0.0,0.0,0.0,0.0,0.0,0.0,0.0,0.0,0.0,0.0,0.0,0.0,0.0,0.0,0.0,0.0,0.0,0.0,0.0,0.0,0.0,0.0,0.0,0.0,0.0,0.0,0.0,0.0,0.0,0.0,0.0,0.0,0.0,0.0,0.0,0.0,0.0,0.0,0.0,0.0,0.0,0.0,0.0,0.0,0.0,0.0,0.0,0.0,0.0,0.0,0.0,0.0,0.0,0.0,0.0,0.0,0.0,0.0,0.0,0.0,0.0,0.0,0.0,0.0,0.0,0.0,0.0,0.0,0.0,0.0,0.0,0.0,0.0,0.0,0.0,0.0,0.0,0.0,0.0,0.0,0.0,0.0,0.0,0.0,0.0,0.0,0.0,0.0,0.0,0.0,0.0,0.0,0.0,0.0,0.0,0.0,0.0,0.0,0.0,0.0,0.0,0.0,0.0,0.0,0.0,0.0,0.0,0.0,0.0,0.0],"parents":[2147483647,0,0,1,1,2,2,3,3,4,4,5,5,6,6,7,7,8,8,11,11,12,12,13,13,14,14,15,15,16,16,17,17,18,18,19,19,20,20,21,21,23,23,24,24,25,25,26,26,27,27,30,30,31,31,32,32,36,36,37,37,38,38,41,41,42,42,43,43,46,46,47,47,48,48,52,52,55,55,58,58,59,59,65,65,66,66,70,70,71,71,73,73,74,74,75,75,76,76,79,79,80,80,85,85,86,86,88,88,97,97,103,103,104,104,107,107],"right_children":[2,4,6,8,10,12,14,16,18,-1,-1,20,22,24,26,28,30,32,34,36,38,40,-1,42,44,46,48,50,-1,-1,52,54,56,-1,-1,-1,58,60,62,-1,-1,64,66,68,-1,-1,70,72,74,-1,-1,-1,76,-1,-1,78,-1,-1,80,82,-1,-1,-1,-1,-1,84,86,-1,-1,-1,88,90,-1,92,94,96,98,-1,-1,100,102,-1,-1,-1,-1,104,106,-1,108,-1,-1,-1,-1,-1,-1,-1,-1,110,-1,-1,-1,-1,-1,112,114,-1,-1,116,-1,-1,-1,-1,-1,-1,-1,-1,-1],"split_conditions":[-0.4829338910371881,1.7946297885989644,-8.416148850444873,-3.01307176922176,5.973486572838551,1.8004408246661736,-6.965896317698791,2.6598610173880957,-2.644474578942864,8.824098074311365,-6.118364981093736,-6.325311214707845,8.797979166357266,-4.44182677187335,-7.698790113099468,-4.711966447157203,-1.3187324714986346,-4.177923896996124,2.1858591556139846,0.3020658527513742,-2.1087658766760633,-6.812348797079069,-3.8945445074361684,4.816916655626514,-9.568948459739783,-3.294056902390926,-0.29516735742579847,-6.565235665248575,0.8574509086835143,-4.088422833097343,1.2291570355814034,-9.436906941024569,-0.16513684625159541,-5.520246207591077,-2.5135387474754687,-0.6615487152547157,5.199386186773793,-5.254873818745552,-2.4508166346406,-4.750182196766581,9.400449397621365,2.086130045514171,0.08300225241449155,6.780637239074498,-7.10303320920032,-3.5501996474498263,-8.03997754987939,-9.401455613000728,-4.1285574797408255,-4.360738581946432,2.5990152022633737,1.5405003290526214,-7.184304502805464,-5.728292019482707,0.7661354991969116,-0.5952325763705968,6.51530202643918,9.441977572512378,5.60258557088771,-0.6494475719657942,-0.1550320018945346,-2.117257277916136,1.9207112732455514,-2.786855455364061,-2.0286975487744705,7.488488598388173,5.179852845869302,-5.369336197943917,-0.6736912482305168,0.059535413005946225,2.4584385686793198,6.434154932899318,2.295575778410214,-0.8302081341414542,7.025921435022656,-0.3837549961835123,-1.114209510633044,-5.538632717071104,5.506521181383359,4.753815164971355,3.4895590757611394,-8.039495880136265,-7.887564100859172,3.0614924678624824,-0.9671695692789619,-7.364406671552758,-5.82441915718838,-2.9773864717381375,-3.373681114103255,-1.0011780430849004,6.887103322221133,1.5956129156984833,2.0188334340964005,4.088851495667942,3.8531563880815884,1.8001014650890816,-2.1222005233431975,-3.93085899118958,-0.9702991392729334,5.137887063736352,-9.406649960452102,-2.534730863560588,-9.85178752137915,8.785609891784247,-5.879225605735711,1.5301159716259232,-4.715484108047545,8.461999357333603,1.6169497343149288,8.169890307876496,5.138338986495892,-7.449888300330012,-7.052654096891619,9.15571649414472,-7.291538216386829,-2.6302737603719297,7.2810362875355],"split_indices":[7,15,2,8,4,4,8,3,7,0,0,10,5,4,4,15,2,13,16,5,1,7,0,2,11,0,8,10,0,0,3,8,8,0,0,0,16,0,9,0,0,11,11,6,0,0,15,12,16,0,0,0,15,0,0,12,0,0,5,3,0,0,0,0,0,10,10,0,0,0,11,11,0,12,0,10,1,0,0,10,16,0,0,0,0,10,15,0,0,0,0,0,0,0,0,0,0,2,0,0,0,0,0,12,9,0,0,3,0,0,0,0,0,0,0,0,0],"sum_hessian":[0.0,0.0,0.0,0.0,0.0,0.0,0.0,0.0,0.0,0.0,0.0,0.0,0.0,0.0,0.0,0.0,0.0,0.0,0.0,0.0,0.0,0.0,0.0,0.0,0.0,0.0,0.0,0.0,0.0,0.0,0.0,0.0,0.0,0.0,0.0,0.0,0.0,0.0,0.0,0.0,0.0,0.0,0.0,0.0,0.0,0.0,0.0,0.0,0.0,0.0,0.0,0.0,0.0,0.0,0.0,0.0,0.0,0.0,0.0,0.0,0.0,0.0,0.0,0.0,0.0,0.0,0.0,0.0,0.0,0.0,0.0,0.0,0.0,0.0,0.0,0.0,0.0,0.0,0.0,0.0,0.0,0.0,0.0,0.0,0.0,0.0,0.0,0.0,0.0,0.0,0.0,0.0,0.0,0.0,0.0,0.0,0.0,0.0,0.0,0.0,0.0,0.0,0.0,0.0,0.0,0.0,0.0,0.0,0.0,0.0,0.0,0.0,0.0,0.0,0.0,0.0,0.0],"tree_param":{"num_deleted":"0","num_feature":"17","num_nodes":"117","size_leaf_vector":"0"}},{"base_weights":[0.0,0.0,0.0,0.0,0.0,0.0,0.0,0.0,0.0,0.0,0.0,0.0,0.0,0.0,0.0,0.0,0.0,0.0,0.0,0.0,0.0,0.0,0.0,0.0,0.0,0.0,0.0,0.0,0.0,0.0,0.0,0.0,0.0,0.0,0.0,0.0,0.0,0.0,0.0,0.0,0.0,0.0,0.0,0.0,0.0,0.0,0.0,0.0,0.0,0.0,0.0,0.0,0.0,0.0,0.0,0.0,0.0,0.0,0.0,0.0,0.0,0.0,0.0,0.0,0.0,0.0,0.0,0.0,0.0,0.0,0.0,0.0,0.0,0.0,0.0,0.0,0.0,0.0,0.0,0.0,0.0,0.0,0.0,0.0,0.0,0.0,0.0,0.0,0.0,0.0,0.0,0.0,0.0,0.0,0.0,0.0,0.0,0.0,0.0,0.0,0.0,0.0,0.0,0.0,0.0,0.0,0.0,0.0,0.0,0.0,0.0,0.0,0.0,0.0,0.0,0.0,0.0,0.0,0.0,0.0,0.0,0.0,0.0,0.0,0.0,0.0,0.0,0.0,0.0,0.0,0.0,0.0,0.0,0.0,0.0,0.0,0.0,0.0,0.0,0.0,0.0,0.0,0.0,0.0,0.0],"categories":[],"categories_nodes":[],"categories_segments":[],"categories_sizes":[],"default_left":[false,false,false,false,false,false,false,false,false,false,false,false,false,false,false,false,false,false,false,false,false,false,false,false,false,false,false,false,false,false,false,false,false,false,false,false,false,false,false,false,false,false,false,false,false,false,false,false,false,false,false,false,false,false,false,false,false,false,false,false,false,false,false,false,false,false,false,false,false,false,false,false,false,false,false,false,false,false,false,false,false,false,false,false,false,false,false,false,false,false,false,false,false,false,false,false,false,false,false,false,false,false,false,false,false,false,false,false,false,false,false,false,false,false,false,false,false,false,false,false,false,false,false,false,false,false,false,false,false,false,false,false,false,false,false,false,false,false,false,false,false,false,false,false,false],"id":2,"left_children":[1,3,5,7,9,11,13,15,17,19,21,-1,23,-1,25,27,29,31,-1,33,35,37,-1,39,41,43,45,47,49,51,-1,-1,53,-1,55,57,-1,59,61,63,65,67,69,-1,-1,-1,71,-1,-1,-1,-1,73,-1,75,77,-1,79,-1,-1,81,-1,83,-1,85,-1,-1,87,89,-1,-1,-1,-1,91,-1,-1,-1,93,95,-1,97,99,-1,101,103,105,-1,107,109,111,113,-1,115,117,-1,-1,119,-1,121,123,-1,-1,-1,125,-1,-1,-1,-1,-1,127,-1,129,-1,-1,131,133,135,-1,137,-1,-1,-1,-1,-1,-1,-1,-1,-1,139,-1,141,-1,-1,-1,-1,-1,-1,-1,143,-1,-1,-1,-1,-1,-1,-1],"loss_changes":[0.0,0.0,0.0,0.0,0.0,0.0,0.0,0.0,0.0,0.0,0.0,0.0,0.0,0.0,0.0,0.0,0.0,0.0,0.0,0.0,0.0,0.0,0.0,0.0,0.0,0.0,0.0,0.0,0.0,0.0,0.0,0.0,0.0,0.0,0.0,0.0,0.0,0.0,0.0,0.0,0.0,0.0,0.0,0.0,0.0,0.0,0.0,0.0,0.0,0.0,0.0,0.0,0.0,0.0,0.0,0.0,0.0,0.0,0.0,0.0,0.0,0.0,0.0,0.0,0.0,0.0,0.0,0.0,0.0,0.0,0.0,0.0,0.0,0.0,0.0,0.0,0.0,0.0,0.0,0.0,0.0,0.0,0.0,0.0,0.0,0.0,0.0,0.0,0.0,0.0,0.0,0.0,0.0,0.0,0.0,0.0,0.0,0.0,0.0,0.0,0.0,0.0,0.0,0.0,0.0,0.0,0.0,0.0,0.0,0.0,0.0,0.0,0.0,0.0,0.0,0.0,0.0,0.0,0.0,0.0,0.0,0.0,0.0,0.0,0.0,0.0,0.0,0.0,0.0,0.0,0.0,0.0,0.0,0.0,0.0,0.0,0.0,0.0,0.0,0.0,0.0,0.0,0.0,0.0,0.0],"parents":[2147483647,0,0,1,1,2,2,3,3,4,4,5,5,6,6,7,7,8,8,9,9,10,10,12,12,14,14,15,15,16,16,17,17,19,19,20,20,21,21,23,23,24,24,25,25,26,26,27,27,28,28,29,29,32,32,34,34,35,35,37,37,38,38,39,39,40,40,41,41,42,42,46,46,51,51,53,53,54,54,56,56,59,59,61,61,63,63,66,66,67,67,72,72,76,76,77,77,79,79,80,80,82,82,83,83,84,84,86,86,87,87,88,88,89,89,91,91,92,92,95,95,97,97,98,98,102,102,108,108,110,110,113,113,114,114,115,115,117,117,127,127,129,129,137,137],"right_children":[2,4,6,8,10,12,14,16,18,20,22,-1,24,-1,26,28,30,32,-1,34,36,38,-1,40,42,44,46,48,50,52,-1,-1,54,-1,56,58,-1,60,62,64,66,68,70,-1,-1,-1,72,-1,-1,-1,-1,74,-1,76,78,-1,80,-1,-1,82,-1,84,-1,86,-1,-1,88,90,-1,-1,-1,-1,92,-1,-1,-1,94,96,-1,98,100,-1,102,104,106,-1,108,110,112,114,-1,116,118,-1,-1,120,-1,122,124,-1,-1,-1,126,-1,-1,-1,-1,-1,128,-1,130,-1,-1,132,134,136,-1,138,-1,-1,-1,-1,-1,-1,-1,-1,-1,140,-1,142,-1,-1,-1,-1,-1,-1,-1,144,-1,-1,-1,-1,-1,-1,-1],"split_conditions":[-8.119992826892341,2.0206863463471887,-2.548712555794265,-8.553522696122059,-9.334983088512526,0.3144871432152776,4.579874562411188,-2.7383719834682534,5.248481450513637,1.9595333376513562,5.557330464908594,-1.7473557575322118,-0.32011037564741684,-0.6136504760270576,3.2448237524209116,9.807014527988109,-1.6671481054626067,5.056790757782954,-4.948414406145213,-8.63769363188245,-3.9328795424903564,6.930921844407834,-1.5567481517158495,3.9220236477718355,-3.240255317334743,-2.7148621879387953,7.1864339790103635,-9.112773078000824,9.34585909307415,-7.679546670043479,-5.281460948268927,-5.911631341031614,-2.946110608707193,-1.4851688238994374,-2.426455704315761,9.527231315712687,8.189000545027195,3.0689238946884796,-3.2200057988762323,3.608446252151529,2.97759711236745,-3.441499427356992,-7.113539219345268,-9.44009463010774,3.3388500022774714,3.7986745357004654,5.525558514218039,3.7188881404326217,6.482811138972192,-0.5532598222924445,0.895261315413709,2.9406070075785973,-3.9077064893019564,-9.685390663866945,-3.414903061550908,4.809196161292228,2.4764333417613322,-5.787734569363262,4.270569366702928,-2.286971274079413,-3.4646784986184063,-6.973598565577371,4.882768950110767,3.5720377486225914,-9.388332457904863,8.450607585607447,-7.354197314369479,-6.315974598366247,0.16002923811737446,-8.422596854922896,-0.9936710165860845,6.900688720181563,4.698941582250857,7.198947326352954,6.289951730770447,3.527663283087426,-2.5224794237809274,2.7115043352245642,1.0530413395213536,-1.2729976566577577,7.605981296960458,4.623520652265697,1.8387610974149187,-3.72468549871037,-6.328371687516329,6.27920747852788,-8.25005574928482,-5.086306215190485,5.254259527041274,-9.541913460939062,2.1979055401198266,-1.6990824330737002,4.710063437100931,-8.26723325444383,-9.436594458225407,5.206108979997941,-0.9548715489088035,-4.128920304731139,-9.561176571067431,6.460597486627325,-5.93432898294088,-0.16261513390563742,0.7668532711363092,8.016110271978203,-7.686344127345589,-7.393488108979609,-4.721160246691067,5.6726338813369015,-0.6908682766274623,-9.444461324822356,-3.5864814707146966,2.025876799732737,7.714250925054486,-7.270064463768684,8.490781875524199,-4.226571309844919,0.6410926787052791,3.9801673164063605,-3.7087316997713193,-3.033562614238619,3.042242077781518,-6.419907462225613,3.02433775516538,-5.360627469473497,-0.8652747794882067,-6.603251967950282,2.8789090271613738,0.19178933453115832,0.9046226368905472,8.437717917423498,-8.704578922746862,9.781292083723308,-9.063939104254718,-3.538636547941053,4.942276169398323,8.925369203920866,-0.4669757814944031,2.5840130399621977,3.0592296617360955,9.576212337241817,-0.5564684886446383,-1.6873149437939858,5.363904479428124,-4.792378213117421,0.10295260238452109],"split_indices":[5,5,6,5,12,8,4,10,10,4,0,0,11,0,13,10,14,0,0,9,4,8,0,3,15,4,2,12,3,10,0,0,0,0,7,9,0,5,10,8,13,12,5,0,0,0,8,0,0,0,0,1,0,13,11,0,4,0,0,7,0,9,0,4,0,0,16,8,0,0,0,0,6,0,0,0,16,13,0,8,16,0,11,7,11,0,7,15,4,2,0,12,10,0,0,16,0,4,13,0,0,0,12,0,0,0,0,0,13,0,9,0,0,14,16,5,0,5,0,0,0,0,0,0,0,0,0,15,0,9,0,0,0,0,0,0,0,6,0,0,0,0,0,0,0],"sum_hessian":[0.0,0.0,0.0,0.0,0.0,0.0,0.0,0.0,0.0,0.0,0.0,0.0,0.0,0.0,0.0,0.0,0.0,0.0,0.0,0.0,0.0,0.0,0.0,0.0,0.0,0.0,0.0,0.0,0.0,0.0,0.0,0.0,0.0,0.0,0.0,0.0,0.0,0.0,0.0,0.0,0.0,0.0,0.0,0.0,0.0,0.0,0.0,0.0,0.0,0.0,0.0,0.0,0.0,0.0,0.0,0.0,0.0,0.0,0.0,0.0,0.0,0.0,0.0,0.0,0.0,0.0,0.0,0.0,0.0,0.0,0.0,0.0,0.0,0.0,0.0,0.0,0.0,0.0,0.0,0.0,0.0,0.0,0.0,0.0,0.0,0.0,0.0,0.0,0.0,0.0,0.0,0.0,0.0,0.0,0.0,0.0,0.0,0.0,0.0,0.0,0.0,0.0,0.0,0.0,0.0,0.0,0.0,0.0,0.0,0.0,0.0,0.0,0.0,0.0,0.0,0.0,0.0,0.0,0.0,0.0,0.0,0.0,0.0,0.0,0.0,0.0,0.0,0.0,0.0,0.0,0.0,0.0,0.0,0.0,0.0,0.0,0.0,0.0,0.0,0.0,0.0,0.0,0.0,0.0,0.0],"tree_param":{"num_deleted":"0","num_feature":"17","num_nodes":"145","size_leaf_vector":"0"}},{"base_weights":[0.0,0.0,0.0,0.0,0.0,0.0,0.0,0.0,0.0,0.0,0.0,0.0,0.0,0.0,0.0,0.0,0.0,0.0,0.0,0.0,0.0,0.0,0.0,0.0,0.0,0.0,0.0,0.0,0.0,0.0,0.0,0.0,0.0,0.0,0.0,0.0,0.0,0.0,0.0,0.0,0.0,0.0,0.0,0.0,0.0,0.0,0.0,0.0,0.0,0.0,0.0,0.0,0.0,0.0,0.0,0.0,0.0,0.0,0.0,0.0,0.0,0.0,0.0,0.0,0.0,0.0,0.0,0.0,0.0,0.0,0.0,0.0,0.0,0.0,0.0,0.0,0.0,0.0,0.0,0.0,0.0,0.0,0.0,0.0,0.0,0.0,0.0,0.0,0.0,0.0,0.0,0.0,0.0,0.0,0.0,0.0,0.0,0.0,0.0,0.0,0.0,0.0,0.0,0.0,0.0,0.0,0.0,0.0,0.0,0.0,0.0,0.0,0.0,0.0,0.0,0.0,0.0,0.0,0.0,0.0,0.0],"categories":[],"categories_nodes":[],"categories_segments":[],"categories_sizes":[],"default_left":[false,false,false,false,false,false,false,false,false,false,false,false,false,false,false,false,false,false,false,false,false,false,false,false,false,false,false,false,false,false,false,false,false,false,false,false,false,false,false,false,false,false,false,false,false,false,false,false,false,false,false,false,false,false,false,false,false,false,false,false,false,false,false,false,false,false,false,false,false,false,false,false,false,false,false,false,false,false,false,false,false,false,false,false,false,false,false,false,false,false,false,false,false,false,false,false,false,false,false,false,false,false,false,false,false,false,false,false,false,false,false,false,false,false,false,false,false,false,false,false,false],"id":3,"left_children":[1,3,5,7,9,11,13,15,17,19,21,23,25,27,-1,29,-1,31,33,35,37,39,-1,41,43,45,-1,-1,-1,47,-1,49,51,-1,-1,53,-1,-1,55,57,59,61,-1,-1,63,-1,-1,65,-1,-1,67,-1,-1,-1,69,71,-1,73,75,77,79,81,-1,-1,83,85,-1,-1,87,89,91,-1,93,95,-1,97,-1,99,101,103,105,-1,-1,107,-1,-1,-1,-1,-1,-1,-1,-1,109,-1,-1,-1,111,-1,113,-1,115,-1,-1,-1,-1,-1,117,-1,-1,-1,-1,-1,-1,119,-1,-1,-1,-1,-1,-1,-1],"loss_changes":[0.0,0.0,0.0,0.0,0.0,0.0,0.0,0.0,0.0,0.0,0.0,0.0,0.0,0.0,0.0,0.0,0.0,0.0,0.0,0.0,0.0,0.0,0.0,0.0,0.0,0.0,0.0,0.0,0.0,0.0,0.0,0.0,0.0,0.0,0.0,0.0,0.0,0.0,0.0,0.0,0.0,0.0,0.0,0.0,0.0,0.0,0.0,0.0,0.0,0.0,0.0,0.0,0.0,0.0,0.0,0.0,0.0,0.0,0.0,0.0,0.0,0.0,0.0,0.0,0.0,0.0,0.0,0.0,0.0,0.0,0.0,0.0,0.0,0.0,0.0,0.0,0.0,0.0,0.0,0.0,0.0,0.0,0.0,0.0,0.0,0.0,0.0,0.0,0.0,0.0,0.0,0.0,0.0,0.0,0.0,0.0,0.0,0.0,0.0,0.0,0.0,0.0,0.0,0.0,0.0,0.0,0.0,0.0,0.0,0.0,0.0,0.0,0.0,0.0,0.0,0.0,0.0,0.0,0.0,0.0,0.0],"parents":[2147483647,0,0,1,1,2,2,3,3,4,4,5,5,6,6,7,7,8,8,9,9,10,10,11,11,12,12,13,13,15,15,17,17,18,18,19,19,20,20,21,21,23,23,24,24,25,25,29,29,31,31,32,32,35,35,38,38,39,39,40,40,41,41,44,44,47,47,50,50,54,54,55,55,57,57,58,58,59,59,60,60,61,61,64,64,65,65,68,68,69,69,70,70,72,72,73,73,75,75,77,77,78,78,79,79,80,80,83,83,92,92,96,96,98,98,100,100,106,106,113,113],"right_children":[2,4,6,8,10,12,14,16,18,20,22,24,26,28,-1,30,-1,32,34,36,38,40,-1,42,44,46,-1,-1,-1,48,-1,50,52,-1,-1,54,-1,-1,56,58,60,62,-1,-1,64,-1,-1,66,-1,-1,68,-1,-1,-1,70,72,-1,74,76,78,80,82,-1,-1,84,86,-1,-1,88,90,92,-1,94,96,-1,98,-1,100,102,104,106,-1,-1,108,-1,-1,-1,-1,-1,-1,-1,-1,110,-1,-1,-1,112,-1,114,-1,116,-1,-1,-1,-1,-1,118,-1,-1,-1,-1,-1,-1,120,-1,-1,-1,-1,-1,-1,-1],"split_conditions":[6.645224059173497,-8.001020092141102,6.319051892333906,-5.99671924457439,6.039129242194331,0.3149865914279246,-4.518263801465858,7.98907051062465,8.532224649172978,-4.5172489201920305,7.262481781493008,-2.185020653578671,9.628484456804397,8.543271714732374,-1.0434043129022843,-5.74510250193778,-2.2191913188894397,7.38970422255348,9.3315608667294,9.81154747770784,0.8804109076994351,-4.161767033744698,9.3014943810512,-5.749369653832737,2.628365439584572,5.54186975682442,1.0261261971587174,-4.204487857167919,6.216521959726538,9.428044541580459,1.435541733475107,7.058207238834072,-2.8880478628989597,3.316110109990415,-6.474146520025224,1.9280426574056246,-6.749630398117533,-2.391725111725065,7.776121974615183,1.6166389357761286,-6.977121738085415,-4.534751982125428,-1.804451116611924,-1.2992928680902622,-2.4389382429099875,4.84492071746226,-9.4462670463597,-1.840752841474293,-9.962032236006763,4.157898599690688,4.109352481457195,-6.988809063663155,-3.9947163412179183,-8.82936864489535,-1.7746046212332232,-8.843550188921924,-7.550868024872154,-4.735549508506587,5.222183474015116,4.7049136060384775,-0.1696033407795916,1.3818190253923177,5.697905689662573,1.2910239667497052,5.225682646883447,-9.54386326005417,-6.504245824404687,8.004593754921736,3.910589605512415,-2.8547322105368034,-4.357209411671903,-0.4242606640094966,-7.828280864809314,-1.8942096722554531,4.894767173281991,1.0792480626292527,-9.449089918408218,-2.001928496422005,4.469901265095707,6.412713614754402,-1.7680515826540244,-9.20147551084098,-4.309131689666894,-6.564611060772547,2.6173173533832212,8.352170291822226,9.54468496572957,0.1203785615918136,-8.888159945715199,7.932018822560913,6.0595245002028655,-5.41673386471439,7.681464784790375,8.030412112610396,-4.209456688577933,-0.8670030886109323,-3.8600929888070636,9.350168188426537,2.691696021017634,9.469341490681355,4.898745897363209,-9.683299156062521,5.219375281536946,2.880970122005504,-4.050631890747934,-1.2969831669226508,3.461205841213866,-0.7337476079392307,-9.268972097858743,-6.752466682194193,3.6288597535933604,4.2349135769633595,8.90921905263459,-8.715232437890224,4.295717142601966,-9.72011680447326,1.6981753036121532,2.2403303838483435,-2.6966801383313292,-8.30620622817533,6.646813248982603],"split_indices":[2,10,10,12,0,14,5,13,7,12,14,3,11,16,0,8,0,4,4,16,16,0,0,9,1,11,0,0,0,15,0,16,8,0,0,7,0,0,7,16,6,16,0,0,15,0,0,16,0,0,6,0,0,0,7,14,0,16,1,4,13,4,0,0,10,6,0,0,14,10,10,0,16,14,0,5,0,7,8,6,9,0,0,9,0,0,0,0,0,0,0,0,8,0,0,0,10,0,9,0,12,0,0,0,0,0,0,0,0,0,0,0,0,4,0,0,0,0,0,0,0],"sum_hessian":[0.0,0.0,0.0,0.0,0.0,0.0,0.0,0.0,0.0,0.0,0.0,0.0,0.0,0.0,0.0,0.0,0.0,0.0,0.0,0.0,0.0,0.0,0.0,0.0,0.0,0.0,0.0,0.0,0.0,0.0,0.0,0.0,0.0,0.0,0.0,0.0,0.0,0.0,0.0,0.0,0.0,0.0,0.0,0.0,0.0,0.0,0.0,0.0,0.0,0.0,0.0,0.0,0.0,0.0,0.0,0.0,0.0,0.0,0.0,0.0,0.0,0.0,0.0,0.0,0.0,0.0,0.0,0.0,0.0,0.0,0.0,0.0,0.0,0.0,0.0,0.0,0.0,0.0,0.0,0.0,0.0,0.0,0.0,0.0,0.0,0.0,0.0,0.0,0.0,0.0,0.0,0.0,0.0,0.0,0.0,0.0,0.0,0.0,0.0,0.0,0.0,0.0,0.0,0.0,0.0,0.0,0.0,0.0,0.0,0.0,0.0,0.0,0.0,0.0,0.0,0.0,0.0,0.0,0.0,0.0,0.0],"tree_param":{"num_deleted":"0","num_feature":"17","num_nodes":"121","size_leaf_vector":"0"}}]},"name":"gbtree"},"learner_model_param":{"base_score":"5E-1","num_class":"0","num_feature":"17"},"objective":{"name":"reg:squarederror","reg_loss_param":{"scale_pos_weight":"1"}}},"version":[1,4,0]}